{"learner":{"attributes":{"scikit_learn":"{\"_estimator_type\": \"classifier\"}"},"feature_names":[],"feature_types":[],"gradient_booster":{"model":{"cats":{"enc":[],"feature_segments":[],"sorted_idx":[]},"gbtree_model_param":{"num_parallel_tree":"1","num_trees":"385"},"iteration_indptr":[0,1,2,3,4,5,6,7,8,9,10,11,12,13,14,15,16,17,18,19,20,21,22,23,24,25,26,27,28,29,30,31,32,33,34,35,36,37,38,39,40,41,42,43,44,45,46,47,48,49,50,51,52,53,54,55,56,57,58,59,60,61,62,63,64,65,66,67,68,69,70,71,72,73,74,75,76,77,78,79,80,81,82,83,84,85,86,87,88,89,90,91,92,93,94,95,96,97,98,99,100,101,102,103,104,105,106,107,108,109,110,111,112,113,114,115,116,117,118,119,120,121,122,123,124,125,126,127,128,129,130,131,132,133,134,135,136,137,138,139,140,141,142,143,144,145,146,147,148,149,150,151,152,153,154,155,156,157,158,159,160,161,162,163,164,165,166,167,168,169,170,171,172,173,174,175,176,177,178,179,180,181,182,183,184,185,186,187,188,189,190,191,192,193,194,195,196,197,198,199,200,201,202,203,204,205,206,207,208,209,210,211,212,213,214,215,216,217,218,219,220,221,222,223,224,225,226,227,228,229,230,231,232,233,234,235,236,237,238,239,240,241,242,243,244,245,246,247,248,249,250,251,252,253,254,255,256,257,258,259,260,261,262,263,264,265,266,267,268,269,270,271,272,273,274,275,276,277,278,279,280,281,282,283,284,285,286,287,288,289,290,291,292,293,294,295,296,297,298,299,300,301,302,303,304,305,306,307,308,309,310,311,312,313,314,315,316,317,318,319,320,321,322,323,324,325,326,327,328,329,330,331,332,333,334,335,336,337,338,339,340,341,342,343,344,345,346,347,348,349,350,351,352,353,354,355,356,357,358,359,360,361,362,363,364,365,366,367,368,369,370,371,372,373,374,375,376,377,378,379,380,381,382,383,384,385],"tree_info":[0,0,0,0,0,0,0,0,0,0,0,0,0,0,0,0,0,0,0,0,0,0,0,0,0,0,0,0,0,0,0,0,0,0,0,0,0,0,0,0,0,0,0,0,0,0,0,0,0,0,0,0,0,0,0,0,0,0,0,0,0,0,0,0,0,0,0,0,0,0,0,0,0,0,0,0,0,0,0,0,0,0,0,0,0,0,0,0,0,0,0,0,0,0,0,0,0,0,0,0,0,0,0,0,0,0,0,0,0,0,0,0,0,0,0,0,0,0,0,0,0,0,0,0,0,0,0,0,0,0,0,0,0,0,0,0,0,0,0,0,0,0,0,0,0,0,0,0,0,0,0,0,0,0,0,0,0,0,0,0,0,0,0,0,0,0,0,0,0,0,0,0,0,0,0,0,0,0,0,0,0,0,0,0,0,0,0,0,0,0,0,0,0,0,0,0,0,0,0,0,0,0,0,0,0,0,0,0,0,0,0,0,0,0,0,0,0,0,0,0,0,0,0,0,0,0,0,0,0,0,0,0,0,0,0,0,0,0,0,0,0,0,0,0,0,0,0,0,0,0,0,0,0,0,0,0,0,0,0,0,0,0,0,0,0,0,0,0,0,0,0,0,0,0,0,0,0,0,0,0,0,0,0,0,0,0,0,0,0,0,0,0,0,0,0,0,0,0,0,0,0,0,0,0,0,0,0,0,0,0,0,0,0,0,0,0,0,0,0,0,0,0,0,0,0,0,0,0,0,0,0,0,0,0,0,0,0,0,0,0,0,0,0,0,0,0,0,0,0,0,0,0,0,0,0,0,0,0,0,0,0,0,0,0,0,0,0,0,0,0,0,0,0,0,0,0,0,0,0,0,0,0,0,0,0],"trees":[{"base_weights":[-1.4294364E-3,-3.255417E-1,8.5064304E-1,-4.4302115E-1,-6.1741903E-2,5.77972E-1,1.3786919E0,-3.0136555E-1,-6.674297E-1,3.7757084E-1,-3.0814987E-1,1.0572015E0,4.3957064E-1,1.2095709E0,1.6199677E0,-4.624238E-1,4.9677983E-2,-7.444092E-1,-2.2407643E-1,6.4299613E-1,2.3292203E-1,-4.922989E-1,-1.715913E-1,8.93658E-1,1.259594E0,2.8993273E-1,7.7224165E-1,1.0630691E0,1.4894395E0,1.55581E0,1.7647072E0,-2.3067448E-2,-1.101803E-2,-9.899168E-3,1.1281052E-2,-3.347271E-2,-2.3612421E-2,-2.237602E-2,-5.4974626E-3,1.3358303E-2,3.2998577E-2,1.6596824E-3,1.3801971E-2,-8.6845355E-3,-2.2399228E-2,-6.8377936E-4,-1.4002181E-2,4.6488214E-2,2.8742589E-2,2.3823645E-2,5.0891712E-2,5.2838195E-3,1.6607018E-2,3.431316E-2,2.0274542E-2,3.5033092E-2,4.4233304E-2,5.4833464E-2,6.4942E-2,5.8128115E-2,6.620035E-2,2.7902018E-2,6.793753E-2],"categories":[],"categories_nodes":[],"categories_segments":[],"categories_sizes":[],"default_left":[0,0,0,0,0,0,0,0,0,0,0,0,0,0,0,0,0,0,0,0,0,0,0,0,0,0,0,0,0,0,0,0,0,0,0,0,0,0,0,0,0,0,0,0,0,0,0,0,0,0,0,0,0,0,0,0,0,0,0,0,0,0,0],"id":0,"left_children":[1,3,5,7,9,11,13,15,17,19,21,23,25,27,29,31,33,35,37,39,41,43,45,47,49,51,53,55,57,59,61,-1,-1,-1,-1,-1,-1,-1,-1,-1,-1,-1,-1,-1,-1,-1,-1,-1,-1,-1,-1,-1,-1,-1,-1,-1,-1,-1,-1,-1,-1,-1,-1],"loss_changes":[8.893131E3,7.2294214E2,1.2768643E3,5.128777E2,7.783341E2,3.8778198E2,1.2131348E2,5.595443E2,2.1296777E2,9.9050446E1,1.1575043E2,4.226819E1,2.2595844E2,7.1400635E1,8.788086E0,1.649054E2,2.3420699E2,8.7338135E1,2.6763851E1,5.8013214E1,4.0258423E1,4.7621918E1,7.869705E1,3.2566833E1,2.4141663E1,6.816672E1,4.1498108E1,1.4746704E1,5.025879E0,3.3742676E0,1.1280518E0,0E0,0E0,0E0,0E0,0E0,0E0,0E0,0E0,0E0,0E0,0E0,0E0,0E0,0E0,0E0,0E0,0E0,0E0,0E0,0E0,0E0,0E0,0E0,0E0,0E0,0E0,0E0,0E0,0E0,0E0,0E0,0E0],"parents":[2147483647,0,0,1,1,2,2,3,3,4,4,5,5,6,6,7,7,8,8,9,9,10,10,11,11,12,12,13,13,14,14,15,15,16,16,17,17,18,18,19,19,20,20,21,21,22,22,23,23,24,24,25,25,26,26,27,27,28,28,29,29,30,30],"right_children":[2,4,6,8,10,12,14,16,18,20,22,24,26,28,30,32,34,36,38,40,42,44,46,48,50,52,54,56,58,60,62,-1,-1,-1,-1,-1,-1,-1,-1,-1,-1,-1,-1,-1,-1,-1,-1,-1,-1,-1,-1,-1,-1,-1,-1,-1,-1,-1,-1,-1,-1,-1,-1],"split_conditions":[-4.267359E0,-5.7182174E0,-2.160602E0,-5.122633E-2,1.48768015E-2,1.6658254E-2,-5.3488225E-1,-6.823933E0,-2.8429118E-1,-1.0259947E-1,-5.086151E0,-3.4090903E0,-3.0264153E0,2.4330975E-1,2.4757433E-1,2.0671634E2,2.0671634E2,2.2E2,2.9907524E1,2.170527E2,-5.2299457E0,6.8068065E-2,1.329114E-1,-8.39957E-2,2.372297E-1,-3.720542E0,1.570248E-1,-1.6915169E0,-1.0092297E0,2.4321098E0,-4.9542448E-1,-2.3067448E-2,-1.101803E-2,-9.899168E-3,1.1281052E-2,-3.347271E-2,-2.3612421E-2,-2.237602E-2,-5.4974626E-3,1.3358303E-2,3.2998577E-2,1.6596824E-3,1.3801971E-2,-8.6845355E-3,-2.2399228E-2,-6.8377936E-4,-1.4002181E-2,4.6488214E-2,2.8742589E-2,2.3823645E-2,5.0891712E-2,5.2838195E-3,1.6607018E-2,3.431316E-2,2.0274542E-2,3.5033092E-2,4.4233304E-2,5.4833464E-2,6.4942E-2,5.8128115E-2,6.620035E-2,2.7902018E-2,6.793753E-2],"split_indices":[8,8,8,7,7,7,8,8,6,7,8,8,8,5,5,2,2,0,2,2,8,7,7,7,5,8,7,8,8,8,6,0,0,0,0,0,0,0,0,0,0,0,0,0,0,0,0,0,0,0,0,0,0,0,0,0,0,0,0,0,0,0,0],"split_type":[0,0,0,0,0,0,0,0,0,0,0,0,0,0,0,0,0,0,0,0,0,0,0,0,0,0,0,0,0,0,0,0,0,0,0,0,0,0,0,0,0,0,0,0,0,0,0,0,0,0,0,0,0,0,0,0,0,0,0,0,0,0,0],"sum_hessian":[3.2199986E4,2.3327328E4,8.872657E3,1.6139262E4,7.188067E3,5.852612E3,3.0200454E3,9.895298E3,6.243963E3,2.58278E3,4.6052866E3,1.3099906E3,4.542621E3,1.7790459E3,1.2409996E3,6.7829663E3,3.112332E3,5.3196353E3,9.2432794E2,9.098301E2,1.67295E3,1.9598402E3,2.6454465E3,7.27527E2,5.824636E2,3.134549E3,1.408072E3,1.1709115E3,6.0813446E2,8.679975E2,3.7300214E2,3.7824905E3,3.0004758E3,1.3776276E3,1.7347043E3,2.6649363E3,2.6546987E3,1.6855202E2,7.557759E2,3.870644E2,5.227657E2,6.7103723E2,1.0019127E3,5.0295694E2,1.4568833E3,1.4743516E3,1.1710948E3,2.2483478E2,5.026922E2,5.628845E1,5.261752E2,1.5191909E3,1.6153583E3,9.3608575E2,4.7198633E2,4.4342862E2,7.2748285E2,4.7564917E2,1.3248524E2,7.0861743E2,1.5938004E2,2.9287324E0,3.700734E2],"tree_param":{"num_deleted":"0","num_feature":"10","num_nodes":"63","size_leaf_vector":"1"}},{"base_weights":[1.6865424E-3,-2.7657565E-1,9.3345696E-1,-4.0524787E-1,3.4623496E-2,6.449232E-1,1.3439327E0,-2.5965327E-1,-6.124765E-1,3.7977928E-1,-2.402408E-1,9.43912E-1,4.4527388E-1,1.191551E0,1.5599763E0,-4.1257527E-1,1.0062221E-1,-6.821124E-1,-2.4694589E-1,7.1007204E-1,2.2688736E-1,-4.316439E-1,-8.253256E-2,8.123091E-1,1.2041038E0,2.7379984E-1,6.862342E-1,1.0375375E0,1.4076573E0,1.4457326E0,1.6343596E0,-2.1292116E-2,-8.83037E-3,-7.917483E-3,1.2805681E-2,-3.0645939E-2,-2.1695802E-2,1.2121863E-2,-1.0695337E-2,1.8043404E-2,3.4419633E-2,2.0516429E-3,1.6146453E-2,2.1323968E-2,-1.7842816E-2,-6.7424616E-3,3.3911956E-3,2.0949066E-2,3.6034554E-2,5.3980503E-2,4.3200944E-2,5.556997E-3,1.48458155E-2,3.1388525E-2,2.0195335E-2,3.0283598E-2,4.1822325E-2,4.748936E-2,5.6143224E-2,5.178334E-2,6.081234E-2,6.0393926E-2,6.5766074E-2],"categories":[],"categories_nodes":[],"categories_segments":[],"categories_sizes":[],"default_left":[0,0,0,0,0,0,0,0,0,0,0,0,0,0,0,0,0,0,0,0,0,0,0,0,0,0,0,0,0,0,0,0,0,0,0,0,0,0,0,0,0,0,0,0,0,0,0,0,0,0,0,0,0,0,0,0,0,0,0,0,0,0,0],"id":1,"left_children":[1,3,5,7,9,11,13,15,17,19,21,23,25,27,29,31,33,35,37,39,41,43,45,47,49,51,53,55,57,59,61,-1,-1,-1,-1,-1,-1,-1,-1,-1,-1,-1,-1,-1,-1,-1,-1,-1,-1,-1,-1,-1,-1,-1,-1,-1,-1,-1,-1,-1,-1,-1,-1],"loss_changes":[8.34949E3,9.9297473E2,8.7620996E2,5.2916113E2,6.8835736E2,2.5928052E2,9.874463E1,5.6783936E2,1.8408887E2,1.6227081E2,1.2189183E2,5.8638794E1,1.07676575E2,5.832251E1,8.350342E0,1.8785486E2,2.1997552E2,8.2281494E1,2.08852E1,4.5220764E1,7.399612E1,6.0553467E1,3.5323624E1,3.8686584E1,7.640686E0,2.2228432E1,2.244519E1,1.2890259E1,5.2456055E0,4.624634E0,9.321289E-1,0E0,0E0,0E0,0E0,0E0,0E0,0E0,0E0,0E0,0E0,0E0,0E0,0E0,0E0,0E0,0E0,0E0,0E0,0E0,0E0,0E0,0E0,0E0,0E0,0E0,0E0,0E0,0E0,0E0,0E0,0E0,0E0],"parents":[2147483647,0,0,1,1,2,2,3,3,4,4,5,5,6,6,7,7,8,8,9,9,10,10,11,11,12,12,13,13,14,14,15,15,16,16,17,17,18,18,19,19,20,20,21,21,22,22,23,23,24,24,25,25,26,26,27,27,28,28,29,29,30,30],"right_children":[2,4,6,8,10,12,14,16,18,20,22,24,26,28,30,32,34,36,38,40,42,44,46,48,50,52,54,56,58,60,62,-1,-1,-1,-1,-1,-1,-1,-1,-1,-1,-1,-1,-1,-1,-1,-1,-1,-1,-1,-1,-1,-1,-1,-1,-1,-1,-1,-1,-1,-1,-1,-1],"split_conditions":[-3.8784008E0,-5.4585013E0,-2.160602E0,-5.122633E-2,5.9596434E-2,8.1268586E-2,-5.3488225E-1,-6.7078266E0,-2.9276773E-1,-7.201646E-2,-4.759575E0,3.9434275E-1,-3.0264153E0,2.185909E-1,1.6508728E-1,2.1386188E2,2.0671634E2,-6.4118814E0,2.2783897E0,2.170527E2,-4.7320004E0,9.0427294E-2,2.1462639E-1,-3.456935E0,-1.14016734E-1,-3.8538206E-1,1.5543644E-1,-1.9489522E0,2.5614145E-1,1.230884E0,2.7180162E-1,-2.1292116E-2,-8.83037E-3,-7.917483E-3,1.2805681E-2,-3.0645939E-2,-2.1695802E-2,1.2121863E-2,-1.0695337E-2,1.8043404E-2,3.4419633E-2,2.0516429E-3,1.6146453E-2,2.1323968E-2,-1.7842816E-2,-6.7424616E-3,3.3911956E-3,2.0949066E-2,3.6034554E-2,5.3980503E-2,4.3200944E-2,5.556997E-3,1.48458155E-2,3.1388525E-2,2.0195335E-2,3.0283598E-2,4.1822325E-2,4.748936E-2,5.6143224E-2,5.178334E-2,6.081234E-2,6.0393926E-2,6.5766074E-2],"split_indices":[8,8,8,7,7,7,8,8,6,7,8,5,8,5,5,2,2,8,3,2,8,5,5,8,7,6,7,8,5,8,5,0,0,0,0,0,0,0,0,0,0,0,0,0,0,0,0,0,0,0,0,0,0,0,0,0,0,0,0,0,0,0,0],"split_type":[0,0,0,0,0,0,0,0,0,0,0,0,0,0,0,0,0,0,0,0,0,0,0,0,0,0,0,0,0,0,0,0,0,0,0,0,0,0,0,0,0,0,0,0,0,0,0,0,0,0,0,0,0,0,0,0,0,0,0,0,0,0,0],"sum_hessian":[3.2201037E4,2.4796547E4,7.4044917E3,1.7542787E4,7.2537583E3,4.3496113E3,3.0548806E3,1.0304976E4,7.2378125E3,3.2155317E3,4.0382263E3,1.7400446E3,2.609567E3,1.7951938E3,1.2596866E3,7.234209E3,3.0707668E3,6.078881E3,1.1589313E3,1.0163228E3,2.199209E3,1.8234515E3,2.214775E3,1.1583049E3,5.817395E2,1.5258594E3,1.0837075E3,1.0515687E3,7.436252E2,5.048044E2,7.548822E2,4.060738E3,3.1734707E3,1.3256062E3,1.7451606E3,3.0342644E3,3.0446165E3,6.1583523E1,1.0973478E3,4.4710477E2,5.69218E2,1.1619216E3,1.0372872E3,5.9260075E1,1.7641915E3,1.4331328E3,7.81642E2,3.758223E2,7.8248267E2,1.5671306E2,4.2502646E2,7.1434576E2,8.115136E2,5.912738E2,4.9243372E2,1.8686908E2,8.6469965E2,1.8979129E2,5.538339E2,3.0546353E2,1.993409E2,4.4290884E2,3.1197336E2],"tree_param":{"num_deleted":"0","num_feature":"10","num_nodes":"63","size_leaf_vector":"1"}},{"base_weights":[-2.3709862E-3,-2.6472208E-1,9.018206E-1,-3.372485E-1,4.237424E-1,6.2236434E-1,1.2900147E0,-4.796446E-1,1.0397383E-2,1.2993283E-2,8.007329E-1,1.0387546E0,4.828573E-1,1.1393951E0,1.5049505E0,-5.644874E-1,-2.9486528E-1,3.4922534E-1,-2.3554066E-1,-1.9663826E-1,2.7992362E-1,9.268507E-1,9.654553E-2,5.693443E-1,1.1151811E0,3.2378635E-1,6.973251E-1,1.0104818E0,1.4248791E0,1.3988001E0,1.5753752E0,-2.6615888E-2,-1.8236415E-2,-1.9116143E-2,-3.9452836E-3,2.3048764E-2,7.8765E-3,-1.7504953E-2,-3.22977E-3,-1.2848435E-2,1.6241562E-2,-5.746638E-3,1.9200439E-2,2.7029125E-2,5.203657E-2,1.071841E-2,-1.9926844E-2,1.7754804E-2,5.373368E-2,3.6018245E-2,4.7813542E-2,2.0057745E-2,8.323917E-3,3.1129899E-2,2.0438703E-2,3.288151E-2,4.216352E-2,5.5146974E-2,2.8099727E-2,5.4089874E-2,8.131579E-3,5.8198664E-2,6.3520126E-2],"categories":[],"categories_nodes":[],"categories_segments":[],"categories_sizes":[],"default_left":[0,0,0,0,0,0,0,0,0,0,0,0,0,0,0,0,0,0,0,0,0,0,0,0,0,0,0,0,0,0,0,0,0,0,0,0,0,0,0,0,0,0,0,0,0,0,0,0,0,0,0,0,0,0,0,0,0,0,0,0,0,0,0],"id":2,"left_children":[1,3,5,7,9,11,13,15,17,19,21,23,25,27,29,31,33,35,37,39,41,43,45,47,49,51,53,55,57,59,61,-1,-1,-1,-1,-1,-1,-1,-1,-1,-1,-1,-1,-1,-1,-1,-1,-1,-1,-1,-1,-1,-1,-1,-1,-1,-1,-1,-1,-1,-1,-1,-1],"loss_changes":[7.6366514E3,1.2460833E3,7.846216E2,1.1175557E3,3.6830862E2,2.4414417E2,9.636133E1,2.5090942E2,5.468044E2,6.380898E1,1.1005682E2,3.7251465E1,1.07459656E2,6.426709E1,7.104492E0,1.26140625E2,1.9690076E2,9.979495E1,1.26999985E2,5.490616E1,4.761871E1,9.947424E1,2.148921E1,1.2627739E1,1.9808105E1,3.8457428E1,2.4797485E1,1.5816528E1,3.7877197E0,6.400696E0,9.602051E-1,0E0,0E0,0E0,0E0,0E0,0E0,0E0,0E0,0E0,0E0,0E0,0E0,0E0,0E0,0E0,0E0,0E0,0E0,0E0,0E0,0E0,0E0,0E0,0E0,0E0,0E0,0E0,0E0,0E0,0E0,0E0,0E0],"parents":[2147483647,0,0,1,1,2,2,3,3,4,4,5,5,6,6,7,7,8,8,9,9,10,10,11,11,12,12,13,13,14,14,15,15,16,16,17,17,18,18,19,19,20,20,21,21,22,22,23,23,24,24,25,25,26,26,27,27,28,28,29,29,30,30],"right_children":[2,4,6,8,10,12,14,16,18,20,22,24,26,28,30,32,34,36,38,40,42,44,46,48,50,52,54,56,58,60,62,-1,-1,-1,-1,-1,-1,-1,-1,-1,-1,-1,-1,-1,-1,-1,-1,-1,-1,-1,-1,-1,-1,-1,-1,-1,-1,-1,-1,-1,-1,-1,-1],"split_conditions":[-3.838424E0,8.520719E0,-2.160602E0,-5.372339E0,2.1386188E2,3.1490553E-2,-5.3488225E-1,4.1625443E0,5.9596434E-2,1.1640713E1,3.2613388E2,2.5390178E-1,-3.0264153E0,2.5614145E-1,1.6508728E-1,-7.1180973E0,1.9854892E2,-5.122633E-2,-4.759575E0,-5.436563E0,5.3315536E1,1.20215435E1,-5.122633E-2,9.33381E2,-3.3095734E0,1.08199686E-1,1.4769733E-1,-1.6915169E0,9.975871E0,1.0527901E1,2.7180162E-1,-2.6615888E-2,-1.8236415E-2,-1.9116143E-2,-3.9452836E-3,2.3048764E-2,7.8765E-3,-1.7504953E-2,-3.22977E-3,-1.2848435E-2,1.6241562E-2,-5.746638E-3,1.9200439E-2,2.7029125E-2,5.203657E-2,1.071841E-2,-1.9926844E-2,1.7754804E-2,5.373368E-2,3.6018245E-2,4.7813542E-2,2.0057745E-2,8.323917E-3,3.1129899E-2,2.0438703E-2,3.288151E-2,4.216352E-2,5.5146974E-2,2.8099727E-2,5.4089874E-2,8.131579E-3,5.8198664E-2,6.3520126E-2],"split_indices":[8,1,8,8,2,7,8,1,7,1,2,5,8,5,5,8,2,7,8,8,2,1,7,9,8,7,7,8,1,3,5,0,0,0,0,0,0,0,0,0,0,0,0,0,0,0,0,0,0,0,0,0,0,0,0,0,0,0,0,0,0,0,0],"split_type":[0,0,0,0,0,0,0,0,0,0,0,0,0,0,0,0,0,0,0,0,0,0,0,0,0,0,0,0,0,0,0,0,0,0,0,0,0,0,0,0,0,0,0,0,0,0,0,0,0,0,0,0,0,0,0,0,0,0,0,0,0,0,0],"sum_hessian":[3.219086E4,2.4951805E4,7.2390557E3,2.2574227E4,2.3775764E3,4.210541E3,3.028515E3,1.6014354E4,6.559874E3,1.1383376E3,1.2392388E3,1.0550526E3,3.1554883E3,1.7843822E3,1.2441327E3,1.097366E4,5.040694E3,2.7587434E3,3.8011306E3,6.377496E2,5.0058807E2,1.0507385E3,1.8850018E2,1.4890865E2,9.061439E2,1.8131691E3,1.3423192E3,1.2324131E3,5.5196906E2,5.0452695E2,7.396057E2,4.4743813E3,6.4992783E3,2.4468284E3,2.5938652E3,1.0026566E3,1.7560868E3,1.5452195E3,2.2559111E3,5.218246E2,1.15924995E2,1.6990457E2,3.306835E2,6.941905E2,3.5654813E2,1.4577396E2,4.2726234E1,1.3337468E2,1.5533971E1,3.9007993E2,5.1606396E2,6.317817E2,1.1813873E3,7.9023016E2,5.5208905E2,4.5519345E2,7.7721967E2,5.410143E2,1.0954775E1,4.996381E2,4.888828E0,4.4025287E2,2.9935284E2],"tree_param":{"num_deleted":"0","num_feature":"10","num_nodes":"63","size_leaf_vector":"1"}},{"base_weights":[2.4602443E-3,-2.8561905E-1,7.609025E-1,-3.585803E-1,3.8151735E-1,5.1137275E-1,1.2450229E0,-4.7899762E-1,-1.04937546E-1,-2.5708089E-2,7.561378E-1,9.529189E-1,3.8261917E-1,1.089618E0,1.4656775E0,-5.628185E-1,-3.023214E-1,1.969853E-1,-3.7158242E-1,-2.2955719E-1,2.3463222E-1,2.1487693E-1,9.016342E-1,8.146114E-1,1.1156797E0,1.366348E-1,5.6767875E-1,1.2427104E0,9.0680444E-1,6.1631795E-2,1.4295182E0,-2.3508355E-2,-5.135376E-3,-1.8814117E-2,-4.7177686E-3,1.4764116E-2,2.4396337E-3,-1.8742003E-2,-8.53912E-3,-1.3331506E-2,1.53022E-2,-6.9564087E-3,1.716261E-2,1.6331708E-2,-6.547702E-3,2.83297E-2,5.6050166E-2,4.1493576E-2,2.6733756E-2,4.556699E-2,2.9234342E-2,1.1126783E-2,-3.8909988E-4,2.8536575E-2,1.7731676E-2,5.7650045E-2,4.6058647E-2,2.5094384E-2,3.6952432E-2,5.513E-2,1.886558E-2],"categories":[],"categories_nodes":[],"categories_segments":[],"categories_sizes":[],"default_left":[0,0,0,0,0,0,0,0,0,0,0,0,0,0,0,0,0,0,0,0,0,0,0,0,0,0,0,0,0,0,0,0,0,0,0,0,0,0,0,0,0,0,0,0,0,0,0,0,0,0,0,0,0,0,0,0,0,0,0,0,0],"id":3,"left_children":[1,3,5,7,9,11,13,15,17,19,21,23,25,27,29,31,33,35,37,39,41,43,45,47,49,51,53,55,57,-1,59,-1,-1,-1,-1,-1,-1,-1,-1,-1,-1,-1,-1,-1,-1,-1,-1,-1,-1,-1,-1,-1,-1,-1,-1,-1,-1,-1,-1,-1,-1],"loss_changes":[7.031859E3,1.1354532E3,1.0695879E3,6.4213086E2,3.5087732E2,3.320846E2,1.0170557E2,2.1095972E2,5.4508417E2,5.8587612E1,9.4144714E1,2.8795654E1,2.0610028E2,4.8453125E1,4.0305176E0,2.0717896E2,1.5477295E2,7.955599E1,6.2546875E1,4.6031357E1,4.2988747E1,2.0810734E1,8.507062E1,2.178891E1,1.4485657E1,4.381718E1,4.7678223E1,8.720703E0,1.0936035E1,0E0,6.3657227E0,0E0,0E0,0E0,0E0,0E0,0E0,0E0,0E0,0E0,0E0,0E0,0E0,0E0,0E0,0E0,0E0,0E0,0E0,0E0,0E0,0E0,0E0,0E0,0E0,0E0,0E0,0E0,0E0,0E0,0E0],"parents":[2147483647,0,0,1,1,2,2,3,3,4,4,5,5,6,6,7,7,8,8,9,9,10,10,11,11,12,12,13,13,14,14,15,15,16,16,17,17,18,18,19,19,20,20,21,21,22,22,23,23,24,24,25,25,26,26,27,27,28,28,30,30],"right_children":[2,4,6,8,10,12,14,16,18,20,22,24,26,28,30,32,34,36,38,40,42,44,46,48,50,52,54,56,58,-1,60,-1,-1,-1,-1,-1,-1,-1,-1,-1,-1,-1,-1,-1,-1,-1,-1,-1,-1,-1,-1,-1,-1,-1,-1,-1,-1,-1,-1,-1,-1],"split_conditions":[-4.267359E0,8.520719E0,-2.160602E0,-5.7182174E0,2.1386188E2,1.6658254E-2,-5.3488225E-1,4.1625443E0,5.9596434E-2,1.1640713E1,-7.749233E0,-3.456935E0,-3.5464265E0,1.23774186E-1,2.2222223E-2,-2.8429118E-1,1.9854892E2,-4.9097776E-2,-4.890216E0,-5.436563E0,5.3315536E1,3.2613138E2,1.3200114E1,-8.39957E-2,-2.6775244E-1,1.2694238E-1,1.08199686E-1,-4.7476634E-2,-1.9489522E0,6.1631795E-2,-1.807154E-1,-2.3508355E-2,-5.135376E-3,-1.8814117E-2,-4.7177686E-3,1.4764116E-2,2.4396337E-3,-1.8742003E-2,-8.53912E-3,-1.3331506E-2,1.53022E-2,-6.9564087E-3,1.716261E-2,1.6331708E-2,-6.547702E-3,2.83297E-2,5.6050166E-2,4.1493576E-2,2.6733756E-2,4.556699E-2,2.9234342E-2,1.1126783E-2,-3.8909988E-4,2.8536575E-2,1.7731676E-2,5.7650045E-2,4.6058647E-2,2.5094384E-2,3.6952432E-2,5.513E-2,1.886558E-2],"split_indices":[8,1,8,8,2,7,8,1,7,1,8,8,8,7,7,6,2,7,8,8,2,2,1,7,6,7,7,7,8,0,6,0,0,0,0,0,0,0,0,0,0,0,0,0,0,0,0,0,0,0,0,0,0,0,0,0,0,0,0,0,0],"split_type":[0,0,0,0,0,0,0,0,0,0,0,0,0,0,0,0,0,0,0,0,0,0,0,0,0,0,0,0,0,0,0,0,0,0,0,0,0,0,0,0,0,0,0,0,0,0,0,0,0,0,0,0,0,0,0,0,0,0,0,0,0],"sum_hessian":[3.2181676E4,2.3323377E4,8.8583E3,2.1024498E4,2.298878E3,5.846764E3,3.011536E3,1.4255695E4,6.768803E3,1.1019507E3,1.1969272E3,1.3185482E3,4.528216E3,1.7705162E3,1.2410195E3,9.667117E3,4.5885776E3,3.1745317E3,3.5942712E3,6.180946E2,4.8385608E2,2.5410577E2,9.4282153E2,7.16068E2,6.024802E2,1.9448397E3,2.5833762E3,9.604311E2,8.100852E2,2.4459433E2,9.9642523E2,8.657972E3,1.00914526E3,2.2387134E3,2.3498643E3,1.3173073E3,1.8572245E3,2.0122572E3,1.582014E3,5.207907E2,9.73039E1,1.6377983E2,3.2007626E2,1.6420522E2,8.990056E1,7.317292E2,2.1109233E2,2.1662552E2,4.9944244E2,4.9846265E2,1.0401757E2,9.5046313E2,9.943766E2,9.6508344E2,1.6182927E3,1.2896858E2,8.3146246E2,1.5020972E2,6.598755E2,9.879269E2,8.498347E0],"tree_param":{"num_deleted":"0","num_feature":"10","num_nodes":"61","size_leaf_vector":"1"}},{"base_weights":[1.7147447E-3,-2.450668E-1,8.3134484E-1,-3.192285E-1,3.369884E-1,5.743262E-1,1.2023056E0,-4.5868313E-1,-6.219684E-3,-3.8477078E-2,6.8782985E-1,9.620698E-1,4.44974E-1,1.0620592E0,1.4037112E0,-4.9603912E-1,-1.115352E-1,2.9371607E-1,-2.3111996E-1,-2.1784168E-1,2.672834E-1,8.1540555E-1,9.01497E-2,4.990044E-1,1.0243465E0,2.9720494E-1,6.559207E-1,9.226007E-1,1.2638403E0,1.2975646E0,1.4732709E0,-2.394128E-2,-1.4241608E-2,1.1159198E-2,-7.893596E-3,2.0023296E-2,6.6493256E-3,-1.590939E-2,-3.4748274E-3,-1.1926324E-2,1.1542834E-2,-1.3514703E-2,1.5177698E-2,2.5540289E-2,5.388822E-2,-1.621664E-2,1.0328821E-2,2.3418274E-2,-1.30888205E-2,3.3593457E-2,4.5383587E-2,1.7417317E-2,8.197172E-3,2.9053314E-2,1.8415049E-2,2.9029332E-2,3.910206E-2,5.6468893E-2,4.6700668E-2,4.5979157E-2,5.5519693E-2,2.9131802E-2,5.6685414E-2],"categories":[],"categories_nodes":[],"categories_segments":[],"categories_sizes":[],"default_left":[0,0,0,0,0,0,0,0,0,0,0,0,0,0,0,0,0,0,0,0,0,0,0,0,0,0,0,0,0,0,0,0,0,0,0,0,0,0,0,0,0,0,0,0,0,0,0,0,0,0,0,0,0,0,0,0,0,0,0,0,0,0,0],"id":4,"left_children":[1,3,5,7,9,11,13,15,17,19,21,23,25,27,29,31,33,35,37,39,41,43,45,47,49,51,53,55,57,59,61,-1,-1,-1,-1,-1,-1,-1,-1,-1,-1,-1,-1,-1,-1,-1,-1,-1,-1,-1,-1,-1,-1,-1,-1,-1,-1,-1,-1,-1,-1,-1,-1],"loss_changes":[6.5867456E3,1.070452E3,7.025449E2,9.60053E2,3.6923215E2,2.1819678E2,8.3751465E1,1.9725684E2,4.5740826E2,7.436013E1,1.1040808E2,3.0909119E1,1.0174823E2,4.9011963E1,7.212158E0,2.1927734E2,5.616217E1,7.9748184E1,9.994997E1,4.1333195E1,4.001063E1,1.0435431E2,2.3627853E1,1.2484379E1,2.159552E1,2.5117798E1,2.3653564E1,1.6198364E1,5.2333984E0,5.6399536E0,1.175415E0,0E0,0E0,0E0,0E0,0E0,0E0,0E0,0E0,0E0,0E0,0E0,0E0,0E0,0E0,0E0,0E0,0E0,0E0,0E0,0E0,0E0,0E0,0E0,0E0,0E0,0E0,0E0,0E0,0E0,0E0,0E0,0E0],"parents":[2147483647,0,0,1,1,2,2,3,3,4,4,5,5,6,6,7,7,8,8,9,9,10,10,11,11,12,12,13,13,14,14,15,15,16,16,17,17,18,18,19,19,20,20,21,21,22,22,23,23,24,24,25,25,26,26,27,27,28,28,29,29,30,30],"right_children":[2,4,6,8,10,12,14,16,18,20,22,24,26,28,30,32,34,36,38,40,42,44,46,48,50,52,54,56,58,60,62,-1,-1,-1,-1,-1,-1,-1,-1,-1,-1,-1,-1,-1,-1,-1,-1,-1,-1,-1,-1,-1,-1,-1,-1,-1,-1,-1,-1,-1,-1,-1,-1],"split_conditions":[-3.8784008E0,7.944881E0,-2.160602E0,-5.4585013E0,2.1386188E2,3.1490553E-2,-5.3488225E-1,-2.8429118E-1,5.9596434E-2,1.1640713E1,3.211567E2,2.4127363E-1,-3.0264153E0,2.185909E-1,1.6508728E-1,-6.9016447E0,-1.0834156E-1,-5.6763925E-2,-4.7843018E0,-5.32444E0,3.1134466E1,1.3200114E1,-8.44149E0,2.2406219E-1,-3.2020612E0,1.08199686E-1,1.5543644E-1,-1.6915169E0,-4.7476634E-2,1.230884E0,-4.9542448E-1,-2.394128E-2,-1.4241608E-2,1.1159198E-2,-7.893596E-3,2.0023296E-2,6.6493256E-3,-1.590939E-2,-3.4748274E-3,-1.1926324E-2,1.1542834E-2,-1.3514703E-2,1.5177698E-2,2.5540289E-2,5.388822E-2,-1.621664E-2,1.0328821E-2,2.3418274E-2,-1.30888205E-2,3.3593457E-2,4.5383587E-2,1.7417317E-2,8.197172E-3,2.9053314E-2,1.8415049E-2,2.9029332E-2,3.910206E-2,5.6468893E-2,4.6700668E-2,4.5979157E-2,5.5519693E-2,2.9131802E-2,5.6685414E-2],"split_indices":[8,1,8,8,2,7,8,6,7,1,2,5,8,5,5,8,7,7,8,8,2,1,8,5,8,7,7,8,7,8,6,0,0,0,0,0,0,0,0,0,0,0,0,0,0,0,0,0,0,0,0,0,0,0,0,0,0,0,0,0,0,0,0],"split_type":[0,0,0,0,0,0,0,0,0,0,0,0,0,0,0,0,0,0,0,0,0,0,0,0,0,0,0,0,0,0,0,0,0,0,0,0,0,0,0,0,0,0,0,0,0,0,0,0,0,0,0,0,0,0,0,0,0,0,0,0,0,0,0],"sum_hessian":[3.2169684E4,2.4794902E4,7.374781E3,2.1993133E4,2.80177E3,4.3579443E3,3.0168362E3,1.5214264E4,6.7788687E3,1.3538208E3,1.4479492E3,1.0885352E3,3.2694092E3,1.782139E3,1.2346973E3,1.3735754E4,1.4785098E3,2.9047178E3,3.874151E3,8.534558E2,5.0036502E2,1.1929484E3,2.5500087E2,1.3010893E2,9.584262E2,1.9240278E3,1.3453813E3,1.0571062E3,7.250328E2,4.9657968E2,7.3811755E2,6.777919E3,6.957835E3,2.801168E2,1.198393E3,1.0019197E3,1.9027981E3,1.6789519E3,2.1951987E3,7.2399554E2,1.2946028E2,8.557048E1,4.1479453E2,9.530633E2,2.39885E2,6.5646805E1,1.8935406E2,1.151138E2,1.4995133E1,4.981867E2,4.602395E2,6.6713324E2,1.2568947E3,8.512625E2,4.9411884E2,3.9247525E2,6.646309E2,1.267752E2,5.9825757E2,3.042808E2,1.9229889E2,5.5375953E0,7.3257996E2],"tree_param":{"num_deleted":"0","num_feature":"10","num_nodes":"63","size_leaf_vector":"1"}},{"base_weights":[2.879709E-3,-1.2220323E-1,1.3574974E-1,-2.122443E-1,9.2370436E-2,2.0944239E-1,-6.879496E-2,-3.3218852E-1,-1.4719287E-1,4.7450683E-1,4.775925E-2,1.273946E-1,3.3327585E-1,-1.63547E-1,1.70009E-1,-1.3998342E-1,-3.8568357E-1,-2.9648152E-1,-7.895769E-2,6.830123E-1,3.3676195E-1,-8.936036E-3,1.671521E-1,3.6209026E-1,7.677012E-2,3.1736955E-1,9.0178114E-1,-3.1043068E-1,-6.47712E-2,5.321331E-1,9.923274E-2,-3.359205E-3,-2.3203546E-2,2.4451235E-2,-1.5038164E-2,2.8641973E-2,-1.1953108E-2,-4.5109913E-3,9.413806E-4,3.0167224E-3,3.125288E-2,-4.159884E-4,2.5343716E-2,-1.0114475E-2,2.2272146E-3,3.317123E-3,1.3342023E-2,2.451812E-2,9.276979E-3,1.8132372E-2,1.5903729E-3,9.9619925E-3,1.7991297E-2,3.7524022E-2,-3.2266863E-3,-1.7327646E-2,-6.6972515E-3,-7.5093466E-3,1.1651834E-3,-5.8391925E-2,2.2191001E-2,3.0929003E-2,2.637604E-3],"categories":[],"categories_nodes":[],"categories_segments":[],"categories_sizes":[],"default_left":[0,0,0,0,0,0,0,0,0,0,0,0,0,0,0,0,0,0,0,0,0,0,0,0,0,0,0,0,0,0,0,0,0,0,0,0,0,0,0,0,0,0,0,0,0,0,0,0,0,0,0,0,0,0,0,0,0,0,0,0,0,0,0],"id":5,"left_children":[1,3,5,7,9,11,13,15,17,19,21,23,25,27,29,31,33,35,37,39,41,43,45,47,49,51,53,55,57,59,61,-1,-1,-1,-1,-1,-1,-1,-1,-1,-1,-1,-1,-1,-1,-1,-1,-1,-1,-1,-1,-1,-1,-1,-1,-1,-1,-1,-1,-1,-1,-1,-1],"loss_changes":[5.3325745E2,3.193319E2,2.3453525E2,9.078998E1,8.32711E1,1.1617093E2,9.328605E1,4.203076E1,7.688815E1,1.4436295E1,2.962479E1,8.173208E1,4.0927948E1,4.2798164E1,2.9966724E1,2.170071E1,2.094162E1,3.7534607E1,2.0725811E1,1.6023438E1,3.484866E1,5.0666138E1,2.0506756E1,4.0515213E1,7.913217E1,3.866971E1,9.380318E0,2.2687057E1,2.2011322E1,1.908073E1,2.1083221E1,0E0,0E0,0E0,0E0,0E0,0E0,0E0,0E0,0E0,0E0,0E0,0E0,0E0,0E0,0E0,0E0,0E0,0E0,0E0,0E0,0E0,0E0,0E0,0E0,0E0,0E0,0E0,0E0,0E0,0E0,0E0,0E0],"parents":[2147483647,0,0,1,1,2,2,3,3,4,4,5,5,6,6,7,7,8,8,9,9,10,10,11,11,12,12,13,13,14,14,15,15,16,16,17,17,18,18,19,19,20,20,21,21,22,22,23,23,24,24,25,25,26,26,27,27,28,28,29,29,30,30],"right_children":[2,4,6,8,10,12,14,16,18,20,22,24,26,28,30,32,34,36,38,40,42,44,46,48,50,52,54,56,58,60,62,-1,-1,-1,-1,-1,-1,-1,-1,-1,-1,-1,-1,-1,-1,-1,-1,-1,-1,-1,-1,-1,-1,-1,-1,-1,-1,-1,-1,-1,-1,-1,-1],"split_conditions":[1.8952544E2,-3.5016182E-1,3.1480795E2,-8.39957E-2,1.0382185E-1,-3.6903226E-1,-3.4364945E-1,-2.1548821E-1,1.97E2,2.08E2,-2.8429118E-1,1.0816654E2,2.0071764E-1,2.19E2,1.1875199E-1,7.742093E2,1.46E2,1.10284165E-1,3.04E2,1.8999939E0,2.56E2,1.84E2,4.767246E-2,-1.7514375E-1,2.2148743E0,-2.8429118E-1,8.2758685E2,2.2222223E-2,-4.2292994E-1,-3.3862835E-1,2.2148743E0,-3.359205E-3,-2.3203546E-2,2.4451235E-2,-1.5038164E-2,2.8641973E-2,-1.1953108E-2,-4.5109913E-3,9.413806E-4,3.0167224E-3,3.125288E-2,-4.159884E-4,2.5343716E-2,-1.0114475E-2,2.2272146E-3,3.317123E-3,1.3342023E-2,2.451812E-2,9.276979E-3,1.8132372E-2,1.5903729E-3,9.9619925E-3,1.7991297E-2,3.7524022E-2,-3.2266863E-3,-1.7327646E-2,-6.6972515E-3,-7.5093466E-3,1.1651834E-3,-5.8391925E-2,2.2191001E-2,3.0929003E-2,2.637604E-3],"split_indices":[2,6,2,7,5,6,6,7,0,0,6,9,7,0,5,9,0,5,0,4,0,0,7,7,3,6,9,7,6,6,3,0,0,0,0,0,0,0,0,0,0,0,0,0,0,0,0,0,0,0,0,0,0,0,0,0,0,0,0,0,0,0,0],"split_type":[0,0,0,0,0,0,0,0,0,0,0,0,0,0,0,0,0,0,0,0,0,0,0,0,0,0,0,0,0,0,0,0,0,0,0,0,0,0,0,0,0,0,0,0,0,0,0,0,0,0,0,0,0,0,0,0,0,0,0,0,0,0,0],"sum_hessian":[3.2083725E4,1.6526176E4,1.5557548E4,1.1641211E4,4.884965E3,1.143703E4,4.1205176E3,4.0920444E3,7.5491665E3,5.0965533E2,4.3753096E3,6.8803657E3,4.556665E3,2.9502427E3,1.1702749E3,8.917277E2,3.2003167E3,2.367053E3,5.1821133E3,2.0117564E2,3.0847968E2,2.9672139E3,1.4080957E3,1.2196947E3,5.660671E3,4.434159E3,1.22505806E2,1.1853844E3,1.7648583E3,1.9026625E2,9.800086E2,8.024331E2,8.929466E1,1.9029081E1,3.1812876E3,3.3088627E1,2.3339644E3,3.7734966E3,1.4086167E3,3.627144E1,1.649042E2,1.4925517E2,1.592245E2,6.1727893E2,2.349935E3,9.74359E2,4.3373676E2,3.679136E2,8.517811E2,4.625718E2,5.198099E3,3.2139438E3,1.2202155E3,1.137066E2,8.799206E0,5.800065E2,6.053779E2,7.4215204E2,1.0227062E3,3.4932213E0,1.8677303E2,3.944946E1,9.4055914E2],"tree_param":{"num_deleted":"0","num_feature":"10","num_nodes":"63","size_leaf_vector":"1"}},{"base_weights":[1.816906E-3,-2.621001E-1,6.999501E-1,-4.044252E-1,-1.0770394E-1,4.6700707E-1,1.1529642E0,-5.132621E-1,-2.6854953E-1,-2.9095313E-1,2.5041467E-1,3.489132E-1,8.336383E-1,1.0073925E0,1.3614776E0,-5.688228E-1,-2.4879439E-1,-3.983427E-1,-3.4912296E-2,-4.7389787E-1,-1.6384691E-1,2.1126432E-2,4.1624758E-1,1.4129499E-1,5.207426E-1,6.820769E-1,1.0388949E0,8.5933656E-1,1.2175565E0,1.3670975E0,7.769679E-3,-2.8417971E-2,-1.7357206E-2,9.437938E-3,-1.1234079E-2,-1.8218936E-2,3.2941091E-3,-9.177408E-3,9.073786E-3,-2.3908783E-2,-9.955026E-3,-1.003599E-2,6.802359E-4,-4.215755E-3,1.3694614E-2,8.25894E-3,2.4269354E-2,3.8736293E-4,1.4396908E-2,1.587985E-2,2.423467E-2,2.3125973E-2,4.1013904E-2,3.4004062E-2,4.586679E-2,2.935253E-2,3.7713308E-2,4.5056924E-2,5.3055994E-2,4.8863657E-2,5.5737596E-2,2.2661105E-2,-4.844568E-2],"categories":[],"categories_nodes":[],"categories_segments":[],"categories_sizes":[],"default_left":[0,0,0,0,0,0,0,0,0,0,0,0,0,0,0,0,0,0,0,0,0,0,0,0,0,0,0,0,0,0,0,0,0,0,0,0,0,0,0,0,0,0,0,0,0,0,0,0,0,0,0,0,0,0,0,0,0,0,0,0,0,0,0],"id":6,"left_children":[1,3,5,7,9,11,13,15,17,19,21,23,25,27,29,31,33,35,37,39,41,43,45,47,49,51,53,55,57,59,61,-1,-1,-1,-1,-1,-1,-1,-1,-1,-1,-1,-1,-1,-1,-1,-1,-1,-1,-1,-1,-1,-1,-1,-1,-1,-1,-1,-1,-1,-1,-1,-1],"loss_changes":[5.91568E3,5.119419E2,9.289199E2,1.7914233E2,7.3356335E2,2.5163098E2,8.939673E1,9.875232E1,1.6355368E2,1.7186115E2,1.4386757E2,1.5698993E2,4.3367676E1,5.386731E1,9.320801E0,1.1094104E2,2.5576294E1,1.2860425E2,1.06951454E2,9.6873474E1,7.747976E1,6.996674E1,9.534433E1,6.124274E1,2.8288025E1,2.4443695E1,1.3278381E1,1.1356445E1,3.5544434E0,7.9362793E0,5.2468886E0,0E0,0E0,0E0,0E0,0E0,0E0,0E0,0E0,0E0,0E0,0E0,0E0,0E0,0E0,0E0,0E0,0E0,0E0,0E0,0E0,0E0,0E0,0E0,0E0,0E0,0E0,0E0,0E0,0E0,0E0,0E0,0E0],"parents":[2147483647,0,0,1,1,2,2,3,3,4,4,5,5,6,6,7,7,8,8,9,9,10,10,11,11,12,12,13,13,14,14,15,15,16,16,17,17,18,18,19,19,20,20,21,21,22,22,23,23,24,24,25,25,26,26,27,27,28,28,29,29,30,30],"right_children":[2,4,6,8,10,12,14,16,18,20,22,24,26,28,30,32,34,36,38,40,42,44,46,48,50,52,54,56,58,60,62,-1,-1,-1,-1,-1,-1,-1,-1,-1,-1,-1,-1,-1,-1,-1,-1,-1,-1,-1,-1,-1,-1,-1,-1,-1,-1,-1,-1,-1,-1,-1,-1],"split_conditions":[-4.267359E0,-6.3907638E0,-2.160602E0,2.0671634E2,4.0366828E-1,3.185471E-1,-5.3488225E-1,-3.2613674E-1,5.99869E-1,-5.4585013E0,1.9854892E2,-3.4992318E0,-3.4090903E0,2.185909E-1,1.0527901E1,5.270221E-1,1.07213765E-1,-2.738724E-1,-7.2175465E0,-3.537587E-1,2.6058963E-1,-5.2299457E0,5.566975E-1,-3.4175065E-1,-3.5952848E-1,5.39026E-1,2.2519235E2,-1.3990028E0,4.064081E-1,1.8336888E-1,1.8952544E2,-2.8417971E-2,-1.7357206E-2,9.437938E-3,-1.1234079E-2,-1.8218936E-2,3.2941091E-3,-9.177408E-3,9.073786E-3,-2.3908783E-2,-9.955026E-3,-1.003599E-2,6.802359E-4,-4.215755E-3,1.3694614E-2,8.25894E-3,2.4269354E-2,3.8736293E-4,1.4396908E-2,1.587985E-2,2.423467E-2,2.3125973E-2,4.1013904E-2,3.4004062E-2,4.586679E-2,2.935253E-2,3.7713308E-2,4.5056924E-2,5.3055994E-2,4.8863657E-2,5.5737596E-2,2.2661105E-2,-4.844568E-2],"split_indices":[8,8,8,2,5,5,8,6,5,8,2,8,8,5,3,5,5,6,8,6,5,8,5,6,6,5,2,8,5,5,2,0,0,0,0,0,0,0,0,0,0,0,0,0,0,0,0,0,0,0,0,0,0,0,0,0,0,0,0,0,0,0,0],"split_type":[0,0,0,0,0,0,0,0,0,0,0,0,0,0,0,0,0,0,0,0,0,0,0,0,0,0,0,0,0,0,0,0,0,0,0,0,0,0,0,0,0,0,0,0,0,0,0,0,0,0,0,0,0,0,0,0,0,0,0,0,0,0,0],"sum_hessian":[3.2104953E4,2.3298129E4,8.806824E3,1.2122123E4,1.1176007E4,5.8174707E3,2.9893533E3,6.7292183E3,5.3929043E3,7.393131E3,3.7828755E3,4.401633E3,1.4158378E3,1.7638024E3,1.2255509E3,5.559995E3,1.1692233E3,3.4664644E3,1.9264402E3,3.0297153E3,4.3634155E3,1.5881515E3,2.194724E3,1.994065E3,2.407568E3,8.169357E2,5.9890204E2,1.0377905E3,7.260119E2,1.2204742E3,5.076672E0,2.2419224E3,3.3180728E3,9.519561E1,1.0740277E3,2.9931516E3,4.733127E2,1.0991866E3,8.272535E2,1.7847095E3,1.245006E3,2.836044E3,1.5273717E3,1.1429497E3,4.4520172E2,1.1389502E3,1.055774E3,1.2783455E3,7.157194E2,1.2293221E3,1.178246E3,6.802128E2,1.3672292E2,3.069032E2,2.9199884E2,5.933034E2,4.444871E2,5.825341E2,1.4347783E2,5.921353E2,6.283389E2,3.8468711E0,1.2298008E0],"tree_param":{"num_deleted":"0","num_feature":"10","num_nodes":"63","size_leaf_vector":"1"}},{"base_weights":[-1.4190804E-3,-2.1631585E-1,8.0410606E-1,-2.784385E-1,3.845665E-1,5.846386E-1,1.1492178E0,-3.9860284E-1,5.9262563E-2,3.641107E-2,7.073126E-1,7.92823E-1,3.712039E-1,1.0018761E0,1.3200343E0,-3.4088328E-1,-6.19574E-1,3.8165593E-1,-1.6231239E-1,-1.08216435E-1,3.3670694E-1,8.2020324E-1,7.1170315E-2,6.950934E-1,1.0599217E0,2.111326E-1,5.216662E-1,8.674646E-1,1.2032297E0,1.2687545E0,1.4690619E0,-1.7553668E-2,-2.4821328E-3,2.3046376E-4,-2.5618285E-2,2.7953807E-2,1.0961955E-2,-1.4339729E-2,-2.9974584E-3,-7.769865E-3,1.099733E-2,-1.2416097E-2,1.8958014E-2,2.6596542E-2,5.2954093E-2,-2.6155037E-3,2.9629525E-2,2.1374984E-2,3.5808716E-2,1.6966283E-2,4.182456E-2,3.760546E-3,1.5421675E-2,1.1684761E-2,2.4704712E-2,4.6812612E-4,3.3780597E-2,4.6565942E-2,2.7056275E-2,4.9801536E-2,4.0127553E-2,9.213234E-3,5.6662858E-2],"categories":[],"categories_nodes":[],"categories_segments":[],"categories_sizes":[],"default_left":[0,0,0,0,0,0,0,0,0,0,0,0,0,0,0,0,0,0,0,0,0,0,0,0,0,0,0,0,0,0,0,0,0,0,0,0,0,0,0,0,0,0,0,0,0,0,0,0,0,0,0,0,0,0,0,0,0,0,0,0,0,0,0],"id":7,"left_children":[1,3,5,7,9,11,13,15,17,19,21,23,25,27,29,31,33,35,37,39,41,43,45,47,49,51,53,55,57,59,61,-1,-1,-1,-1,-1,-1,-1,-1,-1,-1,-1,-1,-1,-1,-1,-1,-1,-1,-1,-1,-1,-1,-1,-1,-1,-1,-1,-1,-1,-1,-1,-1],"loss_changes":[5.553322E3,9.4543494E2,5.110381E2,9.3142004E2,2.6665225E2,1.8329883E2,6.4750244E1,2.157041E2,4.3042392E2,4.9667824E1,8.8384155E1,5.3839233E1,4.907254E1,3.72146E1,7.403076E0,4.3262134E2,1.0573169E2,8.1476654E1,6.354709E1,2.8813988E1,3.881388E1,7.338971E1,1.8295673E1,4.9887512E1,9.971985E0,2.1357002E1,2.7734924E1,9.525635E0,2.119995E0,4.60376E0,2.6256104E0,0E0,0E0,0E0,0E0,0E0,0E0,0E0,0E0,0E0,0E0,0E0,0E0,0E0,0E0,0E0,0E0,0E0,0E0,0E0,0E0,0E0,0E0,0E0,0E0,0E0,0E0,0E0,0E0,0E0,0E0,0E0,0E0],"parents":[2147483647,0,0,1,1,2,2,3,3,4,4,5,5,6,6,7,7,8,8,9,9,10,10,11,11,12,12,13,13,14,14,15,15,16,16,17,17,18,18,19,19,20,20,21,21,22,22,23,23,24,24,25,25,26,26,27,27,28,28,29,29,30,30],"right_children":[2,4,6,8,10,12,14,16,18,20,22,24,26,28,30,32,34,36,38,40,42,44,46,48,50,52,54,56,58,60,62,-1,-1,-1,-1,-1,-1,-1,-1,-1,-1,-1,-1,-1,-1,-1,-1,-1,-1,-1,-1,-1,-1,-1,-1,-1,-1,-1,-1,-1,-1,-1,-1],"split_conditions":[-3.720542E0,8.520719E0,-1.9489522E0,-5.1844897E0,2.1386188E2,1.08199686E-1,-5.3488225E-1,6.9742195E-2,5.9596434E-2,1.2695546E1,3.2613388E2,3.853149E-1,-3.0264153E0,2.185909E-1,2.695863E-1,-6.3907638E0,1.0382185E-1,-8.971156E-2,-4.7843018E0,-5.4812145E0,3.517137E1,1.3992691E1,-3.65882E-1,-2.759919E0,-4.6759677E-1,2.435873E2,1.462408E-1,-4.6056476E-1,9.975871E0,7.6009026E0,-4.9542448E-1,-1.7553668E-2,-2.4821328E-3,2.3046376E-4,-2.5618285E-2,2.7953807E-2,1.0961955E-2,-1.4339729E-2,-2.9974584E-3,-7.769865E-3,1.099733E-2,-1.2416097E-2,1.8958014E-2,2.6596542E-2,5.2954093E-2,-2.6155037E-3,2.9629525E-2,2.1374984E-2,3.5808716E-2,1.6966283E-2,4.182456E-2,3.760546E-3,1.5421675E-2,1.1684761E-2,2.4704712E-2,4.6812612E-4,3.3780597E-2,4.6565942E-2,2.7056275E-2,4.9801536E-2,4.0127553E-2,9.213234E-3,5.6662858E-2],"split_indices":[8,1,8,8,2,7,8,7,7,1,2,5,8,5,5,8,5,7,8,8,2,1,6,8,6,2,5,6,1,3,6,0,0,0,0,0,0,0,0,0,0,0,0,0,0,0,0,0,0,0,0,0,0,0,0,0,0,0,0,0,0,0,0],"split_type":[0,0,0,0,0,0,0,0,0,0,0,0,0,0,0,0,0,0,0,0,0,0,0,0,0,0,0,0,0,0,0,0,0,0,0,0,0,0,0,0,0,0,0,0,0,0,0,0,0,0,0,0,0,0,0,0,0,0,0,0,0,0,0],"sum_hessian":[3.2078691E4,2.5323625E4,6.755067E3,2.2951322E4,2.3723025E3,4.1308335E3,2.6242334E3,1.6927738E4,6.023585E3,1.141763E3,1.2305394E3,2.0897622E3,2.041071E3,1.4126144E3,1.211619E3,1.3423855E4,3.503882E3,2.4532964E3,3.5702888E3,7.710514E2,3.7071158E2,1.0448326E3,1.8570674E2,1.5325974E3,5.5716486E2,9.901211E2,1.05095E3,8.503081E2,5.623063E2,9.0851556E2,3.0310345E2,9.436261E3,3.9875952E3,2.5081725E2,3.253065E3,5.2979584E2,1.9235004E3,1.01551624E3,2.5547727E3,6.2278204E2,1.4826941E2,7.117732E1,2.9953427E2,8.5366504E2,1.9116762E2,1.5567224E2,3.003449E1,9.7295215E2,5.5964526E2,2.6802822E1,5.3036206E2,6.2265356E2,3.6746753E2,3.8001117E2,6.709388E2,1.285466E1,8.374535E2,5.4916766E2,1.3138575E1,7.9823114E2,1.1028442E2,2.1549075E0,3.0094855E2],"tree_param":{"num_deleted":"0","num_feature":"10","num_nodes":"63","size_leaf_vector":"1"}},{"base_weights":[-7.9722685E-4,-2.4936405E-1,6.573761E-1,-3.71741E-1,-1.07745044E-1,4.4022867E-1,1.0840597E0,-4.5824093E-1,-1.7141253E-1,5.87831E-2,-3.0200323E-1,8.48072E-1,3.22231E-1,9.4239193E-1,1.2882079E0,-4.9241263E-1,-1.2411535E-1,9.85743E-2,-3.0528128E-1,-1.9578256E-1,3.9967853E-1,-4.6186718E-1,-6.05851E-2,1.0901731E0,7.4767095E-1,1.1129915E-1,4.9936557E-1,1.088138E0,8.0298656E-1,1.2356199E0,1.3838615E0,-1.5171961E-2,-2.4005761E-2,6.0986187E-3,-9.283463E-3,-1.1154515E-3,1.0250595E-2,-1.3038401E-2,6.227133E-3,9.873334E-3,-9.570892E-3,2.2713412E-2,9.2982575E-3,-2.5100056E-2,-1.1379085E-2,8.129952E-3,-7.856683E-3,-2.5464218E-2,4.2278223E-2,2.4768593E-2,3.849201E-2,9.813154E-3,-1.1566324E-3,2.5116125E-2,1.567948E-2,4.292932E-2,2.8340466E-2,2.9250981E-2,4.508415E-2,4.827781E-2,2.2919774E-2,5.3293094E-2,9.025049E-3],"categories":[],"categories_nodes":[],"categories_segments":[],"categories_sizes":[],"default_left":[0,0,0,0,0,0,0,0,0,0,0,0,0,0,0,0,0,0,0,0,0,0,0,0,0,0,0,0,0,0,0,0,0,0,0,0,0,0,0,0,0,0,0,0,0,0,0,0,0,0,0,0,0,0,0,0,0,0,0,0,0,0,0],"id":8,"left_children":[1,3,5,7,9,11,13,15,17,19,21,23,25,27,29,31,33,35,37,39,41,43,45,47,49,51,53,55,57,59,61,-1,-1,-1,-1,-1,-1,-1,-1,-1,-1,-1,-1,-1,-1,-1,-1,-1,-1,-1,-1,-1,-1,-1,-1,-1,-1,-1,-1,-1,-1,-1,-1],"loss_changes":[5.2434844E3,4.031549E2,8.135845E2,2.1617456E2,3.4893298E2,2.8002686E2,8.446948E1,9.944995E1,1.3611304E2,5.0411923E2,1.9211526E2,3.0939514E1,1.6879239E2,3.4736816E1,4.3813477E0,1.0194141E2,2.7067749E1,2.6889309E1,4.0774048E1,8.100019E1,7.501346E1,9.503827E1,7.803577E1,8.677551E0,2.3526001E1,4.219591E1,3.4315918E1,8.39502E0,1.2665649E1,1.0774902E1,2.2546387E0,0E0,0E0,0E0,0E0,0E0,0E0,0E0,0E0,0E0,0E0,0E0,0E0,0E0,0E0,0E0,0E0,0E0,0E0,0E0,0E0,0E0,0E0,0E0,0E0,0E0,0E0,0E0,0E0,0E0,0E0,0E0,0E0],"parents":[2147483647,0,0,1,1,2,2,3,3,4,4,5,5,6,6,7,7,8,8,9,9,10,10,11,11,12,12,13,13,14,14,15,15,16,16,17,17,18,18,19,19,20,20,21,21,22,22,23,23,24,24,25,25,26,26,27,27,28,28,29,29,30,30],"right_children":[2,4,6,8,10,12,14,16,18,20,22,24,26,28,30,32,34,36,38,40,42,44,46,48,50,52,54,56,58,60,62,-1,-1,-1,-1,-1,-1,-1,-1,-1,-1,-1,-1,-1,-1,-1,-1,-1,-1,-1,-1,-1,-1,-1,-1,-1,-1,-1,-1,-1,-1,-1,-1],"split_conditions":[-4.267359E0,2.0671634E2,-2.160602E0,-5.7182174E0,-4.3565348E-2,1.6658254E-2,-5.3488225E-1,-2.8429118E-1,2.2222223E-2,-6.7078266E0,-5.4148993E0,-8.39957E-2,-3.4992318E0,1.1283128E-1,1.230884E0,-6.457422E-2,-7.577309E-2,-5.039365E0,-2.7942294E-1,2.2148743E0,-1.4991671E-1,-3.7747958E-1,5.9596434E-2,-4.869233E-1,-3.0264153E0,1.2694238E-1,1.08199686E-1,-2.1019553E-1,3.33E2,-2.1019553E-1,1.0527901E1,-1.5171961E-2,-2.4005761E-2,6.0986187E-3,-9.283463E-3,-1.1154515E-3,1.0250595E-2,-1.3038401E-2,6.227133E-3,9.873334E-3,-9.570892E-3,2.2713412E-2,9.2982575E-3,-2.5100056E-2,-1.1379085E-2,8.129952E-3,-7.856683E-3,-2.5464218E-2,4.2278223E-2,2.4768593E-2,3.849201E-2,9.813154E-3,-1.1566324E-3,2.5116125E-2,1.567948E-2,4.292932E-2,2.8340466E-2,2.9250981E-2,4.508415E-2,4.827781E-2,2.2919774E-2,5.3293094E-2,9.025049E-3],"split_indices":[8,2,8,8,7,7,8,6,7,8,8,7,8,7,8,7,7,8,6,3,7,6,7,6,8,7,7,6,0,6,3,0,0,0,0,0,0,0,0,0,0,0,0,0,0,0,0,0,0,0,0,0,0,0,0,0,0,0,0,0,0,0,0],"split_type":[0,0,0,0,0,0,0,0,0,0,0,0,0,0,0,0,0,0,0,0,0,0,0,0,0,0,0,0,0,0,0,0,0,0,0,0,0,0,0,0,0,0,0,0,0,0,0,0,0,0,0,0,0,0,0,0,0,0,0,0,0,0,0],"sum_hessian":[3.2048625E4,2.326351E4,8.785114E3,1.2478695E4,1.0784814E4,5.823471E3,2.9616433E3,8.714549E3,3.7641458E3,5.807243E3,4.9775713E3,1.3053871E3,4.518084E3,1.751685E3,1.2099583E3,7.9055576E3,8.089914E2,1.2478145E3,2.5163313E3,3.3248315E3,2.4824116E3,2.9940422E3,1.9835293E3,3.7977124E2,9.256159E2,2.063042E3,2.4550422E3,8.5303986E2,8.9864526E2,7.897118E2,4.2024646E2,4.5803296E3,3.325228E3,2.3772797E2,5.712634E2,7.1067017E2,5.371443E2,2.3432568E3,1.730745E2,3.518748E2,2.9729568E3,1.1153981E3,1.3670137E3,1.3819281E3,1.6121141E3,6.8627637E2,1.2972529E3,2.1896274E0,3.775816E2,6.6414764E2,2.6146826E2,1.0201109E3,1.042931E3,9.0240027E2,1.5526421E3,7.8169165E2,7.134819E1,8.132161E2,8.542914E1,7.61483E2,2.8228842E1,4.1809497E2,2.1514845E0],"tree_param":{"num_deleted":"0","num_feature":"10","num_nodes":"63","size_leaf_vector":"1"}},{"base_weights":[1.3480597E-3,-2.3671731E-1,6.339577E-1,-3.234818E-1,2.2234078E-1,3.6456475E-1,9.4856125E-1,-4.294737E-1,-1.0622769E-1,-9.260593E-2,5.3083277E-1,7.766692E-1,2.4955314E-1,7.89077E-1,1.2005218E0,-4.6759325E-1,-7.089515E-2,1.4838089E-1,-3.2314757E-1,-2.1726951E-1,2.4811615E-1,3.8208964E-1,9.300469E-1,1.0372864E0,6.554796E-1,1.3421173E-1,4.032661E-1,9.4027245E-1,6.376875E-1,1.2988629E0,1.1167328E0,-1.4162613E-2,-2.313477E-2,9.8817125E-3,-7.3971185E-3,1.4049489E-2,2.8507093E-3,-1.5625427E-2,-6.363084E-3,-1.1047062E-2,4.777786E-3,-5.878187E-3,1.7115187E-2,-1.6148923E-3,2.060632E-2,4.2514056E-2,1.2236876E-2,2.2340002E-2,4.212062E-2,2.1739485E-2,3.295375E-2,8.920994E-3,-1.6235437E-3,2.101778E-2,1.2073489E-2,4.4801336E-2,3.4408376E-2,1.9266222E-2,3.1164763E-2,5.000461E-2,-1.5695121E-2,3.518066E-2,4.690673E-2],"categories":[],"categories_nodes":[],"categories_segments":[],"categories_sizes":[],"default_left":[0,0,0,0,0,0,0,0,0,0,0,0,0,0,0,0,0,0,0,0,0,0,0,0,0,0,0,0,0,0,0,0,0,0,0,0,0,0,0,0,0,0,0,0,0,0,0,0,0,0,0,0,0,0,0,0,0,0,0,0,0,0,0],"id":9,"left_children":[1,3,5,7,9,11,13,15,17,19,21,23,25,27,29,31,33,35,37,39,41,43,45,47,49,51,53,55,57,59,61,-1,-1,-1,-1,-1,-1,-1,-1,-1,-1,-1,-1,-1,-1,-1,-1,-1,-1,-1,-1,-1,-1,-1,-1,-1,-1,-1,-1,-1,-1,-1,-1],"loss_changes":[4.8237993E3,9.2700146E2,7.418992E2,4.5067017E2,3.5953183E2,2.2349756E2,1.6136694E2,1.7977856E2,3.5458698E2,7.785558E1,1.1064331E2,3.1829102E1,6.538997E1,5.6086304E1,1.1435059E1,1.582981E2,5.0724056E1,4.7636497E1,4.5819183E1,3.245403E1,3.9101173E1,8.970836E1,5.481546E1,8.331787E0,1.225946E1,3.6643246E1,2.0082733E1,1.1153809E1,2.8950562E1,6.152588E0,1.6899536E1,0E0,0E0,0E0,0E0,0E0,0E0,0E0,0E0,0E0,0E0,0E0,0E0,0E0,0E0,0E0,0E0,0E0,0E0,0E0,0E0,0E0,0E0,0E0,0E0,0E0,0E0,0E0,0E0,0E0,0E0,0E0,0E0],"parents":[2147483647,0,0,1,1,2,2,3,3,4,4,5,5,6,6,7,7,8,8,9,9,10,10,11,11,12,12,13,13,14,14,15,15,16,16,17,17,18,18,19,19,20,20,21,21,22,22,23,23,24,24,25,25,26,26,27,27,28,28,29,29,30,30],"right_children":[2,4,6,8,10,12,14,16,18,20,22,24,26,28,30,32,34,36,38,40,42,44,46,48,50,52,54,56,58,60,62,-1,-1,-1,-1,-1,-1,-1,-1,-1,-1,-1,-1,-1,-1,-1,-1,-1,-1,-1,-1,-1,-1,-1,-1,-1,-1,-1,-1,-1,-1,-1,-1],"split_conditions":[-4.267359E0,6.762263E0,-2.759919E0,-5.7182174E0,2.170527E2,1.1327207E-2,-1.0092297E0,-2.8182223E-1,5.9596434E-2,1.1640713E1,1.1201108E1,-8.39957E-2,-3.4992318E0,1.1283128E-1,1.0375048E-1,-5.8682058E-2,-8.0034606E-2,-9.1451295E-2,-4.759575E0,-5.5025964E0,5.3315536E1,-7.362159E0,3.148099E2,-4.4793493E-1,3.03E2,1.5085575E-1,1.08199686E-1,-4.7476634E-2,-1.9489522E0,1.0527901E1,-2.3492488E-1,-1.4162613E-2,-2.313477E-2,9.8817125E-3,-7.3971185E-3,1.4049489E-2,2.8507093E-3,-1.5625427E-2,-6.363084E-3,-1.1047062E-2,4.777786E-3,-5.878187E-3,1.7115187E-2,-1.6148923E-3,2.060632E-2,4.2514056E-2,1.2236876E-2,2.2340002E-2,4.212062E-2,2.1739485E-2,3.295375E-2,8.920994E-3,-1.6235437E-3,2.101778E-2,1.2073489E-2,4.4801336E-2,3.4408376E-2,1.9266222E-2,3.1164763E-2,5.000461E-2,-1.5695121E-2,3.518066E-2,4.690673E-2],"split_indices":[8,1,8,8,2,7,8,6,7,1,1,7,8,7,7,7,7,7,8,8,2,8,2,6,0,7,7,7,8,3,8,0,0,0,0,0,0,0,0,0,0,0,0,0,0,0,0,0,0,0,0,0,0,0,0,0,0,0,0,0,0,0,0],"split_type":[0,0,0,0,0,0,0,0,0,0,0,0,0,0,0,0,0,0,0,0,0,0,0,0,0,0,0,0,0,0,0,0,0,0,0,0,0,0,0,0,0,0,0,0,0,0,0,0,0,0,0,0,0,0,0,0,0,0,0,0,0,0,0],"sum_hessian":[3.2028023E4,2.3271178E4,8.756847E3,1.9572217E4,3.6989602E3,4.718546E3,4.0383005E3,1.3153857E4,6.418359E3,1.830678E3,1.8682823E3,1.0282858E3,3.6902603E3,2.4755046E3,1.562796E3,1.1889602E4,1.2642561E3,2.952819E3,3.4655398E3,1.3405566E3,4.9012128E2,1.3625627E3,5.0571967E2,3.239895E2,7.0429626E2,2.109346E3,1.5809143E3,1.235939E3,1.2395656E3,7.1229333E2,8.505026E2,6.888667E3,5.0009346E3,3.4193454E2,9.223216E2,7.482417E2,2.2045774E3,2.2564858E3,1.2090541E3,1.1109432E3,2.2961346E2,1.6200687E2,3.281144E2,3.6493936E2,9.9762335E2,3.9092294E2,1.1479673E2,3.937265E1,2.8461685E2,4.9299887E2,2.1129741E2,1.3545269E3,7.5481915E2,5.984215E2,9.824928E2,1.9359668E2,1.0423423E3,7.003267E2,5.3923883E2,7.106112E2,1.6821637E0,2.982603E2,5.522423E2],"tree_param":{"num_deleted":"0","num_feature":"10","num_nodes":"63","size_leaf_vector":"1"}},{"base_weights":[2.200678E-3,-2.2736491E-1,6.138178E-1,-2.936794E-1,2.9865378E-1,4.1429773E-1,1.0139655E0,-4.0968236E-1,-1.2923692E-1,5.189515E-2,5.213553E-1,7.9630303E-1,3.044363E-1,8.8032144E-1,1.2096469E0,-4.4700846E-1,-6.724324E-2,8.7725125E-2,-3.4579566E-1,-2.0997937E-1,3.096285E-1,6.8195707E-1,1.0455915E-1,1.0110455E0,7.082122E-1,1.9462141E-1,5.5224967E-1,7.637186E-1,1.1292546E0,1.1593921E0,1.3652521E0,-1.3348897E-2,-2.3632862E-2,-5.0549246E-3,1.4796199E-2,-1.3673258E-3,9.775369E-3,-2.104692E-2,-9.902434E-3,6.4509315E-3,-1.155753E-2,6.7617917E-3,2.507337E-2,2.226414E-2,3.9444212E-2,-4.919418E-3,1.7328508E-2,-2.0307088E-2,3.9148267E-2,2.2707868E-2,3.4492277E-2,1.4986087E-2,4.52292E-3,2.5236147E-2,1.3435014E-2,2.3539726E-2,3.2660272E-2,-9.890952E-3,4.3477327E-2,4.290574E-2,5.1289253E-2,6.5288977E-3,5.2699193E-2],"categories":[],"categories_nodes":[],"categories_segments":[],"categories_sizes":[],"default_left":[0,0,0,0,0,0,0,0,0,0,0,0,0,0,0,0,0,0,0,0,0,0,0,0,0,0,0,0,0,0,0,0,0,0,0,0,0,0,0,0,0,0,0,0,0,0,0,0,0,0,0,0,0,0,0,0,0,0,0,0,0,0,0],"id":10,"left_children":[1,3,5,7,9,11,13,15,17,19,21,23,25,27,29,31,33,35,37,39,41,43,45,47,49,51,53,55,57,59,61,-1,-1,-1,-1,-1,-1,-1,-1,-1,-1,-1,-1,-1,-1,-1,-1,-1,-1,-1,-1,-1,-1,-1,-1,-1,-1,-1,-1,-1,-1,-1,-1],"loss_changes":[4.481149E3,8.0955945E2,6.949668E2,3.930636E2,1.4276788E2,2.437464E2,7.470361E1,1.5441821E2,4.0061365E2,8.3336586E1,9.1346375E1,2.3836365E1,1.2281146E2,4.921399E1,7.590576E0,1.8218945E2,3.4794384E1,8.781673E1,7.5736115E1,2.1196835E1,2.8427479E1,3.407495E1,3.085165E1,5.994293E0,1.997287E1,4.704795E1,2.934433E1,1.4974182E1,3.3898926E0,5.0026855E0,2.605774E0,0E0,0E0,0E0,0E0,0E0,0E0,0E0,0E0,0E0,0E0,0E0,0E0,0E0,0E0,0E0,0E0,0E0,0E0,0E0,0E0,0E0,0E0,0E0,0E0,0E0,0E0,0E0,0E0,0E0,0E0,0E0,0E0],"parents":[2147483647,0,0,1,1,2,2,3,3,4,4,5,5,6,6,7,7,8,8,9,9,10,10,11,11,12,12,13,13,14,14,15,15,16,16,17,17,18,18,19,19,20,20,21,21,22,22,23,23,24,24,25,25,26,26,27,27,28,28,29,29,30,30],"right_children":[2,4,6,8,10,12,14,16,18,20,22,24,26,28,30,32,34,36,38,40,42,44,46,48,50,52,54,56,58,60,62,-1,-1,-1,-1,-1,-1,-1,-1,-1,-1,-1,-1,-1,-1,-1,-1,-1,-1,-1,-1,-1,-1,-1,-1,-1,-1,-1,-1,-1,-1,-1,-1],"split_conditions":[-4.267359E0,7.9628234E0,-2.160602E0,-6.0811687E0,-6.978603E0,1.6658254E-2,-5.3488225E-1,-2.8182223E-1,5.9596434E-2,1.1030656E1,-1.7263591E-2,-8.39957E-2,-3.0264153E0,2.4969047E-1,2.7180162E-1,-5.8682058E-2,-1.4486712E-1,-5.2299457E0,-5.4585013E0,-2.1548821E-1,1.5408702E1,1.3200114E1,5.4353285E0,-4.869233E-1,-3.255712E0,8.772988E-2,1.5543644E-1,-1.6915169E0,1.7079984E0,2.4321098E0,-4.9542448E-1,-1.3348897E-2,-2.3632862E-2,-5.0549246E-3,1.4796199E-2,-1.3673258E-3,9.775369E-3,-2.104692E-2,-9.902434E-3,6.4509315E-3,-1.155753E-2,6.7617917E-3,2.507337E-2,2.226414E-2,3.9444212E-2,-4.919418E-3,1.7328508E-2,-2.0307088E-2,3.9148267E-2,2.2707868E-2,3.4492277E-2,1.4986087E-2,4.52292E-3,2.5236147E-2,1.3435014E-2,2.3539726E-2,3.2660272E-2,-9.890952E-3,4.3477327E-2,4.290574E-2,5.1289253E-2,6.5288977E-3,5.2699193E-2],"split_indices":[8,1,8,8,8,7,8,6,7,1,7,7,8,5,5,7,6,8,8,7,1,1,3,6,8,7,7,8,3,8,6,0,0,0,0,0,0,0,0,0,0,0,0,0,0,0,0,0,0,0,0,0,0,0,0,0,0,0,0,0,0,0,0],"split_type":[0,0,0,0,0,0,0,0,0,0,0,0,0,0,0,0,0,0,0,0,0,0,0,0,0,0,0,0,0,0,0,0,0,0,0,0,0,0,0,0,0,0,0,0,0,0,0,0,0,0,0,0,0,0,0,0,0,0,0,0,0,0,0],"sum_hessian":[3.19136E4,2.3204576E4,8.709023E3,2.060711E4,2.5974683E3,5.8127354E3,2.8962883E3,1.2082344E4,8.524765E3,1.2327664E3,1.3647019E3,1.2969143E3,4.515821E3,1.7242084E3,1.17208E3,1.0894527E4,1.1878165E3,4.258714E3,4.266051E3,6.115626E2,6.212037E2,9.8465424E2,3.8004773E2,3.742103E2,9.2270404E2,3.1304106E3,1.3854103E3,1.176971E3,5.472374E2,8.9233813E2,2.7974176E2,6.8714033E3,4.023124E3,1.0403243E3,1.4749223E2,2.4503452E3,1.8083688E3,1.2858135E3,2.9802373E3,1.1876976E2,4.9279285E2,4.487264E2,1.724773E2,7.6334546E2,2.2130873E2,2.278697E2,1.5217802E2,1.9430416E0,3.7226724E2,5.7596655E2,3.467375E2,8.7942163E2,2.250989E3,9.0842004E2,4.7699026E2,4.3681528E2,7.4015564E2,1.4199641E0,5.4581744E2,7.3100214E2,1.61336E2,2.11561E0,2.7762613E2],"tree_param":{"num_deleted":"0","num_feature":"10","num_nodes":"63","size_leaf_vector":"1"}},{"base_weights":[-3.3925257E-3,-1.890221E-1,7.041835E-1,-2.4690236E-1,3.3670127E-1,4.9837372E-1,1.028959E0,-3.6109346E-1,2.3490552E-2,1.2528366E-1,5.222918E-1,6.8625313E-1,3.0973452E-1,8.934875E-1,1.1889267E0,-4.3422136E-1,-1.991888E-1,2.8930902E-1,-1.6587578E-1,-1.2946907E-1,3.4215552E-1,6.95967E-1,2.1040194E-1,5.9964997E-1,9.114955E-1,1.7230979E-1,4.4178995E-1,7.6097715E-1,1.077472E0,1.1359456E0,1.3495388E0,-1.8172665E-2,-3.6373083E-3,-1.20966425E-2,-2.415282E-3,2.3098797E-2,7.6944605E-3,-1.3192654E-2,-2.558965E-3,-9.130633E-3,1.0037012E-2,7.462263E-3,2.4743056E-2,2.3276312E-2,3.9784867E-2,-2.69124E-4,1.5606456E-2,1.875771E-2,3.0339776E-2,2.866339E-2,3.944465E-2,1.6769241E-3,1.1446561E-2,1.8368628E-2,-1.2183014E-3,-2.1072403E-2,2.9836396E-2,-9.113121E-3,4.147458E-2,4.117014E-2,4.7886703E-2,-1.0273581E-2,5.211699E-2],"categories":[],"categories_nodes":[],"categories_segments":[],"categories_sizes":[],"default_left":[0,0,0,0,0,0,0,0,0,0,0,0,0,0,0,0,0,0,0,0,0,0,0,0,0,0,0,0,0,0,0,0,0,0,0,0,0,0,0,0,0,0,0,0,0,0,0,0,0,0,0,0,0,0,0,0,0,0,0,0,0,0,0],"id":11,"left_children":[1,3,5,7,9,11,13,15,17,19,21,23,25,27,29,31,33,35,37,39,41,43,45,47,49,51,53,55,57,59,61,-1,-1,-1,-1,-1,-1,-1,-1,-1,-1,-1,-1,-1,-1,-1,-1,-1,-1,-1,-1,-1,-1,-1,-1,-1,-1,-1,-1,-1,-1,-1,-1],"loss_changes":[4.178496E3,7.6693066E2,4.414087E2,7.00978E2,9.801993E1,1.4328436E2,5.4493164E1,1.8889502E2,3.3940817E2,6.468028E1,7.194525E1,3.9006958E1,3.6621445E1,3.311914E1,8.444214E0,1.4730688E2,7.858154E1,7.77417E1,6.949395E1,2.293026E1,2.813935E1,2.5374756E1,2.0392359E1,3.0674805E1,9.994598E0,1.6078693E1,1.8085556E1,1.8285309E1,3.0431519E0,4.920044E0,4.5198975E0,0E0,0E0,0E0,0E0,0E0,0E0,0E0,0E0,0E0,0E0,0E0,0E0,0E0,0E0,0E0,0E0,0E0,0E0,0E0,0E0,0E0,0E0,0E0,0E0,0E0,0E0,0E0,0E0,0E0,0E0,0E0,0E0],"parents":[2147483647,0,0,1,1,2,2,3,3,4,4,5,5,6,6,7,7,8,8,9,9,10,10,11,11,12,12,13,13,14,14,15,15,16,16,17,17,18,18,19,19,20,20,21,21,22,22,23,23,24,24,25,25,26,26,27,27,28,28,29,29,30,30],"right_children":[2,4,6,8,10,12,14,16,18,20,22,24,26,28,30,32,34,36,38,40,42,44,46,48,50,52,54,56,58,60,62,-1,-1,-1,-1,-1,-1,-1,-1,-1,-1,-1,-1,-1,-1,-1,-1,-1,-1,-1,-1,-1,-1,-1,-1,-1,-1,-1,-1,-1,-1,-1,-1],"split_conditions":[-3.720542E0,8.394209E0,-1.9489522E0,-5.3479953E0,-6.978603E0,1.08199686E-1,-5.3488225E-1,4.1625443E0,5.9596434E-2,1.1030656E1,-4.7476634E-2,3.7931034E-1,-3.0264153E0,2.1275824E-1,2.695863E-1,-2.8429118E-1,-6.823933E0,-9.1451295E-2,-4.7843018E0,8.328075E0,6.9567127E0,1.3992691E1,-5.4148993E0,-2.759919E0,-3.2020612E0,-3.8411245E-1,9.186297E0,-4.6165982E-1,-5.151433E-1,1.230884E0,-4.9542448E-1,-1.8172665E-2,-3.6373083E-3,-1.20966425E-2,-2.415282E-3,2.3098797E-2,7.6944605E-3,-1.3192654E-2,-2.558965E-3,-9.130633E-3,1.0037012E-2,7.462263E-3,2.4743056E-2,2.3276312E-2,3.9784867E-2,-2.69124E-4,1.5606456E-2,1.875771E-2,3.0339776E-2,2.866339E-2,3.944465E-2,1.6769241E-3,1.1446561E-2,1.8368628E-2,-1.2183014E-3,-2.1072403E-2,2.9836396E-2,-9.113121E-3,4.147458E-2,4.117014E-2,4.7886703E-2,-1.0273581E-2,5.211699E-2],"split_indices":[8,1,8,8,8,7,8,1,7,1,7,5,8,5,5,6,8,7,8,3,3,1,8,8,8,6,3,6,6,8,6,0,0,0,0,0,0,0,0,0,0,0,0,0,0,0,0,0,0,0,0,0,0,0,0,0,0,0,0,0,0,0,0],"split_type":[0,0,0,0,0,0,0,0,0,0,0,0,0,0,0,0,0,0,0,0,0,0,0,0,0,0,0,0,0,0,0,0,0,0,0,0,0,0,0,0,0,0,0,0,0,0,0,0,0,0,0,0,0,0,0,0,0,0,0,0,0,0,0],"sum_hessian":[3.1810629E4,2.5200197E4,6.6104316E3,2.2701385E4,2.4988115E3,4.0478494E3,2.562582E3,1.596063E4,6.7407554E3,1.1689095E3,1.329902E3,2.0266869E3,2.0211625E3,1.3910941E3,1.171488E3,1.099349E4,4.96714E3,2.8040747E3,3.9366807E3,5.376968E2,6.312128E2,8.5343634E2,4.7646564E2,1.4664972E3,5.6018976E2,9.915751E2,1.0295873E3,8.1165497E2,5.7943915E2,8.8697437E2,2.8451367E2,9.847422E3,1.1460675E3,2.6806062E3,2.286534E3,6.183867E2,2.185688E3,1.407556E3,2.5291248E3,4.211969E2,1.1649985E2,4.2544028E2,2.0577257E2,6.786949E2,1.7474146E2,2.2659895E2,2.498667E2,9.310826E2,5.354146E2,2.3571672E2,3.2447305E2,4.9153207E2,5.0004303E2,9.549111E2,7.467623E1,9.8564825E0,8.017985E2,1.4266334E0,5.780125E2,5.758031E2,3.1117126E2,1.4153938E0,2.8309827E2],"tree_param":{"num_deleted":"0","num_feature":"10","num_nodes":"63","size_leaf_vector":"1"}},{"base_weights":[-3.0744562E-4,-2.1330062E-1,5.7146007E-1,-2.9286328E-1,2.045912E-1,3.8075605E-1,9.5687985E-1,-4.0871865E-1,-1.2296151E-1,8.942555E-2,5.422268E-1,5.945846E-1,2.1604352E-1,8.2735586E-1,1.1479453E0,-4.3741852E-1,4.487972E-2,1.1461117E-1,-2.989509E-1,-1.8084864E-1,2.3591098E-1,3.7853435E-1,8.359403E-1,7.9825574E-1,4.8442256E-1,3.2555047E-2,3.516464E-1,6.8924195E-1,1.0258627E0,1.0902325E0,1.2837846E0,-1.409805E-2,-2.2861512E-2,1.8600076E-2,-2.6347227E-3,1.3503917E-2,1.2875701E-3,-1.528169E-2,-4.183035E-3,-4.1089123E-3,-2.2735884E-2,1.628149E-2,-2.0598972E-3,9.445559E-3,2.4495555E-2,4.1911233E-2,1.9002924E-2,2.5433935E-2,3.563782E-2,1.5877398E-2,3.0002957E-2,-8.085389E-4,1.378317E-2,1.1805352E-2,2.4016086E-2,2.3560088E-2,3.2408956E-2,4.7057044E-2,3.7624203E-2,3.917709E-2,4.650302E-2,5.012548E-2,3.2438677E-2],"categories":[],"categories_nodes":[],"categories_segments":[],"categories_sizes":[],"default_left":[0,0,0,0,0,0,0,0,0,0,0,0,0,0,0,0,0,0,0,0,0,0,0,0,0,0,0,0,0,0,0,0,0,0,0,0,0,0,0,0,0,0,0,0,0,0,0,0,0,0,0,0,0,0,0,0,0,0,0,0,0,0,0],"id":12,"left_children":[1,3,5,7,9,11,13,15,17,19,21,23,25,27,29,31,33,35,37,39,41,43,45,47,49,51,53,55,57,59,61,-1,-1,-1,-1,-1,-1,-1,-1,-1,-1,-1,-1,-1,-1,-1,-1,-1,-1,-1,-1,-1,-1,-1,-1,-1,-1,-1,-1,-1,-1,-1,-1],"loss_changes":[3.8722065E3,7.703047E2,6.33937E2,3.8302966E2,1.4404744E2,2.0326514E2,6.972705E1,1.5064941E2,3.2999023E2,1.0949079E2,4.4989716E1,5.597986E1,8.119385E1,4.6056152E1,7.6259766E0,1.20398926E2,3.4479565E1,6.461745E1,8.5539276E1,2.946072E1,9.791628E1,2.0721909E1,2.8855042E1,1.4949524E1,3.3966095E1,2.433051E1,2.2419815E1,1.12677E1,5.116699E0,5.6174316E0,2.2746582E0,0E0,0E0,0E0,0E0,0E0,0E0,0E0,0E0,0E0,0E0,0E0,0E0,0E0,0E0,0E0,0E0,0E0,0E0,0E0,0E0,0E0,0E0,0E0,0E0,0E0,0E0,0E0,0E0,0E0,0E0,0E0,0E0],"parents":[2147483647,0,0,1,1,2,2,3,3,4,4,5,5,6,6,7,7,8,8,9,9,10,10,11,11,12,12,13,13,14,14,15,15,16,16,17,17,18,18,19,19,20,20,21,21,22,22,23,23,24,24,25,25,26,26,27,27,28,28,29,29,30,30],"right_children":[2,4,6,8,10,12,14,16,18,20,22,24,26,28,30,32,34,36,38,40,42,44,46,48,50,52,54,56,58,60,62,-1,-1,-1,-1,-1,-1,-1,-1,-1,-1,-1,-1,-1,-1,-1,-1,-1,-1,-1,-1,-1,-1,-1,-1,-1,-1,-1,-1,-1,-1,-1,-1],"split_conditions":[-4.267359E0,6.762263E0,-2.160602E0,-6.0234084E0,1.1640713E1,8.772988E-2,-5.3488225E-1,-2.4565575E-1,3.8904585E-2,-7.276944E0,-6.5618706E0,-1.923077E-2,-3.5464265E0,2.185909E-1,2.4757433E-1,-2.1209741E-2,-1.0834156E-1,-1.14016734E-1,-4.838339E0,-4.3565348E-2,-4.1671347E-2,1.5408702E1,-1.368959E-1,-3.5922236E0,-2.759919E0,3.11E2,3.07E2,-1.2193007E0,-4.7476634E-2,1.230884E0,3.92E2,-1.409805E-2,-2.2861512E-2,1.8600076E-2,-2.6347227E-3,1.3503917E-2,1.2875701E-3,-1.528169E-2,-4.183035E-3,-4.1089123E-3,-2.2735884E-2,1.628149E-2,-2.0598972E-3,9.445559E-3,2.4495555E-2,4.1911233E-2,1.9002924E-2,2.5433935E-2,3.563782E-2,1.5877398E-2,3.0002957E-2,-8.085389E-4,1.378317E-2,1.1805352E-2,2.4016086E-2,2.3560088E-2,3.2408956E-2,4.7057044E-2,3.7624203E-2,3.917709E-2,4.650302E-2,5.012548E-2,3.2438677E-2],"split_indices":[8,1,8,8,1,7,8,6,7,8,8,7,8,5,5,7,7,7,8,7,7,1,7,8,8,0,0,8,7,8,0,0,0,0,0,0,0,0,0,0,0,0,0,0,0,0,0,0,0,0,0,0,0,0,0,0,0,0,0,0,0,0,0],"split_type":[0,0,0,0,0,0,0,0,0,0,0,0,0,0,0,0,0,0,0,0,0,0,0,0,0,0,0,0,0,0,0,0,0,0,0,0,0,0,0,0,0,0,0,0,0,0,0,0,0,0,0,0,0,0,0,0,0,0,0,0,0,0,0],"sum_hessian":[3.179406E4,2.316524E4,8.628821E3,1.9460453E4,3.7047876E3,5.773906E3,2.8549153E3,1.1569708E4,7.890744E3,2.7634534E3,9.4133405E2,2.511233E3,3.2626729E3,1.7046542E3,1.1502611E3,1.088127E4,6.88439E2,3.3580173E3,4.532727E3,9.712345E2,1.792219E3,6.059274E2,3.3540665E2,8.79303E2,1.6319299E3,1.3870511E3,1.8756217E3,1.0078797E3,6.9677454E2,8.1361414E2,3.3664694E2,7.5528984E3,3.3283704E3,1.4056584E2,5.478732E2,8.53804E2,2.5042134E3,2.974692E3,1.5580349E3,8.248008E2,1.4643372E2,1.0853296E3,7.068894E2,4.028541E2,2.0307332E2,1.9004152E2,1.4536513E2,4.351185E2,4.4418448E2,1.3212056E3,3.1072437E2,1.1922803E3,1.9477078E2,1.6186746E3,2.5694724E2,6.8307587E2,3.248038E2,1.2302019E2,5.7375433E2,5.25628E2,2.8798618E2,3.1808478E2,1.8562164E1],"tree_param":{"num_deleted":"0","num_feature":"10","num_nodes":"63","size_leaf_vector":"1"}},{"base_weights":[3.2855542E-3,-2.0272261E-1,5.5555016E-1,-2.6111758E-1,3.3025235E-1,3.1256413E-1,8.4224445E-1,-3.8753885E-1,-1.3135971E-1,-9.836236E-4,6.398733E-1,6.7788225E-1,2.1202905E-1,6.958929E-1,1.0824736E0,-4.1651693E-1,4.621193E-2,7.9104304E-2,-3.2666063E-1,-7.81415E-2,4.5086378E-1,6.178817E-2,7.3570037E-1,9.1047907E-1,5.6958497E-1,6.996869E-2,3.1415233E-1,9.418832E-1,6.206401E-1,1.010528E0,1.1916206E0,-1.3469854E-2,-2.3158647E-2,1.9279024E-2,-3.3798725E-3,1.16920415E-2,-4.0138036E-4,-2.0446548E-2,-8.510488E-3,-5.722741E-3,1.2741058E-2,-3.1200549E-2,2.3934526E-2,1.0832837E-2,-1.6528072E-2,2.1765683E-2,4.166261E-2,1.9048741E-2,3.703643E-2,4.7834367E-3,2.3560528E-2,7.518578E-3,-2.13715E-3,1.7615167E-2,8.502822E-3,3.903739E-2,2.6131202E-2,2.0531477E-2,2.832749E-2,4.2933855E-2,3.353256E-2,4.7606204E-2,3.8928743E-2],"categories":[],"categories_nodes":[],"categories_segments":[],"categories_sizes":[],"default_left":[0,0,0,0,0,0,0,0,0,0,0,0,0,0,0,0,0,0,0,0,0,0,0,0,0,0,0,0,0,0,0,0,0,0,0,0,0,0,0,0,0,0,0,0,0,0,0,0,0,0,0,0,0,0,0,0,0,0,0,0,0,0,0],"id":13,"left_children":[1,3,5,7,9,11,13,15,17,19,21,23,25,27,29,31,33,35,37,39,41,43,45,47,49,51,53,55,57,59,61,-1,-1,-1,-1,-1,-1,-1,-1,-1,-1,-1,-1,-1,-1,-1,-1,-1,-1,-1,-1,-1,-1,-1,-1,-1,-1,-1,-1,-1,-1,-1,-1],"loss_changes":[3.605077E3,7.183555E2,5.994485E2,3.4115613E2,2.3376225E2,1.710485E2,1.3807153E2,1.3243616E2,4.2200082E2,3.8462566E1,6.521683E1,2.4808746E1,5.302832E1,4.488977E1,1.0520386E1,1.2065979E2,4.0537205E1,9.989595E1,1.150412E2,2.7510864E1,3.570721E1,1.844469E1,5.89729E1,6.7485046E0,1.3579849E1,2.4252363E1,2.8435318E1,1.0627472E1,1.8564026E1,1.2456482E1,3.8677979E0,0E0,0E0,0E0,0E0,0E0,0E0,0E0,0E0,0E0,0E0,0E0,0E0,0E0,0E0,0E0,0E0,0E0,0E0,0E0,0E0,0E0,0E0,0E0,0E0,0E0,0E0,0E0,0E0,0E0,0E0,0E0,0E0],"parents":[2147483647,0,0,1,1,2,2,3,3,4,4,5,5,6,6,7,7,8,8,9,9,10,10,11,11,12,12,13,13,14,14,15,15,16,16,17,17,18,18,19,19,20,20,21,21,22,22,23,23,24,24,25,25,26,26,27,27,28,28,29,29,30,30],"right_children":[2,4,6,8,10,12,14,16,18,20,22,24,26,28,30,32,34,36,38,40,42,44,46,48,50,52,54,56,58,60,62,-1,-1,-1,-1,-1,-1,-1,-1,-1,-1,-1,-1,-1,-1,-1,-1,-1,-1,-1,-1,-1,-1,-1,-1,-1,-1,-1,-1,-1,-1,-1,-1],"split_conditions":[-4.267359E0,8.520719E0,-2.759919E0,-6.3907638E0,2.1386188E2,1.1327207E-2,-1.0092297E0,-2.4565575E-1,4.0870555E-2,1.5408702E1,-8.188779E0,-8.39957E-2,-3.720542E0,3.5051547E-2,5.6639266E-1,-2.5265286E-2,-1.0834156E-1,-1.19805396E-1,-5.5456586E0,-5.5025964E0,2.6719921E1,3.3327893E2,1.20215435E1,-4.4793493E-1,-4.3451378E-1,1.2694238E-1,1.08199686E-1,-2.768595E-1,-1.9489522E0,1.2222725E-1,-2.7942294E-1,-1.3469854E-2,-2.3158647E-2,1.9279024E-2,-3.3798725E-3,1.16920415E-2,-4.0138036E-4,-2.0446548E-2,-8.510488E-3,-5.722741E-3,1.2741058E-2,-3.1200549E-2,2.3934526E-2,1.0832837E-2,-1.6528072E-2,2.1765683E-2,4.166261E-2,1.9048741E-2,3.703643E-2,4.7834367E-3,2.3560528E-2,7.518578E-3,-2.13715E-3,1.7615167E-2,8.502822E-3,3.903739E-2,2.6131202E-2,2.0531477E-2,2.832749E-2,4.2933855E-2,3.353256E-2,4.7606204E-2,3.8928743E-2],"split_indices":[8,1,8,8,2,7,8,6,7,1,8,7,8,7,8,7,7,7,8,8,2,2,1,6,6,7,7,6,8,7,6,0,0,0,0,0,0,0,0,0,0,0,0,0,0,0,0,0,0,0,0,0,0,0,0,0,0,0,0,0,0,0,0],"split_type":[0,0,0,0,0,0,0,0,0,0,0,0,0,0,0,0,0,0,0,0,0,0,0,0,0,0,0,0,0,0,0,0,0,0,0,0,0,0,0,0,0,0,0,0,0,0,0,0,0,0,0,0,0,0,0,0,0,0,0,0,0,0,0],"sum_hessian":[3.1685143E4,2.307736E4,8.607785E3,2.079904E4,2.27832E3,4.660174E3,3.947611E3,1.0533962E4,1.0265076E4,1.1012198E3,1.1771003E3,1.0044657E3,3.655708E3,2.4555474E3,1.4920636E3,9.874316E3,6.5964496E2,4.941026E3,5.3240503E3,9.413082E2,1.5991159E2,1.6761188E2,1.0094885E3,3.167516E2,6.877141E2,1.5296068E3,2.1261013E3,5.725264E2,1.883021E3,9.0546985E2,5.865938E2,7.319622E3,2.5546946E3,1.4938116E2,5.102638E2,1.4031772E3,3.5378489E3,1.7921982E3,3.531852E3,8.0292487E2,1.3838338E2,1.8807835E1,1.4110376E2,1.16065796E2,5.1546078E1,6.8362366E2,3.2586487E2,3.829939E1,2.784522E2,6.2967922E1,6.2474615E2,7.634883E2,7.661185E2,8.2647833E2,1.2996229E3,4.414368E2,1.3108963E2,1.0945153E3,7.885057E2,5.0007858E2,4.0539127E2,4.539485E2,1.3264531E2],"tree_param":{"num_deleted":"0","num_feature":"10","num_nodes":"63","size_leaf_vector":"1"}},{"base_weights":[2.4486554E-3,-1.74037E-1,6.007203E-1,-2.9943964E-1,-3.5977494E-2,4.2565697E-1,9.3525416E-1,-2.0877597E-1,-4.6789375E-1,2.5127223E-1,-1.8691866E-1,5.87022E-1,2.6342955E-1,8.07058E-1,1.0895613E0,-3.0699864E-1,-1.623222E-2,-5.3846306E-1,-1.2798809E-1,6.276861E-2,3.9121377E-1,-3.224987E-1,-3.7412737E-2,4.6300182E-1,7.390601E-1,1.5316825E-1,4.0392062E-1,9.2308897E-1,6.9712013E-1,1.0377722E0,1.1828794E0,-1.263969E-2,1.7276365E-2,-7.0533496E-3,5.3292788E-3,-2.5670767E-2,-1.5955305E-2,1.5740896E-2,-6.438771E-3,-2.0894834E-3,1.0555337E-2,1.0021936E-2,2.235879E-2,-5.7416377E-3,-1.6072745E-2,2.9910032E-3,-7.4938135E-3,3.139484E-2,1.4951801E-2,3.9576698E-2,2.6035259E-2,2.6201562E-3,1.1466579E-2,1.7002195E-2,-2.1167265E-3,3.661232E-2,2.3052167E-2,2.5105724E-2,4.3352548E-2,4.0837433E-2,1.2031659E-2,4.5589715E-2,3.4584221E-3],"categories":[],"categories_nodes":[],"categories_segments":[],"categories_sizes":[],"default_left":[0,0,0,0,0,0,0,0,0,0,0,0,0,0,0,0,0,0,0,0,0,0,0,0,0,0,0,0,0,0,0,0,0,0,0,0,0,0,0,0,0,0,0,0,0,0,0,0,0,0,0,0,0,0,0,0,0,0,0,0,0,0,0],"id":14,"left_children":[1,3,5,7,9,11,13,15,17,19,21,23,25,27,29,31,33,35,37,39,41,43,45,47,49,51,53,55,57,59,61,-1,-1,-1,-1,-1,-1,-1,-1,-1,-1,-1,-1,-1,-1,-1,-1,-1,-1,-1,-1,-1,-1,-1,-1,-1,-1,-1,-1,-1,-1,-1,-1],"loss_changes":[3.3467188E3,4.2374646E2,4.224558E2,1.9578809E2,5.0522266E2,1.2397333E2,4.8170654E1,1.5772253E2,1.075578E2,1.0585986E2,1.54819E2,4.4466187E1,3.659474E1,1.6682373E1,4.1966553E0,9.41781E1,7.332461E1,5.9230835E1,1.6645418E1,4.2625923E1,5.7214783E1,6.672424E1,6.6229355E1,3.38201E1,1.8135925E1,1.6397303E1,1.8776611E1,6.0567627E0,1.2225403E1,1.3800842E1,2.2626343E0,0E0,0E0,0E0,0E0,0E0,0E0,0E0,0E0,0E0,0E0,0E0,0E0,0E0,0E0,0E0,0E0,0E0,0E0,0E0,0E0,0E0,0E0,0E0,0E0,0E0,0E0,0E0,0E0,0E0,0E0,0E0,0E0],"parents":[2147483647,0,0,1,1,2,2,3,3,4,4,5,5,6,6,7,7,8,8,9,9,10,10,11,11,12,12,13,13,14,14,15,15,16,16,17,17,18,18,19,19,20,20,21,21,22,22,23,23,24,24,25,25,26,26,27,27,28,28,29,29,30,30],"right_children":[2,4,6,8,10,12,14,16,18,20,22,24,26,28,30,32,34,36,38,40,42,44,46,48,50,52,54,56,58,60,62,-1,-1,-1,-1,-1,-1,-1,-1,-1,-1,-1,-1,-1,-1,-1,-1,-1,-1,-1,-1,-1,-1,-1,-1,-1,-1,-1,-1,-1,-1,-1,-1],"split_conditions":[-3.9148262E0,-6.2535872E0,-1.9489522E0,-5.8682058E-2,-7.772596E-3,1.08199686E-1,-5.3488225E-1,-7.1180973E0,-2.8429118E-1,1.9854892E2,-5.013908E0,-3.0899434E0,-3.0264153E0,1.1283128E-1,1.230884E0,-2.1019553E-1,2.0671634E2,2.19E2,2.311637E0,-5.159437E0,-5.3479953E0,6.9742195E-2,1.329114E-1,-6.264745E-2,-4.9097776E-2,2.435873E2,9.110964E0,-2.1019553E-1,3.33E2,-2.1019553E-1,1.0527901E1,-1.263969E-2,1.7276365E-2,-7.0533496E-3,5.3292788E-3,-2.5670767E-2,-1.5955305E-2,1.5740896E-2,-6.438771E-3,-2.0894834E-3,1.0555337E-2,1.0021936E-2,2.235879E-2,-5.7416377E-3,-1.6072745E-2,2.9910032E-3,-7.4938135E-3,3.139484E-2,1.4951801E-2,3.9576698E-2,2.6035259E-2,2.6201562E-3,1.1466579E-2,1.7002195E-2,-2.1167265E-3,3.661232E-2,2.3052167E-2,2.5105724E-2,4.3352548E-2,4.0837433E-2,1.2031659E-2,4.5589715E-2,3.4584221E-3],"split_indices":[8,8,8,7,7,7,8,8,6,2,8,8,8,7,8,6,2,0,3,8,8,7,7,7,7,2,3,6,0,6,3,0,0,0,0,0,0,0,0,0,0,0,0,0,0,0,0,0,0,0,0,0,0,0,0,0,0,0,0,0,0,0,0],"split_type":[0,0,0,0,0,0,0,0,0,0,0,0,0,0,0,0,0,0,0,0,0,0,0,0,0,0,0,0,0,0,0,0,0,0,0,0,0,0,0,0,0,0,0,0,0,0,0,0,0,0,0,0,0,0,0,0,0,0,0,0,0,0,0],"sum_hessian":[3.1694516E4,2.4475219E4,7.219297E3,1.2824898E4,1.165032E4,4.7407236E3,2.4785732E3,8.339005E3,4.485894E3,4.0128916E3,7.637428E3,2.375366E3,2.365358E3,1.3572333E3,1.1213398E3,5.5216445E3,2.81736E3,3.7141902E3,7.717037E2,1.7104014E3,2.3024902E3,4.0046438E3,3.6327844E3,1.310452E3,1.064914E3,1.3264293E3,1.0389286E3,6.567194E2,7.0051385E2,7.289256E2,3.9241425E2,5.3630103E3,1.5863428E2,1.3541383E3,1.4632218E3,1.79521E3,1.9189802E3,5.2552086E1,7.191516E2,1.1025336E3,6.078678E2,1.3733333E3,9.2915704E2,1.4354847E3,2.569159E3,2.0994675E3,1.5333168E3,2.2221805E2,1.0882339E3,1.7945619E2,8.854577E2,8.3918933E2,4.8724002E2,9.5708154E2,8.184705E1,5.968004E2,5.9918987E1,6.3993225E2,6.0581604E1,7.025128E2,2.6412794E1,3.9035748E2,2.0567553E0],"tree_param":{"num_deleted":"0","num_feature":"10","num_nodes":"63","size_leaf_vector":"1"}},{"base_weights":[2.0767995E-3,-2.5261335E-2,4.14653E-1,-1.07359745E-1,1.0834555E-1,3.0277666E-1,6.242064E-1,-1.5556693E-1,-3.2983134E-3,9.819541E-2,9.767993E-1,2.5504884E-1,5.872245E-1,4.307947E-1,8.1606114E-1,-2.5634122E-1,-1.03510834E-1,-1.4679095E-1,3.694872E-2,2.8673688E-2,2.1640539E-1,1.1683079E0,6.119827E-1,-7.032573E-1,2.6628378E-1,2.2611345E-1,7.428474E-1,5.7873136E-1,1.9435705E-1,5.541642E-1,9.375242E-1,-1.4188033E-2,-7.0366915E-3,-7.872957E-3,-2.1506883E-3,-2.1007857E-3,-1.9572334E-2,3.4847893E-3,-1.8494371E-3,-4.6882974E-3,2.4888155E-3,7.941241E-3,3.4318674E-2,4.8958464E-3,4.906276E-2,-4.8884157E-2,2.8149646E-2,4.0607285E-2,-4.8151135E-2,8.783855E-3,2.1021226E-2,-3.5894578E-3,2.0551695E-2,3.792614E-2,1.6304357E-2,-3.7683006E-2,2.3379609E-2,1.8933583E-2,-1.1364633E-2,2.2639208E-2,-4.775909E-2,3.6610097E-2,-4.6577115E-2],"categories":[],"categories_nodes":[],"categories_segments":[],"categories_sizes":[],"default_left":[0,0,0,0,0,0,0,0,0,0,0,0,0,0,0,0,0,0,0,0,0,0,0,0,0,0,0,0,0,0,0,0,0,0,0,0,0,0,0,0,0,0,0,0,0,0,0,0,0,0,0,0,0,0,0,0,0,0,0,0,0,0,0],"id":15,"left_children":[1,3,5,7,9,11,13,15,17,19,21,23,25,27,29,31,33,35,37,39,41,43,45,47,49,51,53,55,57,59,61,-1,-1,-1,-1,-1,-1,-1,-1,-1,-1,-1,-1,-1,-1,-1,-1,-1,-1,-1,-1,-1,-1,-1,-1,-1,-1,-1,-1,-1,-1,-1,-1],"loss_changes":[3.5718347E2,3.2578754E2,4.5948242E1,9.228572E1,9.955182E1,1.7294739E1,2.503061E1,6.5926544E1,3.3647E1,9.183124E1,8.401329E0,1.20529175E1,1.0164234E1,1.1876156E1,1.0368591E1,3.536609E1,4.0005775E1,4.2652428E1,2.0885197E1,3.8450726E1,2.6196136E1,9.560242E0,1.17368355E1,1.4013139E1,1.1331535E1,5.6728497E0,9.582611E0,1.0680626E1,1.9730026E1,7.911831E0,9.556412E0,0E0,0E0,0E0,0E0,0E0,0E0,0E0,0E0,0E0,0E0,0E0,0E0,0E0,0E0,0E0,0E0,0E0,0E0,0E0,0E0,0E0,0E0,0E0,0E0,0E0,0E0,0E0,0E0,0E0,0E0,0E0,0E0],"parents":[2147483647,0,0,1,1,2,2,3,3,4,4,5,5,6,6,7,7,8,8,9,9,10,10,11,11,12,12,13,13,14,14,15,15,16,16,17,17,18,18,19,19,20,20,21,21,22,22,23,23,24,24,25,25,26,26,27,27,28,28,29,29,30,30],"right_children":[2,4,6,8,10,12,14,16,18,20,22,24,26,28,30,32,34,36,38,40,42,44,46,48,50,52,54,56,58,60,62,-1,-1,-1,-1,-1,-1,-1,-1,-1,-1,-1,-1,-1,-1,-1,-1,-1,-1,-1,-1,-1,-1,-1,-1,-1,-1,-1,-1,-1,-1,-1,-1],"split_conditions":[9.476876E0,-3.6510438E-1,6.1752357E0,4.1627307E0,2.2554113E-1,1.5408702E1,1.20215435E1,-7.390511E-2,1.9E2,-2.9899096E-1,5.731492E2,1.55E2,6.4859E-1,-4.5567166E-2,2.27E2,-4.3381888E-1,1.97E2,6.9E2,1.4400024E1,1.84E2,1.916853E-1,1.2727922E2,2.3872757E0,1.7492856E2,-3.364929E-1,-8.0034606E-2,7.20701E-1,-2.7818912E-1,2.8362572E-1,2.6100006E1,5.2600006E1,-1.4188033E-2,-7.0366915E-3,-7.872957E-3,-2.1506883E-3,-2.1007857E-3,-1.9572334E-2,3.4847893E-3,-1.8494371E-3,-4.6882974E-3,2.4888155E-3,7.941241E-3,3.4318674E-2,4.8958464E-3,4.906276E-2,-4.8884157E-2,2.8149646E-2,4.0607285E-2,-4.8151135E-2,8.783855E-3,2.1021226E-2,-3.5894578E-3,2.0551695E-2,3.792614E-2,1.6304357E-2,-3.7683006E-2,2.3379609E-2,1.8933583E-2,-1.1364633E-2,2.2639208E-2,-4.775909E-2,3.6610097E-2,-4.6577115E-2],"split_indices":[1,6,3,1,7,1,1,7,0,6,9,0,5,7,0,6,0,9,4,0,7,9,3,9,6,7,5,7,5,4,4,0,0,0,0,0,0,0,0,0,0,0,0,0,0,0,0,0,0,0,0,0,0,0,0,0,0,0,0,0,0,0,0],"split_type":[0,0,0,0,0,0,0,0,0,0,0,0,0,0,0,0,0,0,0,0,0,0,0,0,0,0,0,0,0,0,0,0,0,0,0,0,0,0,0,0,0,0,0,0,0,0,0,0,0,0,0,0,0,0,0,0,0,0,0,0,0,0,0],"sum_hessian":[3.16659E4,2.9698928E4,1.9669722E3,1.8395504E4,1.1303424E4,1.2839448E3,6.830274E2,1.2571277E4,5.824226E3,1.117394E4,1.2948357E2,1.1010886E3,1.8285626E2,3.4174966E2,3.4127774E2,4.2806104E3,8.290667E3,1.2751807E3,4.5490454E3,7.036735E3,4.137206E3,8.346605E1,4.6017517E1,1.2045534E1,1.0890431E3,5.5808895E1,1.2704737E2,2.0932767E2,1.3242198E2,1.0989216E2,2.3138557E2,1.6727424E3,2.607868E3,2.6361963E3,5.6544707E3,1.01842236E3,2.5675833E2,2.7859678E3,1.7630775E3,1.3611964E3,5.6755386E3,4.081932E3,5.5273888E1,8.22627E0,7.5239784E1,2.2172422E0,4.3800274E1,2.6543741E0,9.39116E0,9.632533E2,1.2578974E2,2.7801207E1,2.8007687E1,7.045551E1,5.6591858E1,3.4404871E0,2.0588718E2,8.225423E1,5.016776E1,1.0839667E2,1.4954891E0,2.3014561E2,1.2399613E0],"tree_param":{"num_deleted":"0","num_feature":"10","num_nodes":"63","size_leaf_vector":"1"}},{"base_weights":[2.423659E-3,-1.0252055E-1,1.1380003E-1,-1.7112139E-1,6.1473045E-2,3.7591368E-2,4.378016E-1,-1.8730111E-1,2.3908703E-1,3.356164E-1,2.9664123E-2,-5.1089883E-2,1.5272409E-1,5.0794244E-1,-6.887842E-3,-2.9338688E-1,-1.3190456E-1,-8.130377E-2,4.3891495E-1,2.404267E-1,5.5169064E-1,-4.6558272E-2,8.257073E-2,-1.0671379E-1,5.680463E-2,1.4041016E-1,9.3066907E-1,4.167119E-1,8.430483E-1,-1.3999967E-1,5.5432457E-1,-4.913146E-3,-1.3000387E-2,-5.548731E-3,5.0956695E-3,-3.6564484E-2,1.27176E-3,2.1131344E-2,-1.6763104E-2,-1.9188065E-2,1.0768081E-2,2.8950186E-2,-1.6319712E-3,-1.0307965E-2,-4.5222265E-4,2.7735932E-3,3.321937E-2,-1.12426365E-2,-2.3516486E-3,4.5061475E-3,-6.151807E-3,8.169129E-3,1.2924055E-3,-1.8051531E-2,3.8507212E-2,-1.7131738E-3,1.8070081E-2,3.5991615E-3,3.597054E-2,1.7985242E-3,-1.8426588E-2,-1.1154949E-2,3.0816892E-2],"categories":[],"categories_nodes":[],"categories_segments":[],"categories_sizes":[],"default_left":[0,0,0,0,0,0,0,0,0,0,0,0,0,0,0,0,0,0,0,0,0,0,0,0,0,0,0,0,0,0,0,0,0,0,0,0,0,0,0,0,0,0,0,0,0,0,0,0,0,0,0,0,0,0,0,0,0,0,0,0,0,0,0],"id":16,"left_children":[1,3,5,7,9,11,13,15,17,19,21,23,25,27,29,31,33,35,37,39,41,43,45,47,49,51,53,55,57,59,61,-1,-1,-1,-1,-1,-1,-1,-1,-1,-1,-1,-1,-1,-1,-1,-1,-1,-1,-1,-1,-1,-1,-1,-1,-1,-1,-1,-1,-1,-1,-1,-1],"loss_changes":[3.691872E2,1.8296663E2,3.783451E2,7.614819E1,4.1822567E1,1.26680565E2,9.1012634E1,6.4793335E1,2.792057E1,1.0123665E1,1.734247E1,4.2071434E1,5.158429E1,7.66991E1,2.984801E1,2.8414093E1,2.4458717E1,1.681005E1,2.6550922E1,1.0516031E1,1.8330517E1,1.36081505E1,2.036069E1,3.912358E1,3.1434875E1,4.114055E1,9.070747E0,4.971994E1,3.8067444E1,2.055995E1,1.635183E1,0E0,0E0,0E0,0E0,0E0,0E0,0E0,0E0,0E0,0E0,0E0,0E0,0E0,0E0,0E0,0E0,0E0,0E0,0E0,0E0,0E0,0E0,0E0,0E0,0E0,0E0,0E0,0E0,0E0,0E0,0E0,0E0],"parents":[2147483647,0,0,1,1,2,2,3,3,4,4,5,5,6,6,7,7,8,8,9,9,10,10,11,11,12,12,13,13,14,14,15,15,16,16,17,17,18,18,19,19,20,20,21,21,22,22,23,23,24,24,25,25,26,26,27,27,28,28,29,29,30,30],"right_children":[2,4,6,8,10,12,14,16,18,20,22,24,26,28,30,32,34,36,38,40,42,44,46,48,50,52,54,56,58,60,62,-1,-1,-1,-1,-1,-1,-1,-1,-1,-1,-1,-1,-1,-1,-1,-1,-1,-1,-1,-1,-1,-1,-1,-1,-1,-1,-1,-1,-1,-1,-1,-1],"split_conditions":[1.8952544E2,-3.5016182E-1,6.506998E0,1.1640713E1,1.0382185E-1,-3.72592E-1,3.2613138E2,-8.184143E-2,5.3315536E1,1.8439566E-1,-3.180742E-1,3.8421025E0,2.2038327E-1,1.1201108E1,-3.483871E-1,-2.1305484E-1,3.6100006E1,1.4398043E0,1.3481113E2,9.2740995E-1,1.6100006E1,2.7305746E0,1.6317992E-1,-4.488032E-1,3.1481082E2,2.9641183E2,2.4941978E0,2.1999025E2,2.170527E2,-8.39957E-2,1.8E2,-4.913146E-3,-1.3000387E-2,-5.548731E-3,5.0956695E-3,-3.6564484E-2,1.27176E-3,2.1131344E-2,-1.6763104E-2,-1.9188065E-2,1.0768081E-2,2.8950186E-2,-1.6319712E-3,-1.0307965E-2,-4.5222265E-4,2.7735932E-3,3.321937E-2,-1.12426365E-2,-2.3516486E-3,4.5061475E-3,-6.151807E-3,8.169129E-3,1.2924055E-3,-1.8051531E-2,3.8507212E-2,-1.7131738E-3,1.8070081E-2,3.5991615E-3,3.597054E-2,1.7985242E-3,-1.8426588E-2,-1.1154949E-2,3.0816892E-2],"split_indices":[2,6,1,1,5,6,2,7,2,7,6,1,7,1,6,7,4,3,2,1,4,3,7,6,2,2,3,2,2,7,9,0,0,0,0,0,0,0,0,0,0,0,0,0,0,0,0,0,0,0,0,0,0,0,0,0,0,0,0,0,0,0,0],"split_type":[0,0,0,0,0,0,0,0,0,0,0,0,0,0,0,0,0,0,0,0,0,0,0,0,0,0,0,0,0,0,0,0,0,0,0,0,0,0,0,0,0,0,0,0,0,0,0,0,0,0,0,0,0,0,0,0,0,0,0,0,0,0,0],"sum_hessian":[3.1584037E4,1.6261626E4,1.5322411E4,1.1465431E4,4.796195E3,1.2405597E4,2.916814E3,1.1030886E4,4.3454462E2,4.9765274E2,4.298542E3,7.008127E3,5.39747E3,2.5193025E3,3.9751144E2,3.782675E3,7.248211E3,1.6714638E2,2.6739825E2,3.4692886E2,1.5072389E2,1.7612437E3,2.5372986E3,4.624186E3,2.3839404E3,5.3145283E3,8.294207E1,1.9819677E3,5.3733496E2,3.219095E2,7.560194E1,8.1717096E2,2.965504E3,6.9159775E3,3.322336E2,1.8546474E1,1.485999E2,2.3743097E2,2.9967276E1,1.7300596E1,3.2962827E2,1.12149734E2,3.8574158E1,2.374551E2,1.5237885E3,2.505539E3,3.17595E1,9.050264E2,3.71916E3,1.8638075E3,5.20133E2,3.1634316E3,2.1510967E3,3.8430018E0,7.909907E1,2.0879842E2,1.7731692E3,6.0462616E1,4.7687234E2,2.0835773E2,1.1355176E2,1.7166656E1,5.8435284E1],"tree_param":{"num_deleted":"0","num_feature":"10","num_nodes":"63","size_leaf_vector":"1"}},{"base_weights":[-1.4662634E-3,-1.4907299E-1,6.589087E-1,-2.3494782E-1,1.0566776E-1,5.032192E-1,9.5853835E-1,-1.2946118E-1,-3.837892E-1,3.5925755E-1,-4.659703E-2,6.814571E-1,3.6601052E-1,8.2761246E-1,1.0599623E0,-2.792695E-1,1.1856239E-1,-4.879608E-1,-2.8406554E-1,6.6494066E-1,2.651396E-1,3.4532916E-2,-1.6590399E-1,9.726645E-1,6.061977E-1,3.9495453E-1,2.4981318E-2,-5.80292E-2,8.332316E-1,1.0655806E0,-6.2437024E-2,-1.4658478E-2,-5.6604566E-3,-2.8490792E-3,1.0396784E-2,-2.2971954E-2,-1.422858E-2,-1.1701659E-2,1.2199478E-2,2.0801386E-2,3.181843E-2,2.6364548E-3,1.3233562E-2,-2.2088771E-3,5.257661E-3,-1.2178527E-2,6.557274E-4,4.2245675E-2,3.0991761E-2,1.8289834E-2,2.8093213E-2,9.3491515E-3,1.8105218E-2,-1.6718552E-2,6.4737317E-3,3.6690608E-2,2.765792E-2,4.5999635E-2,3.957456E-2,-5.6256674E-2,2.0038601E-2],"categories":[],"categories_nodes":[],"categories_segments":[],"categories_sizes":[],"default_left":[0,0,0,0,0,0,0,0,0,0,0,0,0,0,0,0,0,0,0,0,0,0,0,0,0,0,0,0,0,0,0,0,0,0,0,0,0,0,0,0,0,0,0,0,0,0,0,0,0,0,0,0,0,0,0,0,0,0,0,0,0],"id":17,"left_children":[1,3,5,7,9,11,13,15,17,19,21,23,25,27,29,31,33,35,37,39,41,43,45,47,49,51,53,-1,55,57,59,-1,-1,-1,-1,-1,-1,-1,-1,-1,-1,-1,-1,-1,-1,-1,-1,-1,-1,-1,-1,-1,-1,-1,-1,-1,-1,-1,-1,-1,-1],"loss_changes":[3.07308E3,5.6370184E2,2.6819165E2,3.0252185E2,2.508844E2,9.249182E1,2.5259155E1,4.1913867E2,8.28905E1,6.995422E1,3.930789E1,3.5535095E1,2.1161743E1,1.2618774E1,7.037964E0,9.51991E1,1.2490465E2,5.048633E1,5.166458E1,1.1118317E1,2.9222534E1,2.2838999E1,4.5591522E1,6.2470093E0,2.1074493E1,2.2908539E1,1.12605505E1,0E0,1.1236267E1,3.7542725E0,6.062532E0,0E0,0E0,0E0,0E0,0E0,0E0,0E0,0E0,0E0,0E0,0E0,0E0,0E0,0E0,0E0,0E0,0E0,0E0,0E0,0E0,0E0,0E0,0E0,0E0,0E0,0E0,0E0,0E0,0E0,0E0],"parents":[2147483647,0,0,1,1,2,2,3,3,4,4,5,5,6,6,7,7,8,8,9,9,10,10,11,11,12,12,13,13,14,14,15,15,16,16,17,17,18,18,19,19,20,20,21,21,22,22,23,23,24,24,25,25,26,26,28,28,29,29,30,30],"right_children":[2,4,6,8,10,12,14,16,18,20,22,24,26,28,30,32,34,36,38,40,42,44,46,48,50,52,54,-1,56,58,60,-1,-1,-1,-1,-1,-1,-1,-1,-1,-1,-1,-1,-1,-1,-1,-1,-1,-1,-1,-1,-1,-1,-1,-1,-1,-1,-1,-1,-1,-1],"split_conditions":[-3.4992318E0,-5.086151E0,-1.5510895E0,-3.7895083E-2,5.118976E-2,9.595222E-2,-5.3488225E-1,-6.823933E0,-3.7747958E-1,-8.971156E-2,1.5085575E-1,-4.7476634E-2,9.186297E0,-5.151433E-1,1.0527901E1,2.1386188E2,2.0671634E2,-6.0811687E0,1.9602452E-1,2.435896E2,-4.7320004E0,-4.330833E0,-3.9501038E-1,3.773577E0,-2.759919E0,-3.0264153E0,1.8999939E0,-5.80292E-2,1.0961781E-1,2.2222223E-2,1.1565589E-1,-1.4658478E-2,-5.6604566E-3,-2.8490792E-3,1.0396784E-2,-2.2971954E-2,-1.422858E-2,-1.1701659E-2,1.2199478E-2,2.0801386E-2,3.181843E-2,2.6364548E-3,1.3233562E-2,-2.2088771E-3,5.257661E-3,-1.2178527E-2,6.557274E-4,4.2245675E-2,3.0991761E-2,1.8289834E-2,2.8093213E-2,9.3491515E-3,1.8105218E-2,-1.6718552E-2,6.4737317E-3,3.6690608E-2,2.765792E-2,4.5999635E-2,3.957456E-2,-5.6256674E-2,2.0038601E-2],"split_indices":[8,8,8,7,7,7,8,8,6,7,7,7,3,6,3,2,2,8,7,2,8,8,6,3,8,8,4,0,7,7,8,0,0,0,0,0,0,0,0,0,0,0,0,0,0,0,0,0,0,0,0,0,0,0,0,0,0,0,0,0,0],"split_type":[0,0,0,0,0,0,0,0,0,0,0,0,0,0,0,0,0,0,0,0,0,0,0,0,0,0,0,0,0,0,0,0,0,0,0,0,0,0,0,0,0,0,0,0,0,0,0,0,0,0,0,0,0,0,0,0,0,0,0,0,0],"sum_hessian":[3.1524588E4,2.5766129E4,5.7584595E3,1.927012E4,6.49601E3,3.791204E3,1.9672555E3,1.1278622E4,7.9914976E3,2.4366033E3,4.0594062E3,1.6473212E3,2.143883E3,8.627331E2,1.1045223E3,7.0314443E3,4.2471772E3,3.9066785E3,4.084819E3,5.721778E2,1.8644254E3,2.4167217E3,1.6426848E3,3.3585297E2,1.3114683E3,1.9760154E3,1.6786765E2,1.424117E0,8.61309E2,1.0990714E3,5.450964E0,3.9475867E3,3.0838577E3,1.875478E3,2.3716995E3,2.0044598E3,1.9022186E3,3.9478564E3,1.3696272E2,3.301557E2,2.4202213E2,5.392817E2,1.3251437E3,1.273204E3,1.1435176E3,8.981321E2,7.4455273E2,1.8547978E2,1.5037318E2,6.4956464E2,6.619036E2,6.679926E2,1.3080227E3,3.9437756E1,1.2842989E2,4.071025E2,4.542065E2,2.1607162E2,8.8299976E2,1.1594852E0,4.2914786E0],"tree_param":{"num_deleted":"0","num_feature":"10","num_nodes":"61","size_leaf_vector":"1"}},{"base_weights":[-6.696554E-4,-1.0797179E-1,9.9898875E-2,3.050685E-1,-1.2371259E-1,2.9828874E-2,4.153506E-1,5.5997443E-1,1.503746E-1,-6.1787717E-2,-1.974751E-1,8.604399E-2,-7.185449E-2,4.823874E-1,3.9961524E-2,3.8289865E-3,6.629849E-1,-1.1341456E-1,4.3410465E-1,-9.144206E-2,9.15931E-2,-2.2127561E-1,1.9422376E-1,2.8595936E-1,5.87063E-2,-6.5757586E-3,-2.183409E-1,4.2046326E-1,1.0142149E0,2.0047013E-1,-1.9801553E-1,-1.095803E-2,2.7580757E-2,3.1365998E-2,1.1881664E-2,-1.8839652E-2,3.6928577E-3,3.5214186E-2,1.1814162E-2,2.0259531E-2,-3.8656958E-3,9.714165E-3,-5.3961826E-3,-1.310381E-2,-6.171315E-3,-1.1735075E-2,1.2319127E-2,9.094757E-3,2.5318595E-2,5.3996733E-5,6.3945176E-3,-4.580907E-3,3.7591823E-3,-7.668767E-3,-3.1892262E-2,-1.4280222E-3,1.8839963E-2,-6.084381E-3,4.121358E-2,3.1303085E-2,2.5068838E-3,-3.266188E-3,-3.2174736E-2],"categories":[],"categories_nodes":[],"categories_segments":[],"categories_sizes":[],"default_left":[0,0,0,0,0,0,0,0,0,0,0,0,0,0,0,0,0,0,0,0,0,0,0,0,0,0,0,0,0,0,0,0,0,0,0,0,0,0,0,0,0,0,0,0,0,0,0,0,0,0,0,0,0,0,0,0,0,0,0,0,0,0,0],"id":18,"left_children":[1,3,5,7,9,11,13,15,17,19,21,23,25,27,29,31,33,35,37,39,41,43,45,47,49,51,53,55,57,59,61,-1,-1,-1,-1,-1,-1,-1,-1,-1,-1,-1,-1,-1,-1,-1,-1,-1,-1,-1,-1,-1,-1,-1,-1,-1,-1,-1,-1,-1,-1,-1,-1],"loss_changes":[3.4000732E2,9.914511E1,3.5948688E2,2.1993538E1,6.706354E1,7.608352E1,7.4368256E1,1.2090355E1,2.6230154E1,3.6324486E1,6.2516937E1,4.682736E1,4.531403E1,8.216992E1,1.7189812E1,7.242334E0,9.475502E0,1.4465069E1,1.0015703E1,3.871251E1,4.861392E1,4.585846E1,2.4494186E1,1.8691666E1,4.665988E1,3.8701385E1,1.6344543E1,7.270361E1,1.8558624E1,2.2288816E1,1.3043673E1,0E0,0E0,0E0,0E0,0E0,0E0,0E0,0E0,0E0,0E0,0E0,0E0,0E0,0E0,0E0,0E0,0E0,0E0,0E0,0E0,0E0,0E0,0E0,0E0,0E0,0E0,0E0,0E0,0E0,0E0,0E0,0E0],"parents":[2147483647,0,0,1,1,2,2,3,3,4,4,5,5,6,6,7,7,8,8,9,9,10,10,11,11,12,12,13,13,14,14,15,15,16,16,17,17,18,18,19,19,20,20,21,21,22,22,23,23,24,24,25,25,26,26,27,27,28,28,29,29,30,30],"right_children":[2,4,6,8,10,12,14,16,18,20,22,24,26,28,30,32,34,36,38,40,42,44,46,48,50,52,54,56,58,60,62,-1,-1,-1,-1,-1,-1,-1,-1,-1,-1,-1,-1,-1,-1,-1,-1,-1,-1,-1,-1,-1,-1,-1,-1,-1,-1,-1,-1,-1,-1,-1,-1],"split_conditions":[1.8E2,1.0382185E-1,6.506998E0,2.08E2,3.7368992E-1,4.2794278E-1,3.211567E2,1.3999939E0,2.58E2,3.04E2,1.1640713E1,1.2784432E-1,3.0183243E2,1.3200114E1,2.9661322E0,6.8646917E0,9.799988E0,2.671746E1,4.199997E0,-7.010615E-2,3.6E2,2.03E2,3.1134466E1,2.2554113E-1,2.53E2,2.32E2,1.0606602E3,2.1999025E2,2.0671527E2,2.000122E-1,4.21E2,-1.095803E-2,2.7580757E-2,3.1365998E-2,1.1881664E-2,-1.8839652E-2,3.6928577E-3,3.5214186E-2,1.1814162E-2,2.0259531E-2,-3.8656958E-3,9.714165E-3,-5.3961826E-3,-1.310381E-2,-6.171315E-3,-1.1735075E-2,1.2319127E-2,9.094757E-3,2.5318595E-2,5.3996733E-5,6.3945176E-3,-4.580907E-3,3.7591823E-3,-7.668767E-3,-3.1892262E-2,-1.4280222E-3,1.8839963E-2,-6.084381E-3,4.121358E-2,3.1303085E-2,2.5068838E-3,-3.266188E-3,-3.2174736E-2],"split_indices":[2,5,1,0,5,5,2,4,0,0,1,5,2,1,3,3,4,2,4,7,0,0,2,7,0,0,9,2,2,4,0,0,0,0,0,0,0,0,0,0,0,0,0,0,0,0,0,0,0,0,0,0,0,0,0,0,0,0,0,0,0,0,0],"split_type":[0,0,0,0,0,0,0,0,0,0,0,0,0,0,0,0,0,0,0,0,0,0,0,0,0,0,0,0,0,0,0,0,0,0,0,0,0,0,0,0,0,0,0,0,0,0,0,0,0,0,0,0,0,0,0,0,0,0,0,0,0,0,0],"sum_hessian":[3.1505781E4,1.5242567E4,1.6263213E4,5.5888873E2,1.4683679E4,1.330821E4,2.9550037E3,2.100865E2,3.4880228E2,7.983355E3,6.7003237E3,8.570312E3,4.7378984E3,2.5070166E3,4.4798685E2,3.2993633E1,1.7709286E2,1.8106396E2,1.6773831E2,6.690274E3,1.2930807E3,6.316928E3,3.8339566E2,1.0298385E3,7.540473E3,3.2781165E3,1.4597819E3,2.2471565E3,2.5986032E2,2.6763345E2,1.803534E2,2.3914059E1,9.079576E0,1.2226068E2,5.483218E1,6.415766E1,1.16906296E2,3.3390656E1,1.3434766E2,9.838356E1,6.5918906E3,7.624211E2,5.306596E2,2.1100503E3,4.206878E3,7.730811E1,3.0608755E2,9.12241E2,1.1759741E2,4.9270117E3,2.6134614E3,1.5766515E3,1.7014648E3,1.4184427E3,4.133916E1,3.0051923E2,1.9466372E3,1.258808E1,2.4727223E2,4.727015E1,2.2036331E2,1.543016E2,2.6051792E1],"tree_param":{"num_deleted":"0","num_feature":"10","num_nodes":"63","size_leaf_vector":"1"}},{"base_weights":[3.1233241E-3,-1.50131E-1,5.992206E-1,-2.0098758E-1,2.550126E-1,4.4847333E-1,9.135422E-1,-2.9113E-1,3.6775842E-2,9.5009804E-4,5.1979834E-1,3.360865E-1,6.4493924E-1,7.857954E-1,1.0323092E0,-4.064141E-1,-2.2647151E-1,-9.911693E-2,3.2858512E-1,-5.828451E-2,4.3634596E-1,6.171267E-1,-1.2919443E-2,2.1051337E-1,4.3678206E-1,5.4336566E-1,8.31055E-1,6.3871986E-1,9.188552E-1,8.77102E-1,1.0921444E0,-1.7924275E-2,-2.433269E-3,-1.1953249E-2,1.1428272E-3,-7.178625E-3,2.4415622E-3,9.883305E-3,2.3434838E-2,-7.5907866E-3,3.731858E-3,-2.0534089E-2,2.3454716E-2,1.866066E-2,3.7072554E-2,1.9722126E-2,-5.874784E-3,3.7484919E-3,1.2876948E-2,1.2581735E-2,2.055945E-2,1.4501502E-2,2.7450373E-2,1.2127507E-2,3.2973573E-2,3.0212868E-2,1.7021937E-2,3.5508048E-2,-1.4617137E-2,2.4605224E-2,3.7203632E-2,3.968369E-2,4.493332E-2],"categories":[],"categories_nodes":[],"categories_segments":[],"categories_sizes":[],"default_left":[0,0,0,0,0,0,0,0,0,0,0,0,0,0,0,0,0,0,0,0,0,0,0,0,0,0,0,0,0,0,0,0,0,0,0,0,0,0,0,0,0,0,0,0,0,0,0,0,0,0,0,0,0,0,0,0,0,0,0,0,0,0,0],"id":19,"left_children":[1,3,5,7,9,11,13,15,17,19,21,23,25,27,29,31,33,35,37,39,41,43,45,47,49,51,53,55,57,59,61,-1,-1,-1,-1,-1,-1,-1,-1,-1,-1,-1,-1,-1,-1,-1,-1,-1,-1,-1,-1,-1,-1,-1,-1,-1,-1,-1,-1,-1,-1,-1,-1],"loss_changes":[2.876021E3,5.1605164E2,3.0466992E2,4.7690613E2,1.8792241E2,9.5910095E1,3.0838135E1,1.2017395E2,2.4263069E2,3.6818302E1,7.092996E1,3.4951904E1,2.9476013E1,1.9163147E1,9.051636E0,1.2088159E2,2.2552057E2,5.9812904E1,3.8781937E1,2.7306456E1,2.9404541E1,5.2322998E1,1.5766195E1,1.7406109E1,1.6407043E1,2.897113E1,7.894806E0,1.3659256E1,4.9726562E0,6.04126E0,2.3222046E0,0E0,0E0,0E0,0E0,0E0,0E0,0E0,0E0,0E0,0E0,0E0,0E0,0E0,0E0,0E0,0E0,0E0,0E0,0E0,0E0,0E0,0E0,0E0,0E0,0E0,0E0,0E0,0E0,0E0,0E0,0E0,0E0],"parents":[2147483647,0,0,1,1,2,2,3,3,4,4,5,5,6,6,7,7,8,8,9,9,10,10,11,11,12,12,13,13,14,14,15,15,16,16,17,17,18,18,19,19,20,20,21,21,22,22,23,23,24,24,25,25,26,26,27,27,28,28,29,29,30,30],"right_children":[2,4,6,8,10,12,14,16,18,20,22,24,26,28,30,32,34,36,38,40,42,44,46,48,50,52,54,56,58,60,62,-1,-1,-1,-1,-1,-1,-1,-1,-1,-1,-1,-1,-1,-1,-1,-1,-1,-1,-1,-1,-1,-1,-1,-1,-1,-1,-1,-1,-1,-1,-1,-1],"split_conditions":[-3.720542E0,7.944881E0,-1.6915169E0,-5.2299457E0,2.1999025E2,2.4546485E-1,-5.3488225E-1,-7.2578664E0,3.185471E-1,1.5408702E1,3.2613388E2,-3.0264153E0,3.853149E-1,1.8034993E-1,1.392663E-1,-2.9710403E-1,5.6218004E-1,-3.426924E-1,5.3295255E-1,-6.9580617E0,3.517137E1,1.20215435E1,2.000122E-1,2.0671527E2,1.6034986E-1,-2.9549246E0,-4.6759677E-1,2.33E2,1.2695546E1,1.1565589E-1,2.4757433E-1,-1.7924275E-2,-2.433269E-3,-1.1953249E-2,1.1428272E-3,-7.178625E-3,2.4415622E-3,9.883305E-3,2.3434838E-2,-7.5907866E-3,3.731858E-3,-2.0534089E-2,2.3454716E-2,1.866066E-2,3.7072554E-2,1.9722126E-2,-5.874784E-3,3.7484919E-3,1.2876948E-2,1.2581735E-2,2.055945E-2,1.4501502E-2,2.7450373E-2,1.2127507E-2,3.2973573E-2,3.0212868E-2,1.7021937E-2,3.5508048E-2,-1.4617137E-2,2.4605224E-2,3.7203632E-2,3.968369E-2,4.493332E-2],"split_indices":[8,1,8,8,2,5,8,8,5,1,2,8,5,5,5,6,5,6,5,8,2,1,4,2,5,8,6,0,1,8,5,0,0,0,0,0,0,0,0,0,0,0,0,0,0,0,0,0,0,0,0,0,0,0,0,0,0,0,0,0,0,0,0],"split_type":[0,0,0,0,0,0,0,0,0,0,0,0,0,0,0,0,0,0,0,0,0,0,0,0,0,0,0,0,0,0,0,0,0,0,0,0,0,0,0,0,0,0,0,0,0,0,0,0,0,0,0,0,0,0,0,0,0,0,0,0,0,0,0],"sum_hessian":[3.1480004E4,2.5042438E4,6.437567E3,2.2249965E4,2.7924736E3,4.3525366E3,2.0850303E3,1.6133211E4,6.116754E3,1.4256056E3,1.3668682E3,2.7704385E3,1.5820979E3,1.0082083E3,1.076822E3,5.7952236E3,1.0337987E4,4.1737427E3,1.9430112E3,1.2556442E3,1.6996138E2,1.1555829E3,2.1128522E2,1.2342937E3,1.5361448E3,1.0260471E3,5.560508E2,4.816378E2,5.2657056E2,3.0398105E2,7.7284094E2,4.9220586E3,8.73165E2,7.760267E3,2.5777202E3,2.708851E3,1.4648915E3,1.5542537E3,3.8875757E2,6.61666E2,5.939782E2,2.5632368E1,1.4432901E2,8.4263873E2,3.1294418E2,4.3841007E1,1.674442E2,6.5011505E2,5.8417865E2,7.344132E2,8.017316E2,5.250385E2,5.010086E2,2.9767735E1,5.26283E2,2.7142786E2,2.1020993E2,5.24142E2,2.4285033E0,8.8031136E1,2.159499E2,4.5507782E2,3.1776312E2],"tree_param":{"num_deleted":"0","num_feature":"10","num_nodes":"63","size_leaf_vector":"1"}},{"base_weights":[-1.4727833E-3,-1.7912641E-1,4.835148E-1,-2.4371311E-1,1.6185796E-1,3.120916E-1,8.16504E-1,-3.6805287E-1,-1.2085369E-1,-9.245999E-2,4.0569943E-1,6.433389E-1,2.2042462E-1,6.7713445E-1,9.9759257E-1,-3.9652193E-1,4.6630345E-2,4.2828877E-2,-3.0303964E-1,-4.127845E-1,-7.6279286E-3,-1.5800492E-1,4.884234E-1,9.062206E-1,5.884489E-1,1.4329818E-1,4.1403952E-1,7.847064E-1,5.519437E-1,1.1092436E0,9.307636E-1,-1.9538542E-2,-1.1824983E-2,1.53742265E-2,-1.9401141E-3,1.0071883E-2,-1.0386815E-3,-1.8107044E-2,-7.7914963E-3,-9.856525E-3,-3.0782457E-2,-6.209979E-3,8.156777E-3,-1.6950687E-2,1.2869497E-3,2.375083E-2,2.6130578E-3,1.6010303E-2,3.8024034E-2,1.839435E-2,2.7788218E-2,1.0059511E-2,2.305012E-3,1.933604E-2,9.3242135E-3,4.0621154E-2,2.8297441E-2,1.9664029E-2,3.700953E-2,4.448848E-2,3.8378403E-2,3.68227E-2,2.3727173E-2],"categories":[],"categories_nodes":[],"categories_segments":[],"categories_sizes":[],"default_left":[0,0,0,0,0,0,0,0,0,0,0,0,0,0,0,0,0,0,0,0,0,0,0,0,0,0,0,0,0,0,0,0,0,0,0,0,0,0,0,0,0,0,0,0,0,0,0,0,0,0,0,0,0,0,0,0,0,0,0,0,0,0,0],"id":20,"left_children":[1,3,5,7,9,11,13,15,17,19,21,23,25,27,29,31,33,35,37,39,41,43,45,47,49,51,53,55,57,59,61,-1,-1,-1,-1,-1,-1,-1,-1,-1,-1,-1,-1,-1,-1,-1,-1,-1,-1,-1,-1,-1,-1,-1,-1,-1,-1,-1,-1,-1,-1,-1,-1],"loss_changes":[2.7038762E3,5.0587793E2,4.8000647E2,2.9496045E2,2.269018E2,1.6855786E2,7.147266E1,1.133208E2,2.8971896E2,4.8678864E1,8.717685E1,1.6835663E1,6.494505E1,2.136377E1,8.228516E0,8.926636E1,2.1274542E1,7.86182E1,7.753845E1,2.257085E1,4.8188934E1,1.3052237E1,8.944211E1,8.145065E0,1.4441437E1,3.0806206E1,1.895137E1,1.0423584E1,1.1713287E1,1.3624268E0,6.517395E0,0E0,0E0,0E0,0E0,0E0,0E0,0E0,0E0,0E0,0E0,0E0,0E0,0E0,0E0,0E0,0E0,0E0,0E0,0E0,0E0,0E0,0E0,0E0,0E0,0E0,0E0,0E0,0E0,0E0,0E0,0E0,0E0],"parents":[2147483647,0,0,1,1,2,2,3,3,4,4,5,5,6,6,7,7,8,8,9,9,10,10,11,11,12,12,13,13,14,14,15,15,16,16,17,17,18,18,19,19,20,20,21,21,22,22,23,23,24,24,25,25,26,26,27,27,28,28,29,29,30,30],"right_children":[2,4,6,8,10,12,14,16,18,20,22,24,26,28,30,32,34,36,38,40,42,44,46,48,50,52,54,56,58,60,62,-1,-1,-1,-1,-1,-1,-1,-1,-1,-1,-1,-1,-1,-1,-1,-1,-1,-1,-1,-1,-1,-1,-1,-1,-1,-1,-1,-1,-1,-1,-1,-1],"split_conditions":[-4.267359E0,6.762263E0,-2.2587316E0,-6.3907638E0,2.1386188E2,1.48768015E-2,-7.9080653E-1,-2.4565575E-1,5.9596434E-2,3.1134466E1,-8.267132E0,-1.1792453E-1,-3.0264153E0,1.23774186E-1,8.1268586E-2,2.19E2,-1.0834156E-1,-1.19805396E-1,-5.4585013E0,-2.5265286E-2,1.0272117E1,-4.3789765E-1,-4.1671347E-2,-4.4386718E-1,-3.456935E0,2.11E2,1.570248E-1,-4.7476634E-2,3.35E2,5.731492E2,-2.6464817E-1,-1.9538542E-2,-1.1824983E-2,1.53742265E-2,-1.9401141E-3,1.0071883E-2,-1.0386815E-3,-1.8107044E-2,-7.7914963E-3,-9.856525E-3,-3.0782457E-2,-6.209979E-3,8.156777E-3,-1.6950687E-2,1.2869497E-3,2.375083E-2,2.6130578E-3,1.6010303E-2,3.8024034E-2,1.839435E-2,2.7788218E-2,1.0059511E-2,2.305012E-3,1.933604E-2,9.3242135E-3,4.0621154E-2,2.8297441E-2,1.9664029E-2,3.700953E-2,4.448848E-2,3.8378403E-2,3.68227E-2,2.3727173E-2],"split_indices":[8,1,8,8,2,7,8,6,7,2,8,7,8,7,7,0,7,7,8,7,1,6,7,6,8,0,7,7,0,9,6,0,0,0,0,0,0,0,0,0,0,0,0,0,0,0,0,0,0,0,0,0,0,0,0,0,0,0,0,0,0,0,0],"split_type":[0,0,0,0,0,0,0,0,0,0,0,0,0,0,0,0,0,0,0,0,0,0,0,0,0,0,0,0,0,0,0,0,0,0,0,0,0,0,0,0,0,0,0,0,0,0,0,0,0,0,0,0,0,0,0,0,0,0,0,0,0,0,0],"sum_hessian":[3.1380104E4,2.2967582E4,8.412521E3,1.9310262E4,3.6573196E3,5.554828E3,2.8576936E3,9.59632E3,9.713941E3,1.7905062E3,1.8668134E3,1.2027086E3,4.352119E3,1.6175405E3,1.2401532E3,8.979873E3,6.1644763E2,5.1172134E3,4.596728E3,3.740884E2,1.4164177E3,2.3878127E2,1.6280321E3,2.0506976E2,9.976389E2,3.1135698E3,1.2385494E3,8.671563E2,7.503843E2,4.5851477E2,7.8163837E2,3.9404744E3,5.0393984E3,1.3209113E2,4.8435654E2,1.2344529E3,3.8827605E3,1.7070333E3,2.8896946E3,2.6838965E2,1.0569877E2,8.331822E2,5.832356E2,9.568467E1,1.430966E2,1.2415178E3,3.8651422E2,3.1235817E1,1.7383394E2,5.562279E2,4.41411E2,1.2808671E3,1.8327028E3,8.101768E2,4.2837256E2,1.2392068E2,7.4323566E2,6.8711E2,6.3274273E1,3.067031E2,1.5181168E2,7.131149E2,6.8523445E1],"tree_param":{"num_deleted":"0","num_feature":"10","num_nodes":"63","size_leaf_vector":"1"}},{"base_weights":[-3.6383545E-4,-1.5070331E-1,5.31065E-1,-2.1624027E-1,1.3940641E-1,3.7377882E-1,8.315414E-1,-3.251836E-1,-3.6661204E-2,-1.04173906E-1,3.794729E-1,6.409518E-1,2.8956512E-1,7.0871365E-1,9.8415583E-1,-2.607455E-1,-4.4345278E-1,1.504474E-1,-2.01532E-1,-2.0006672E-1,2.2256882E-1,2.9020917E-1,8.15947E-1,7.0852643E-1,3.656167E-1,1.7912808E-1,4.235346E-1,8.079506E-1,5.9310645E-1,1.1279732E0,9.479038E-1,-1.5757756E-2,-3.5195162E-3,-2.0099783E-2,-1.006245E-2,2.2109933E-3,1.2052387E-2,-1.2223922E-2,-3.1638078E-3,-1.5550137E-2,-5.5675064E-3,-6.6214767E-3,1.5975669E-2,-2.699495E-3,1.4649662E-2,3.7922934E-2,8.618092E-3,3.9250758E-2,2.5153173E-2,1.0463496E-2,3.7282456E-2,2.4324802E-3,9.664338E-3,1.1153144E-2,2.0664642E-2,2.4752654E-2,3.4500122E-2,2.0819934E-2,3.851174E-2,4.5931E-2,3.814917E-2,3.6735915E-2,-4.4764746E-3],"categories":[],"categories_nodes":[],"categories_segments":[],"categories_sizes":[],"default_left":[0,0,0,0,0,0,0,0,0,0,0,0,0,0,0,0,0,0,0,0,0,0,0,0,0,0,0,0,0,0,0,0,0,0,0,0,0,0,0,0,0,0,0,0,0,0,0,0,0,0,0,0,0,0,0,0,0,0,0,0,0,0,0],"id":21,"left_children":[1,3,5,7,9,11,13,15,17,19,21,23,25,27,29,31,33,35,37,39,41,43,45,47,49,51,53,55,57,59,61,-1,-1,-1,-1,-1,-1,-1,-1,-1,-1,-1,-1,-1,-1,-1,-1,-1,-1,-1,-1,-1,-1,-1,-1,-1,-1,-1,-1,-1,-1,-1,-1],"loss_changes":[2.5027996E3,4.6429388E2,3.261604E2,3.8968292E2,2.6319727E2,1.0187628E2,4.3779907E1,9.436743E1,2.3208589E2,7.005937E1,8.8077545E1,1.9952606E1,5.098001E1,1.4644104E1,4.433655E0,2.0348334E2,6.3597473E1,5.3533455E1,5.573604E1,1.9430199E1,3.8951416E1,6.2278E1,3.8998367E1,1.3816803E1,1.1902788E1,1.5932411E1,2.367395E1,9.924683E0,1.2136917E1,7.274475E-1,8.877319E0,0E0,0E0,0E0,0E0,0E0,0E0,0E0,0E0,0E0,0E0,0E0,0E0,0E0,0E0,0E0,0E0,0E0,0E0,0E0,0E0,0E0,0E0,0E0,0E0,0E0,0E0,0E0,0E0,0E0,0E0,0E0,0E0],"parents":[2147483647,0,0,1,1,2,2,3,3,4,4,5,5,6,6,7,7,8,8,9,9,10,10,11,11,12,12,13,13,14,14,15,15,16,16,17,17,18,18,19,19,20,20,21,21,22,22,23,23,24,24,25,25,26,26,27,27,28,28,29,29,30,30],"right_children":[2,4,6,8,10,12,14,16,18,20,22,24,26,28,30,32,34,36,38,40,42,44,46,48,50,52,54,56,58,60,62,-1,-1,-1,-1,-1,-1,-1,-1,-1,-1,-1,-1,-1,-1,-1,-1,-1,-1,-1,-1,-1,-1,-1,-1,-1,-1,-1,-1,-1,-1,-1,-1],"split_conditions":[-3.8784008E0,6.506998E0,-1.9489522E0,-5.7182174E0,2.170527E2,3.1490553E-2,-5.3488225E-1,-2.1209741E-2,6.8068065E-2,1.1640713E1,1.20215435E1,-2.768595E-1,-3.0264153E0,1.23774186E-1,2.2222223E-2,-7.196921E0,-3.3300653E-1,-4.7320004E0,-4.7843018E0,3.1134466E1,5.3315536E1,-7.6955166E0,3.1480643E2,-1.2555179E-1,8.3354663E2,2.084082E0,1.8E2,2.0840576E0,2.7099976E1,-2.8656295E-1,-1.807154E-1,-1.5757756E-2,-3.5195162E-3,-2.0099783E-2,-1.006245E-2,2.2109933E-3,1.2052387E-2,-1.2223922E-2,-3.1638078E-3,-1.5550137E-2,-5.5675064E-3,-6.6214767E-3,1.5975669E-2,-2.699495E-3,1.4649662E-2,3.7922934E-2,8.618092E-3,3.9250758E-2,2.5153173E-2,1.0463496E-2,3.7282456E-2,2.4324802E-3,9.664338E-3,1.1153144E-2,2.0664642E-2,2.4752654E-2,3.4500122E-2,2.0819934E-2,3.851174E-2,4.5931E-2,3.814917E-2,3.6735915E-2,-4.4764746E-3],"split_indices":[8,1,8,8,2,7,8,7,7,1,1,6,8,7,7,8,6,8,8,2,2,8,2,7,9,1,2,1,4,6,6,0,0,0,0,0,0,0,0,0,0,0,0,0,0,0,0,0,0,0,0,0,0,0,0,0,0,0,0,0,0,0,0],"split_type":[0,0,0,0,0,0,0,0,0,0,0,0,0,0,0,0,0,0,0,0,0,0,0,0,0,0,0,0,0,0,0,0,0,0,0,0,0,0,0,0,0,0,0,0,0,0,0,0,0,0,0,0,0,0,0,0,0,0,0,0,0,0,0],"sum_hessian":[3.1324215E4,2.4417344E4,6.9068706E3,1.9918035E4,4.4993096E3,4.535159E3,2.3717117E3,1.2396668E4,7.5213667E3,2.2335913E3,2.2657183E3,1.0853165E3,3.4498428E3,1.3172227E3,1.0544889E3,8.026624E3,4.370044E3,3.5231272E3,3.9982397E3,1.7271061E3,5.0648526E2,1.8824097E3,3.833085E2,8.7017816E2,2.1513837E2,1.8922848E3,1.557558E3,7.055721E2,6.116506E2,2.0622969E2,8.482592E2,4.2514326E3,3.775192E3,3.0243638E3,1.3456802E3,2.2493464E3,1.2737806E3,2.0147848E3,1.9834548E3,3.6328442E2,1.3638217E3,1.6673488E2,3.3975037E2,3.8159323E2,1.5008164E3,2.9618362E2,8.712488E1,1.2251945E2,7.476587E2,1.8781789E2,2.7320482E1,7.314154E2,1.1608694E3,7.249088E2,8.3264923E2,2.566158E2,4.4895624E2,5.46885E2,6.476554E1,1.305156E2,7.57141E1,8.4070355E2,7.5557127E0],"tree_param":{"num_deleted":"0","num_feature":"10","num_nodes":"63","size_leaf_vector":"1"}},{"base_weights":[-1.4146842E-3,-1.3264488E-1,5.766295E-1,-2.0657542E-1,9.053487E-2,4.3009695E-1,8.472922E-1,-2.7882195E-1,1.0933275E-1,3.2883692E-1,-5.375444E-2,3.1041133E-1,6.435835E-1,7.201671E-1,9.662101E-1,-3.6139795E-1,-1.8929799E-1,2.0682062E-1,-2.0053859E-1,5.963286E-1,2.465064E-1,-1.1343566E-1,1.0460433E-1,2.0546184E-1,3.989727E-1,8.7442625E-1,5.6923366E-1,6.1087424E-1,8.727632E-1,8.134711E-1,1.0263004E0,-1.5013791E-2,1.4299506E-3,-1.4512162E-4,-1.337401E-2,3.2896388E-3,1.7918414E-2,-1.05308145E-2,1.0526124E-2,1.651891E-2,2.897801E-2,1.9225472E-3,1.25516355E-2,3.3616222E-2,-4.773446E-3,8.122446E-3,-1.1972887E-3,5.860166E-4,1.1458661E-2,1.0380225E-2,2.1044279E-2,3.0345121E-2,3.9784778E-2,1.5776291E-2,2.654153E-2,2.7933821E-2,1.7404031E-2,4.299125E-2,3.2069203E-2,2.5164882E-2,3.911214E-2,3.7175536E-2,4.3676924E-2],"categories":[],"categories_nodes":[],"categories_segments":[],"categories_sizes":[],"default_left":[0,0,0,0,0,0,0,0,0,0,0,0,0,0,0,0,0,0,0,0,0,0,0,0,0,0,0,0,0,0,0,0,0,0,0,0,0,0,0,0,0,0,0,0,0,0,0,0,0,0,0,0,0,0,0,0,0,0,0,0,0,0,0],"id":22,"left_children":[1,3,5,7,9,11,13,15,17,19,21,23,25,27,29,31,33,35,37,39,41,43,45,47,49,51,53,55,57,59,61,-1,-1,-1,-1,-1,-1,-1,-1,-1,-1,-1,-1,-1,-1,-1,-1,-1,-1,-1,-1,-1,-1,-1,-1,-1,-1,-1,-1,-1,-1,-1,-1],"loss_changes":[2.3697349E3,4.2009708E2,2.2887366E2,4.365196E2,2.1787267E2,9.566547E1,2.997876E1,1.14999146E2,1.0759568E2,5.2479095E1,3.7317337E1,2.2280716E1,2.261847E1,1.5888123E1,8.760376E0,9.673877E1,2.2080643E2,8.531328E1,3.0025726E1,1.4479904E1,2.8962181E1,3.1308445E1,1.5733269E1,1.9556644E1,2.4892899E1,3.606079E0,1.9508118E1,1.0308426E1,2.7915955E0,9.067551E0,3.6921387E0,0E0,0E0,0E0,0E0,0E0,0E0,0E0,0E0,0E0,0E0,0E0,0E0,0E0,0E0,0E0,0E0,0E0,0E0,0E0,0E0,0E0,0E0,0E0,0E0,0E0,0E0,0E0,0E0,0E0,0E0,0E0,0E0],"parents":[2147483647,0,0,1,1,2,2,3,3,4,4,5,5,6,6,7,7,8,8,9,9,10,10,11,11,12,12,13,13,14,14,15,15,16,16,17,17,18,18,19,19,20,20,21,21,22,22,23,23,24,24,25,25,26,26,27,27,28,28,29,29,30,30],"right_children":[2,4,6,8,10,12,14,16,18,20,22,24,26,28,30,32,34,36,38,40,42,44,46,48,50,52,54,56,58,60,62,-1,-1,-1,-1,-1,-1,-1,-1,-1,-1,-1,-1,-1,-1,-1,-1,-1,-1,-1,-1,-1,-1,-1,-1,-1,-1,-1,-1,-1,-1,-1,-1],"split_conditions":[-3.5464265E0,-5.086151E0,-1.6915169E0,6.671672E0,5.118976E-2,2.4546485E-1,-5.3488225E-1,-6.651573E0,-4.3565348E-2,-8.971156E-2,3.9419796E0,1.5879962E-1,-4.3565348E-2,2.0940326E-1,1.392663E-1,-2.4565575E-1,3.4290613E-3,-6.651573E0,-2.8871968E-1,3.819992E0,-4.7320004E0,1.54E2,1.3876967E-1,-3.6903226E-1,-2.759919E0,3.2E2,-2.9549246E0,2.33E2,2.674981E0,1.230884E0,2.7180162E-1,-1.5013791E-2,1.4299506E-3,-1.4512162E-4,-1.337401E-2,3.2896388E-3,1.7918414E-2,-1.05308145E-2,1.0526124E-2,1.651891E-2,2.897801E-2,1.9225472E-3,1.25516355E-2,3.3616222E-2,-4.773446E-3,8.122446E-3,-1.1972887E-3,5.860166E-4,1.1458661E-2,1.0380225E-2,2.1044279E-2,3.0345121E-2,3.9784778E-2,1.5776291E-2,2.654153E-2,2.7933821E-2,1.7404031E-2,4.299125E-2,3.2069203E-2,2.5164882E-2,3.911214E-2,3.7175536E-2,4.3676924E-2],"split_indices":[8,8,8,1,7,5,8,8,7,7,1,5,7,5,5,6,7,8,6,1,8,0,7,6,8,0,8,0,3,8,5,0,0,0,0,0,0,0,0,0,0,0,0,0,0,0,0,0,0,0,0,0,0,0,0,0,0,0,0,0,0,0,0],"split_type":[0,0,0,0,0,0,0,0,0,0,0,0,0,0,0,0,0,0,0,0,0,0,0,0,0,0,0,0,0,0,0,0,0,0,0,0,0,0,0,0,0,0,0,0,0,0,0,0,0,0,0,0,0,0,0,0,0,0,0,0,0,0,0],"sum_hessian":[3.1237557E4,2.5458602E4,5.778955E3,1.9123742E4,6.334859E3,3.7508777E3,2.0280775E3,1.556437E4,3.559372E3,2.3886265E3,3.9462322E3,2.40502E3,1.3458577E3,9.836241E2,1.0444534E3,8.0947856E3,7.469585E3,2.7078076E3,8.515643E2,5.60693E2,1.8279336E3,2.8662878E3,1.0799442E3,1.1021907E3,1.3028293E3,3.252509E2,1.02060675E3,5.760483E2,4.0757578E2,2.9899576E2,7.4545764E2,7.5288613E3,5.6592426E2,3.4515986E3,4.017986E3,1.8490072E3,8.5880054E2,7.37172E2,1.1439224E2,2.7639218E2,2.843008E2,5.3273816E2,1.2951953E3,3.0625734E1,2.835662E3,6.0342773E2,4.7651654E2,3.6295554E2,7.3923517E2,7.0260693E2,6.002225E2,2.188653E2,1.06385605E2,4.4789624E2,5.727105E2,3.2783566E2,2.4821263E2,4.8891796E1,3.58684E2,1.718425E2,1.2715325E2,5.0004858E2,2.4540907E2],"tree_param":{"num_deleted":"0","num_feature":"10","num_nodes":"63","size_leaf_vector":"1"}},{"base_weights":[1.5291931E-3,-1.207219E-1,5.610772E-1,-1.989685E-1,7.892403E-2,4.119194E-1,8.2606435E-1,-9.937961E-2,-3.295778E-1,3.8035172E-1,-3.0660896E-2,2.9805672E-1,6.198314E-1,7.0074904E-1,9.448924E-1,-2.2584328E-1,1.01509385E-1,1.291798E-1,-3.5257113E-1,5.73912E-1,2.80686E-1,6.884635E-2,-1.5800574E-1,1.727575E-1,3.657232E-1,8.582603E-1,5.4208297E-1,6.009306E-1,8.601525E-1,7.6344526E-1,1.0151308E0,-1.2222516E-2,-3.5522731E-3,-2.1505114E-3,8.700149E-3,2.9502837E-3,3.43587E-2,-1.6498568E-2,-9.164076E-3,1.557217E-2,2.7329553E-2,3.8641326E-3,1.5062457E-2,-5.1632458E-5,6.691103E-3,2.0486614E-2,-7.5483574E-3,7.036411E-3,-4.2588938E-2,9.6095875E-3,1.7942032E-2,3.3736855E-2,2.193156E-5,1.7665604E-2,2.6839197E-2,2.7821917E-2,1.8332705E-2,3.3222683E-2,-1.8272227E-2,2.9833846E-2,-5.9054874E-2,3.6461074E-2,4.251798E-2],"categories":[],"categories_nodes":[],"categories_segments":[],"categories_sizes":[],"default_left":[0,0,0,0,0,0,0,0,0,0,0,0,0,0,0,0,0,0,0,0,0,0,0,0,0,0,0,0,0,0,0,0,0,0,0,0,0,0,0,0,0,0,0,0,0,0,0,0,0,0,0,0,0,0,0,0,0,0,0,0,0,0,0],"id":23,"left_children":[1,3,5,7,9,11,13,15,17,19,21,23,25,27,29,31,33,35,37,39,41,43,45,47,49,51,53,55,57,59,61,-1,-1,-1,-1,-1,-1,-1,-1,-1,-1,-1,-1,-1,-1,-1,-1,-1,-1,-1,-1,-1,-1,-1,-1,-1,-1,-1,-1,-1,-1,-1,-1],"loss_changes":[2.1338738E3,3.9994727E2,2.2073767E2,2.3920789E2,2.3814784E2,8.458679E1,2.9321045E1,2.651803E2,8.3976135E1,3.6921173E1,6.701963E1,1.957045E1,2.3006836E1,1.5137909E1,1.2360107E1,7.914194E1,7.961896E1,1.5176041E1,6.665924E1,1.4888855E1,2.556282E1,2.2002686E1,6.2328365E1,1.1336296E1,1.754071E1,5.6196594E0,1.1985962E1,8.958389E0,3.3648376E0,1.0759018E1,3.407898E0,0E0,0E0,0E0,0E0,0E0,0E0,0E0,0E0,0E0,0E0,0E0,0E0,0E0,0E0,0E0,0E0,0E0,0E0,0E0,0E0,0E0,0E0,0E0,0E0,0E0,0E0,0E0,0E0,0E0,0E0,0E0,0E0],"parents":[2147483647,0,0,1,1,2,2,3,3,4,4,5,5,6,6,7,7,8,8,9,9,10,10,11,11,12,12,13,13,14,14,15,15,16,16,17,17,18,18,19,19,20,20,21,21,22,22,23,23,24,24,25,25,26,26,27,27,28,28,29,29,30,30],"right_children":[2,4,6,8,10,12,14,16,18,20,22,24,26,28,30,32,34,36,38,40,42,44,46,48,50,52,54,56,58,60,62,-1,-1,-1,-1,-1,-1,-1,-1,-1,-1,-1,-1,-1,-1,-1,-1,-1,-1,-1,-1,-1,-1,-1,-1,-1,-1,-1,-1,-1,-1,-1,-1],"split_conditions":[-3.4992318E0,-5.2299457E0,-1.6915169E0,-5.122633E-2,7.26257E-3,2.4546485E-1,-5.3488225E-1,-6.9016447E0,1.10284165E-1,-9.1451295E-2,1.329114E-1,-3.0264153E0,-4.3565348E-2,2.185909E-1,1.392663E-1,2.2518958E2,2.0671634E2,3.45E1,-6.0811687E0,2.170527E2,-4.7320004E0,-4.2997713E0,9.0427294E-2,3.4587378E2,1.6034986E-1,1.0396635E3,-2.5275524E0,2.23E2,1.0395802E1,1.085702E1,2.4757433E-1,-1.2222516E-2,-3.5522731E-3,-2.1505114E-3,8.700149E-3,2.9502837E-3,3.43587E-2,-1.6498568E-2,-9.164076E-3,1.557217E-2,2.7329553E-2,3.8641326E-3,1.5062457E-2,-5.1632458E-5,6.691103E-3,2.0486614E-2,-7.5483574E-3,7.036411E-3,-4.2588938E-2,9.6095875E-3,1.7942032E-2,3.3736855E-2,2.193156E-5,1.7665604E-2,2.6839197E-2,2.7821917E-2,1.8332705E-2,3.3222683E-2,-1.8272227E-2,2.9833846E-2,-5.9054874E-2,3.6461074E-2,4.251798E-2],"split_indices":[8,8,8,7,7,5,8,8,5,7,7,8,7,5,5,2,2,4,8,2,8,8,5,