{"learner":{"attributes":{"scikit_learn":"{\"_estimator_type\": \"classifier\"}"},"feature_names":[],"feature_types":[],"gradient_booster":{"model":{"cats":{"enc":[],"feature_segments":[],"sorted_idx":[]},"gbtree_model_param":{"num_parallel_tree":"1","num_trees":"226"},"iteration_indptr":[0,1,2,3,4,5,6,7,8,9,10,11,12,13,14,15,16,17,18,19,20,21,22,23,24,25,26,27,28,29,30,31,32,33,34,35,36,37,38,39,40,41,42,43,44,45,46,47,48,49,50,51,52,53,54,55,56,57,58,59,60,61,62,63,64,65,66,67,68,69,70,71,72,73,74,75,76,77,78,79,80,81,82,83,84,85,86,87,88,89,90,91,92,93,94,95,96,97,98,99,100,101,102,103,104,105,106,107,108,109,110,111,112,113,114,115,116,117,118,119,120,121,122,123,124,125,126,127,128,129,130,131,132,133,134,135,136,137,138,139,140,141,142,143,144,145,146,147,148,149,150,151,152,153,154,155,156,157,158,159,160,161,162,163,164,165,166,167,168,169,170,171,172,173,174,175,176,177,178,179,180,181,182,183,184,185,186,187,188,189,190,191,192,193,194,195,196,197,198,199,200,201,202,203,204,205,206,207,208,209,210,211,212,213,214,215,216,217,218,219,220,221,222,223,224,225,226],"tree_info":[0,0,0,0,0,0,0,0,0,0,0,0,0,0,0,0,0,0,0,0,0,0,0,0,0,0,0,0,0,0,0,0,0,0,0,0,0,0,0,0,0,0,0,0,0,0,0,0,0,0,0,0,0,0,0,0,0,0,0,0,0,0,0,0,0,0,0,0,0,0,0,0,0,0,0,0,0,0,0,0,0,0,0,0,0,0,0,0,0,0,0,0,0,0,0,0,0,0,0,0,0,0,0,0,0,0,0,0,0,0,0,0,0,0,0,0,0,0,0,0,0,0,0,0,0,0,0,0,0,0,0,0,0,0,0,0,0,0,0,0,0,0,0,0,0,0,0,0,0,0,0,0,0,0,0,0,0,0,0,0,0,0,0,0,0,0,0,0,0,0,0,0,0,0,0,0,0,0,0,0,0,0,0,0,0,0,0,0,0,0,0,0,0,0,0,0,0,0,0,0,0,0,0,0,0,0,0,0,0,0,0,0,0,0,0,0,0,0,0,0,0,0,0,0,0,0],"trees":[{"base_weights":[-6.206434E-3,-3.2559538E-1,8.4085184E-1,-4.93598E-1,-1.3678038E-1,5.7635456E-1,1.3629222E0,-3.7281573E-1,-7.2840035E-1,2.1719776E-1,-4.0757257E-1,8.185438E-1,3.173295E-1,1.203718E0,1.5921679E0,-5.031752E-1,-9.5961116E-2,-8.368723E-1,-2.260629E-1,-4.4802226E-2,4.1473362E-1,-5.6973404E-1,-1.8418641E-1,1.1357619E0,6.8574405E-1,1.8345463E-1,6.1896354E-1,1.0400075E0,1.5261433E0,1.5267296E0,1.7479281E0,-5.460765E-1,6.4828515E-2,-3.23152E-1,1.14680044E-1,4.6312237E-1,-8.5398513E-1,-1.4925995E-1,-7.450359E-1,-3.0987024E-1,2.038273E-1,8.184213E-1,2.6618826E-1,-3.2357207E-1,-6.320446E-1,5.7827964E-2,-3.2201344E-1,1.0103608E0,1.3882865E0,4.6988463E-1,9.2023396E-1,7.268986E-2,4.0362164E-1,3.2051134E-1,7.804443E-1,8.773748E-1,1.1373935E0,-5.81249E-4,1.5314531E0,1.4538995E0,1.6505513E0,5.3869314E-2,1.1541913E0,-3.7079176E-3,-1.8144263E-2,5.4860543E-3,-1.6923422E-2,-1.1232737E-2,6.7468984E-3,-3.4321886E-3,1.0371785E-2,3.6120944E-2,-5.6948457E-3,-1.5721863E-2,-2.7475076E-2,2.0341558E-2,-6.1611324E-3,-9.323994E-3,-3.368769E-2,-4.2276443E-3,-1.4223249E-2,1.0843825E-2,1.0873016E-3,3.1391952E-2,1.5488354E-2,2.759407E-3,1.553402E-2,3.436582E-3,-1.1999957E-2,-2.1458423E-2,-1.2154449E-2,3.9553447E-4,3.0765027E-2,-2.5379488E-2,-7.767401E-3,3.6532033E-2,2.6212972E-2,4.5532454E-2,3.1773627E-2,2.1523414E-2,1.1281457E-2,2.3813702E-2,3.345692E-2,2.5722594E-3,-3.5557903E-2,9.216621E-3,2.7742334E-2,1.1887072E-2,-1.9163646E-2,2.1389693E-2,3.1773776E-2,2.9526277E-2,1.9331247E-2,3.792529E-2,2.9907418E-2,4.6969257E-2,3.2511987E-2,-1.0275275E-2,4.456423E-2,5.0332356E-2,-5.81249E-4,-3.029382E-2,4.161435E-2],"categories":[],"categories_nodes":[],"categories_segments":[],"categories_sizes":[],"default_left":[0,0,0,0,0,0,0,0,0,0,0,0,0,0,0,0,0,0,0,0,0,0,0,0,0,0,0,0,0,0,0,0,0,0,0,0,0,0,0,0,0,0,0,0,0,0,0,0,0,0,0,0,0,0,0,0,0,0,0,0,0,0,0,0,0,0,0,0,0,0,0,0,0,0,0,0,0,0,0,0,0,0,0,0,0,0,0,0,0,0,0,0,0,0,0,0,0,0,0,0,0,0,0,0,0,0,0,0,0,0,0,0,0,0,0,0,0,0,0,0,0,0,0],"id":0,"left_children":[1,3,5,7,9,11,13,15,17,19,21,23,25,27,29,31,33,35,37,39,41,43,45,47,49,51,53,55,57,59,61,63,65,67,69,71,73,75,77,79,81,83,85,87,89,91,93,95,97,99,101,103,105,107,109,111,113,-1,115,117,119,-1,121,-1,-1,-1,-1,-1,-1,-1,-1,-1,-1,-1,-1,-1,-1,-1,-1,-1,-1,-1,-1,-1,-1,-1,-1,-1,-1,-1,-1,-1,-1,-1,-1,-1,-1,-1,-1,-1,-1,-1,-1,-1,-1,-1,-1,-1,-1,-1,-1,-1,-1,-1,-1,-1,-1,-1,-1,-1,-1,-1,-1],"loss_changes":[6.440672E3,5.483336E2,8.9934033E2,2.5916064E2,7.804613E2,2.712694E2,7.8058105E1,2.1803339E2,1.6906714E2,1.8267409E2,1.6699725E2,9.342529E1,8.44084E1,6.688904E1,6.4536133E0,1.00138916E2,9.266797E1,5.721826E1,2.1930403E1,1.0010471E2,1.2045038E2,4.0783936E1,6.478566E1,1.944629E1,7.948352E1,3.5358418E1,3.0738586E1,1.2679077E1,3.5963745E0,3.3547363E0,2.5865479E0,8.547925E1,2.1077951E1,2.430671E1,5.2213997E1,1.6289238E1,4.4270386E1,2.158834E1,1.1057026E1,1.9921371E1,2.027695E1,3.5653107E1,6.3531937E1,1.7223362E1,3.7253784E1,3.023321E1,4.1654984E1,1.1541443E1,6.827942E0,1.9065079E1,1.7802917E1,1.4823727E1,2.443113E1,1.5830919E1,7.574295E0,7.008087E0,7.993469E0,0E0,2.1088257E0,1.3125183E1,4.206665E0,0E0,8.641266E0,0E0,0E0,0E0,0E0,0E0,0E0,0E0,0E0,0E0,0E0,0E0,0E0,0E0,0E0,0E0,0E0,0E0,0E0,0E0,0E0,0E0,0E0,0E0,0E0,0E0,0E0,0E0,0E0,0E0,0E0,0E0,0E0,0E0,0E0,0E0,0E0,0E0,0E0,0E0,0E0,0E0,0E0,0E0,0E0,0E0,0E0,0E0,0E0,0E0,0E0,0E0,0E0,0E0,0E0,0E0,0E0,0E0,0E0,0E0,0E0],"parents":[2147483647,0,0,1,1,2,2,3,3,4,4,5,5,6,6,7,7,8,8,9,9,10,10,11,11,12,12,13,13,14,14,15,15,16,16,17,17,18,18,19,19,20,20,21,21,22,22,23,23,24,24,25,25,26,26,27,27,28,28,29,29,30,30,31,31,32,32,33,33,34,34,35,35,36,36,37,37,38,38,39,39,40,40,41,41,42,42,43,43,44,44,45,45,46,46,47,47,48,48,49,49,50,50,51,51,52,52,53,53,54,54,55,55,56,56,58,58,59,59,60,60,62,62],"right_children":[2,4,6,8,10,12,14,16,18,20,22,24,26,28,30,32,34,36,38,40,42,44,46,48,50,52,54,56,58,60,62,64,66,68,70,72,74,76,78,80,82,84,86,88,90,92,94,96,98,100,102,104,106,108,110,112,114,-1,116,118,120,-1,122,-1,-1,-1,-1,-1,-1,-1,-1,-1,-1,-1,-1,-1,-1,-1,-1,-1,-1,-1,-1,-1,-1,-1,-1,-1,-1,-1,-1,-1,-1,-1,-1,-1,-1,-1,-1,-1,-1,-1,-1,-1,-1,-1,-1,-1,-1,-1,-1,-1,-1,-1,-1,-1,-1,-1,-1,-1,-1,-1,-1],"split_conditions":[-4.267359E0,-6.3552394E0,-2.160602E0,-5.8682058E-2,1.6658254E-2,1.08199686E-1,-5.3488225E-1,-7.1180973E0,-2.8429118E-1,1.9854892E2,-5.086151E0,-1.923077E-2,-3.0264153E0,2.517177E-1,2.4546485E-1,-2.8429118E-1,2.0671634E2,7.615711E-2,2.1799988E1,-5.6340218E0,-1.6136469E-1,5.461011E-2,9.911362E-2,-3.2020612E0,-3.4090903E0,-3.627725E-1,1.462408E-1,-1.6915169E0,1.7079984E0,1.230884E0,3.86E2,2.2626183E0,9.258954E0,-3.3063585E-1,6.1919796E-1,3.420526E2,1.2E2,2.311637E0,3.080397E0,5.3310345E1,-5.2884616E-2,2.7658633E2,-5.390878E0,2.674981E0,2.64E2,4.0366828E-1,-4.4793493E-1,-8.7990485E-2,-4.1671347E-2,3.048553E0,-2.759919E0,3.4587378E2,3.1E2,9.4059305E0,-3.5952848E-1,1.7277777E-1,2.28E2,-5.81249E-4,1.23774186E-1,-1.5347722E-2,1.0527901E1,5.3869314E-2,7.199997E0,-3.7079176E-3,-1.8144263E-2,5.4860543E-3,-1.6923422E-2,-1.1232737E-2,6.7468984E-3,-3.4321886E-3,1.0371785E-2,3.6120944E-2,-5.6948457E-3,-1.5721863E-2,-2.7475076E-2,2.0341558E-2,-6.1611324E-3,-9.323994E-3,-3.368769E-2,-4.2276443E-3,-1.4223249E-2,1.0843825E-2,1.0873016E-3,3.1391952E-2,1.5488354E-2,2.759407E-3,1.553402E-2,3.436582E-3,-1.1999957E-2,-2.1458423E-2,-1.2154449E-2,3.9553447E-4,3.0765027E-2,-2.5379488E-2,-7.767401E-3,3.6532033E-2,2.6212972E-2,4.5532454E-2,3.1773627E-2,2.1523414E-2,1.1281457E-2,2.3813702E-2,3.345692E-2,2.5722594E-3,-3.5557903E-2,9.216621E-3,2.7742334E-2,1.1887072E-2,-1.9163646E-2,2.1389693E-2,3.1773776E-2,2.9526277E-2,1.9331247E-2,3.792529E-2,2.9907418E-2,4.6969257E-2,3.2511987E-2,-1.0275275E-2,4.456423E-2,5.0332356E-2,-5.81249E-4,-3.029382E-2,4.161435E-2],"split_indices":[8,8,8,7,7,7,8,8,6,2,8,7,8,5,5,6,2,5,4,8,7,7,7,8,8,6,5,8,3,8,0,3,3,6,5,9,9,3,3,2,7,9,8,3,0,5,6,7,7,3,8,2,0,3,6,7,0,0,7,7,3,0,4,0,0,0,0,0,0,0,0,0,0,0,0,0,0,0,0,0,0,0,0,0,0,0,0,0,0,0,0,0,0,0,0,0,0,0,0,0,0,0,0,0,0,0,0,0,0,0,0,0,0,0,0,0,0,0,0,0,0,0,0],"split_type":[0,0,0,0,0,0,0,0,0,0,0,0,0,0,0,0,0,0,0,0,0,0,0,0,0,0,0,0,0,0,0,0,0,0,0,0,0,0,0,0,0,0,0,0,0,0,0,0,0,0,0,0,0,0,0,0,0,0,0,0,0,0,0,0,0,0,0,0,0,0,0,0,0,0,0,0,0,0,0,0,0,0,0,0,0,0,0,0,0,0,0,0,0,0,0,0,0,0,0,0,0,0,0,0,0,0,0,0,0,0,0,0,0,0,0,0,0,0,0,0,0,0,0],"sum_hessian":[2.3804625E4,1.7287047E4,6.51758E3,9.146826E3,8.14022E3,4.3273247E3,2.1902551E3,6.04161E3,3.1052158E3,3.5282754E3,4.611945E3,2.2352234E3,2.0921013E3,1.296279E3,8.9397595E2,4.1069824E3,1.9346276E3,2.5532214E3,5.5199426E2,1.5169952E3,2.0112802E3,2.671261E3,1.9406841E3,6.573833E2,1.5778401E3,1.4501061E3,6.419953E2,8.625484E2,4.3373062E2,6.371129E2,2.5686304E2,3.8186025E3,2.8838004E2,9.304931E2,1.00413446E3,3.2834835E1,2.5203867E3,4.8195694E2,7.003732E1,7.341062E2,7.82889E2,5.398019E2,1.4714783E3,5.4083813E2,2.1304229E3,7.043958E2,1.2362883E3,4.4259604E2,2.1478726E2,8.2312085E2,7.5471924E2,9.656322E2,4.8447388E2,2.2645018E2,4.1554514E2,3.268031E2,5.357453E2,1.4762441E0,4.322544E2,4.0918088E2,2.2793205E2,2.4249313E2,1.4369905E1,4.2399088E2,3.3946116E3,2.4365266E2,4.472737E1,8.5609717E2,7.439591E1,5.0200558E2,5.0212885E2,1.5096149E1,1.7738686E1,3.4556897E2,2.1748176E3,2.9108591E1,4.5284836E2,3.2798637E1,3.7238686E1,3.5608365E2,3.7802258E2,4.0763678E2,3.752522E2,3.144343E2,2.253676E2,8.6127136E2,6.102069E2,7.691967E1,4.639185E2,1.5996095E3,5.308133E2,6.73906E2,3.048981E1,1.3819342E2,1.0980948E3,1.8538004E2,2.57216E2,1.5796262E2,5.6824646E1,2.355237E2,5.8759717E2,4.39725E2,3.1499426E2,9.571797E2,8.452488E0,4.0707684E2,7.739704E1,2.1111647E2,1.5333709E1,3.2823068E2,8.731445E1,2.301436E2,9.665948E1,2.99768E2,2.3597731E2,4.1275327E2,1.9501125E1,3.7024882E0,4.054784E2,2.2645581E2,1.4762441E0,1E0,1.3369905E1],"tree_param":{"num_deleted":"0","num_feature":"10","num_nodes":"123","size_leaf_vector":"1"}},{"base_weights":[1.1685509E-3,-2.778018E-1,9.345099E-1,-4.0117058E-1,5.6937233E-2,6.669091E-1,1.3967533E0,-2.5945118E-1,-6.220372E-1,4.1209114E-1,-2.1736792E-1,1.1154464E0,5.056682E-1,1.2447349E0,1.5747343E0,-4.1924006E-1,1.2744091E-1,-6.884536E-1,-2.465324E-1,7.797104E-1,2.522233E-1,-3.0884504E-1,5.8446027E-2,6.762193E-1,1.1867646E0,2.9305598E-1,7.2778255E-1,1.0970031E0,1.4625137E0,1.5050071E0,1.7323904E0,-5.7055575E-1,-2.3658857E-1,-1.555782E-1,3.4225047E-1,-7.858724E-1,-5.373522E-1,-3.9501816E-1,-1.1974407E-1,5.2589995E-1,9.766137E-1,9.3043126E-2,4.0234518E-1,-5.162125E-1,-2.3740146E-1,-2.1308439E-2,5.7792395E-1,7.342803E-1,-4.5073017E-2,1.0360805E0,1.3910272E0,5.180367E-1,1.7721593E-1,8.749162E-1,5.0864315E-1,7.821494E-1,1.1383823E0,1.0232253E0,1.4826707E0,1.3082732E0,1.5400207E0,5.277403E-2,-1.3330408E-3,-1.8490914E-2,-2.4042856E-3,7.478398E-3,-8.868932E-3,-5.717668E-3,1.2955404E-2,1.8813562E-2,2.7394162E-3,6.5963357E-3,-2.4439266E-2,-8.155489E-3,-2.173177E-2,7.097857E-4,-1.7337391E-2,-1.4924314E-3,-2.4799285E-2,3.4082565E-2,1.3746965E-2,-3.885672E-2,3.0019678E-2,-4.3800254E-3,5.311774E-3,-3.8844172E-2,1.2619091E-2,-8.128621E-3,-2.4034128E-2,1.1565565E-2,-7.993977E-3,-4.912727E-3,6.357017E-3,2.9629493E-2,7.5533534E-3,1.884606E-2,4.603079E-2,3.916196E-2,2.870632E-2,4.3342307E-2,1.7846948E-2,3.2430862E-3,2.0018928E-2,1.8646079E-3,1.0811968E-2,-1.1820321E-2,2.6993882E-2,1.6083421E-2,-3.0310873E-2,3.1123193E-2,9.911958E-3,-3.4282003E-3,3.500097E-2,3.9180376E-2,-1.8828323E-3,1.2470214E-2,4.505806E-2,4.371196E-2,1.80923E-2,1.756192E-2,4.691072E-2],"categories":[],"categories_nodes":[],"categories_segments":[],"categories_sizes":[],"default_left":[0,0,0,0,0,0,0,0,0,0,0,0,0,0,0,0,0,0,0,0,0,0,0,0,0,0,0,0,0,0,0,0,0,0,0,0,0,0,0,0,0,0,0,0,0,0,0,0,0,0,0,0,0,0,0,0,0,0,0,0,0,0,0,0,0,0,0,0,0,0,0,0,0,0,0,0,0,0,0,0,0,0,0,0,0,0,0,0,0,0,0,0,0,0,0,0,0,0,0,0,0,0,0,0,0,0,0,0,0,0,0,0,0,0,0,0,0,0,0,0,0],"id":1,"left_children":[1,3,5,7,9,11,13,15,17,19,21,23,25,27,29,31,33,35,37,39,41,43,45,47,49,51,53,55,57,59,61,63,65,67,69,71,73,75,77,79,81,83,85,87,89,91,93,95,-1,97,99,101,103,105,107,109,111,113,115,117,119,-1,-1,-1,-1,-1,-1,-1,-1,-1,-1,-1,-1,-1,-1,-1,-1,-1,-1,-1,-1,-1,-1,-1,-1,-1,-1,-1,-1,-1,-1,-1,-1,-1,-1,-1,-1,-1,-1,-1,-1,-1,-1,-1,-1,-1,-1,-1,-1,-1,-1,-1,-1,-1,-1,-1,-1,-1,-1,-1,-1],"loss_changes":[6.218641E3,7.593606E2,6.788965E2,4.2039575E2,4.8257947E2,2.5131604E2,5.253662E1,5.061255E2,1.3078345E2,1.2666574E2,7.053883E1,2.801941E1,1.2085254E2,3.3499268E1,7.5510254E0,1.5998907E2,1.4556465E2,6.5245605E1,1.4838654E1,3.2157745E1,3.5947395E1,3.0975342E1,2.8888311E1,1.753395E1,2.2881714E1,3.40885E1,3.995929E1,7.631531E0,2.361267E0,2.451416E0,4.83667E0,6.192859E1,7.140823E1,2.0069145E1,9.5493256E1,5.693811E1,8.436856E1,2.6999039E1,2.1038818E1,1.192305E1,1.3157654E1,1.4344278E1,1.908036E1,3.6682144E1,2.5728325E1,1.9738764E1,1.1957573E1,1.0337601E1,0E0,9.191711E0,9.745239E0,2.6057777E1,1.8002947E1,1.5640198E1,1.7531204E1,8.497173E0,1.238501E1,6.660307E0,1.4833984E0,9.153534E0,3.5506592E0,0E0,0E0,0E0,0E0,0E0,0E0,0E0,0E0,0E0,0E0,0E0,0E0,0E0,0E0,0E0,0E0,0E0,0E0,0E0,0E0,0E0,0E0,0E0,0E0,0E0,0E0,0E0,0E0,0E0,0E0,0E0,0E0,0E0,0E0,0E0,0E0,0E0,0E0,0E0,0E0,0E0,0E0,0E0,0E0,0E0,0E0,0E0,0E0,0E0,0E0,0E0,0E0,0E0,0E0,0E0,0E0,0E0,0E0,0E0,0E0],"parents":[2147483647,0,0,1,1,2,2,3,3,4,4,5,5,6,6,7,7,8,8,9,9,10,10,11,11,12,12,13,13,14,14,15,15,16,16,17,17,18,18,19,19,20,20,21,21,22,22,23,23,24,24,25,25,26,26,27,27,28,28,29,29,30,30,31,31,32,32,33,33,34,34,35,35,36,36,37,37,38,38,39,39,40,40,41,41,42,42,43,43,44,44,45,45,46,46,47,47,49,49,50,50,51,51,52,52,53,53,54,54,55,55,56,56,57,57,58,58,59,59,60,60],"right_children":[2,4,6,8,10,12,14,16,18,20,22,24,26,28,30,32,34,36,38,40,42,44,46,48,50,52,54,56,58,60,62,64,66,68,70,72,74,76,78,80,82,84,86,88,90,92,94,96,-1,98,100,102,104,106,108,110,112,114,116,118,120,-1,-1,-1,-1,-1,-1,-1,-1,-1,-1,-1,-1,-1,-1,-1,-1,-1,-1,-1,-1,-1,-1,-1,-1,-1,-1,-1,-1,-1,-1,-1,-1,-1,-1,-1,-1,-1,-1,-1,-1,-1,-1,-1,-1,-1,-1,-1,-1,-1,-1,-1,-1,-1,-1,-1,-1,-1,-1,-1,-1],"split_conditions":[-3.8784008E0,-5.3479953E0,-1.9489522E0,-3.7895083E-2,5.9596434E-2,3.5051547E-2,-5.3488225E-1,-6.632632E0,-2.908051E-1,-7.201646E-2,-4.267359E0,2.5390178E-1,-3.0899434E0,2.185909E-1,2.4757433E-1,2.0671634E2,2.0671527E2,-6.0811687E0,1.3481023E2,2.170527E2,-4.7320004E0,-4.1921204E-1,2.7659574E-1,3.3E1,-3.0264153E0,1.08199686E-1,1.4769733E-1,1.2727922E2,6E1,-2.3492488E-1,4.49E2,-2.9508197E-1,2.2148743E0,-2.8182223E-1,-1.5173596E-1,1.00058176E-1,6.8068065E-2,1.299139E-1,2.5800003E1,-2.10511E-1,2.6719636E-1,6.358456E1,1.07213765E-1,1.6160154E-1,9.0427294E-2,-3.6034116E-1,7.168126E1,9.3E2,-4.5073017E-2,-9.1451295E-2,9.5482983E2,-3.6791878E0,-3.6903226E-1,-4.689081E-1,3.4145123E2,7.699997E0,-4.6759677E-1,8.328075E0,-5.08298E-1,1.8081003E-1,-3.4516525E-2,5.277403E-2,-1.3330408E-3,-1.8490914E-2,-2.4042856E-3,7.478398E-3,-8.868932E-3,-5.717668E-3,1.2955404E-2,1.8813562E-2,2.7394162E-3,6.5963357E-3,-2.4439266E-2,-8.155489E-3,-2.173177E-2,7.097857E-4,-1.7337391E-2,-1.4924314E-3,-2.4799285E-2,3.4082565E-2,1.3746965E-2,-3.885672E-2,3.0019678E-2,-4.3800254E-3,5.311774E-3,-3.8844172E-2,1.2619091E-2,-8.128621E-3,-2.4034128E-2,1.1565565E-2,-7.993977E-3,-4.912727E-3,6.357017E-3,2.9629493E-2,7.5533534E-3,1.884606E-2,4.603079E-2,3.916196E-2,2.870632E-2,4.3342307E-2,1.7846948E-2,3.2430862E-3,2.0018928E-2,1.8646079E-3,1.0811968E-2,-1.1820321E-2,2.6993882E-2,1.6083421E-2,-3.0310873E-2,3.1123193E-2,9.911958E-3,-3.4282003E-3,3.500097E-2,3.9180376E-2,-1.8828323E-3,1.2470214E-2,4.505806E-2,4.371196E-2,1.80923E-2,1.756192E-2,4.691072E-2],"split_indices":[8,8,8,7,7,7,8,8,6,7,8,5,8,5,5,2,2,8,2,2,8,6,5,4,8,7,7,9,9,8,0,6,3,6,7,5,7,5,4,7,5,2,5,7,5,6,2,9,0,7,9,8,6,6,2,4,6,3,6,7,7,0,0,0,0,0,0,0,0,0,0,0,0,0,0,0,0,0,0,0,0,0,0,0,0,0,0,0,0,0,0,0,0,0,0,0,0,0,0,0,0,0,0,0,0,0,0,0,0,0,0,0,0,0,0,0,0,0,0,0,0],"split_type":[0,0,0,0,0,0,0,0,0,0,0,0,0,0,0,0,0,0,0,0,0,0,0,0,0,0,0,0,0,0,0,0,0,0,0,0,0,0,0,0,0,0,0,0,0,0,0,0,0,0,0,0,0,0,0,0,0,0,0,0,0,0,0,0,0,0,0,0,0,0,0,0,0,0,0,0,0,0,0,0,0,0,0,0,0,0,0,0,0,0,0,0,0,0,0,0,0,0,0,0,0,0,0,0,0,0,0,0,0,0,0,0,0,0,0,0,0,0,0,0,0],"sum_hessian":[2.388145E4,1.8386525E4,5.4949243E3,1.3434874E4,4.9516504E3,3.481732E3,2.0131923E3,8.185079E3,5.2497954E3,2.1576072E3,2.794043E3,9.190938E2,2.562638E3,1.0901012E3,9.2309106E2,5.7926104E3,2.3924683E3,4.4600938E3,7.8970166E2,6.5274036E2,1.5048668E3,2.0980718E3,6.959712E2,1.2985252E2,7.892413E2,1.3105107E3,1.2521273E3,6.531021E2,4.369991E2,6.473372E2,2.757539E2,3.1669011E3,2.6257095E3,1.0324521E3,1.3600162E3,2.7092039E3,1.75089E3,3.6275378E2,4.2694788E2,2.8676636E2,3.6597403E2,7.3118353E2,7.736833E2,5.360224E2,1.5620494E3,6.0417267E2,9.179851E1,1.2710313E2,2.7494037E0,4.5768228E2,3.31559E2,4.442436E2,8.662671E2,7.4735144E2,5.0477588E2,7.817445E1,5.749277E2,2.1443108E1,4.15556E2,1.03599106E2,5.437381E2,2.742783E2,1.4756052E0,2.9291387E3,2.377623E2,2.729835E2,2.352726E3,9.7754626E2,5.490587E1,6.447568E2,7.1525946E2,5.4993675E1,2.6542102E3,7.042997E2,1.0465903E3,1.082126E2,2.5454117E2,3.8880884E2,3.813904E1,2.923734E1,2.5752902E2,1.7498944E0,3.6422412E2,1.8789677E2,5.432868E2,5.7258406E0,7.679574E2,2.8399036E2,2.5203201E2,6.351275E1,1.4985367E3,3.755922E2,2.285805E2,4.0500866E1,5.129764E1,1.1278348E2,1.431965E1,1.1384693E2,3.4383536E2,3.151701E2,1.6388905E1,1.14998436E2,3.2924515E2,5.278388E2,3.384283E2,9.129886E0,7.3822156E2,4.980741E2,6.701787E0,4.997755E1,2.8196905E1,7.6292467E0,5.672984E2,1.7016554E1,4.4265532E0,2.2016022E0,4.133544E2,8.623782E1,1.7361284E1,5.379871E0,5.383582E2],"tree_param":{"num_deleted":"0","num_feature":"10","num_nodes":"121","size_leaf_vector":"1"}},{"base_weights":[-5.1699737E-3,-2.754242E-1,9.07855E-1,-3.494408E-1,4.203051E-1,6.334793E-1,1.3007967E0,-5.2271307E-1,-4.679356E-2,1.3537757E-2,7.948874E-1,4.9832976E-1,1.0744131E0,1.1324185E0,1.4886073E0,-6.119311E-1,-3.3461553E-1,2.9334763E-1,-3.0178195E-1,-2.3463264E-1,3.1388822E-1,2.2834007E-1,9.614867E-1,3.5360485E-1,7.0227444E-1,8.406047E-1,1.2024175E0,9.660701E-1,1.3916224E0,1.3723317E0,1.566165E0,7.553759E-2,-6.3047826E-1,-5.2082896E-1,-1.4769098E-1,1.6107295E-1,5.5160016E-1,-5.208053E-1,-8.0890246E-2,-3.8898146E-1,4.3552852E-1,-9.823459E-2,5.2837247E-1,3.9321122E-1,-4.301051E-1,7.882135E-1,1.5478191E0,5.3334886E-1,2.1916875E-1,7.394911E-1,1.9665163E-4,4.7199294E-1,1.0564029E0,1.0553371E0,1.3581274E0,1.0107324E0,4.7746742E-1,1.186352E0,1.4440702E0,1.1725574E0,1.4783607E0,1.57017E0,-2.41827E-3,-2.714561E-3,1.689596E-2,-1.5788335E-2,-2.411951E-2,-4.976544E-3,-1.7296359E-2,-1.6306493E-3,-1.8379068E-2,1.1799619E-2,2.1234564E-4,2.365378E-2,1.018909E-2,2.2577908E-2,-1.613818E-2,1.6920441E-3,-6.0813744E-3,-1.2908834E-2,1.7509552E-2,2.9450374E-2,5.551386E-3,7.1484706E-4,-2.9233484E-2,2.0722315E-2,2.795866E-3,1.3892121E-2,-1.3788053E-2,-4.745576E-2,3.6663926E-4,2.8458219E-2,8.462976E-3,4.8393026E-2,-4.123521E-2,1.6811805E-2,-2.2630218E-2,3.869957E-2,5.8380985E-3,2.4714572E-2,1.8206676E-2,2.066767E-2,-1.8457672E-2,2.033603E-2,-5.333937E-3,3.336136E-2,6.55185E-3,3.2799188E-2,-2.4128838E-3,4.169866E-2,-3.407963E-2,3.6300506E-2,2.786673E-2,-4.4988883E-3,3.0961324E-2,4.2194027E-2,2.9452752E-2,4.400293E-2,1.7372368E-2,1.7950637E-2,3.857394E-2,4.743324E-2,3.7110437E-2,4.7629725E-2,1.807223E-2],"categories":[],"categories_nodes":[],"categories_segments":[],"categories_sizes":[],"default_left":[0,0,0,0,0,0,0,0,0,0,0,0,0,0,0,0,0,0,0,0,0,0,0,0,0,0,0,0,0,0,0,0,0,0,0,0,0,0,0,0,0,0,0,0,0,0,0,0,0,0,0,0,0,0,0,0,0,0,0,0,0,0,0,0,0,0,0,0,0,0,0,0,0,0,0,0,0,0,0,0,0,0,0,0,0,0,0,0,0,0,0,0,0,0,0,0,0,0,0,0,0,0,0,0,0,0,0,0,0,0,0,0,0,0,0,0,0,0,0,0,0,0,0,0,0],"id":2,"left_children":[1,3,5,7,9,11,13,15,17,19,21,23,25,27,29,31,33,35,37,39,41,43,45,47,49,51,53,55,57,59,61,63,65,67,69,71,73,75,77,79,81,83,85,87,89,91,93,95,97,99,101,103,105,107,109,111,113,115,117,119,121,123,-1,-1,-1,-1,-1,-1,-1,-1,-1,-1,-1,-1,-1,-1,-1,-1,-1,-1,-1,-1,-1,-1,-1,-1,-1,-1,-1,-1,-1,-1,-1,-1,-1,-1,-1,-1,-1,-1,-1,-1,-1,-1,-1,-1,-1,-1,-1,-1,-1,-1,-1,-1,-1,-1,-1,-1,-1,-1,-1,-1,-1,-1,-1],"loss_changes":[5.8911704E3,9.4880786E2,5.870791E2,8.73177E2,2.69967E2,1.9092505E2,6.9184814E1,1.7749365E2,5.2598773E2,6.3465664E1,8.6843994E1,7.238971E1,2.1521606E1,4.978772E1,7.3759766E0,9.160962E1,1.185777E2,8.8675354E1,1.6764597E2,4.8398308E1,3.4101955E1,2.3066322E1,7.1166565E1,3.471556E1,2.6664093E1,2.0953247E1,9.655701E0,1.5351135E1,3.2529297E0,7.3897705E0,4.255493E0,1.5143493E1,1.2623633E2,3.041867E1,7.331995E1,6.052086E1,4.3141876E1,2.6652191E1,2.8313557E1,1.3875298E1,1.1702095E1,1.40355835E1,1.7146538E1,9.592068E0,2.1484468E1,4.2206085E1,2.5492126E1,1.7461182E1,2.2888706E1,9.755005E0,2.2186586E1,1.321357E1,6.141571E0,7.9591675E0,1.2104523E1,1.0210083E1,2.1513206E1,3.0437164E0,1.8417358E0,8.256287E0,4.2280884E0,3.3312988E-1,0E0,0E0,0E0,0E0,0E0,0E0,0E0,0E0,0E0,0E0,0E0,0E0,0E0,0E0,0E0,0E0,0E0,0E0,0E0,0E0,0E0,0E0,0E0,0E0,0E0,0E0,0E0,0E0,0E0,0E0,0E0,0E0,0E0,0E0,0E0,0E0,0E0,0E0,0E0,0E0,0E0,0E0,0E0,0E0,0E0,0E0,0E0,0E0,0E0,0E0,0E0,0E0,0E0,0E0,0E0,0E0,0E0,0E0,0E0,0E0,0E0,0E0,0E0],"parents":[2147483647,0,0,1,1,2,2,3,3,4,4,5,5,6,6,7,7,8,8,9,9,10,10,11,11,12,12,13,13,14,14,15,15,16,16,17,17,18,18,19,19,20,20,21,21,22,22,23,23,24,24,25,25,26,26,27,27,28,28,29,29,30,30,31,31,32,32,33,33,34,34,35,35,36,36,37,37,38,38,39,39,40,40,41,41,42,42,43,43,44,44,45,45,46,46,47,47,48,48,49,49,50,50,51,51,52,52,53,53,54,54,55,55,56,56,57,57,58,58,59,59,60,60,61,61],"right_children":[2,4,6,8,10,12,14,16,18,20,22,24,26,28,30,32,34,36,38,40,42,44,46,48,50,52,54,56,58,60,62,64,66,68,70,72,74,76,78,80,82,84,86,88,90,92,94,96,98,100,102,104,106,108,110,112,114,116,118,120,122,124,-1,-1,-1,-1,-1,-1,-1,-1,-1,-1,-1,-1,-1,-1,-1,-1,-1,-1,-1,-1,-1,-1,-1,-1,-1,-1,-1,-1,-1,-1,-1,-1,-1,-1,-1,-1,-1,-1,-1,-1,-1,-1,-1,-1,-1,-1,-1,-1,-1,-1,-1,-1,-1,-1,-1,-1,-1,-1,-1,-1,-1,-1,-1],"split_conditions":[-3.8784008E0,8.520719E0,-2.160602E0,-5.7182174E0,2.1386188E2,3.2153222E-1,-7.9080653E-1,4.1625443E0,5.2982338E-2,1.1640713E1,-7.5927873E0,-3.0264153E0,-3.456935E0,2.2406219E-1,1.6508728E-1,1.10284165E-1,2.0671527E2,-4.7066803E0,-4.7843018E0,-5.4148993E0,5.3315536E1,-7.793308E-2,1.3200114E1,1.20767795E-1,9.330463E0,3.9135316E-1,2.2519235E2,8.826843E0,2.5614145E-1,1.1565589E-1,1.183385E3,2.1250588E-1,-3.6342323E-2,6.708204E1,3.2294852E2,-6.264745E-2,-2.5265286E-2,6.5972224E-2,1.329114E-1,7.642627E-1,-2.8659612E-2,8.091113E0,1.2961629E2,7.971198E2,9.791325E0,-3.6342323E-2,6.288294E-2,3.7300003E1,6.5972224E-2,1.5543644E-1,1.3735741E-1,5.2982338E-2,3.2613574E2,2.2518762E2,1.0961781E-1,5.099991E0,1.5102501E-1,2.372297E-1,4.46E2,2.9663005E0,1.6299988E1,1.0527901E1,-2.41827E-3,-2.714561E-3,1.689596E-2,-1.5788335E-2,-2.411951E-2,-4.976544E-3,-1.7296359E-2,-1.6306493E-3,-1.8379068E-2,1.1799619E-2,2.1234564E-4,2.365378E-2,1.018909E-2,2.2577908E-2,-1.613818E-2,1.6920441E-3,-6.0813744E-3,-1.2908834E-2,1.7509552E-2,2.9450374E-2,5.551386E-3,7.1484706E-4,-2.9233484E-2,2.0722315E-2,2.795866E-3,1.3892121E-2,-1.3788053E-2,-4.745576E-2,3.6663926E-4,2.8458219E-2,8.462976E-3,4.8393026E-2,-4.123521E-2,1.6811805E-2,-2.2630218E-2,3.869957E-2,5.8380985E-3,2.4714572E-2,1.8206676E-2,2.066767E-2,-1.8457672E-2,2.033603E-2,-5.333937E-3,3.336136E-2,6.55185E-3,3.2799188E-2,-2.4128838E-3,4.169866E-2,-3.407963E-2,3.6300506E-2,2.786673E-2,-4.4988883E-3,3.0961324E-2,4.2194027E-2,2.9452752E-2,4.400293E-2,1.7372368E-2,1.7950637E-2,3.857394E-2,4.743324E-2,3.7110437E-2,4.7629725E-2,1.807223E-2],"split_indices":[8,1,8,8,2,5,8,1,7,1,8,8,8,5,5,5,2,8,8,8,2,7,1,7,3,5,2,3,5,8,9,7,7,9,2,7,7,5,7,5,7,3,2,9,1,7,7,4,5,7,7,7,2,2,7,4,5,5,0,3,4,3,0,0,0,0,0,0,0,0,0,0,0,0,0,0,0,0,0,0,0,0,0,0,0,0,0,0,0,0,0,0,0,0,0,0,0,0,0,0,0,0,0,0,0,0,0,0,0,0,0,0,0,0,0,0,0,0,0,0,0,0,0,0,0],"split_type":[0,0,0,0,0,0,0,0,0,0,0,0,0,0,0,0,0,0,0,0,0,0,0,0,0,0,0,0,0,0,0,0,0,0,0,0,0,0,0,0,0,0,0,0,0,0,0,0,0,0,0,0,0,0,0,0,0,0,0,0,0,0,0,0,0,0,0,0,0,0,0,0,0,0,0,0,0,0,0,0,0,0,0,0,0,0,0,0,0,0,0,0,0,0,0,0,0,0,0,0,0,0,0,0,0,0,0,0,0,0,0,0,0,0,0,0,0,0,0,0,0,0,0,0,0],"sum_hessian":[2.3873154E4,1.8421201E4,5.451954E3,1.665032E4,1.7708812E3,3.211855E3,2.2400989E3,1.0587827E4,6.0624927E3,8.4946466E2,9.2141656E2,2.459982E3,7.518729E2,1.1848616E3,1.0552374E3,7.179981E3,3.4078462E3,2.597463E3,3.46503E3,4.6525635E2,3.842083E2,2.0992017E2,7.114964E2,1.4404978E3,1.0194842E3,2.6867957E2,4.831934E2,7.245785E2,4.6028308E2,4.297077E2,6.255297E2,1.8853879E2,6.991442E3,1.7062756E3,1.7015704E3,1.7187552E3,8.7870764E2,1.7391914E3,1.7258386E3,3.785011E2,8.675528E1,1.3169797E2,2.5251033E2,1.6820528E2,4.171488E1,5.5100696E2,1.6048947E2,6.151121E2,8.253857E2,9.6811194E2,5.1372242E1,1.0038904E2,1.6829053E2,2.5248169E2,2.3071169E2,6.62914E2,6.166447E1,9.847822E1,3.6180484E2,1.5317044E2,2.7653726E2,6.240573E2,1.4724228E0,1.410467E2,4.7492085E1,4.2151616E3,2.7762805E3,2.1083168E2,1.495444E3,1.4136128E3,2.8795773E2,6.9167175E2,1.0270835E3,4.242881E2,4.5441953E2,1.5642725E1,1.7235487E3,8.063745E2,9.194641E2,3.6503992E2,1.3461159E1,2.6830166E1,5.9925114E1,1.1632078E2,1.5377193E1,1.8566365E2,6.684669E1,1.5659839E2,1.1606895E1,1.0973097E1,3.0741785E1,4.2413794E2,1.26869026E2,1.5824026E2,2.2491996E0,6.054601E2,9.652018E0,1.89746E1,8.0641113E2,6.209431E2,3.4716885E2,2.4186728E1,2.7185514E1,7.675019E1,2.363885E1,1.5946542E2,8.825117E0,2.4658249E2,5.899191E0,2.2946193E2,1.2497585E0,2.123526E2,4.505614E2,2.9026268E1,3.2638203E1,4.7331196E1,5.114702E1,3.5765765E2,4.147208E0,2.3690994E1,1.2947945E2,2.0174731E2,7.478994E1,6.221078E2,1.9495211E0],"tree_param":{"num_deleted":"0","num_feature":"10","num_nodes":"125","size_leaf_vector":"1"}},{"base_weights":[4.765798E-3,-2.4369185E-1,9.128702E-1,-3.1022626E-1,3.9901274E-1,6.5424484E-1,1.3278476E0,-4.4652104E-1,8.080131E-2,-5.700259E-3,7.6459455E-1,1.0463377E0,5.2857137E-1,1.1640589E0,1.5160638E0,-5.51895E-1,-3.163377E-1,4.361845E-1,-1.688109E-1,-1.8090186E-1,3.6652908E-1,8.9338607E-1,3.8382754E-2,1.1290387E0,7.09872E-1,3.2767385E-1,7.318293E-1,1.284582E0,1.0289131E0,1.477193E0,1.6707836E0,-5.97261E-1,-1.6253817E-1,-3.870551E-2,-5.5464554E-1,7.1638143E-1,3.1344888E-1,-4.1347843E-1,-5.9066013E-2,-3.410146E-1,3.4628683E-1,-2.9503104E-1,5.082746E-1,6.6800636E-1,1.3326924E0,-3.2957414E-1,4.1076565E-1,9.4757473E-1,1.2642344E0,5.9614205E-1,1.3439133E0,2.0265914E-1,4.7286397E-1,8.4845126E-1,5.5741477E-1,1.1313895E0,1.3662654E0,4.735126E-1,1.0565854E0,1.4804592E0,-2.834632E-3,1.6940674E0,7.082144E-1,-2.0789625E-2,-1.280779E-2,-8.708384E-3,6.13832E-3,-4.3933997E-3,7.0110685E-3,-1.8809939E-2,-9.288561E-3,1.7610868E-2,2.9499523E-2,1.3226035E-2,4.2476445E-3,-1.4605945E-2,7.994924E-4,2.4055128E-3,-5.213429E-3,-1.1647043E-2,1.5222323E-2,1.381556E-2,-1.4140046E-2,2.9679805E-3,-4.6938673E-2,2.506165E-3,2.2311267E-2,2.3924524E-2,8.371407E-3,-4.5193054E-2,4.152485E-2,-5.0624046E-3,-5.103972E-2,-7.2025303E-3,2.1244032E-2,4.3552373E-2,2.6034815E-2,3.945502E-2,1.0338521E-2,2.024936E-2,-8.307504E-3,4.605142E-2,9.418401E-4,-1.0687262E-2,8.182822E-3,2.0688727E-2,1.0815044E-2,2.4365962E-2,3.630509E-2,2.050125E-2,9.037261E-3,3.5143353E-2,-3.185784E-3,4.1841216E-2,1.7408902E-2,2.6585484E-2,-1.9385345E-2,3.4157082E-2,2.3326406E-2,4.498529E-2,1.6693497E-2,5.1601466E-2,1.780859E-2,-8.744524E-3,3.6087647E-2],"categories":[],"categories_nodes":[],"categories_segments":[],"categories_sizes":[],"default_left":[0,0,0,0,0,0,0,0,0,0,0,0,0,0,0,0,0,0,0,0,0,0,0,0,0,0,0,0,0,0,0,0,0,0,0,0,0,0,0,0,0,0,0,0,0,0,0,0,0,0,0,0,0,0,0,0,0,0,0,0,0,0,0,0,0,0,0,0,0,0,0,0,0,0,0,0,0,0,0,0,0,0,0,0,0,0,0,0,0,0,0,0,0,0,0,0,0,0,0,0,0,0,0,0,0,0,0,0,0,0,0,0,0,0,0,0,0,0,0,0,0,0,0,0,0],"id":3,"left_children":[1,3,5,7,9,11,13,15,17,19,21,23,25,27,29,31,33,35,37,39,41,43,45,47,49,51,53,55,57,59,61,63,65,67,69,71,73,75,77,79,81,83,85,87,89,91,93,95,97,99,101,103,105,107,109,111,113,115,117,119,-1,121,123,-1,-1,-1,-1,-1,-1,-1,-1,-1,-1,-1,-1,-1,-1,-1,-1,-1,-1,-1,-1,-1,-1,-1,-1,-1,-1,-1,-1,-1,-1,-1,-1,-1,-1,-1,-1,-1,-1,-1,-1,-1,-1,-1,-1,-1,-1,-1,-1,-1,-1,-1,-1,-1,-1,-1,-1,-1,-1,-1,-1,-1,-1],"loss_changes":[5.381629E3,8.009729E2,5.490576E2,9.045442E2,2.6001224E2,1.5509131E2,5.8853516E1,1.7246948E2,3.8927606E2,5.4522533E1,8.632294E1,2.0503601E1,9.751648E1,1.5874023E1,3.0144043E0,1.22736084E2,3.726173E2,6.2038086E1,6.919688E1,4.8100716E1,2.5241241E1,7.6752625E1,1.933555E1,1.3838379E1,1.0286072E1,2.1790451E1,2.3715942E1,5.386841E0,7.225647E0,3.9210205E0,2.7317505E0,9.642529E1,3.322612E1,7.478287E1,4.962549E1,1.8576752E1,2.683432E1,2.4118347E1,2.7886745E1,1.6193779E1,1.2075393E1,2.3739904E1,2.1375782E1,2.4590622E1,3.0509521E1,1.5359237E1,1.3371253E1,1.0243454E1,1.1825684E1,8.499203E0,5.1790733E0,2.4437088E1,1.3316048E1,1.0013428E1,1.4621582E1,7.1647034E0,3.4155884E0,1.2110428E1,8.850098E0,2.2631836E0,0E0,7.529907E-1,3.166275E0,0E0,0E0,0E0,0E0,0E0,0E0,0E0,0E0,0E0,0E0,0E0,0E0,0E0,0E0,0E0,0E0,0E0,0E0,0E0,0E0,0E0,0E0,0E0,0E0,0E0,0E0,0E0,0E0,0E0,0E0,0E0,0E0,0E0,0E0,0E0,0E0,0E0,0E0,0E0,0E0,0E0,0E0,0E0,0E0,0E0,0E0,0E0,0E0,0E0,0E0,0E0,0E0,0E0,0E0,0E0,0E0,0E0,0E0,0E0,0E0,0E0,0E0],"parents":[2147483647,0,0,1,1,2,2,3,3,4,4,5,5,6,6,7,7,8,8,9,9,10,10,11,11,12,12,13,13,14,14,15,15,16,16,17,17,18,18,19,19,20,20,21,21,22,22,23,23,24,24,25,25,26,26,27,27,28,28,29,29,30,30,31,31,32,32,33,33,34,34,35,35,36,36,37,37,38,38,39,39,40,40,41,41,42,42,43,43,44,44,45,45,46,46,47,47,48,48,49,49,50,50,51,51,52,52,53,53,54,54,55,55,56,56,57,57,58,58,59,59,61,61,62,62],"right_children":[2,4,6,8,10,12,14,16,18,20,22,24,26,28,30,32,34,36,38,40,42,44,46,48,50,52,54,56,58,60,62,64,66,68,70,72,74,76,78,80,82,84,86,88,90,92,94,96,98,100,102,104,106,108,110,112,114,116,118,120,-1,122,124,-1,-1,-1,-1,-1,-1,-1,-1,-1,-1,-1,-1,-1,-1,-1,-1,-1,-1,-1,-1,-1,-1,-1,-1,-1,-1,-1,-1,-1,-1,-1,-1,-1,-1,-1,-1,-1,-1,-1,-1,-1,-1,-1,-1,-1,-1,-1,-1,-1,-1,-1,-1,-1,-1,-1,-1,-1,-1,-1,-1,-1,-1],"split_conditions":[-3.7628589E0,8.520719E0,-1.9489522E0,-5.1844897E0,2.1386717E2,3.1490553E-2,-5.3488225E-1,-6.6125503E0,5.9596434E-2,1.2695546E1,3.2613138E2,-2.768595E-1,-3.0264153E0,1.20767795E-1,3.02E2,-2.8429118E-1,-1.996008E-3,-6.457422E-2,-4.759575E0,-5.755376E0,3.517137E1,1.20215435E1,-7.5450196E0,-3.2020612E0,8.3354663E2,2.067205E2,1.4769733E-1,2.0840333E0,-4.5930147E-1,1.3200114E1,8.5276025E2,4.1625443E0,-1.807154E-1,4.719827E0,-3.2725167E-1,-4.4243164E0,4.0701556E0,3.13E2,1.329114E-1,-2.5012237E-1,1.8952544E2,2.0300018E1,2.3E2,-3.9761093E-2,-9.981044E0,-3.4516525E-2,2.45E2,-1.2742382E-1,9.9E2,3.148099E2,4.1462307E0,-3.6791878E0,1.0674609E-1,6.2304735E0,3.3556452E0,-1.6590989E-1,9.975871E0,2.37E2,-3.3185118E-1,1.0527901E1,-2.834632E-3,4.63E2,2.2519414E2,-2.0789625E-2,-1.280779E-2,-8.708384E-3,6.13832E-3,-4.3933997E-3,7.0110685E-3,-1.8809939E-2,-9.288561E-3,1.7610868E-2,2.9499523E-2,1.3226035E-2,4.2476445E-3,-1.4605945E-2,7.994924E-4,2.4055128E-3,-5.213429E-3,-1.1647043E-2,1.5222323E-2,1.381556E-2,-1.4140046E-2,2.9679805E-3,-4.6938673E-2,2.506165E-3,2.2311267E-2,2.3924524E-2,8.371407E-3,-4.5193054E-2,4.152485E-2,-5.0624046E-3,-5.103972E-2,-7.2025303E-3,2.1244032E-2,4.3552373E-2,2.6034815E-2,3.945502E-2,1.0338521E-2,2.024936E-2,-8.307504E-3,4.605142E-2,9.418401E-4,-1.0687262E-2,8.182822E-3,2.0688727E-2,1.0815044E-2,2.4365962E-2,3.630509E-2,2.050125E-2,9.037261E-3,3.5143353E-2,-3.185784E-3,4.1841216E-2,1.7408902E-2,2.6585484E-2,-1.9385345E-2,3.4157082E-2,2.3326406E-2,4.498529E-2,1.6693497E-2,5.1601466E-2,1.780859E-2,-8.744524E-3,3.6087647E-2],"split_indices":[8,1,8,8,2,7,8,8,7,1,2,6,8,7,0,6,7,7,8,8,2,1,8,8,9,2,7,1,6,1,9,1,6,1,6,8,3,0,7,6,2,4,0,7,8,7,0,7,9,2,1,8,7,1,1,6,1,0,6,3,0,0,2,0,0,0,0,0,0,0,0,0,0,0,0,0,0,0,0,0,0,0,0,0,0,0,0,0,0,0,0,0,0,0,0,0,0,0,0,0,0,0,0,0,0,0,0,0,0,0,0,0,0,0,0,0,0,0,0,0,0,0,0,0,0],"split_type":[0,0,0,0,0,0,0,0,0,0,0,0,0,0,0,0,0,0,0,0,0,0,0,0,0,0,0,0,0,0,0,0,0,0,0,0,0,0,0,0,0,0,0,0,0,0,0,0,0,0,0,0,0,0,0,0,0,0,0,0,0,0,0,0,0,0,0,0,0,0,0,0,0,0,0,0,0,0,0,0,0,0,0,0,0,0,0,0,0,0,0,0,0,0,0,0,0,0,0,0,0,0,0,0,0,0,0,0,0,0,0,0,0,0,0,0,0,0,0,0,0,0,0,0,0],"sum_hessian":[2.3850057E4,1.872706E4,5.1229976E3,1.6970725E4,1.7563357E3,3.1576436E3,1.9653539E3,1.2584268E4,4.3864565E3,8.3402386E2,9.223118E2,7.646527E2,2.392991E3,1.0547117E3,9.106422E2,6.9530444E3,5.631223E3,1.809479E3,2.5769773E3,5.6744965E2,2.6657422E2,7.831859E2,1.391259E2,6.118971E2,1.527556E2,1.204797E3,1.1881938E3,5.5302136E2,5.0169022E2,7.362251E2,1.744171E2,6.226973E3,7.260712E2,2.601546E3,3.0296772E3,5.4970465E2,1.2597744E3,7.9711194E2,1.7798655E3,4.3552826E2,1.3192137E2,4.6846943E1,2.1972728E2,5.1929156E2,2.6389435E2,7.003665E1,6.908926E1,2.6466476E2,3.4723233E2,1.3116786E2,2.1587748E1,6.486653E2,5.561318E2,7.097537E2,4.7844016E2,1.9749036E2,3.5553104E2,2.4669437E1,4.7702078E2,7.3475476E2,1.4703289E0,1.6955574E2,4.861356E0,4.1215254E3,2.1054478E3,5.411514E2,1.8491978E2,1.8671469E3,7.34399E2,2.3896763E3,6.4000104E2,3.6268042E2,1.8702426E2,7.354566E2,5.2431775E2,6.893996E2,1.0771231E2,8.0003827E2,9.798272E2,4.14708E2,2.0820253E1,1.166167E2,1.5304669E1,3.6373234E1,1.047371E1,7.7179375E1,1.4254791E2,3.9537823E2,1.239133E2,2.9993672E0,2.60895E2,6.3542618E1,6.494031E0,2.142997E1,4.765929E1,3.8018806E1,2.2664597E2,3.3304523E2,1.4187118E1,1.2132322E2,9.844634E0,1.8893393E1,2.6943555E0,6.978799E1,5.788773E2,1.9594908E2,3.6018268E2,6.3320886E2,7.654483E1,3.264663E2,1.5197385E2,1.9307204E2,4.4183235E0,3.4822528E2,7.3057604E0,1.8255943E1,6.4134946E0,3.8001596E2,9.7004814E1,7.3061426E2,4.1405377E0,1.6760703E2,1.9487207E0,1.7180839E0,3.143272E0],"tree_param":{"num_deleted":"0","num_feature":"10","num_nodes":"125","size_leaf_vector":"1"}},{"base_weights":[3.8058453E-3,-2.8173736E-1,7.551872E-1,-3.5620767E-1,3.6497638E-1,5.0807357E-1,1.2387419E0,-5.2607757E-1,-1.6089879E-1,-4.2332385E-2,7.4267834E-1,9.7755206E-1,3.825861E-1,1.0926843E0,1.4469341E0,-5.6135577E-1,-1.7944802E-2,6.324197E-2,-4.051143E-1,-1.3102198E-1,5.2998096E-1,2.840089E-1,9.201736E-1,1.1771882E0,8.743937E-1,1.7102472E-1,5.4228663E-1,9.621494E-1,1.3478674E0,1.3475026E0,1.5381631E0,-4.899652E-1,-7.582325E-1,3.8914376E-1,-1.3955906E-1,-6.719115E-2,2.9660863E-1,-6.721838E-1,-2.8858814E-1,-2.1858212E-1,4.5792654E-1,-6.5459484E-1,6.972282E-1,-5.7991147E-2,5.429866E-1,1.0718913E0,3.418635E-1,1.290035E0,1.0365121E0,7.44475E-1,1.1170039E0,2.849844E-1,-2.3483811E-2,7.2090054E-1,4.2970982E-1,7.908882E-1,1.0632312E0,1.5682472E0,1.286967E0,1.2314053E0,1.5296837E0,5.859011E-1,1.5428228E0,-1.8610531E-2,-9.146153E-3,1.997661E-3,-2.4062116E-2,-3.66376E-3,1.9791352E-2,-7.242846E-3,4.477467E-3,5.826928E-3,-5.173652E-3,1.793439E-2,3.5956167E-3,-2.4431529E-2,-1.2056047E-2,1.125718E-2,-9.43331E-3,-1.0936519E-2,1.6006946E-3,1.653969E-2,-3.375506E-2,-2.8198851E-2,2.8264813E-2,2.6722096E-2,-9.443972E-3,3.1596255E-3,-2.95489E-2,2.2193894E-2,-1.754342E-2,2.8819995E-2,4.6046626E-2,-1.1394218E-3,2.256131E-2,3.472128E-2,4.410021E-2,3.448682E-2,1.7783644E-2,1.07230125E-2,2.4293374E-2,3.4878068E-2,-1.6627653E-2,5.671135E-3,1.5096709E-2,2.3299824E-2,-2.452057E-3,1.7084325E-2,2.6589599E-2,1.4123141E-2,3.2634163E-4,1.3833965E-2,2.6648523E-2,3.2667644E-2,-2.1965343E-3,4.806369E-2,3.613634E-3,3.970253E-2,1.7942593E-2,3.873967E-2,1.4798311E-2,-3.985871E-3,4.6802286E-2,3.2556605E-2,-4.1246633E-3,4.432038E-2,4.918922E-2],"categories":[],"categories_nodes":[],"categories_segments":[],"categories_sizes":[],"default_left":[0,0,0,0,0,0,0,0,0,0,0,0,0,0,0,0,0,0,0,0,0,0,0,0,0,0,0,0,0,0,0,0,0,0,0,0,0,0,0,0,0,0,0,0,0,0,0,0,0,0,0,0,0,0,0,0,0,0,0,0,0,0,0,0,0,0,0,0,0,0,0,0,0,0,0,0,0,0,0,0,0,0,0,0,0,0,0,0,0,0,0,0,0,0,0,0,0,0,0,0,0,0,0,0,0,0,0,0,0,0,0,0,0,0,0,0,0,0,0,0,0,0,0,0,0,0,0],"id":4,"left_children":[1,3,5,7,9,11,13,15,17,19,21,23,25,27,29,31,33,35,37,39,41,43,45,47,49,51,53,55,57,59,61,63,65,67,69,71,73,75,77,79,81,83,85,87,89,91,93,95,97,99,101,103,105,107,109,111,113,115,117,119,121,123,125,-1,-1,-1,-1,-1,-1,-1,-1,-1,-1,-1,-1,-1,-1,-1,-1,-1,-1,-1,-1,-1,-1,-1,-1,-1,-1,-1,-1,-1,-1,-1,-1,-1,-1,-1,-1,-1,-1,-1,-1,-1,-1,-1,-1,-1,-1,-1,-1,-1,-1,-1,-1,-1,-1,-1,-1,-1,-1,-1,-1,-1,-1,-1,-1],"loss_changes":[5.1298623E3,8.345453E2,7.8612646E2,5.153878E2,2.7533826E2,2.5643396E2,6.610962E1,1.4894116E2,3.957188E2,4.382176E1,7.533551E1,1.789154E1,1.1617679E2,4.2417725E1,6.2247314E0,1.0883325E2,2.6811632E1,1.1477918E2,1.07470825E2,3.8627975E1,2.3408855E1,2.310644E1,5.8335815E1,3.585968E0,1.8383667E1,3.285156E1,3.9112488E1,1.4249695E1,3.9089355E0,7.5443115E0,1.1815186E0,1.3323901E2,6.1446655E1,1.6866589E1,1.1958299E1,6.507701E1,7.098287E1,3.835446E1,3.640712E1,2.5190077E1,1.4039133E1,7.381E0,1.9301594E1,1.695167E1,3.1992493E1,2.715747E1,2.1510424E1,2.3370361E0,5.887039E0,8.690475E0,1.2673889E1,1.9400726E1,2.5035032E1,1.8124298E1,1.8419495E1,9.314606E0,9.4470825E0,2.2296906E0,4.991455E0,9.141602E0,4.4973145E0,1.5230598E0,6.40625E-1,0E0,0E0,0E0,0E0,0E0,0E0,0E0,0E0,0E0,0E0,0E0,0E0,0E0,0E0,0E0,0E0,0E0,0E0,0E0,0E0,0E0,0E0,0E0,0E0,0E0,0E0,0E0,0E0,0E0,0E0,0E0,0E0,0E0,0E0,0E0,0E0,0E0,0E0,0E0,0E0,0E0,0E0,0E0,0E0,0E0,0E0,0E0,0E0,0E0,0E0,0E0,0E0,0E0,0E0,0E0,0E0,0E0,0E0,0E0,0E0,0E0,0E0,0E0,0E0],"parents":[2147483647,0,0,1,1,2,2,3,3,4,4,5,5,6,6,7,7,8,8,9,9,10,10,11,11,12,12,13,13,14,14,15,15,16,16,17,17,18,18,19,19,20,20,21,21,22,22,23,23,24,24,25,25,26,26,27,27,28,28,29,29,30,30,31,31,32,32,33,33,34,34,35,35,36,36,37,37,38,38,39,39,40,40,41,41,42,42,43,43,44,44,45,45,46,46,47,47,48,48,49,49,50,50,51,51,52,52,53,53,54,54,55,55,56,56,57,57,58,58,59,59,60,60,61,61,62,62],"right_children":[2,4,6,8,10,12,14,16,18,20,22,24,26,28,30,32,34,36,38,40,42,44,46,48,50,52,54,56,58,60,62,64,66,68,70,72,74,76,78,80,82,84,86,88,90,92,94,96,98,100,102,104,106,108,110,112,114,116,118,120,122,124,126,-1,-1,-1,-1,-1,-1,-1,-1,-1,-1,-1,-1,-1,-1,-1,-1,-1,-1,-1,-1,-1,-1,-1,-1,-1,-1,-1,-1,-1,-1,-1,-1,-1,-1,-1,-1,-1,-1,-1,-1,-1,-1,-1,-1,-1,-1,-1,-1,-1,-1,-1,-1,-1,-1,-1,-1,-1,-1,-1,-1,-1,-1,-1,-1],"split_conditions":[-4.267359E0,8.394209E0,-2.160602E0,-6.2731137E0,2.1386188E2,1.1327207E-2,-5.3488225E-1,-2.5012237E-1,5.9596434E-2,1.5408702E1,-7.3407936E0,-7.793308E-2,-3.5464265E0,2.4330975E-1,1.8336888E-1,-2.1209741E-2,-1.0834156E-1,-5.2299457E0,-5.5456586E0,-5.436563E0,2.9907524E1,1.0499278E1,-4.1671347E-2,3.773577E0,-3.2020612E0,1.492205E-1,1.08199686E-1,-1.6915169E0,-5.481345E-2,1.230884E0,-4.9542448E-1,-7.2175465E0,1.10284165E-1,-2.1019553E-1,4.5777652E-2,-1.19805396E-1,-5.122633E-2,-3.5714287E-1,9.0427294E-2,1.1640713E1,1.3200114E1,5.2982338E-2,3.73E2,-5.6763925E-2,3.4145123E2,1.3992691E1,4.9640527E0,-3.4090903E0,-3.3961296E-1,-4.2168674E-1,5.238404E-1,3.9418752E0,9.0427294E-2,2.067205E2,9.186297E0,2.9715397E0,1.0395802E1,9.791325E0,4.13E2,-2.1019553E-1,9.2740995E-1,2.5614145E-1,2.695863E-1,-1.8610531E-2,-9.146153E-3,1.997661E-3,-2.4062116E-2,-3.66376E-3,1.9791352E-2,-7.242846E-3,4.477467E-3,5.826928E-3,-5.173652E-3,1.793439E-2,3.5956167E-3,-2.4431529E-2,-1.2056047E-2,1.125718E-2,-9.43331E-3,-1.0936519E-2,1.6006946E-3,1.653969E-2,-3.375506E-2,-2.8198851E-2,2.8264813E-2,2.6722096E-2,-9.443972E-3,3.1596255E-3,-2.95489E-2,2.2193894E-2,-1.754342E-2,2.8819995E-2,4.6046626E-2,-1.1394218E-3,2.256131E-2,3.472128E-2,4.410021E-2,3.448682E-2,1.7783644E-2,1.07230125E-2,2.4293374E-2,3.4878068E-2,-1.6627653E-2,5.671135E-3,1.5096709E-2,2.3299824E-2,-2.452057E-3,1.7084325E-2,2.6589599E-2,1.4123141E-2,3.2634163E-4,1.3833965E-2,2.6648523E-2,3.2667644E-2,-2.1965343E-3,4.806369E-2,3.613634E-3,3.970253E-2,1.7942593E-2,3.873967E-2,1.4798311E-2,-3.985871E-3,4.6802286E-2,3.2556605E-2,-4.1246633E-3,4.432038E-2,4.918922E-2],"split_indices":[8,1,8,8,2,7,8,6,7,1,8,7,8,5,5,7,7,8,8,8,2,1,7,3,8,7,7,8,7,8,6,8,5,6,7,7,7,6,5,1,1,7,0,7,2,1,3,8,6,6,5,1,5,2,3,3,3,1,0,6,1,5,5,0,0,0,0,0,0,0,0,0,0,0,0,0,0,0,0,0,0,0,0,0,0,0,0,0,0,0,0,0,0,0,0,0,0,0,0,0,0,0,0,0,0,0,0,0,0,0,0,0,0,0,0,0,0,0,0,0,0,0,0,0,0,0,0],"split_type":[0,0,0,0,0,0,0,0,0,0,0,0,0,0,0,0,0,0,0,0,0,0,0,0,0,0,0,0,0,0,0,0,0,0,0,0,0,0,0,0,0,0,0,0,0,0,0,0,0,0,0,0,0,0,0,0,0,0,0,0,0,0,0,0,0,0,0,0,0,0,0,0,0,0,0,0,0,0,0,0,0,0,0,0,0,0,0,0,0,0,0,0,0,0,0,0,0,0,0,0,0,0,0,0,0,0,0,0,0,0,0,0,0,0,0,0,0,0,0,0,0,0,0,0,0,0,0],"sum_hessian":[2.3907672E4,1.7324547E4,6.5831245E3,1.5535996E4,1.7885504E3,4.358054E3,2.2250703E3,8.308225E3,7.2277715E3,8.609747E2,9.275757E2,9.177485E2,3.440306E3,1.3113439E3,9.137263E2,7.768758E3,5.3946716E2,3.769171E3,3.4586006E3,7.4612164E2,1.1485304E2,2.5952676E2,6.680489E2,3.0911865E2,6.086298E2,1.4807589E3,1.9595469E3,8.707142E2,4.4062976E2,4.447539E2,4.689724E2,5.703917E3,2.0648403E3,1.235843E2,4.1588284E2,2.418267E3,1.3509039E3,1.0491821E3,2.4094185E3,6.50099E2,9.6022644E1,1.3849079E1,1.0100397E2,1.12171585E2,1.4735518E2,5.285358E2,1.3951306E2,1.6699173E2,1.4212692E2,3.9902115E2,2.0960869E2,9.334179E2,5.47341E2,7.5548816E2,1.2040587E3,3.264464E2,5.4426776E2,9.0042435E1,3.5058734E2,2.7638388E2,1.6837003E2,2.9007995E0,4.660716E2,3.4319175E3,2.2719998E3,8.651796E1,1.9783225E3,4.2350986E1,8.1233315E1,3.090211E2,1.0686175E2,6.8962335E2,1.7286437E3,5.069155E2,8.439884E2,7.029544E2,3.4622775E2,7.994174E1,2.3294766E3,4.261432E2,2.2395581E2,9.154827E1,4.47438E0,1.214883E1,1.7002485E0,8.5469574E1,1.5534395E1,9.606423E1,1.6107351E1,1.26349205E2,2.1005972E1,4.1895822E2,1.0957761E2,7.231071E1,6.720236E1,9.3620476E1,7.337126E1,1.1461101E2,2.7515913E1,5.2092358E1,3.469288E2,2.0567993E2,3.9287555E0,6.413644E2,2.9205353E2,3.6159145E1,5.111819E2,3.7989255E2,3.7559564E2,1.1074694E3,9.6589386E1,6.9803474E1,2.5664294E2,5.3716296E2,7.1047826E0,8.882338E1,1.2190547E0,3.3820398E2,1.2383352E1,2.5913177E2,1.7252106E1,1.4632831E0,1.6690674E2,1.4385784E0,1.4622211E0,2.442507E2,2.2182089E2],"tree_param":{"num_deleted":"0","num_feature":"10","num_nodes":"127","size_leaf_vector":"1"}},{"base_weights":[7.2607384E-3,-2.4035002E-1,8.329611E-1,-3.4568736E-1,7.901054E-2,5.9530705E-1,1.2455032E0,-5.054738E-1,-1.9200079E-1,5.2856743E-1,-1.1900667E-1,1.0049949E0,4.5889357E-1,1.0975633E0,1.4198006E0,-5.461139E-1,-1.568807E-1,-6.603677E-2,-5.0246614E-1,4.005635E-1,8.639283E-1,2.7021019E-2,-3.0659157E-1,5.3997093E-1,1.078539E0,2.662222E-1,6.5616727E-1,9.9239016E-1,1.3168843E0,1.3208463E0,4.581176E-2,-6.490772E-1,-4.0043053E-1,5.2213542E-2,-2.9007435E-1,-2.7662614E-1,1.8814912E-1,-6.746287E-1,-3.4930396E-1,2.1981265E-1,5.568564E-1,1.339699E-1,9.313299E-1,-1.5365313E-1,1.253499E-1,6.986674E-1,-3.4915218E-1,5.9458214E-1,-4.8649955E-1,8.558379E-1,1.2335929E0,1.3637497E-1,4.1275665E-1,7.05169E-1,3.5713342E-1,9.430021E-1,1.2558535E0,1.2297375E0,1.5431818E0,7.6488197E-1,1.3540425E0,-2.1479256E-2,-1.2763659E-2,-1.6184907E-2,-4.215404E-3,8.317271E-3,-6.5766545E-3,2.5077024E-3,-1.2013607E-2,-1.4698854E-2,-4.114067E-3,2.4894546E-3,1.5086083E-2,-2.5140336E-2,-1.44577585E-2,-1.3174542E-2,-2.479439E-3,1.0427901E-2,1.759347E-3,-8.01502E-3,1.855361E-2,2.8370522E-2,-1.7319622E-2,2.2348266E-2,3.1894248E-2,-1.6942246E-2,-9.957361E-4,8.211984E-3,1.2488392E-3,-4.0260267E-2,2.4157273E-2,-1.7766446E-2,-6.4156805E-3,1.53709175E-2,4.309828E-2,-3.4822658E-2,3.406424E-2,1.8216925E-2,3.0831032E-2,3.7572037E-2,-8.997428E-3,3.0634557E-3,4.026825E-2,5.799571E-3,1.525688E-2,1.9835014E-2,2.854377E-2,1.2308038E-2,-4.8059855E-2,3.1337537E-2,2.3293938E-2,1.7998882E-2,3.963681E-2,3.7602875E-2,-9.504842E-3,3.1181809E-2,5.0364174E-2,-1.52753405E-2,2.6670715E-2,4.3889187E-2,3.7282508E-2],"categories":[],"categories_nodes":[],"categories_segments":[],"categories_sizes":[],"default_left":[0,0,0,0,0,0,0,0,0,0,0,0,0,0,0,0,0,0,0,0,0,0,0,0,0,0,0,0,0,0,0,0,0,0,0,0,0,0,0,0,0,0,0,0,0,0,0,0,0,0,0,0,0,0,0,0,0,0,0,0,0,0,0,0,0,0,0,0,0,0,0,0,0,0,0,0,0,0,0,0,0,0,0,0,0,0,0,0,0,0,0,0,0,0,0,0,0,0,0,0,0,0,0,0,0,0,0,0,0,0,0,0,0,0,0,0,0,0,0,0,0],"id":5,"left_children":[1,3,5,7,9,11,13,15,17,19,21,23,25,27,29,31,33,35,37,39,41,43,45,47,49,51,53,55,57,59,-1,61,63,65,67,69,71,73,75,77,79,81,83,85,87,89,91,93,95,97,99,101,103,105,107,109,111,113,115,117,119,-1,-1,-1,-1,-1,-1,-1,-1,-1,-1,-1,-1,-1,-1,-1,-1,-1,-1,-1,-1,-1,-1,-1,-1,-1,-1,-1,-1,-1,-1,-1,-1,-1,-1,-1,-1,-1,-1,-1,-1,-1,-1,-1,-1,-1,-1,-1,-1,-1,-1,-1,-1,-1,-1,-1,-1,-1,-1,-1,-1],"loss_changes":[4.874343E3,6.170272E2,5.384973E2,3.3859448E2,4.0509464E2,1.9467615E2,5.0255615E1,9.5699585E1,2.7496347E2,5.9386078E1,8.655328E1,2.9217834E1,9.9457886E1,2.3865845E1,6.4106445E0,9.0563354E1,1.971476E1,2.678793E2,5.327716E1,2.8380188E1,1.8744873E1,3.1595907E1,5.9415497E1,7.0716095E0,2.4889343E1,2.5207817E1,1.8716614E1,8.466003E0,5.017334E0,7.303467E0,0E0,4.8119385E1,8.769205E1,1.6591688E1,1.7196278E1,8.0321106E1,7.441646E1,2.8849274E1,2.4596191E1,9.427612E0,2.4843643E1,1.9557789E1,7.4787903E0,3.0692404E1,1.4106243E1,1.2376354E1,4.3153275E1,7.604809E0,8.407858E0,1.2229462E1,4.8615723E0,2.9530357E1,1.2439453E1,1.2663513E1,1.825071E1,9.210815E0,3.1896667E0,4.984192E0,4.0268097E0,4.51334E0,3.1844482E0,0E0,0E0,0E0,0E0,0E0,0E0,0E0,0E0,0E0,0E0,0E0,0E0,0E0,0E0,0E0,0E0,0E0,0E0,0E0,0E0,0E0,0E0,0E0,0E0,0E0,0E0,0E0,0E0,0E0,0E0,0E0,0E0,0E0,0E0,0E0,0E0,0E0,0E0,0E0,0E0,0E0,0E0,0E0,0E0,0E0,0E0,0E0,0E0,0E0,0E0,0E0,0E0,0E0,0E0,0E0,0E0,0E0,0E0,0E0,0E0],"parents":[2147483647,0,0,1,1,2,2,3,3,4,4,5,5,6,6,7,7,8,8,9,9,10,10,11,11,12,12,13,13,14,14,15,15,16,16,17,17,18,18,19,19,20,20,21,21,22,22,23,23,24,24,25,25,26,26,27,27,28,28,29,29,31,31,32,32,33,33,34,34,35,35,36,36,37,37,38,38,39,39,40,40,41,41,42,42,43,43,44,44,45,45,46,46,47,47,48,48,49,49,50,50,51,51,52,52,53,53,54,54,55,55,56,56,57,57,58,58,59,59,60,60],"right_children":[2,4,6,8,10,12,14,16,18,20,22,24,26,28,30,32,34,36,38,40,42,44,46,48,50,52,54,56,58,60,-1,62,64,66,68,70,72,74,76,78,80,82,84,86,88,90,92,94,96,98,100,102,104,106,108,110,112,114,116,118,120,-1,-1,-1,-1,-1,-1,-1,-1,-1,-1,-1,-1,-1,-1,-1,-1,-1,-1,-1,-1,-1,-1,-1,-1,-1,-1,-1,-1,-1,-1,-1,-1,-1,-1,-1,-1,-1,-1,-1,-1,-1,-1,-1,-1,-1,-1,-1,-1,-1,-1,-1,-1,-1,-1,-1,-1,-1,-1,-1,-1],"split_conditions":[-3.8784008E0,-5.252733E0,-1.9489522E0,1.8E2,1.48768015E-2,3.1490553E-2,-5.3488225E-1,-2.9276773E-1,-1.996008E-3,5.3295255E-1,1.329114E-1,2.5390178E-1,-3.0899434E0,2.4330975E-1,1.8336888E-1,5.4214287E-1,-3.7895083E-2,-6.9016447E0,-3.7675753E-1,-4.7320004E0,1.8551308E1,-4.8099856E0,8.398982E-2,8.598324E0,-3.3095734E0,2.067205E2,1.9367756E-1,3.11E2,-1.0092297E0,6.708204E1,4.581176E-2,-5.739155E0,-7.0171566E0,5.5999756E0,1.1875199E-1,2.31E2,6.4859E-1,-5.9834104E0,-2.8182223E-1,-4.990565E0,-4.3517044E-1,5.7375777E-1,-4.2986426E-1,1.9E2,-3.8751024E-1,9E1,-4.759575E0,6.6639276E0,2.8832126E2,3.9434275E-1,3.4861688E2,3.7368992E-1,-4.054054E-1,2.3199982E1,1.0037169E1,2.33E2,2.5075786E0,1.5238997E-1,-4.1186735E-1,-4.197893E-1,1.0799988E1,-2.1479256E-2,-1.2763659E-2,-1.6184907E-2,-4.215404E-3,8.317271E-3,-6.5766545E-3,2.5077024E-3,-1.2013607E-2,-1.4698854E-2,-4.114067E-3,2.4894546E-3,1.5086083E-2,-2.5140336E-2,-1.44577585E-2,-1.3174542E-2,-2.479439E-3,1.0427901E-2,1.759347E-3,-8.01502E-3,1.855361E-2,2.8370522E-2,-1.7319622E-2,2.2348266E-2,3.1894248E-2,-1.6942246E-2,-9.957361E-4,8.211984E-3,1.2488392E-3,-4.0260267E-2,2.4157273E-2,-1.7766446E-2,-6.4156805E-3,1.53709175E-2,4.309828E-2,-3.4822658E-2,3.406424E-2,1.8216925E-2,3.0831032E-2,3.7572037E-2,-8.997428E-3,3.0634557E-3,4.026825E-2,5.799571E-3,1.525688E-2,1.9835014E-2,2.854377E-2,1.2308038E-2,-4.8059855E-2,3.1337537E-2,2.3293938E-2,1.7998882E-2,3.963681E-2,3.7602875E-2,-9.504842E-3,3.1181809E-2,5.0364174E-2,-1.52753405E-2,2.6670715E-2,4.3889187E-2,3.7282508E-2],"split_indices":[8,8,8,2,7,7,8,6,7,5,7,5,8,5,5,5,7,8,6,8,2,8,5,3,8,2,7,0,8,9,0,8,8,4,5,0,5,8,6,8,6,5,6,0,6,9,8,3,2,5,2,5,6,4,3,0,3,7,6,6,4,0,0,0,0,0,0,0,0,0,0,0,0,0,0,0,0,0,0,0,0,0,0,0,0,0,0,0,0,0,0,0,0,0,0,0,0,0,0,0,0,0,0,0,0,0,0,0,0,0,0,0,0,0,0,0,0,0,0,0,0],"split_type":[0,0,0,0,0,0,0,0,0,0,0,0,0,0,0,0,0,0,0,0,0,0,0,0,0,0,0,0,0,0,0,0,0,0,0,0,0,0,0,0,0,0,0,0,0,0,0,0,0,0,0,0,0,0,0,0,0,0,0,0,0,0,0,0,0,0,0,0,0,0,0,0,0,0,0,0,0,0,0,0,0,0,0,0,0,0,0,0,0,0,0,0,0,0,0,0,0,0,0,0,0,0,0,0,0,0,0,0,0,0,0,0,0,0,0,0,0,0,0,0,0],"sum_hessian":[2.3839E4,1.8339934E4,5.499065E3,1.3791039E4,4.5488955E3,3.490645E3,2.00842E3,6.760218E3,7.030821E3,1.390465E3,3.158431E3,8.703557E2,2.6202893E3,1.0902964E3,9.1812366E2,6.0538716E3,7.0634656E2,5.0024194E3,2.0284015E3,1.00793896E3,3.8252594E2,1.7764153E3,1.3820155E3,1.1999045E2,7.5036523E2,1.3267964E3,1.2934928E3,7.4065015E2,3.4964615E2,4.508388E2,4.6728485E2,3.5449707E3,2.5089006E3,2.7509546E2,4.312511E2,2.735778E3,2.2666414E3,9.533641E2,1.0750375E3,4.6851428E2,5.3942474E2,3.258784E1,3.4993808E2,6.2586273E2,1.1505525E3,5.550891E1,1.3265066E3,1.1432858E2,5.6618648E0,3.106721E2,4.3969318E2,7.044761E2,6.223203E2,1.1102084E3,1.8328453E2,6.275843E2,1.13065865E2,2.570795E2,9.2566666E1,2.6757072E1,4.2408173E2,2.8045667E3,7.404041E2,1.6583894E3,8.5051135E2,1.5067757E2,1.2441788E2,9.585898E1,3.3539212E2,1.1016173E3,1.6341606E3,1.6899215E3,5.767198E2,5.3182947E2,4.2153458E2,8.139442E2,2.610933E2,2.641747E2,2.0433957E2,3.3958225E1,5.054665E2,1.509457E1,1.749327E1,1.3765466E2,2.1228342E2,1.4277428E2,4.8308844E2,4.202851E2,7.3026746E2,1.9996501E0,5.350926E1,4.8513174E2,8.413749E2,1.04897E2,9.431586E0,4.2140207E0,1.4478444E0,1.22623955E2,1.8804813E2,4.3797675E2,1.7164208E0,6.8530963E2,1.9166445E1,1.8205396E2,4.4026633E2,9.186139E2,1.9159444E2,1.7953487E2,3.7496538E0,4.0818942E2,2.193949E2,9.225244E0,1.0384062E2,2.5536693E2,1.7125646E0,1.9260069E1,7.3306595E1,1.951579E0,2.4805492E1,2.3377509E2,1.9030664E2],"tree_param":{"num_deleted":"0","num_feature":"10","num_nodes":"121","size_leaf_vector":"1"}},{"base_weights":[7.1503194E-3,-2.4403799E-1,7.690835E-1,-3.2148942E-1,3.535549E-1,5.211662E-1,1.169589E0,-4.602257E-1,-6.304014E-2,4.9175844E-3,7.142095E-1,4.144384E-1,9.3667734E-1,1.0259492E0,1.3778137E0,-5.0055027E-1,-9.0882316E-2,-2.522694E-1,2.645366E-1,-8.6353004E-2,6.5964895E-1,8.6648124E-1,1.9261833E-1,1.8124022E-1,5.284106E-1,7.692797E-1,1.0788314E0,8.7270766E-1,1.2370781E0,1.2159153E0,1.4414253E0,-6.511326E-1,-4.0202677E-1,-1.19413435E-1,6.688278E-1,-3.9977852E-1,-6.991965E-2,1.791176E-1,5.4360616E-1,-1.8957421E-1,4.3957037E-1,-7.1589535E-1,8.1600213E-1,6.576914E-1,1.2985225E0,-2.4971125E-1,3.84103E-1,3.1387303E-2,4.5998898E-1,4.133949E-1,6.9130117E-1,1.1881903E0,6.95891E-1,3.7932503E-1,1.110731E0,7.699986E-1,1.0092771E0,1.1109296E0,1.3282322E0,1.2320374E0,-3.7318535E-2,1.3833324E0,1.5507774E0,-2.401156E-2,-1.6082788E-2,-1.80636E-2,-4.6605477E-3,-7.0152567E-3,1.1575191E-3,-4.0494194E-3,3.0827682E-2,-1.6118914E-2,-5.080035E-3,-3.8849283E-3,9.750476E-3,1.9063281E-3,1.2740067E-2,8.630614E-3,2.3349484E-2,-1.3787494E-2,-1.0516973E-3,-1.1027972E-3,2.2007437E-2,3.7089554E-3,-4.01442E-2,-2.7386786E-2,2.6580945E-2,7.11222E-3,2.3956737E-2,9.803445E-3,4.111361E-2,2.2392638E-2,-1.5910102E-2,-1.4192068E-2,1.5355765E-2,-2.9283385E-3,7.186534E-3,9.663395E-3,2.8062977E-2,6.4482167E-3,1.6619802E-2,2.0052092E-2,3.918579E-2,1.5898267E-2,4.253986E-2,2.144105E-2,-3.5619278E-2,-4.117042E-2,1.9202573E-2,3.1251002E-2,4.038822E-2,2.173737E-2,3.52978E-2,3.5009827E-2,2.3986245E-2,2.388565E-2,3.594024E-2,2.5195226E-2,4.164025E-2,3.3144016E-2,4.2542536E-2,4.201006E-2,2.5737206E-3,1.4936576E-2,4.7194716E-2],"categories":[],"categories_nodes":[],"categories_segments":[],"categories_sizes":[],"default_left":[0,0,0,0,0,0,0,0,0,0,0,0,0,0,0,0,0,0,0,0,0,0,0,0,0,0,0,0,0,0,0,0,0,0,0,0,0,0,0,0,0,0,0,0,0,0,0,0,0,0,0,0,0,0,0,0,0,0,0,0,0,0,0,0,0,0,0,0,0,0,0,0,0,0,0,0,0,0,0,0,0,0,0,0,0,0,0,0,0,0,0,0,0,0,0,0,0,0,0,0,0,0,0,0,0,0,0,0,0,0,0,0,0,0,0,0,0,0,0,0,0,0,0,0,0],"id":6,"left_children":[1,3,5,7,9,11,13,15,17,19,21,23,25,27,29,31,33,35,37,39,41,43,45,47,49,51,53,55,57,59,61,63,65,67,69,71,73,75,77,79,81,83,85,87,89,91,93,95,97,99,101,103,105,107,109,111,113,115,117,119,-1,121,123,-1,-1,-1,-1,-1,-1,-1,-1,-1,-1,-1,-1,-1,-1,-1,-1,-1,-1,-1,-1,-1,-1,-1,-1,-1,-1,-1,-1,-1,-1,-1,-1,-1,-1,-1,-1,-1,-1,-1,-1,-1,-1,-1,-1,-1,-1,-1,-1,-1,-1,-1,-1,-1,-1,-1,-1,-1,-1,-1,-1,-1,-1],"loss_changes":[4.557956E3,8.290947E2,5.8567285E2,5.6851294E2,2.584443E2,1.6142609E2,6.608447E1,1.5361841E2,3.4345538E2,6.2572235E1,8.007526E1,7.7112274E1,1.6896118E1,4.225525E1,7.705078E0,1.3773682E2,2.2119226E1,9.443411E1,4.8266006E1,4.9974632E1,2.8136429E1,6.966199E1,1.9541468E1,3.9884853E1,3.626172E1,9.797012E0,8.511902E0,1.0156799E1,4.9744263E0,1.199295E1,2.008789E0,6.2139038E1,2.7110876E2,1.7349148E1,1.0480087E1,5.951767E1,3.5953075E1,4.3590775E1,2.7694122E1,3.1605629E1,2.0657728E1,7.1127343E0,1.2998329E1,2.9599777E1,1.40625305E1,1.9448631E1,1.7052414E1,1.6425518E1,2.1660538E1,3.0957596E1,1.3402649E1,6.44384E0,7.4235687E0,9.259835E0,5.356598E0,8.472473E0,9.636047E0,4.938568E0,6.227356E0,4.743164E0,0E0,1.8202515E0,8.786011E-1,0E0,0E0,0E0,0E0,0E0,0E0,0E0,0E0,0E0,0E0,0E0,0E0,0E0,0E0,0E0,0E0,0E0,0E0,0E0,0E0,0E0,0E0,0E0,0E0,0E0,0E0,0E0,0E0,0E0,0E0,0E0,0E0,0E0,0E0,0E0,0E0,0E0,0E0,0E0,0E0,0E0,0E0,0E0,0E0,0E0,0E0,0E0,0E0,0E0,0E0,0E0,0E0,0E0,0E0,0E0,0E0,0E0,0E0,0E0,0E0,0E0,0E0],"parents":[2147483647,0,0,1,1,2,2,3,3,4,4,5,5,6,6,7,7,8,8,9,9,10,10,11,11,12,12,13,13,14,14,15,15,16,16,17,17,18,18,19,19,20,20,21,21,22,22,23,23,24,24,25,25,26,26,27,27,28,28,29,29,30,30,31,31,32,32,33,33,34,34,35,35,36,36,37,37,38,38,39,39,40,40,41,41,42,42,43,43,44,44,45,45,46,46,47,47,48,48,49,49,50,50,51,51,52,52,53,53,54,54,55,55,56,56,57,57,58,58,59,59,61,61,62,62],"right_children":[2,4,6,8,10,12,14,16,18,20,22,24,26,28,30,32,34,36,38,40,42,44,46,48,50,52,54,56,58,60,62,64,66,68,70,72,74,76,78,80,82,84,86,88,90,92,94,96,98,100,102,104,106,108,110,112,114,116,118,120,-1,122,124,-1,-1,-1,-1,-1,-1,-1,-1,-1,-1,-1,-1,-1,-1,-1,-1,-1,-1,-1,-1,-1,-1,-1,-1,-1,-1,-1,-1,-1,-1,-1,-1,-1,-1,-1,-1,-1,-1,-1,-1,-1,-1,-1,-1,-1,-1,-1,-1,-1,-1,-1,-1,-1,-1,-1,-1,-1,-1,-1,-1,-1,-1],"split_conditions":[-4.0280952E0,7.944881E0,-2.160602E0,-5.7182174E0,2.1999025E2,3.3521923E-1,-5.3488225E-1,-2.8429118E-1,3.2153222E-1,1.5408702E1,3.1480643E2,-3.5464265E0,-3.4090903E0,2.185909E-1,1.392663E-1,4.493772E-1,7.067898E0,-4.7843018E0,5.4214287E-1,-5.4585013E0,2.6714983E1,1.1640713E1,-8.188779E0,-3.376023E-1,-3.4656155E-1,8.485281E1,-4.6759677E-1,-1.3990028E0,1.8E2,1.0527901E1,2.695863E-1,-3.788798E-1,-7.1180973E0,-2.2408026E-1,2.7305746E0,-3.4458557E-1,-2.7942294E-1,-4.7320004E0,-5.2771225E0,5.3310345E1,9.240833E0,2.27E2,3E1,4.2450228E-1,-8.306409E0,2.000122E-1,8.394209E0,2.3920181E2,4.6385193E0,1.7882353E-1,3.0592313E-1,1.2961629E2,3.4587534E2,1.3158152E0,4.9659112E-1,2.7099976E1,2.33E2,-1.9489522E0,1.3157649E0,1.230884E0,-3.7318535E-2,1.2528368E3,-4.9542448E-1,-2.401156E-2,-1.6082788E-2,-1.80636E-2,-4.6605477E-3,-7.0152567E-3,1.1575191E-3,-4.0494194E-3,3.0827682E-2,-1.6118914E-2,-5.080035E-3,-3.8849283E-3,9.750476E-3,1.9063281E-3,1.2740067E-2,8.630614E-3,2.3349484E-2,-1.3787494E-2,-1.0516973E-3,-1.1027972E-3,2.2007437E-2,3.7089554E-3,-4.01442E-2,-2.7386786E-2,2.6580945E-2,7.11222E-3,2.3956737E-2,9.803445E-3,4.111361E-2,2.2392638E-2,-1.5910102E-2,-1.4192068E-2,1.5355765E-2,-2.9283385E-3,7.186534E-3,9.663395E-3,2.8062977E-2,6.4482167E-3,1.6619802E-2,2.0052092E-2,3.918579E-2,1.5898267E-2,4.253986E-2,2.144105E-2,-3.5619278E-2,-4.117042E-2,1.9202573E-2,3.1251002E-2,4.038822E-2,2.173737E-2,3.52978E-2,3.5009827E-2,2.3986245E-2,2.388565E-2,3.594024E-2,2.5195226E-2,4.164025E-2,3.3144016E-2,4.2542536E-2,4.201006E-2,2.5737206E-3,1.4936576E-2,4.7194716E-2],"split_indices":[8,1,8,8,2,5,8,6,5,1,2,8,8,5,5,5,1,8,5,8,2,1,8,6,6,9,6,8,2,3,5,6,8,6,3,6,6,8,8,2,1,0,9,5,8,4,1,2,1,5,5,2,2,1,5,4,0,8,1,8,0,9,6,0,0,0,0,0,0,0,0,0,0,0,0,0,0,0,0,0,0,0,0,0,0,0,0,0,0,0,0,0,0,0,0,0,0,0,0,0,0,0,0,0,0,0,0,0,0,0,0,0,0,0,0,0,0,0,0,0,0,0,0,0,0],"split_type":[0,0,0,0,0,0,0,0,0,0,0,0,0,0,0,0,0,0,0,0,0,0,0,0,0,0,0,0,0,0,0,0,0,0,0,0,0,0,0,0,0,0,0,0,0,0,0,0,0,0,0,0,0,0,0,0,0,0,0,0,0,0,0,0,0,0,0,0,0,0,0,0,0,0,0,0,0,0,0,0,0,0,0,0,0,0,0,0,0,0,0,0,0,0,0,0,0,0,0,0,0,0,0,0,0,0,0,0,0,0,0,0,0,0,0,0,0,0,0,0,0,0,0,0,0],"sum_hessian":[2.3813197E4,1.7909582E4,5.9036143E3,1.5855129E4,2.054453E3,3.6478545E3,2.25576E3,1.031645E4,5.538679E3,1.0451458E3,1.00930707E3,2.9039468E3,7.4390765E2,1.3384099E3,9.173501E2,9.300657E3,1.01579236E3,3.5108296E3,2.0278494E3,9.180379E2,1.2710783E2,7.807238E2,2.285833E2,9.5418414E2,1.9497626E3,3.4456583E2,3.993418E2,7.7849567E2,5.5991425E2,2.6443893E2,6.529112E2,3.676272E3,5.6243857E3,9.798371E2,3.5955235E1,1.9401674E3,1.5706624E3,1.5538738E3,4.739756E2,7.6795374E2,1.5008415E2,1.2608007E1,1.14499825E2,5.280559E2,2.5266791E2,6.896654E1,1.5961676E2,6.212943E2,3.3288983E2,1.1448975E3,8.048651E2,4.910109E1,2.9546472E2,1.7979185E1,3.813626E2,4.481192E2,3.303765E2,2.404048E2,3.1950943E2,2.6320206E2,1.2368716E0,4.3530652E2,2.1760464E2,1.6863232E3,1.9899489E3,3.154186E3,2.4701997E3,5.7220337E2,4.0763373E2,1.1079819E1,2.4875414E1,1.2348906E3,7.0527673E2,1.3677307E3,2.0293161E2,1.0498789E3,5.0399487E2,2.2265376E2,2.5132184E2,2.8216147E2,4.8579227E2,5.677119E1,9.331296E1,5.6427855E0,6.965222E0,3.4756427E0,1.1102418E2,1.2708369E2,4.009722E2,1.4705154E1,2.3796275E2,1.4659673E1,5.430686E1,1.9739958E1,1.398768E2,3.833472E2,2.3794714E2,2.569031E2,7.598671E1,4.621311E2,6.827664E2,7.694259E2,3.5439247E1,1.290507E1,3.6196022E1,2.942193E2,1.2454265E0,1.7422539E0,1.623693E1,2.854642E2,9.589842E1,3.9810046E2,5.0018738E1,1.9488243E2,1.3549406E2,4.7759552E1,1.9264525E2,2.887663E1,2.906328E2,1.5024963E2,1.1295243E2,4.3409467E2,1.2118617E0,1.9250656E0,2.1567958E2],"tree_param":{"num_deleted":"0","num_feature":"10","num_nodes":"125","size_leaf_vector":"1"}},{"base_weights":[-2.692651E-3,-2.2145386E-1,8.143393E-1,-3.5092938E-1,6.720542E-2,5.920347E-1,1.1614918E0,-4.3253702E-1,2.74655E-1,3.7076935E-1,-1.6746224E-1,7.941457E-1,3.8604194E-1,1.0187582E0,1.3304513E0,-5.5460733E-1,-3.1296253E-1,-6.0198214E-2,6.1644167E-1,2.7762195E-1,7.273341E-1,-3.4718937E-1,-4.231157E-2,6.882318E-1,1.0579495E0,4.244602E-1,-8.4629156E-2,9.0097415E-1,1.2748688E0,1.2739441E0,1.4854608E0,-6.0612595E-1,-2.7519917E-1,-1.8068467E-1,-4.9986386E-1,-2.9853198E-1,2.3839419E-1,8.455926E-2,8.011178E-1,8.139205E-2,4.724763E-1,2.0014927E-1,8.033496E-1,-3.726679E-1,6.1697584E-1,-1.6834019E-1,1.2207662E-1,5.4401237E-1,9.306297E-1,8.2587874E-1,1.1288054E0,2.8880894E-1,5.3885305E-1,-6.160962E-1,4.0533096E-1,8.485964E-1,1.189697E0,1.2862937E0,-1.13938056E-1,1.2773638E0,-5.0311554E-3,1.5020607E0,6.69544E-1,-2.3131317E-2,-1.546735E-2,2.1653424E-3,-1.0517459E-2,-1.0106955E-2,4.456963E-3,-1.6965143E-2,-4.33269E-3,-1.089188E-2,1.2416046E-2,-1.0053052E-2,1.5272715E-2,1.0382138E-2,-1.1566752E-2,2.8014254E-2,1.9185427E-3,-5.085736E-3,5.235815E-3,1.9627653E-2,8.300436E-3,-3.4072145E-3,3.6154382E-2,1.7149197E-2,2.8236967E-2,1.4331084E-2,-1.2228419E-2,-9.9851005E-3,2.88198E-2,-1.0333478E-2,1.7023229E-4,1.885828E-3,2.4839042E-2,5.28365E-3,1.7965179E-2,2.7033275E-2,4.097821E-2,2.6541214E-2,-1.3877379E-2,3.528355E-2,1.9610137E-2,2.323815E-2,6.9565945E-3,1.4098088E-2,2.3532413E-2,-2.42178E-2,1.3679951E-2,-4.1772302E-2,1.4829732E-2,2.8967893E-2,1.9182513E-2,3.884144E-2,2.630309E-2,3.6527198E-2,4.2889822E-2,-6.263613E-3,1.2383834E-3,1.7049275E-2,3.893265E-2,4.569413E-2,1.5259704E-2,-1.2802513E-2,3.4598615E-2],"categories":[],"categories_nodes":[],"categories_segments":[],"categories_sizes":[],"default_left":[0,0,0,0,0,0,0,0,0,0,0,0,0,0,0,0,0,0,0,0,0,0,0,0,0,0,0,0,0,0,0,0,0,0,0,0,0,0,0,0,0,0,0,0,0,0,0,0,0,0,0,0,0,0,0,0,0,0,0,0,0,0,0,0,0,0,0,0,0,0,0,0,0,0,0,0,0,0,0,0,0,0,0,0,0,0,0,0,0,0,0,0,0,0,0,0,0,0,0,0,0,0,0,0,0,0,0,0,0,0,0,0,0,0,0,0,0,0,0,0,0,0,0,0,0],"id":7,"left_children":[1,3,5,7,9,11,13,15,17,19,21,23,25,27,29,31,33,35,37,39,41,43,45,47,49,51,53,55,57,59,61,63,65,67,69,71,73,75,77,79,81,83,85,87,89,91,93,95,97,99,101,103,105,107,109,111,113,115,117,119,-1,121,123,-1,-1,-1,-1,-1,-1,-1,-1,-1,-1,-1,-1,-1,-1,-1,-1,-1,-1,-1,-1,-1,-1,-1,-1,-1,-1,-1,-1,-1,-1,-1,-1,-1,-1,-1,-1,-1,-1,-1,-1,-1,-1,-1,-1,-1,-1,-1,-1,-1,-1,-1,-1,-1,-1,-1,-1,-1,-1,-1,-1,-1,-1],"loss_changes":[4.250253E3,7.010661E2,3.869016E2,6.6121155E2,4.1387943E2,1.2724719E2,4.590161E1,1.6703491E2,1.7112788E2,8.392825E1,7.369498E1,4.2453613E1,2.7507446E1,3.1022827E1,5.938965E0,8.14115E1,1.43034E2,5.3873676E1,7.260849E1,7.681641E1,2.0839874E1,3.327191E1,4.006673E1,3.814435E1,6.317444E0,2.1642792E1,3.0321228E1,1.0089478E1,5.439087E0,3.4733887E0,2.1478271E0,7.1578E1,2.2087387E1,1.7008948E2,5.1409485E1,1.833712E1,5.1109493E1,2.3224026E1,5.0026093E1,2.2884005E1,3.4932144E1,2.1055222E1,1.3452972E1,3.4555664E1,1.1392952E1,3.2898388E1,3.4993713E1,1.2498856E1,5.4301453E0,7.294922E0,5.037903E0,1.8072727E1,1.2942383E1,1.1281755E1,9.792685E0,1.3877106E1,2.1621857E0,1.7438965E0,6.0764976E-2,2.96167E0,0E0,6.7126465E-1,3.8098755E0,0E0,0E0,0E0,0E0,0E0,0E0,0E0,0E0,0E0,0E0,0E0,0E0,0E0,0E0,0E0,0E0,0E0,0E0,0E0,0E0,0E0,0E0,0E0,0E0,0E0,0E0,0E0,0E0,0E0,0E0,0E0,0E0,0E0,0E0,0E0,0E0,0E0,0E0,0E0,0E0,0E0,0E0,0E0,0E0,0E0,0E0,0E0,0E0,0E0,0E0,0E0,0E0,0E0,0E0,0E0,0E0,0E0,0E0,0E0,0E0,0E0,0E0],"parents":[2147483647,0,0,1,1,2,2,3,3,4,4,5,5,6,6,7,7,8,8,9,9,10,10,11,11,12,12,13,13,14,14,15,15,16,16,17,17,18,18,19,19,20,20,21,21,22,22,23,23,24,24,25,25,26,26,27,27,28,28,29,29,30,30,31,31,32,32,33,33,34,34,35,35,36,36,37,37,38,38,39,39,40,40,41,41,42,42,43,43,44,44,45,45,46,46,47,47,48,48,49,49,50,50,51,51,52,52,53,53,54,54,55,55,56,56,57,57,58,58,59,59,61,61,62,62],"right_children":[2,4,6,8,10,12,14,16,18,20,22,24,26,28,30,32,34,36,38,40,42,44,46,48,50,52,54,56,58,60,62,64,66,68,70,72,74,76,78,80,82,84,86,88,90,92,94,96,98,100,102,104,106,108,110,112,114,116,118,120,-1,122,124,-1,-1,-1,-1,-1,-1,-1,-1,-1,-1,-1,-1,-1,-1,-1,-1,-1,-1,-1,-1,-1,-1,-1,-1,-1,-1,-1,-1,-1,-1,-1,-1,-1,-1,-1,-1,-1,-1,-1,-1,-1,-1,-1,-1,-1,-1,-1,-1,-1,-1,-1,-1,-1,-1,-1,-1,-1,-1,-1,-1,-1,-1],"split_conditions":[-3.720542E0,-5.4585013E0,-1.9489522E0,8.394209E0,5.9596434E-2,1.08199686E-1,-5.3488225E-1,1.8E2,2.170527E2,5.2991456E-1,-4.759575E0,3.7664348E-1,9.258954E0,2.5614145E-1,2.6719636E-1,-3.1676584E-1,-5.122633E-2,1.1640713E1,-7.774713E0,-4.7320004E0,-5.3479953E0,9.134508E0,2.1999025E2,-2.759919E0,-3.4090903E0,-3.0899434E0,2.2519136E2,3.11E2,-2.1019553E-1,1.3200114E1,3.3666122E2,-7.296817E0,1.3753387E-1,-6.670138E0,-2.8182223E-1,-2.8656295E-1,5.3315536E1,3.2613138E2,-3.6342323E-2,6.358814E1,-2.1065936E-4,8.520719E0,3.347104E0,9.0427294E-2,2.16E2,9.199997E0,6.762263E0,-4.054054E-1,7.2331033E0,3.3328046E2,3.1800018E1,1.8E2,2.0607306E-1,2.3E1,-4.6285716E-1,2.33E2,4.225237E0,-3.5465115E-1,3.38E2,-3.057225E-2,-5.0311554E-3,4.63E2,2.18E2,-2.3131317E-2,-1.546735E-2,2.1653424E-3,-1.0517459E-2,-1.0106955E-2,4.456963E-3,-1.6965143E-2,-4.33269E-3,-1.089188E-2,1.2416046E-2,-1.0053052E-2,1.5272715E-2,1.0382138E-2,-1.1566752E-2,2.8014254E-2,1.9185427E-3,-5.085736E-3,5.235815E-3,1.9627653E-2,8.300436E-3,-3.4072145E-3,3.6154382E-2,1.7149197E-2,2.8236967E-2,1.4331084E-2,-1.2228419E-2,-9.9851005E-3,2.88198E-2,-1.0333478E-2,1.7023229E-4,1.885828E-3,2.4839042E-2,5.28365E-3,1.7965179E-2,2.7033275E-2,4.097821E-2,2.6541214E-2,-1.3877379E-2,3.528355E-2,1.9610137E-2,2.323815E-2,6.9565945E-3,1.4098088E-2,2.3532413E-2,-2.42178E-2,1.3679951E-2,-4.1772302E-2,1.4829732E-2,2.8967893E-2,1.9182513E-2,3.884144E-2,2.630309E-2,3.6527198E-2,4.2889822E-2,-6.263613E-3,1.2383834E-3,1.7049275E-2,3.893265E-2,4.569413E-2,1.5259704E-2,-1.2802513E-2,3.4598615E-2],"split_indices":[8,8,8,1,7,7,8,2,2,5,8,5,3,5,5,6,7,1,8,8,8,1,2,8,8,8,2,0,6,1,2,8,5,8,6,6,2,2,7,2,7,1,1,5,0,4,1,6,1,2,4,0,5,4,6,0,3,6,0,7,0,0,0,0,0,0,0,0,0,0,0,0,0,0,0,0,0,0,0,0,0,0,0,0,0,0,0,0,0,0,0,0,0,0,0,0,0,0,0,0,0,0,0,0,0,0,0,0,0,0,0,0,0,0,0,0,0,0,0,0,0,0,0,0,0],"split_type":[0,0,0,0,0,0,0,0,0,0,0,0,0,0,0,0,0,0,0,0,0,0,0,0,0,0,0,0,0,0,0,0,0,0,0,0,0,0,0,0,0,0,0,0,0,0,0,0,0,0,0,0,0,0,0,0,0,0,0,0,0,0,0,0,0,0,0,0,0,0,0,0,0,0,0,0,0,0,0,0,0,0,0,0,0,0,0,0,0,0,0,0,0,0,0,0,0,0,0,0,0,0,0,0,0,0,0,0,0,0,0,0,0,0,0,0,0,0,0,0,0,0,0,0,0],"sum_hessian":[2.377764E4,1.8756338E4,5.021302E3,1.2948286E4,5.808052E3,3.0627356E3,1.9585659E3,1.1454369E4,1.4939169E3,2.5320437E3,3.2760083E3,1.5444926E3,1.5182432E3,1.0654908E3,8.930752E2,5.6662314E3,5.7881377E3,7.5502856E2,7.3888837E2,2.0089999E3,5.230437E2,1.3440553E3,1.931953E3,1.1046133E3,4.3987924E2,1.4037601E3,1.1448302E2,7.3293536E2,3.3255545E2,6.612441E2,2.3183112E2,4.783126E3,8.831052E2,3.3905037E3,2.397634E3,4.198824E2,3.3514615E2,1.9080684E2,5.4808154E2,1.0016732E3,1.0073267E3,6.6371994E1,4.5667172E2,1.31005E3,3.4005245E1,1.0935535E3,8.3839954E2,6.9459454E2,4.1001874E2,1.0584986E2,3.3402936E2,6.438196E2,7.5994055E2,5.479194E1,5.9691074E1,6.237236E2,1.0921178E2,3.2991522E2,2.6402242E0,6.5979016E2,1.4538937E0,2.2638435E2,5.446756E0,1.8038464E3,2.9792798E3,1.5183841E2,7.312668E2,2.311846E3,1.0786578E3,2.0512644E3,3.4636966E2,3.8704117E2,3.2841232E1,1.0646104E2,2.286851E2,1.2299194E2,6.781489E1,4.6920212E2,7.887941E1,2.6860867E2,7.330645E2,5.3350397E2,4.7382275E2,5.1157948E1,1.521405E1,1.625457E2,2.94126E2,4.5806282E1,1.2642438E3,8.880104E0,2.5125141E1,5.481733E2,5.4538025E2,7.732044E2,6.519512E1,8.186856E1,6.12726E2,3.787949E2,3.1223858E1,1.0216917E2,3.6806965E0,3.0952744E2,2.4501917E1,6.956469E1,5.742549E2,5.829071E2,1.7703342E2,4.6976635E1,7.815304E0,1.9969764E0,5.76941E1,4.135941E2,2.101295E2,8.2493484E1,2.6718298E1,2.0977663E2,1.20138596E2,1.4408227E0,1.1994014E0,7.918034E0,6.5187213E2,2.2445612E2,1.9282421E0,1.6768898E0,3.769866E0],"tree_param":{"num_deleted":"0","num_feature":"10","num_nodes":"125","size_leaf_vector":"1"}},{"base_weights":[3.6961443E-3,-2.57217E-1,6.8528754E-1,-3.294134E-1,3.10679E-1,3.600878E-1,9.612683E-1,-4.3814722E-1,-8.549968E-2,-3.9713033E-2,6.3631284E-1,8.0023384E-1,2.3796943E-1,8.102126E-1,1.264185E0,-5.5706203E-1,-3.2117584E-1,1.7284855E-1,-3.0735034E-1,-2.0005026E-1,2.2848701E-1,4.524355E-1,1.06788E0,1.0632933E0,6.6927725E-1,1.2213315E-1,4.3157828E-1,1.0691087E0,7.2541714E-1,1.2015415E0,1.4274265E0,-6.014346E-1,-2.0390865E-1,-4.042217E-1,-3.2063834E-2,3.5523653E-2,3.1661907E-1,-3.9837337E-1,-1.6113575E-1,-2.602025E-1,3.7950304E-1,-1.8114412E-1,4.262659E-1,1.6059449E-2,6.221736E-1,2.4955724E-1,1.2016815E0,8.3170044E-1,1.2125535E0,2.7865165E-1,7.1502596E-1,2.5834554E-1,-9.494491E-2,8.7778375E-2,4.814812E-1,1.1237679E0,5.981327E-1,6.59815E-1,9.4429594E-1,1.3359286E0,1.1089958E0,1.4792136E0,1.2607926E0,-2.1124963E-2,-1.4543452E-2,-3.0728914E-3,-1.761485E-2,-1.0312747E-2,-2.1829935E-2,-1.5199133E-2,1.289997E-3,-2.5992605E-3,4.9141385E-3,1.504292E-2,5.083984E-3,-7.599425E-3,-1.6347636E-2,3.638672E-2,-5.3356383E-3,-9.09519E-3,8.122627E-3,3.9355326E-2,7.610025E-3,-3.175702E-2,-1.4169571E-3,1.7168108E-2,-6.60679E-3,-7.172619E-3,1.497108E-2,2.4420055E-2,6.6505615E-3,-1.0046665E-2,2.4791539E-2,3.754538E-2,-2.116128E-3,1.6568862E-2,3.5333168E-2,-1.0682471E-2,3.7447758E-2,-1.3871137E-2,2.0042028E-2,2.3334712E-2,1.0074654E-2,4.408871E-3,1.5899653E-2,-8.520551E-3,4.314325E-3,-1.89646E-2,7.5386926E-3,1.7237378E-2,7.712753E-3,2.6975404E-2,3.691691E-2,6.8927575E-3,2.9297223E-2,2.267811E-2,1.5650341E-2,3.039458E-2,2.1124106E-2,4.165488E-2,1.555338E-2,2.64346E-2,3.6756825E-2,4.517702E-2,2.3651334E-2,4.6004787E-2,2.9334387E-2],"categories":[],"categories_nodes":[],"categories_segments":[],"categories_sizes":[],"default_left":[0,0,0,0,0,0,0,0,0,0,0,0,0,0,0,0,0,0,0,0,0,0,0,0,0,0,0,0,0,0,0,0,0,0,0,0,0,0,0,0,0,0,0,0,0,0,0,0,0,0,0,0,0,0,0,0,0,0,0,0,0,0,0,0,0,0,0,0,0,0,0,0,0,0,0,0,0,0,0,0,0,0,0,0,0,0,0,0,0,0,0,0,0,0,0,0,0,0,0,0,0,0,0,0,0,0,0,0,0,0,0,0,0,0,0,0,0,0,0,0,0,0,0,0,0,0,0],"id":8,"left_children":[1,3,5,7,9,11,13,15,17,19,21,23,25,27,29,31,33,35,37,39,41,43,45,47,49,51,53,55,57,59,61,63,65,67,69,71,73,75,77,79,81,83,85,87,89,91,93,95,97,99,101,103,105,107,109,111,113,115,117,119,121,123,125,-1,-1,-1,-1,-1,-1,-1,-1,-1,-1,-1,-1,-1,-1,-1,-1,-1,-1,-1,-1,-1,-1,-1,-1,-1,-1,-1,-1,-1,-1,-1,-1,-1,-1,-1,-1,-1,-1,-1,-1,-1,-1,-1,-1,-1,-1,-1,-1,-1,-1,-1,-1,-1,-1,-1,-1,-1,-1,-1,-1,-1,-1,-1,-1],"loss_changes":[4.2332124E3,7.058921E2,5.910679E2,4.050343E2,2.2162173E2,1.624931E2,1.6205347E2,1.4675806E2,2.7003555E2,4.0315117E1,7.940311E1,2.1919586E1,5.3115585E1,5.149231E1,1.0393677E1,8.194263E1,1.279035E2,4.2967674E1,3.366899E1,2.05487E1,2.8500805E1,5.2405685E1,3.2551758E1,6.4804077E0,7.6869965E0,4.392459E1,1.5176575E1,1.4395203E1,2.5173828E1,9.239624E0,9.2285156E-1,5.3804443E1,2.261578E1,8.329431E1,4.1739403E1,1.7145329E1,2.8388855E1,3.240332E1,2.0109406E1,1.1332691E1,6.2295103E0,1.3343552E1,2.156356E1,2.4197556E1,3.7552444E1,1.4627661E1,1.2433136E1,7.756527E0,5.221115E0,1.3813932E1,8.078293E0,2.7357533E1,2.5387695E1,1.3223774E1,1.5233093E1,1.0496399E1,8.394806E0,1.7230469E1,5.306885E0,1.0442871E1,1.1678528E1,8.668213E-1,4.815918E0,0E0,0E0,0E0,0E0,0E0,0E0,0E0,0E0,0E0,0E0,0E0,0E0,0E0,0E0,0E0,0E0,0E0,0E0,0E0,0E0,0E0,0E0,0E0,0E0,0E0,0E0,0E0,0E0,0E0,0E0,0E0,0E0,0E0,0E0,0E0,0E0,0E0,0E0,0E0,0E0,0E0,0E0,0E0,0E0,0E0,0E0,0E0,0E0,0E0,0E0,0E0,0E0,0E0,0E0,0E0,0E0,0E0,0E0,0E0,0E0,0E0,0E0,0E0,0E0],"parents":[2147483647,0,0,1,1,2,2,3,3,4,4,5,5,6,6,7,7,8,8,9,9,10,10,11,11,12,12,13,13,14,14,15,15,16,16,17,17,18,18,19,19,20,20,21,21,22,22,23,23,24,24,25,25,26,26,27,27,28,28,29,29,30,30,31,31,32,32,33,33,34,34,35,35,36,36,37,37,38,38,39,39,40,40,41,41,42,42,43,43,44,44,45,45,46,46,47,47,48,48,49,49,50,50,51,51,52,52,53,53,54,54,55,55,56,56,57,57,58,58,59,59,60,60,61,61,62,62],"right_children":[2,4,6,8,10,12,14,16,18,20,22,24,26,28,30,32,34,36,38,40,42,44,46,48,50,52,54,56,58,60,62,64,66,68,70,72,74,76,78,80,82,84,86,88,90,92,94,96,98,100,102,104,106,108,110,112,114,116,118,120,122,124,126,-1,-1,-1,-1,-1,-1,-1,-1,-1,-1,-1,-1,-1,-1,-1,-1,-1,-1,-1,-1,-1,-1,-1,-1,-1,-1,-1,-1,-1,-1,-1,-1,-1,-1,-1,-1,-1,-1,-1,-1,-1,-1,-1,-1,-1,-1,-1,-1,-1,-1,-1,-1,-1,-1,-1,-1,-1,-1,-1,-1,-1,-1,-1,-1],"split_conditions":[-4.267359E0,7.9628234E0,-3.0264153E0,-5.651746E0,2.1386188E2,7.26257E-3,-1.0092297E0,1.8E2,5.9596434E-2,1.1640713E1,1.20215435E1,-8.39957E-2,-3.5464265E0,4.0870555E-2,1.230884E0,-2.9508197E-1,5.010278E0,2.067205E2,-4.7843018E0,-5.1105094E0,5.3315536E1,-7.362159E0,-8.306409E0,1.8952544E2,-4.2986426E-1,1.44867E-1,1.3157531E0,-2.1770623E-1,-1.6915169E0,8.936971E-2,-2.7089337E-1,-6.8634195E0,1.7199982E1,7.1267985E-2,-8.390635E0,-5.063554E0,-4.3565348E-2,1.329114E-1,1.51E2,8.751275E0,-4.7481894E-1,1.4398043E0,3.89E2,1.0499278E1,-7.010615E-2,1.5938306E0,3.4861688E2,1.4100006E1,-4.8446795E-1,-3.8784008E0,3.1480722E2,4.146118E0,2.0671782E2,3.5999908E0,1.6949455E-1,2.0840333E0,2.57E2,1.5543644E-1,-3.1533402E-1,-1.807154E-1,-5.3488225E-1,4.3E2,4.9371634E-2,-2.1124963E-2,-1.4543452E-2,-3.0728914E-3,-1.761485E-2,-1.0312747E-2,-2.1829935E-2,-1.5199133E-2,1.289997E-3,-2.5992605E-3,4.9141385E-3,1.504292E-2,5.083984E-3,-7.599425E-3,-1.6347636E-2,3.638672E-2,-5.3356383E-3,-9.09519E-3,8.122627E-3,3.9355326E-2,7.610025E-3,-3.175702E-2,-1.4169571E-3,1.7168108E-2,-6.60679E-3,-7.172619E-3,1.497108E-2,2.4420055E-2,6.6505615E-3,-1.0046665E-2,2.4791539E-2,3.754538E-2,-2.116128E-3,1.6568862E-2,3.5333168E-2,-1.0682471E-2,3.7447758E-2,-1.3871137E-2,2.0042028E-2,2.3334712E-2,1.0074654E-2,4.408871E-3,1.5899653E-2,-8.520551E-3,4.314325E-3,-1.89646E-2,7.5386926E-3,1.7237378E-2,7.712753E-3,2.6975404E-2,3.691691E-2,6.8927575E-3,2.9297223E-2,2.267811E-2,1.5650341E-2,3.039458E-2,2.1124106E-2,4.165488E-2,1.555338E-2,2.64346E-2,3.6756825E-2,4.517702E-2,2.3651334E-2,4.6004787E-2,2.9334387E-2],"split_indices":[8,1,8,8,2,7,8,2,7,1,1,7,8,7,8,6,1,2,8,8,2,8,8,2,6,7,1,6,8,7,6,8,4,7,8,8,7,7,0,3,6,3,0,1,7,3,2,4,6,8,2,1,2,4,7,1,0,7,6,6,8,0,7,0,0,0,0,0,0,0,0,0,0,0,0,0,0,0,0,0,0,0,0,0,0,0,0,0,0,0,0,0,0,0,0,0,0,0,0,0,0,0,0,0,0,0,0,0,0,0,0,0,0,0,0,0,0,0,0,0,0,0,0,0,0,0,0],"split_type":[0,0,0,0,0,0,0,0,0,0,0,0,0,0,0,0,0,0,0,0,0,0,0,0,0,0,0,0,0,0,0,0,0,0,0,0,0,0,0,0,0,0,0,0,0,0,0,0,0,0,0,0,0,0,0,0,0,0,0,0,0,0,0,0,0,0,0,0,0,0,0,0,0,0,0,0,0,0,0,0,0,0,0,0,0,0,0,0,0,0,0,0,0,0,0,0,0,0,0,0,0,0,0,0,0,0,0,0,0,0,0,0,0,0,0,0,0,0,0,0,0,0,0,0,0,0,0],"sum_hessian":[2.3802014E4,1.7213363E4,6.5886514E3,1.52722295E4,1.9411334E3,3.0256753E3,3.5629758E3,1.0562705E4,4.709524E3,9.354445E2,1.0056889E3,6.559413E2,2.3697341E3,2.379876E3,1.1830999E3,5.2359746E3,5.326731E3,2.17589E3,2.5336338E3,5.85607E2,3.4983755E2,7.0665393E2,2.9903494E2,2.1564468E2,4.402966E2,1.483679E3,8.8605505E2,5.842983E2,1.7955778E3,8.610393E2,3.2206058E2,4.650901E3,5.850733E2,4.1377783E3,1.1889528E3,1.1135298E3,1.0623602E3,1.5604697E3,9.731641E2,5.310409E2,5.4566067E1,1.1393805E2,2.358995E2,1.9820013E2,5.0845383E2,4.2425835E1,2.566091E2,8.7089E1,1.2855568E2,4.690331E1,3.9339328E2,9.115244E2,5.7215454E2,1.1265961E2,7.7339545E2,5.222971E2,6.2001186E1,1.3846011E3,4.1097668E2,3.4566238E2,5.153769E2,2.3969142E2,8.2369156E1,2.5952488E3,2.055652E3,4.6117523E2,1.238981E2,3.445155E3,6.926234E2,1.6226933E2,1.0266833E3,5.6897766E2,5.4455206E2,4.7978796E2,5.825723E2,7.646968E2,7.9577295E2,9.733369E0,9.634308E2,4.9404065E2,3.700027E1,5.5632224E0,4.9002842E1,1.4374021E1,9.9564026E1,1.9378055E2,4.211895E1,1.2997635E2,6.822378E1,3.4832843E2,1.6012538E2,2.1190687E1,2.123515E1,2.492459E2,7.363202E0,4.8474808E1,3.8614193E1,1.7023497E0,1.2685333E2,1.5977165E1,3.0926144E1,3.4284848E2,5.054481E1,6.4151984E2,2.700046E2,3.2043835E2,2.5171619E2,2.021044E1,9.244917E1,5.570087E2,2.1638667E2,1.5397758E2,3.6831952E2,3.1738688E1,3.0262497E1,8.520521E2,5.3254895E2,3.2922888E2,8.174779E1,3.2933478E2,1.632761E1,1.606976E2,3.546793E2,2.3450032E2,5.1910977E0,4.1548637E1,4.0820522E1],"tree_param":{"num_deleted":"0","num_feature":"10","num_nodes":"127","size_leaf_vector":"1"}},{"base_weights":[2.6129088E-3,-2.1147415E-1,7.559455E-1,-2.7362418E-1,2.882355E-1,5.419019E-1,1.1238981E0,-3.8757068E-1,-2.0103315E-2,-6.054607E-2,6.0730416E-1,8.102119E-1,3.6089978E-1,9.6325034E-1,1.3115501E0,-4.249315E-1,-2.336612E-2,2.4941242E-1,-2.2089727E-1,-1.8989743E-1,1.5849292E-1,-9.1381244E-2,7.13655E-1,1.1283107E0,7.252239E-1,2.1147701E-1,5.286562E-1,1.0644068E0,7.776167E-1,1.3172987E0,1.580721E-1,-5.0648E-1,-2.4277253E-1,3.1248632E-1,-1.0720689E-1,4.518781E-1,1.410572E-1,-3.803976E-1,-5.8940295E-2,-3.573023E-1,-1.7280577E-2,-2.27359E-1,3.4257677E-1,8.96005E-2,-9.4156194E-1,5.8650607E-1,1.2353688E0,7.2032267E-1,1.1608946E0,6.217066E-1,9.4962305E-1,5.7835E-1,1.610154E-1,3.6365795E-1,6.7245835E-1,1.1903831E0,9.7083884E-1,7.1859664E-1,1.2307647E0,1.3443297E0,1.1402651E0,2.7703337E-2,-2.0997504E-2,-1.9960813E-2,-1.2496808E-2,-1.22013865E-2,-1.7559676E-3,4.9537616E-3,3.21591E-2,-4.9372283E-3,1.05478205E-2,2.9037697E-3,1.67848E-2,2.103136E-3,1.3955321E-2,-1.3572509E-2,-5.712583E-3,-5.674356E-3,2.1165998E-3,6.3463715E-3,-1.5813347E-2,-8.542244E-3,4.1911392E-3,-8.603638E-3,4.5579214E-2,1.4578685E-2,-5.8599478E-3,-8.667149E-3,1.2176576E-2,2.5127523E-2,-4.2760238E-2,2.1404708E-2,6.8245414E-3,4.130792E-2,4.149689E-3,3.1208301E-2,-2.0363403E-2,3.6423393E-2,2.2760494E-2,1.3450954E-2,2.0867929E-2,3.0132258E-2,7.976485E-3,1.9567143E-2,-3.398606E-2,1.1282424E-3,8.666978E-3,2.8985003E-3,1.4163558E-2,1.9335918E-2,4.0367626E-2,2.4173586E-2,3.6734942E-2,3.1644765E-2,2.0949693E-2,2.6555546E-2,1.6860653E-2,-5.8534867E-3,3.898773E-2,3.4083087E-2,4.1320443E-2,4.010021E-2,1.7592862E-2],"categories":[],"categories_nodes":[],"categories_segments":[],"categories_sizes":[],"default_left":[0,0,0,0,0,0,0,0,0,0,0,0,0,0,0,0,0,0,0,0,0,0,0,0,0,0,0,0,0,0,0,0,0,0,0,0,0,0,0,0,0,0,0,0,0,0,0,0,0,0,0,0,0,0,0,0,0,0,0,0,0,0,0,0,0,0,0,0,0,0,0,0,0,0,0,0,0,0,0,0,0,0,0,0,0,0,0,0,0,0,0,0,0,0,0,0,0,0,0,0,0,0,0,0,0,0,0,0,0,0,0,0,0,0,0,0,0,0,0,0,0,0,0],"id":9,"left_children":[1,3,5,7,9,11,13,15,17,19,21,23,25,27,29,31,33,35,37,39,41,43,45,47,49,51,53,55,57,59,61,63,65,67,69,71,73,75,77,79,81,83,85,87,89,91,93,95,97,99,101,103,105,107,109,111,113,115,117,119,121,-1,-1,-1,-1,-1,-1,-1,-1,-1,-1,-1,-1,-1,-1,-1,-1,-1,-1,-1,-1,-1,-1,-1,-1,-1,-1,-1,-1,-1,-1,-1,-1,-1,-1,-1,-1,-1,-1,-1,-1,-1,-1,-1,-1,-1,-1,-1,-1,-1,-1,-1,-1,-1,-1,-1,-1,-1,-1,-1,-1,-1,-1],"loss_changes":[3.8313762E3,5.746036E2,4.134358E2,4.7529236E2,2.2781075E2,1.6121692E2,5.6994385E1,1.5444702E2,2.762145E2,2.7761234E1,7.949808E1,3.53786E1,4.9714172E1,1.8794312E1,5.683838E0,1.5280933E2,2.9801172E1,4.7742752E1,7.553294E1,1.778902E1,2.5928295E1,2.1950237E1,6.0827423E1,2.8927307E0,2.401892E1,1.9400795E1,2.1958252E1,6.784973E0,9.072266E0,2.6976318E0,4.2026496E0,1.0156592E2,9.416922E1,2.3420237E1,2.156147E1,2.7568436E1,3.249923E1,1.9030762E1,2.4029516E1,2.92883E1,1.2572213E1,1.2018976E1,1.8436277E1,1.397174E1,2.2002228E1,3.228058E1,2.5290863E1,1.0780896E1,3.4779053E0,8.378265E0,1.0018372E1,1.5305782E1,1.4341608E1,1.2146664E1,1.0403198E1,1.4992981E0,7.3519897E0,8.006027E0,3.5708961E0,1.7469482E0,1.1927032E1,0E0,0E0,0E0,0E0,0E0,0E0,0E0,0E0,0E0,0E0,0E0,0E0,0E0,0E0,0E0,0E0,0E0,0E0,0E0,0E0,0E0,0E0,0E0,0E0,0E0,0E0,0E0,0E0,0E0,0E0,0E0,0E0,0E0,0E0,0E0,0E0,0E0,0E0,0E0,0E0,0E0,0E0,0E0,0E0,0E0,0E0,0E0,0E0,0E0,0E0,0E0,0E0,0E0,0E0,0E0,0E0,0E0,0E0,0E0,0E0,0E0,0E0],"parents":[2147483647,0,0,1,1,2,2,3,3,4,4,5,5,6,6,7,7,8,8,9,9,10,10,11,11,12,12,13,13,14,14,15,15,16,16,17,17,18,18,19,19,20,20,21,21,22,22,23,23,24,24,25,25,26,26,27,27,28,28,29,29,30,30,31,31,32,32,33,33,34,34,35,35,36,36,37,37,38,38,39,39,40,40,41,41,42,42,43,43,44,44,45,45,46,46,47,47,48,48,49,49,50,50,51,51,52,52,53,53,54,54,55,55,56,56,57,57,58,58,59,59,60,60],"right_children":[2,4,6,8,10,12,14,16,18,20,22,24,26,28,30,32,34,36,38,40,42,44,46,48,50,52,54,56,58,60,62,64,66,68,70,72,74,76,78,80,82,84,86,88,90,92,94,96,98,100,102,104,106,108,110,112,114,116,118,120,122,-1,-1,-1,-1,-1,-1,-1,-1,-1,-1,-1,-1,-1,-1,-1,-1,-1,-1,-1,-1,-1,-1,-1,-1,-1,-1,-1,-1,-1,-1,-1,-1,-1,-1,-1,-1,-1,-1,-1,-1,-1,-1,-1,-1,-1,-1,-1,-1,-1,-1,-1,-1,-1,-1,-1,-1,-1,-1,-1,-1,-1,-1],"split_conditions":[-3.838424E0,7.944881E0,-1.9489522E0,-5.4585013E0,2.1386188E2,8.1268586E-2,-5.3488225E-1,-2.8182223E-1,5.9596434E-2,1.1640713E1,-8.188779E0,-6.0725007E-2,-3.0264153E0,1.463164E-1,1.0527901E1,4.1625443E0,-1.0834156E-1,-5.6763925E-2,-4.652624E0,-6.9580617E0,5.0384216E1,3.4145035E2,1.3200114E1,-4.4969782E-1,-2.759919E0,1.82E2,1.532846E2,-3.587385E-1,3.27E2,8.0610175E2,-4.054054E-1,-7.196921E0,2.2518958E2,-1.0381824E-1,5.624596E0,-5.2299457E0,-2.7942294E-1,-3.4656155E-1,9.199997E0,-2.1548821E-1,8.300003E0,9E2,1.3481242E2,1.0272117E1,1.85E2,-4.5567166E-2,3.1480643E2,-4.5826235E-1,-2.8182223E-1,5.300003E0,-2.0226131E-1,9.585798E0,-3.835259E-1,-2.759919E0,1.0396635E3,6E1,1.1283128E-1,2.25E2,5.300003E0,6.708204E1,1.4400024E1,2.7703337E-2,-2.0997504E-2,-1.9960813E-2,-1.2496808E-2,-1.22013865E-2,-1.7559676E-3,4.9537616E-3,3.21591E-2,-4.9372283E-3,1.05478205E-2,2.9037697E-3,1.67848E-2,2.103136E-3,1.3955321E-2,-1.3572509E-2,-5.712583E-3,-5.674356E-3,2.1165998E-3,6.3463715E-3,-1.5813347E-2,-8.542244E-3,4.1911392E-3,-8.603638E-3,4.5579214E-2,1.4578685E-2,-5.8599478E-3,-8.667149E-3,1.2176576E-2,2.5127523E-2,-4.2760238E-2,2.1404708E-2,6.8245414E-3,4.130792E-2,4.149689E-3,3.1208301E-2,-2.0363403E-2,3.6423393E-2,2.2760494E-2,1.3450954E-2,2.0867929E-2,3.0132258E-2,7.976485E-3,1.9567143E-2,-3.398606E-2,1.1282424E-3,8.666978E-3,2.8985003E-3,1.4163558E-2,1.9335918E-2,4.0367626E-2,2.4173586E-2,3.6734942E-2,3.1644765E-2,2.0949693E-2,2.6555546E-2,1.6860653E-2,-5.8534867E-3,3.898773E-2,3.4083087E-2,4.1320443E-2,4.010021E-2,1.7592862E-2],"split_indices":[8,1,8,8,2,7,8,6,7,1,8,7,8,7,3,1,7,7,8,8,2,2,1,6,8,0,2,6,0,9,6,8,2,6,1,8,6,6,4,7,4,9,2,1,0,7,2,6,6,4,6,3,6,8,9,9,7,0,4,9,4,0,0,0,0,0,0,0,0,0,0,0,0,0,0,0,0,0,0,0,0,0,0,0,0,0,0,0,0,0,0,0,0,0,0,0,0,0,0,0,0,0,0,0,0,0,0,0,0,0,0,0,0,0,0,0,0,0,0,0,0,0,0],"split_type":[0,0,0,0,0,0,0,0,0,0,0,0,0,0,0,0,0,0,0,0,0,0,0,0,0,0,0,0,0,0,0,0,0,0,0,0,0,0,0,0,0,0,0,0,0,0,0,0,0,0,0,0,0,0,0,0,0,0,0,0,0,0,0,0,0,0,0,0,0,0,0,0,0,0,0,0,0,0,0,0,0,0,0,0,0,0,0,0,0,0,0,0,0,0,0,0,0,0,0,0,0,0,0,0,0,0,0,0,0,0,0,0,0,0,0,0,0,0,0,0,0,0,0],"sum_hessian":[2.3754244E4,1.849806E4,5.2561826E3,1.6452303E4,2.0457577E3,3.324654E3,1.9315287E3,1.1350309E4,5.1019946E3,9.7775775E2,1.068E3,1.3379121E3,1.986742E3,1.0439459E3,8.875828E2,1.0294147E4,1.0561609E3,2.1781416E3,2.9238533E3,6.148167E2,3.6294104E2,1.4110875E2,9.2689124E2,2.7950107E2,1.0584111E3,1.0519857E3,9.347562E2,6.7266174E2,3.7128412E2,8.8304004E2,4.5427947E0,7.109572E3,3.184576E3,2.1044109E2,8.4571985E2,7.582164E2,1.4199253E3,1.4724196E3,1.4514337E3,3.1157727E2,3.0323947E2,1.1715059E2,2.4579045E2,1.1708001E2,2.4028732E1,7.4696875E2,1.7992249E2,2.2380287E1,2.5712076E2,7.268702E2,3.3154095E2,1.2593492E2,9.260508E2,4.3694055E2,4.9781567E2,2.8168698E2,3.909748E2,3.3078674E2,4.0497387E1,7.6034955E2,1.22690475E2,2.3659506E0,2.1768441E0,2.7089492E3,4.4006226E3,1.7062383E3,1.4783376E3,1.7655072E2,3.3890366E1,7.5401825E2,9.170162E1,1.6952628E2,5.886901E2,1.1609445E3,2.589808E2,1.0876228E3,3.8479672E2,7.2672797E2,7.247057E2,7.0090866E1,2.4148639E2,1.1197616E2,1.912633E2,1.1424976E2,2.9008236E0,1.9535463E2,5.0435814E1,5.318788E1,6.3892128E1,4.8786383E0,1.9150095E1,5.5991095E2,1.8705782E2,1.6090031E2,1.9022163E1,1.8519512E1,3.8607748E0,2.3173662E2,2.5384155E1,2.0142752E2,5.254426E2,3.1070013E2,2.084082E1,1.2171831E2,4.2166123E0,4.661146E2,4.5993622E2,1.2259894E2,3.143416E2,4.7517783E2,2.2637869E1,1.7085537E1,2.6460144E2,3.0712704E2,8.384774E1,1.6523967E2,1.6554707E2,1.4456204E0,3.905177E1,6.736098E1,6.929886E2,9.1368774E1,3.1321701E1],"tree_param":{"num_deleted":"0","num_feature":"10","num_nodes":"123","size_leaf_vector":"1"}},{"base_weights":[1.2858828E-3,-2.0887463E-1,7.2083646E-1,-2.8595817E-1,1.8669361E-1,5.002616E-1,1.0513415E0,-4.0609437E-1,3.2402682E-3,-1.2390667E-1,4.844863E-1,8.8170826E-1,4.0638047E-1,9.130932E-1,1.2522274E0,-3.48668E-1,-6.2796766E-1,3.7161165E-1,-1.5066005E-1,-2.3676844E-1,1.4711718E-1,3.5661834E-1,1.0025517E0,7.231527E-1,1.0081466E0,2.849324E-1,5.4168624E-1,7.57499E-1,1.130211E0,1.1010846E0,1.3115668E0,-4.4090694E-1,-9.8316185E-2,6.3600563E-3,-6.9172937E-1,1.6132258E-1,5.562852E-1,-2.8532596E-2,-3.0183387E-1,-3.6796367E-1,-2.0398933E-2,8.344749E-1,4.9353123E-2,3.1203218E-2,5.395793E-1,1.1539657E0,-1.8396694E-2,7.647283E-1,-4.5782458E-2,2.807227E-1,1.0448586E0,1.5915817E-1,4.1614088E-1,4.4547164E-1,6.9646597E-1,-8.456485E-2,7.870383E-1,1.3494375E0,1.0777634E0,8.872627E-1,1.2397231E0,1.3139749E0,1.0994176E-3,-1.4472204E-2,-9.3582633E-4,7.736018E-3,-6.0652923E-3,-5.130257E-3,2.6206542E-2,-2.142909E-2,1.1653768E-2,-9.429029E-3,6.921966E-3,1.3995578E-2,2.8813936E-2,-6.0429047E-3,1.4906684E-3,-1.3257828E-2,-4.2346376E-3,-2.5925603E-2,-9.255078E-3,-3.0770167E-3,1.4645328E-2,-4.052187E-2,2.9270615E-2,-1.9615892E-2,4.534262E-3,4.2063333E-3,-2.1402651E-2,2.2240503E-2,5.4269596E-3,3.7618645E-2,2.0872768E-2,-2.3894267E-2,1.1031317E-2,3.4545783E-2,2.144854E-2,-4.3615524E-2,7.027551E-3,-3.0903282E-2,1.8925346E-2,3.508333E-2,2.776911E-2,2.0535473E-2,3.82857E-3,1.8275935E-2,9.005935E-3,8.005033E-3,1.7874818E-2,3.924357E-2,2.0088576E-2,-1.0006608E-2,3.054495E-2,1.880214E-2,2.6784245E-2,1.5572831E-2,4.1987088E-2,-4.7179232E-3,3.2887965E-2,1.7567331E-2,3.2263488E-2,2.8074702E-2,4.1347694E-2,3.8217448E-2,4.289548E-2],"categories":[],"categories_nodes":[],"categories_segments":[],"categories_sizes":[],"default_left":[0,0,0,0,0,0,0,0,0,0,0,0,0,0,0,0,0,0,0,0,0,0,0,0,0,0,0,0,0,0,0,0,0,0,0,0,0,0,0,0,0,0,0,0,0,0,0,0,0,0,0,0,0,0,0,0,0,0,0,0,0,0,0,0,0,0,0,0,0,0,0,0,0,0,0,0,0,0,0,0,0,0,0,0,0,0,0,0,0,0,0,0,0,0,0,0,0,0,0,0,0,0,0,0,0,0,0,0,0,0,0,0,0,0,0,0,0,0,0,0,0,0,0,0,0],"id":10,"left_children":[1,3,5,7,9,11,13,15,17,19,21,23,25,27,29,31,33,35,37,39,41,43,45,47,49,51,53,55,57,59,61,63,65,67,69,71,73,75,77,79,81,83,85,87,89,91,93,95,97,99,101,103,105,107,109,111,113,115,117,119,121,123,-1,-1,-1,-1,-1,-1,-1,-1,-1,-1,-1,-1,-1,-1,-1,-1,-1,-1,-1,-1,-1,-1,-1,-1,-1,-1,-1,-1,-1,-1,-1,-1,-1,-1,-1,-1,-1,-1,-1,-1,-1,-1,-1,-1,-1,-1,-1,-1,-1,-1,-1,-1,-1,-1,-1,-1,-1,-1,-1,-1,-1,-1,-1],"loss_changes":[3.584034E3,5.5936804E2,3.9004224E2,5.333783E2,2.7681616E2,1.1477374E2,5.8385742E1,1.3797803E2,2.5555002E2,4.4857906E1,1.0084772E2,1.1983795E1,4.2272736E1,4.2161743E1,6.3685303E0,1.9897595E2,9.0151855E1,5.149414E1,5.8690536E1,2.937088E1,2.895065E1,7.302969E1,4.6687927E1,9.142151E0,9.060547E0,2.2422379E1,1.7860382E1,1.8593231E1,4.6343994E0,6.364746E0,1.8571777E0,9.5063354E1,8.372587E1,3.1012829E1,3.438025E1,1.9830925E1,2.5876526E1,2.3395247E1,3.1203201E1,1.9366173E1,1.606974E1,1.6648346E1,2.6577944E1,3.5246716E1,5.494272E1,9.880432E0,1.2067006E1,4.951065E0,6.3572645E0,8.779593E0,3.7738037E0,1.1771385E1,1.4642265E1,1.963115E1,8.446213E0,7.355057E0,1.1079193E1,2.2885284E0,4.365326E0,4.9862213E0,4.620819E0,1.5238037E0,0E0,0E0,0E0,0E0,0E0,0E0,0E0,0E0,0E0,0E0,0E0,0E0,0E0,0E0,0E0,0E0,0E0,0E0,0E0,0E0,0E0,0E0,0E0,0E0,0E0,0E0,0E0,0E0,0E0,0E0,0E0,0E0,0E0,0E0,0E0,0E0,0E0,0E0,0E0,0E0,0E0,0E0,0E0,0E0,0E0,0E0,0E0,0E0,0E0,0E0,0E0,0E0,0E0,0E0,0E0,0E0,0E0,0E0,0E0,0E0,0E0,0E0,0E0],"parents":[2147483647,0,0,1,1,2,2,3,3,4,4,5,5,6,6,7,7,8,8,9,9,10,10,11,11,12,12,13,13,14,14,15,15,16,16,17,17,18,18,19,19,20,20,21,21,22,22,23,23,24,24,25,25,26,26,27,27,28,28,29,29,30,30,31,31,32,32,33,33,34,34,35,35,36,36,37,37,38,38,39,39,40,40,41,41,42,42,43,43,44,44,45,45,46,46,47,47,48,48,49,49,50,50,51,51,52,52,53,53,54,54,55,55,56,56,57,57,58,58,59,59,60,60,61,61],"right_children":[2,4,6,8,10,12,14,16,18,20,22,24,26,28,30,32,34,36,38,40,42,44,46,48,50,52,54,56,58,60,62,64,66,68,70,72,74,76,78,80,82,84,86,88,90,92,94,96,98,100,102,104,106,108,110,112,114,116,118,120,122,124,-1,-1,-1,-1,-1,-1,-1,-1,-1,-1,-1,-1,-1,-1,-1,-1,-1,-1,-1,-1,-1,-1,-1,-1,-1,-1,-1,-1,-1,-1,-1,-1,-1,-1,-1,-1,-1,-1,-1,-1,-1,-1,-1,-1,-1,-1,-1,-1,-1,-1,-1,-1,-1,-1,-1,-1,-1,-1,-1,-1,-1,-1,-1],"split_conditions":[-3.8784008E0,6.688509E0,-2.160602E0,-5.372339E0,2.1386188E2,1.1327207E-2,-5.3488225E-1,6.638116E-2,1.48768015E-2,5.3830285E0,1.20215435E1,-3.3095734E0,-3.1471083E0,2.185909E-1,1.392663E-1,-6.3907638E0,1.10284165E-1,1.9412758E2,1.329114E-1,9.975871E0,-4.7826087E-1,-6.978603E0,3.2613138E2,3.2613574E2,1.7882353E-1,1.9412758E2,2.0607306E-1,-4.470358E-1,-4.7476634E-2,1.3481113E2,-1.0381824E-1,-2.6464817E-1,-1.4422616E-1,7.0679383E0,-2.4106833E-1,-5.2299457E0,-4.2351975E0,-4.940736E0,-4.5678296E0,-8.70354E0,-5.755376E0,7.2331033E0,2.6719921E1,-4.5567166E-2,-3.6342323E-2,4.5E2,5.594333E-1,1.138449E1,2.21E2,1.78E2,-4.1671347E-2,2.9222388E-2,1.0531E-1,-3.5789475E-1,2.1673534E0,-1.0092297E0,-1.6915169E0,9.3364793E-1,-4.1671347E-2,5.6639266E-1,1.1565589E-1,2.695863E-1,1.0994176E-3,-1.4472204E-2,-9.3582633E-4,7.736018E-3,-6.0652923E-3,-5.130257E-3,2.6206542E-2,-2.142909E-2,1.1653768E-2,-9.429029E-3,6.921966E-3,1.3995578E-2,2.8813936E-2,-6.0429047E-3,1.4906684E-3,-1.3257828E-2,-4.2346376E-3,-2.5925603E-2,-9.255078E-3,-3.0770167E-3,1.4645328E-2,-4.052187E-2,2.9270615E-2,-1.9615892E-2,4.534262E-3,4.2063333E-3,-2.1402651E-2,2.2240503E-2,5.4269596E-3,3.7618645E-2,2.0872768E-2,-2.3894267E-2,1.1031317E-2,3.4545783E-2,2.144854E-2,-4.3615524E-2,7.027551E-3,-3.0903282E-2,1.8925346E-2,3.508333E-2,2.776911E-2,2.0535473E-2,3.82857E-3,1.8275935E-2,9.005935E-3,8.005033E-3,1.7874818E-2,3.924357E-2,2.0088576E-2,-1.0006608E-2,3.054495E-2,1.880214E-2,2.6784245E-2,1.5572831E-2,4.1987088E-2,-4.7179232E-3,3.2887965E-2,1.7567331E-2,3.2263488E-2,2.8074702E-2,4.1347694E-2,3.8217448E-2,4.289548E-2],"split_indices":[8,1,8,8,2,7,8,7,7,3,1,8,8,5,5,8,5,2,7,1,6,8,2,2,5,2,5,6,7,2,6,6,7,3,6,8,8,8,8,8,8,1,2,7,7,9,5,2,0,0,7,7,7,6,3,8,8,1,7,8,8,5,0,0,0,0,0,0,0,0,0,0,0,0,0,0,0,0,0,0,0,0,0,0,0,0,0,0,0,0,0,0,0,0,0,0,0,0,0,0,0,0,0,0,0,0,0,0,0,0,0,0,0,0,0,0,0,0,0,0,0,0,0,0,0],"split_type":[0,0,0,0,0,0,0,0,0,0,0,0,0,0,0,0,0,0,0,0,0,0,0,0,0,0,0,0,0,0,0,0,0,0,0,0,0,0,0,0,0,0,0,0,0,0,0,0,0,0,0,0,0,0,0,0,0,0,0,0,0,0,0,0,0,0,0,0,0,0,0,0,0,0,0,0,0,0,0,0,0,0,0,0,0,0,0,0,0,0,0,0,0,0,0,0,0,0,0,0,0,0,0,0,0,0,0,0,0,0,0,0,0,0,0,0,0,0,0,0,0,0,0,0,0],"sum_hessian":[2.3698623E4,1.8342115E4,5.356507E3,1.53509795E4,2.991136E3,3.2140225E3,2.1424844E3,1.0845313E4,4.5056655E3,1.4643699E3,1.5267661E3,6.331382E2,2.5808843E3,1.2723835E3,8.7010077E2,8.617469E3,2.227845E3,1.3272893E3,3.1783762E3,1.0339366E3,4.3043323E2,1.225884E3,3.008821E2,2.8387466E2,3.4926355E2,1.3617277E3,1.2191567E3,7.438229E2,5.285606E2,2.508129E2,6.192879E2,6.29675E3,2.3207188E3,2.0356792E2,2.0242771E3,6.214797E2,7.0580963E2,1.7587439E3,1.4196323E3,6.432205E2,3.9071613E2,5.2659584E1,3.7777362E2,4.416082E2,7.842759E2,2.6190887E2,3.8973248E1,2.6931836E2,1.4556316E1,1.7195326E1,3.320682E2,6.963914E2,6.653362E2,7.5420435E2,4.649524E2,2.5145594E1,7.186773E2,9.7266266E1,4.3129434E2,1.0156663E2,1.4924628E2,6.1809045E2,1.1974491E0,5.7777227E3,5.190274E2,5.1873505E2,1.8019838E3,1.6965591E2,3.3912006E1,1.995614E3,2.8663036E1,7.689121E1,5.4458844E2,5.7150757E2,1.3430206E2,5.4930194E2,1.2094419E3,7.714252E2,6.482071E2,7.1557785E1,5.716628E2,3.3719012E2,5.3526E1,2.4879942E0,5.017159E1,4.6854385E1,3.3091925E2,3.8608185E2,5.5526333E1,5.0864676E2,2.7562912E2,2.1889098E2,4.3017887E1,1.2579336E1,2.6393913E1,3.28208E1,2.3649754E2,1.7234882E0,1.28328285E1,3.1851873E0,1.4010138E1,1.7205338E2,1.6001483E2,4.0218815E1,6.561726E2,2.568402E2,4.0849597E2,3.3593777E2,4.1826654E2,2.2520813E1,4.4243158E2,2.109879E1,4.046804E0,2.6759644E2,4.5108084E2,4.7095866E0,9.255668E1,2.614977E0,4.2867938E2,3.8777443E1,6.278918E1,4.503659E1,1.0420969E2,4.1712143E2,2.00969E2],"tree_param":{"num_deleted":"0","num_feature":"10","num_nodes":"125","size_leaf_vector":"1"}},{"base_weights":[-4.25416E-3,-1.8893145E-1,7.785043E-1,-2.553299E-1,2.6713663E-1,5.432783E-1,1.0320526E0,-3.8633355E-1,3.137915E-2,-2.1581026E-2,5.4655725E-1,7.4801695E-1,3.4013766E-1,8.80052E-1,1.2084886E0,-4.9608064E-1,-2.767522E-1,3.275238E-1,-1.4943062E-1,-1.8203235E-1,3.241358E-1,6.654376E-1,-2.199106E-2,1.0256472E0,6.569602E-1,2.717476E-1,7.0577973E-1,7.341099E-1,1.0940939E0,9.99625E-1,1.2681106E0,-5.5046844E-1,-2.5389948E-1,-3.47106E-1,1.5230338E-2,6.179057E-1,2.4088529E-1,-2.7747482E-1,5.806119E-3,-2.613225E-1,1.7970364E-1,-1.19480915E-1,5.385452E-1,5.71307E-1,1.3111713E0,2.1272112E-1,-3.5277086E-1,9.2122865E-1,1.2500575E0,5.269086E-1,7.466E-1,3.1989196E-1,-6.918318E-2,-3.2966164E-1,7.445083E-1,7.830708E-1,2.3643018E-1,-7.2578653E-3,1.0986612E0,5.478331E-1,1.0637368E0,1.2736621E0,2.0988545E-1,-2.156624E-2,-1.451052E-2,1.6519152E-2,-8.357982E-3,-5.403345E-3,-1.2732178E-2,-1.5923703E-2,2.8521607E-3,1.3174909E-2,2.3450473E-2,2.2271632E-3,1.1094323E-2,-5.5780257E-3,-1.3361029E-2,3.5591242E-3,-4.3659783E-3,-6.8894746E-3,-3.2117683E-2,1.2758688E-2,-3.9961697E-3,3.6434387E-3,-1.781003E-2,2.1315584E-2,6.781183E-4,1.9994956E-2,7.158554E-3,-1.27261225E-2,4.0635116E-2,-9.278518E-3,1.5545658E-2,-2.292534E-2,2.365975E-3,3.878788E-2,2.378025E-2,-6.5174216E-4,3.8399264E-2,-8.666985E-4,1.8014925E-2,2.8842794E-2,2.0348735E-2,6.7210547E-3,1.6636984E-2,-5.1474027E-2,-1.765359E-5,8.121767E-3,-4.3658346E-2,6.994239E-3,2.469941E-2,2.768711E-2,1.9336155E-2,1.2417854E-2,-2.9477093E-2,3.2182038E-2,4.0607624E-2,2.5116934E-2,-7.1037128E-3,8.268759E-3,3.321605E-2,3.694068E-2,4.186664E-2,-2.2424212E-2,3.377072E-2],"categories":[],"categories_nodes":[],"categories_segments":[],"categories_sizes":[],"default_left":[0,0,0,0,0,0,0,0,0,0,0,0,0,0,0,0,0,0,0,0,0,0,0,0,0,0,0,0,0,0,0,0,0,0,0,0,0,0,0,0,0,0,0,0,0,0,0,0,0,0,0,0,0,0,0,0,0,0,0,0,0,0,0,0,0,0,0,0,0,0,0,0,0,0,0,0,0,0,0,0,0,0,0,0,0,0,0,0,0,0,0,0,0,0,0,0,0,0,0,0,0,0,0,0,0,0,0,0,0,0,0,0,0,0,0,0,0,0,0,0,0,0,0,0,0],"id":11,"left_children":[1,3,5,7,9,11,13,15,17,19,21,23,25,27,29,31,33,35,37,39,41,43,45,47,49,51,53,55,57,59,61,63,65,67,69,71,73,75,77,79,81,83,85,87,89,91,93,95,97,99,101,103,105,107,109,111,113,-1,115,117,119,121,123,-1,-1,-1,-1,-1,-1,-1,-1,-1,-1,-1,-1,-1,-1,-1,-1,-1,-1,-1,-1,-1,-1,-1,-1,-1,-1,-1,-1,-1,-1,-1,-1,-1,-1,-1,-1,-1,-1,-1,-1,-1,-1,-1,-1,-1,-1,-1,-1,-1,-1,-1,-1,-1,-1,-1,-1,-1,-1,-1,-1,-1,-1],"loss_changes":[3.4061523E3,5.7738696E2,2.677019E2,6.2509485E2,1.9551193E2,9.687628E1,5.6959473E1,1.3723816E2,2.795742E2,6.6224846E1,8.3253265E1,2.8708923E1,2.9168182E1,3.5618164E1,1.1167847E1,7.50166E1,1.1746622E2,4.964656E1,6.444358E1,2.3432528E1,3.6062737E1,6.11644E1,1.668522E1,5.5331116E0,9.842316E0,1.6283836E1,7.63916E0,1.6781311E1,3.130066E0,5.977371E0,4.2747803E0,5.341333E1,1.8579506E1,5.682782E1,4.7482296E1,1.2646103E1,3.1986664E1,2.7045364E1,2.456999E1,1.7881512E1,1.1129763E1,1.4012178E1,2.1740883E1,2.6321259E1,7.297699E0,1.9768347E1,1.5581871E1,8.707474E0,1.9811401E0,1.3631172E1,7.3223877E0,1.9395866E1,1.3798954E1,5.2636304E0,6.287842E0,1.1421082E1,1.378502E1,0E0,2.697998E0,6.8415346E0,4.8061066E0,2.8344727E0,5.323402E0,0E0,0E0,0E0,0E0,0E0,0E0,0E0,0E0,0E0,0E0,0E0,0E0,0E0,0E0,0E0,0E0,0E0,0E0,0E0,0E0,0E0,0E0,0E0,0E0,0E0,0E0,0E0,0E0,0E0,0E0,0E0,0E0,0E0,0E0,0E0,0E0,0E0,0E0,0E0,0E0,0E0,0E0,0E0,0E0,0E0,0E0,0E0,0E0,0E0,0E0,0E0,0E0,0E0,0E0,0E0,0E0,0E0,0E0,0E0,0E0,0E0,0E0],"parents":[2147483647,0,0,1,1,2,2,3,3,4,4,5,5,6,6,7,7,8,8,9,9,10,10,11,11,12,12,13,13,14,14,15,15,16,16,17,17,18,18,19,19,20,20,21,21,22,22,23,23,24,24,25,25,26,26,27,27,28,28,29,29,30,30,31,31,32,32,33,33,34,34,35,35,36,36,37,37,38,38,39,39,40,40,41,41,42,42,43,43,44,44,45,45,46,46,47,47,48,48,49,49,50,50,51,51,52,52,53,53,54,54,55,55,56,56,58,58,59,59,60,60,61,61,62,62],"right_children":[2,4,6,8,10,12,14,16,18,20,22,24,26,28,30,32,34,36,38,40,42,44,46,48,50,52,54,56,58,60,62,64,66,68,70,72,74,76,78,80,82,84,86,88,90,92,94,96,98,100,102,104,106,108,110,112,114,-1,116,118,120,122,124,-1,-1,-1,-1,-1,-1,-1,-1,-1,-1,-1,-1,-1,-1,-1,-1,-1,-1,-1,-1,-1,-1,-1,-1,-1,-1,-1,-1,-1,-1,-1,-1,-1,-1,-1,-1,-1,-1,-1,-1,-1,-1,-1,-1,-1,-1,-1,-1,-1,-1,-1,-1,-1,-1,-1,-1,-1,-1,-1,-1,-1,-1],"split_conditions":[-3.5464265E0,7.4729595E0,-2.160602E0,-5.3479953E0,2.170527E2,1.08199686E-1,-7.9080653E-1,1.8E2,4.9371634E-2,1.1640713E1,3.211567E2,-2.8659612E-2,3E2,2.185909E-1,1.2784432E-1,-3.2613674E-1,5.010278E0,-9.1451295E-2,-4.4243164E0,-5.32444E0,5.3310345E1,1.3992691E1,1.4100006E1,3.2E2,1.3481416E2,2.0800003E1,1.1458948E-1,8.826843E0,1.7079984E0,9.3364793E-1,-1.4486712E-1,-7.4968805E0,6.5972224E-2,4.099991E0,-8.347019E0,2.1386717E2,-4.7320004E0,1.5238997E-1,1.492205E-1,4.42E2,-4.595652E0,-1.045305E-1,1.3481023E2,-9.96867E-3,-9.250256E0,2.27E2,6.247745E-1,-1.2555179E-1,1.8676852E0,1.3999939E0,2.2222223E-2,-2.6870232E0,2.1100006E1,-2.759919E0,5.700012E0,9.400024E0,-2.5771004E-1,-7.2578653E-3,4.6540362E-1,-2.6775244E-1,-3.8944367E-1,2.695863E-1,3.29E2,-2.156624E-2,-1.451052E-2,1.6519152E-2,-8.357982E-3,-5.403345E-3,-1.2732178E-2,-1.5923703E-2,2.8521607E-3,1.3174909E-2,2.3450473E-2,2.2271632E-3,1.1094323E-2,-5.5780257E-3,-1.3361029E-2,3.5591242E-3,-4.3659783E-3,-6.8894746E-3,-3.2117683E-2,1.2758688E-2,-3.9961697E-3,3.6434387E-3,-1.781003E-2,2.1315584E-2,6.781183E-4,1.9994956E-2,7.158554E-3,-1.27261225E-2,4.0635116E-2,-9.278518E-3,1.5545658E-2,-2.292534E-2,2.365975E-3,3.878788E-2,2.378025E-2,-6.5174216E-4,3.8399264E-2,-8.666985E-4,1.8014925E-2,2.8842794E-2,2.0348735E-2,6.7210547E-3,1.6636984E-2,-5.1474027E-2,-1.765359E-5,8.121767E-3,-4.3658346E-2,6.994239E-3,2.469941E-2,2.768711E-2,1.9336155E-2,1.2417854E-2,-2.9477093E-2,3.2182038E-2,4.0607624E-2,2.5116934E-2,-7.1037128E-3,8.268759E-3,3.321605E-2,3.694068E-2,4.186664E-2,-2.2424212E-2,3.377072E-2],"split_indices":[8,1,8,8,2,7,8,2,7,1,2,7,0,5,5,6,1,7,8,8,2,1,4,0,2,4,7,3,3,1,6,8,5,4,8,2,8,7,7,0,8,7,2,7,8,0,5,7,3,4,7,8,4,8,4,4,6,0,5,6,6,5,0,0,0,0,0,0,0,0,0,0,0,0,0,0,0,0,0,0,0,0,0,0,0,0,0,0,0,0,0,0,0,0,0,0,0,0,0,0,0,0,0,0,0,0,0,0,0,0,0,0,0,0,0,0,0,0,0,0,0,0,0,0,0],"split_type":[0,0,0,0,0,0,0,0,0,0,0,0,0,0,0,0,0,0,0,0,0,0,0,0,0,0,0,0,0,0,0,0,0,0,0,0,0,0,0,0,0,0,0,0,0,0,0,0,0,0,0,0,0,0,0,0,0,0,0,0,0,0,0,0,0,0,0,0,0,0,0,0,0,0,0,0,0,0,0,0,0,0,0,0,0,0,0,0,0,0,0,0,0,0,0,0,0,0,0,0,0,0,0,0,0,0,0,0,0,0,0,0,0,0,0,0,0,0,0,0,0,0,0,0,0],"sum_hessian":[2.3560562E4,1.9063615E4,4.4969463E3,1.6641271E4,2.4223445E3,2.3343904E3,2.1625562E3,1.1421973E4,5.219298E3,1.1918065E3,1.230538E3,1.1612864E3,1.173104E3,1.1649406E3,9.976155E2,5.7049097E3,5.7170635E3,1.9782882E3,3.2410098E3,8.143366E2,3.774699E2,1.01759424E3,2.1294377E2,2.842748E2,8.770116E2,9.8972754E2,1.8337643E2,6.952928E2,4.696478E2,2.2548346E2,7.72132E2,4.6576465E3,1.0472632E3,4.606845E3,1.1102181E3,4.5319748E2,1.5250907E3,1.7756277E3,1.465382E3,6.6815826E2,1.4617833E2,1.2313799E2,2.5433191E2,8.897739E2,1.2782032E2,1.24768456E2,8.817532E1,1.9748825E2,8.678656E1,3.6064987E2,5.163617E2,8.673122E2,1.2241536E2,6.3406982E0,1.7703574E2,6.324955E2,6.2797333E1,1.4272285E0,4.6822055E2,2.9207136E1,1.9627632E2,7.6789996E2,4.23206E0,1.4265975E3,3.2310488E3,2.741633E1,1.0198468E3,1.3946345E3,3.2122104E3,1.4064597E2,9.695722E2,2.104336E2,2.4276387E2,6.537352E2,8.7135547E2,1.1318541E3,6.4377356E2,8.399328E2,6.254491E2,6.4219147E2,2.5966808E1,8.2162224E1,6.4016106E1,8.1941826E1,4.119617E1,1.9242552E2,6.190639E1,7.026923E2,1.870816E2,1.9697733E0,1.2585055E2,4.573791E1,7.903054E1,4.5116596E1,4.3058727E1,5.2002197E1,1.4548605E2,1.1753061E0,8.561125E1,3.92735E1,3.2137637E2,1.3478355E2,3.8157816E2,6.0894147E2,2.583707E2,3.984035E0,1.1843132E2,4.6166673E0,1.724031E0,2.1968363E1,1.5506737E2,3.2940613E2,3.0308932E2,5.549792E1,7.299412E0,4.1174738E2,5.6473183E1,2.1439117E1,7.7680187E0,8.171187E0,1.8810513E2,5.1987683E2,2.4802315E2,2.1532114E0,2.0788484E0],"tree_param":{"num_deleted":"0","num_feature":"10","num_nodes":"125","size_leaf_vector":"1"}},{"base_weights":[-6.1143525E-3,-2.3681346E-1,6.0735095E-1,-3.009998E-1,2.7237934E-1,4.0546182E-1,1.0120883E0,-4.1609162E-1,-1.406364E-1,-7.82947E-2,5.7394624E-1,7.766007E-1,3.047188E-1,8.796532E-1,1.2029282E0,-4.4508356E-1,5.9620477E-2,-2.698001E-1,1.901414E-1,-2.1107976E-1,2.130514E-1,4.2098537E-1,9.4305575E-1,9.891941E-1,6.855494E-1,8.015496E-2,4.184099E-1,1.0251305E0,7.0121866E-1,1.1424869E0,1.3455552E0,-3.528429E-1,-6.0951614E-1,3.604845E-1,-1.11674584E-1,-4.4749233E-1,-1.8329504E-1,4.6528175E-1,1.0672395E-1,-2.7073738E-1,4.2166135E-1,4.7226593E-1,-2.0638505E-1,6.948402E-2,5.6368345E-1,2.0472358E-1,1.058634E0,-1.7992752E-2,1.0025644E0,5.818103E-1,9.5508474E-1,2.4971768E-1,-9.226552E-2,5.5722964E-1,3.3243E-1,-4.2971948E-1,1.0389117E0,6.5157855E-1,1.0670019E0,1.0498912E0,1.3050761E0,1.3723304E0,8.2165325E-1,-1.5170416E-2,-4.385086E-3,2.478673E-3,-1.9160004E-2,1.6292904E-2,7.603338E-4,-4.0227752E-2,-1.8846908E-3,-1.6343288E-2,-1.7758649E-3,-6.0822367E-4,-8.577982E-3,1.1383826E-2,2.3104684E-2,-6.502617E-4,9.1783125E-3,-1.2590132E-2,1.8625522E-4,-1.346261E-2,2.5274303E-2,-1.48151945E-2,1.8475344E-2,1.3468891E-3,-2.2242637E-2,-1.6699154E-2,8.7245405E-3,2.1054093E-2,6.224287E-3,1.494512E-2,-1.2327505E-2,3.3349164E-2,3.9010863E-3,3.141708E-2,1.4572998E-2,1.920669E-2,5.517167E-3,1.1234675E-2,3.2005485E-2,-2.145249E-2,8.292268E-3,-5.3702653E-3,1.3829586E-2,9.317835E-3,2.0118497E-2,-7.7908905E-4,1.0953684E-2,2.1154214E-2,-3.6793295E-2,4.0290926E-2,3.0203031E-2,1.8771227E-2,3.8696725E-2,3.409989E-2,-1.8580459E-2,-4.418878E-3,3.2054063E-2,1.2454672E-2,3.9823204E-2,3.34735E-3,4.1890334E-2,-1.665599E-2,3.1181566E-2],"categories":[],"categories_nodes":[],"categories_segments":[],"categories_sizes":[],"default_left":[0,0,0,0,0,0,0,0,0,0,0,0,0,0,0,0,0,0,0,0,0,0,0,0,0,0,0,0,0,0,0,0,0,0,0,0,0,0,0,0,0,0,0,0,0,0,0,0,0,0,0,0,0,0,0,0,0,0,0,0,0,0,0,0,0,0,0,0,0,0,0,0,0,0,0,0,0,0,0,0,0,0,0,0,0,0,0,0,0,0,0,0,0,0,0,0,0,0,0,0,0,0,0,0,0,0,0,0,0,0,0,0,0,0,0,0,0,0,0,0,0,0,0,0,0],"id":12,"left_children":[1,3,5,7,9,11,13,15,17,19,21,23,25,27,29,31,33,35,37,39,41,43,45,47,49,51,53,55,57,59,61,63,65,67,69,71,73,75,77,79,81,83,85,87,89,91,93,-1,95,97,99,101,103,105,107,109,111,113,115,117,119,121,123,-1,-1,-1,-1,-1,-1,-1,-1,-1,-1,-1,-1,-1,-1,-1,-1,-1,-1,-1,-1,-1,-1,-1,-1,-1,-1,-1,-1,-1,-1,-1,-1,-1,-1,-1,-1,-1,-1,-1,-1,-1,-1,-1,-1,-1,-1,-1,-1,-1,-1,-1,-1,-1,-1,-1,-1,-1,-1,-1,-1,-1,-1],"loss_changes":[3.340596E3,5.6071063E2,5.2668994E2,2.811018E2,2.0316698E2,1.6074591E2,5.3184082E1,1.22334595E2,2.7205692E2,3.443511E1,5.7914093E1,1.7102234E1,8.646481E1,3.2265503E1,6.0185547E0,1.2656702E2,2.633932E1,7.030359E1,4.0998398E1,2.3183416E1,3.0410265E1,3.667723E1,2.5536804E1,6.377899E0,1.7517761E1,3.335145E1,2.6658295E1,1.4437317E1,9.724609E0,7.9976196E0,2.4529724E0,1.648446E2,4.7703857E1,1.1012026E1,1.9524261E1,5.3582672E1,5.0220528E1,1.0780785E1,3.456487E1,2.2428135E1,1.9328629E1,2.3132622E1,1.422504E1,2.898211E1,2.4341019E1,7.630655E0,1.0093872E1,0E0,4.3837585E0,9.676346E0,1.01595E1,1.3418564E1,2.6482862E1,2.2708618E1,1.4535233E1,7.271408E0,7.1104736E0,9.359421E0,7.292221E0,4.098755E0,1.3399353E0,3.0360413E0,4.810134E0,0E0,0E0,0E0,0E0,0E0,0E0,0E0,0E0,0E0,0E0,0E0,0E0,0E0,0E0,0E0,0E0,0E0,0E0,0E0,0E0,0E0,0E0,0E0,0E0,0E0,0E0,0E0,0E0,0E0,0E0,0E0,0E0,0E0,0E0,0E0,0E0,0E0,0E0,0E0,0E0,0E0,0E0,0E0,0E0,0E0,0E0,0E0,0E0,0E0,0E0,0E0,0E0,0E0,0E0,0E0,0E0,0E0,0E0,0E0,0E0,0E0,0E0],"parents":[2147483647,0,0,1,1,2,2,3,3,4,4,5,5,6,6,7,7,8,8,9,9,10,10,11,11,12,12,13,13,14,14,15,15,16,16,17,17,18,18,19,19,20,20,21,21,22,22,23,23,24,24,25,25,26,26,27,27,28,28,29,29,30,30,31,31,32,32,33,33,34,34,35,35,36,36,37,37,38,38,39,39,40,40,41,41,42,42,43,43,44,44,45,45,46,46,48,48,49,49,50,50,51,51,52,52,53,53,54,54,55,55,56,56,57,57,58,58,59,59,60,60,61,61,62,62],"right_children":[2,4,6,8,10,12,14,16,18,20,22,24,26,28,30,32,34,36,38,40,42,44,46,48,50,52,54,56,58,60,62,64,66,68,70,72,74,76,78,80,82,84,86,88,90,92,94,-1,96,98,100,102,104,106,108,110,112,114,116,118,120,122,124,-1,-1,-1,-1,-1,-1,-1,-1,-1,-1,-1,-1,-1,-1,-1,-1,-1,-1,-1,-1,-1,-1,-1,-1,-1,-1,-1,-1,-1,-1,-1,-1,-1,-1,-1,-1,-1,-1,-1,-1,-1,-1,-1,-1,-1,-1,-1,-1,-1,-1,-1,-1,-1,-1,-1,-1,-1,-1,-1,-1,-1,-1],"split_conditions":[-4.267359E0,7.9628234E0,-2.160602E0,-6.1018887E0,2.0671527E2,1.1327207E-2,-5.3488225E-1,-2.4106833E-1,4.0366828E-1,5.3213983E0,1.20215435E1,-8.971156E-2,-3.720542E0,1.23774186E-1,2.4757433E-1,-5.122633E-2,-6.0725007E-2,-5.4585013E0,-1.6136469E-1,-5.159437E0,1.0699982E1,-7.276944E0,-8.306409E0,-4.869233E-1,-3.0264153E0,1.2694238E-1,1.08199686E-1,6.5972224E-2,2.8300018E1,1.230884E0,3.92E2,-7.196921E0,1.10284165E-1,2.74E2,-5.2884616E-2,-3.0409184E-1,8.286088E-2,-5.159437E0,-5.2299457E0,1.20215435E1,2.3932926E-1,3.1134466E1,-3.9870492E-1,-4.5055822E-1,-4.3565348E-2,3.1399994E1,4.767246E-2,-1.7992752E-2,3.1800018E1,3.1480722E2,2.5614145E-1,1.07213765E-1,3.14E2,