{"learner":{"attributes":{"scikit_learn":"{\"_estimator_type\": \"classifier\"}"},"feature_names":[],"feature_types":[],"gradient_booster":{"model":{"cats":{"enc":[],"feature_segments":[],"sorted_idx":[]},"gbtree_model_param":{"num_parallel_tree":"1","num_trees":"317"},"iteration_indptr":[0,1,2,3,4,5,6,7,8,9,10,11,12,13,14,15,16,17,18,19,20,21,22,23,24,25,26,27,28,29,30,31,32,33,34,35,36,37,38,39,40,41,42,43,44,45,46,47,48,49,50,51,52,53,54,55,56,57,58,59,60,61,62,63,64,65,66,67,68,69,70,71,72,73,74,75,76,77,78,79,80,81,82,83,84,85,86,87,88,89,90,91,92,93,94,95,96,97,98,99,100,101,102,103,104,105,106,107,108,109,110,111,112,113,114,115,116,117,118,119,120,121,122,123,124,125,126,127,128,129,130,131,132,133,134,135,136,137,138,139,140,141,142,143,144,145,146,147,148,149,150,151,152,153,154,155,156,157,158,159,160,161,162,163,164,165,166,167,168,169,170,171,172,173,174,175,176,177,178,179,180,181,182,183,184,185,186,187,188,189,190,191,192,193,194,195,196,197,198,199,200,201,202,203,204,205,206,207,208,209,210,211,212,213,214,215,216,217,218,219,220,221,222,223,224,225,226,227,228,229,230,231,232,233,234,235,236,237,238,239,240,241,242,243,244,245,246,247,248,249,250,251,252,253,254,255,256,257,258,259,260,261,262,263,264,265,266,267,268,269,270,271,272,273,274,275,276,277,278,279,280,281,282,283,284,285,286,287,288,289,290,291,292,293,294,295,296,297,298,299,300,301,302,303,304,305,306,307,308,309,310,311,312,313,314,315,316,317],"tree_info":[0,0,0,0,0,0,0,0,0,0,0,0,0,0,0,0,0,0,0,0,0,0,0,0,0,0,0,0,0,0,0,0,0,0,0,0,0,0,0,0,0,0,0,0,0,0,0,0,0,0,0,0,0,0,0,0,0,0,0,0,0,0,0,0,0,0,0,0,0,0,0,0,0,0,0,0,0,0,0,0,0,0,0,0,0,0,0,0,0,0,0,0,0,0,0,0,0,0,0,0,0,0,0,0,0,0,0,0,0,0,0,0,0,0,0,0,0,0,0,0,0,0,0,0,0,0,0,0,0,0,0,0,0,0,0,0,0,0,0,0,0,0,0,0,0,0,0,0,0,0,0,0,0,0,0,0,0,0,0,0,0,0,0,0,0,0,0,0,0,0,0,0,0,0,0,0,0,0,0,0,0,0,0,0,0,0,0,0,0,0,0,0,0,0,0,0,0,0,0,0,0,0,0,0,0,0,0,0,0,0,0,0,0,0,0,0,0,0,0,0,0,0,0,0,0,0,0,0,0,0,0,0,0,0,0,0,0,0,0,0,0,0,0,0,0,0,0,0,0,0,0,0,0,0,0,0,0,0,0,0,0,0,0,0,0,0,0,0,0,0,0,0,0,0,0,0,0,0,0,0,0,0,0,0,0,0,0,0,0,0,0,0,0,0,0,0,0,0,0,0,0,0,0,0,0,0,0,0,0,0,0,0,0,0,0,0,0],"trees":[{"base_weights":[-3.7192125E-3,-2.6291218E-1,3.4985358E-1,2.1287845E-2,-7.6209426E-1,5.6452763E-1,1.1668141E-1,-3.040927E-1,1.656655E-1,-4.6813747E-1,-1.0868437E0,3.889087E-1,6.975359E-1,1.4134E-1,-1.2960382E0,-1.04797736E-1,-4.9803546E-1,2.6303518E-1,-2.4355042E-1,-5.4088444E-1,5.6709343E-1,-1.2205424E0,-5.936444E-1,7.7830054E-2,5.199232E-1,2.411996E-1,7.352782E-1,-5.884937E-2,2.93573E-1,-1.7517687E0,1.7379333E-1,-1.7863646E-2,-2.286594E-4,5.326265E-3,-1.5242029E-2,2.7606754E-2,5.6968285E-3,8.198223E-3,-1.3325292E-2,-1.8253136E-2,-2.6309367E-3,-4.447768E-2,1.6673217E-2,-2.8607493E-2,-4.6734463E-2,-1.833771E-2,2.4753517E-2,4.9702963E-3,-3.63871E-2,1.4628884E-2,-1.5110694E-2,1.0277129E-2,-5.0600577E-2,1.9963082E-2,-1.4376306E-3,-6.7388644E-3,4.0239957E-3,1.10188415E-2,-5.235132E-3,3.8202992E-3,-5.266157E-2,-4.6903733E-2,2.6116358E-2],"categories":[],"categories_nodes":[],"categories_segments":[],"categories_sizes":[],"default_left":[0,0,0,0,0,0,0,0,0,0,0,0,0,0,0,0,0,0,0,0,0,0,0,0,0,0,0,0,0,0,0,0,0,0,0,0,0,0,0,0,0,0,0,0,0,0,0,0,0,0,0,0,0,0,0,0,0,0,0,0,0,0,0],"id":0,"left_children":[1,3,5,7,9,11,13,15,17,19,21,23,25,27,29,31,33,35,37,39,41,43,45,47,49,51,53,55,57,59,61,-1,-1,-1,-1,-1,-1,-1,-1,-1,-1,-1,-1,-1,-1,-1,-1,-1,-1,-1,-1,-1,-1,-1,-1,-1,-1,-1,-1,-1,-1,-1,-1],"loss_changes":[2.8824668E3,2.574734E3,6.6589307E2,5.433756E2,6.2802734E2,1.6152637E2,2.2238718E2,1.3735419E2,3.19289E2,2.607032E2,2.0550122E2,1.2171411E2,6.768591E1,1.911015E2,7.3669785E1,9.53197E1,9.1996124E1,2.4724844E2,2.1715012E2,2.0443726E2,3.0356926E1,1.9203442E2,9.578911E1,1.387817E2,6.480524E1,9.376308E1,3.6732666E1,1.1003521E2,2.0822916E2,3.5421173E1,4.342809E1,0E0,0E0,0E0,0E0,0E0,0E0,0E0,0E0,0E0,0E0,0E0,0E0,0E0,0E0,0E0,0E0,0E0,0E0,0E0,0E0,0E0,0E0,0E0,0E0,0E0,0E0,0E0,0E0,0E0,0E0,0E0,0E0],"parents":[2147483647,0,0,1,1,2,2,3,3,4,4,5,5,6,6,7,7,8,8,9,9,10,10,11,11,12,12,13,13,14,14,15,15,16,16,17,17,18,18,19,19,20,20,21,21,22,22,23,23,24,24,25,25,26,26,27,27,28,28,29,29,30,30],"right_children":[2,4,6,8,10,12,14,16,18,20,22,24,26,28,30,32,34,36,38,40,42,44,46,48,50,52,54,56,58,60,62,-1,-1,-1,-1,-1,-1,-1,-1,-1,-1,-1,-1,-1,-1,-1,-1,-1,-1,-1,-1,-1,-1,-1,-1,-1,-1,-1,-1,-1,-1,-1,-1],"split_conditions":[-5.123274E0,2.0193608E2,1.8E2,3.7054455E1,4.626813E-1,4.518869E1,6.15533E-1,4.0381283E-1,1.3480922E2,1.9582665E-1,3.2613132E2,2.04E2,-4.2240996E-2,2.24E2,2.9957797E2,1.84E2,-2.4148978E-1,-1.0095259E1,2.7738777E-1,-2.963194E-1,-4.8008645E-1,3.66E2,-5.4511156E0,3.678684E-1,8.1240547E-1,1.3481134E2,2.1203182E0,-3.5293984E0,3.29E2,1.7E2,3.37E2,-1.7863646E-2,-2.286594E-4,5.326265E-3,-1.5242029E-2,2.7606754E-2,5.6968285E-3,8.198223E-3,-1.3325292E-2,-1.8253136E-2,-2.6309367E-3,-4.447768E-2,1.6673217E-2,-2.8607493E-2,-4.6734463E-2,-1.833771E-2,2.4753517E-2,4.9702963E-3,-3.63871E-2,1.4628884E-2,-1.5110694E-2,1.0277129E-2,-5.0600577E-2,1.9963082E-2,-1.4376306E-3,-6.7388644E-3,4.0239957E-3,1.10188415E-2,-5.235132E-3,3.8202992E-3,-5.266157E-2,-4.6903733E-2,2.6116358E-2],"split_indices":[7,2,2,2,4,2,4,4,2,6,2,0,6,0,2,0,6,7,4,5,5,0,7,4,7,2,7,7,0,0,0,0,0,0,0,0,0,0,0,0,0,0,0,0,0,0,0,0,0,0,0,0,0,0,0,0,0,0,0,0,0,0,0],"split_type":[0,0,0,0,0,0,0,0,0,0,0,0,0,0,0,0,0,0,0,0,0,0,0,0,0,0,0,0,0,0,0,0,0,0,0,0,0,0,0,0,0,0,0,0,0,0,0,0,0,0,0,0,0,0,0,0,0,0,0,0,0,0,0],"sum_hessian":[3.1451012E4,1.8147738E4,1.3303273E4,1.1564604E4,6.5831343E3,6.9256396E3,6.377634E3,3.5539785E3,8.010625E3,3.456668E3,3.1264666E3,2.986416E3,3.9392236E3,6.2691084E3,1.0852544E2,1.7535629E3,1.8004155E3,6.4712095E3,1.5394155E3,3.2301584E3,2.265096E2,2.4585234E3,6.6794293E2,8.854981E2,2.100918E3,3.0147888E2,3.6377449E3,2.7082803E3,3.5608284E3,8.2693855E1,2.5831573E1,2.5448944E2,1.4990735E3,1.7062717E2,1.6297885E3,3.8946307E2,6.081746E3,4.881315E2,1.051284E3,2.4401497E3,7.9000867E2,5E0,2.215096E2,1.9231665E3,5.35357E2,6.297798E2,3.8163147E1,8.2436035E2,6.113772E1,2.0481426E3,5.2775433E1,2.8322888E2,1.825E1,3.5798318E3,5.7913147E1,1.4076454E3,1.3006349E3,2.8633398E3,6.974885E2,8.693858E0,7.4E1,7.25E0,1.8581573E1],"tree_param":{"num_deleted":"0","num_feature":"9","num_nodes":"63","size_leaf_vector":"1"}},{"base_weights":[1.0482225E-2,-2.3619455E-1,3.4310532E-1,2.9684808E-2,-3.6988613E-1,3.7431547E-1,-2.7041805E-1,-1.6375344E-1,2.6083812E-1,4.505994E-1,-4.1930807E-1,2.650655E-1,4.6447307E-1,-1.1648743E0,-7.551346E-2,-2.3256372E-1,4.4380826E-1,3.851557E-1,-5.995613E-1,1.009869E0,-7.741743E-1,3.7920627E-1,-4.649367E-1,1.4109686E-1,4.082487E-1,6.280765E-1,2.2801246E-1,-1.5506288E0,2.3864377E-1,1.9055638E-1,-7.470277E-1,1.5644038E-2,-7.095621E-3,1.3373125E-2,-4.7198795E-2,8.19425E-3,2.455321E-2,2.710063E-2,-2.6485564E-2,3.1465594E-2,-1.20990435E-2,2.0728183E-3,-3.2016054E-2,1.5942177E-2,-1.126191E-2,-2.1074316E-2,-9.416427E-3,-5.0349984E-2,4.0741335E-3,-5.1002014E-2,1.136483E-2,1.2911949E-2,1.9495374E-2,8.914608E-3,7.9783547E-4,-5.2139733E-2,-1.6418498E-2,3.635289E-2,-4.75928E-2,9.408055E-3,-1.891472E-2,-5.161143E-2,-5.5068973E-3],"categories":[],"categories_nodes":[],"categories_segments":[],"categories_sizes":[],"default_left":[0,0,0,0,0,0,0,0,0,0,0,0,0,0,0,0,0,0,0,0,0,0,0,0,0,0,0,0,0,0,0,0,0,0,0,0,0,0,0,0,0,0,0,0,0,0,0,0,0,0,0,0,0,0,0,0,0,0,0,0,0,0,0],"id":1,"left_children":[1,3,5,7,9,11,13,15,17,19,21,23,25,27,29,31,33,35,37,39,41,43,45,47,49,51,53,55,57,59,61,-1,-1,-1,-1,-1,-1,-1,-1,-1,-1,-1,-1,-1,-1,-1,-1,-1,-1,-1,-1,-1,-1,-1,-1,-1,-1,-1,-1,-1,-1,-1,-1],"loss_changes":[2.601075E3,6.4702014E2,2.5857922E2,2.724009E2,4.913297E2,1.2640454E2,1.13931564E2,1.3876314E2,2.9709796E2,4.7245694E2,4.1642505E2,1.0307605E2,2.720708E2,6.368698E1,9.628148E1,8.146144E1,4.3712845E1,1.0105197E2,2.2360297E2,1.1768814E2,7.854654E1,1.08296265E2,3.9311328E2,7.337947E1,1.10941864E2,6.109961E1,6.047255E1,3.3441772E1,6.167993E1,5.650686E1,9.7726326E1,0E0,0E0,0E0,0E0,0E0,0E0,0E0,0E0,0E0,0E0,0E0,0E0,0E0,0E0,0E0,0E0,0E0,0E0,0E0,0E0,0E0,0E0,0E0,0E0,0E0,0E0,0E0,0E0,0E0,0E0,0E0,0E0],"parents":[2147483647,0,0,1,1,2,2,3,3,4,4,5,5,6,6,7,7,8,8,9,9,10,10,11,11,12,12,13,13,14,14,15,15,16,16,17,17,18,18,19,19,20,20,21,21,22,22,23,23,24,24,25,25,26,26,27,27,28,28,29,29,30,30],"right_children":[2,4,6,8,10,12,14,16,18,20,22,24,26,28,30,32,34,36,38,40,42,44,46,48,50,52,54,56,58,60,62,-1,-1,-1,-1,-1,-1,-1,-1,-1,-1,-1,-1,-1,-1,-1,-1,-1,-1,-1,-1,-1,-1,-1,-1,-1,-1,-1,-1,-1,-1,-1,-1],"split_conditions":[-5.1467986E0,3.1970114E-1,5.1232874E-1,2.29E2,-9.874059E0,2.22E2,1.95E2,1.9582665E-1,3.76E2,-1.0458333E-1,-4.9505705E-1,-3.5293984E0,2.8E2,-2.6795354E0,3.35E2,-4.9696423E-2,1.9625348E-1,1.9582665E-1,-4.0391944E-2,5.731492E2,2.4880266E0,5.3075415E2,1.93E2,2.1378481E0,1.51E2,2.43E2,4.539824E2,6.2036347E0,1.75E2,-1.0074506E-1,2.1213203E2,1.5644038E-2,-7.095621E-3,1.3373125E-2,-4.7198795E-2,8.19425E-3,2.455321E-2,2.710063E-2,-2.6485564E-2,3.1465594E-2,-1.20990435E-2,2.0728183E-3,-3.2016054E-2,1.5942177E-2,-1.126191E-2,-2.1074316E-2,-9.416427E-3,-5.0349984E-2,4.0741335E-3,-5.1002014E-2,1.136483E-2,1.2911949E-2,1.9495374E-2,8.914608E-3,7.9783547E-4,-5.2139733E-2,-1.6418498E-2,3.635289E-2,-4.75928E-2,9.408055E-3,-1.891472E-2,-5.161143E-2,-5.5068973E-3],"split_indices":[7,4,4,0,7,0,0,6,0,6,5,7,0,7,0,6,4,6,6,8,3,8,0,3,0,0,8,3,0,6,8,0,0,0,0,0,0,0,0,0,0,0,0,0,0,0,0,0,0,0,0,0,0,0,0,0,0,0,0,0,0,0,0],"split_type":[0,0,0,0,0,0,0,0,0,0,0,0,0,0,0,0,0,0,0,0,0,0,0,0,0,0,0,0,0,0,0,0,0,0,0,0,0,0,0,0,0,0,0,0,0,0,0,0,0,0,0,0,0,0,0,0,0,0,0,0,0,0,0],"sum_hessian":[3.169896E4,1.8201113E4,1.3497847E4,6.090132E3,1.2110982E4,1.2844816E4,6.530305E2,3.3157078E3,2.7744238E3,6.875983E2,1.1423384E4,5.8092734E3,7.035543E3,1.1594751E2,5.37083E2,2.9789407E3,3.3676706E2,2.4246438E3,3.4978015E2,4.721675E2,2.1543083E2,6.170754E2,1.0806309E4,3.114613E3,2.6946604E3,4.1574277E3,2.8781155E3,9.0867836E1,2.5079674E1,3.851813E2,1.5190172E2,1.1584916E2,2.8630916E3,3.2901794E2,7.749101E0,2.1171003E3,3.0754346E2,6.813205E1,2.816481E2,4.2339984E2,4.8767654E1,7.203843E1,1.433924E2,4.8520367E2,1.3187172E2,2.7711074E3,8.0352007E3,1.6749119E1,3.097864E3,1.9499352E1,2.675161E3,1.7289863E3,2.4284412E3,1.8742788E3,1.0038366E3,6.2738964E1,2.812887E1,1.6331305E1,8.748369E0,3.269084E2,5.8272938E1,4.6732224E1,1.05169495E2],"tree_param":{"num_deleted":"0","num_feature":"9","num_nodes":"63","size_leaf_vector":"1"}},{"base_weights":[-5.215211E-3,-2.4808401E-1,3.2324862E-1,-3.3410653E-1,7.959132E-1,1.969345E-1,4.6250904E-1,2.982727E-4,-5.170088E-1,1.105583E0,2.1535952E-3,-4.7589478E-1,2.2577493E-1,5.0285643E-1,1.7699833E-1,-2.1337627E-1,1.9279644E-1,-7.7673733E-1,-4.272774E-1,1.3340937E0,2.2300695E-1,1.9734998E-1,-5.095359E-2,-1.7630471E-1,-5.0811242E-2,1.4088796E-2,3.0591026E-1,3.2210997E-1,6.1806583E-1,-7.823793E-1,2.379169E-1,1.7243564E-2,-8.416248E-3,5.9957784E-3,-2.7024657E-2,-3.7489838E-3,-2.2531243E-2,-8.453896E-3,-2.1751244E-2,3.0475885E-2,4.037123E-2,-1.0942156E-2,3.0043576E-2,2.1542948E-2,-8.400542E-3,-1.4652892E-2,1.4732593E-2,2.5793232E-2,-1.0110398E-3,1.0193638E-2,1.2598211E-5,9.95309E-3,-1.50953205E-2,-1.0318825E-2,1.6957987E-2,6.3517867E-3,-5.1211677E-2,-4.8634373E-2,7.128161E-3],"categories":[],"categories_nodes":[],"categories_segments":[],"categories_sizes":[],"default_left":[0,0,0,0,0,0,0,0,0,0,0,0,0,0,0,0,0,0,0,0,0,0,0,0,0,0,0,0,0,0,0,0,0,0,0,0,0,0,0,0,0,0,0,0,0,0,0,0,0,0,0,0,0,0,0,0,0,0,0],"id":2,"left_children":[1,3,5,7,9,11,13,15,17,19,21,23,25,27,29,31,33,35,37,39,41,43,-1,45,-1,47,49,51,53,55,57,-1,-1,-1,-1,-1,-1,-1,-1,-1,-1,-1,-1,-1,-1,-1,-1,-1,-1,-1,-1,-1,-1,-1,-1,-1,-1,-1,-1],"loss_changes":[2.5088254E3,1.624022E3,2.3507434E2,1.02172144E3,3.3838696E2,1.361735E2,7.315088E1,2.4301776E2,2.5133691E2,1.9942664E2,1.4490434E2,1.2311224E2,1.1406674E2,1.1579016E2,4.628456E1,2.4568723E2,1.196636E2,1.1900452E2,3.437223E2,2.5269287E1,1.1754443E2,1.1031837E2,0E0,6.53579E1,0E0,9.149796E1,1.1332892E2,9.819246E1,5.964099E1,5.5347553E1,4.5136997E1,0E0,0E0,0E0,0E0,0E0,0E0,0E0,0E0,0E0,0E0,0E0,0E0,0E0,0E0,0E0,0E0,0E0,0E0,0E0,0E0,0E0,0E0,0E0,0E0,0E0,0E0,0E0,0E0],"parents":[2147483647,0,0,1,1,2,2,3,3,4,4,5,5,6,6,7,7,8,8,9,9,10,10,11,11,12,12,13,13,14,14,15,15,16,16,17,17,18,18,19,19,20,20,21,21,23,23,25,25,26,26,27,27,28,28,29,29,30,30],"right_children":[2,4,6,8,10,12,14,16,18,20,22,24,26,28,30,32,34,36,38,40,42,44,-1,46,-1,48,50,52,54,56,58,-1,-1,-1,-1,-1,-1,-1,-1,-1,-1,-1,-1,-1,-1,-1,-1,-1,-1,-1,-1,-1,-1,-1,-1,-1,-1,-1,-1],"split_conditions":[-5.1467986E0,1.10306635E1,1.15277775E-1,3.1970114E-1,3.42E2,-1.4971069E-1,3E2,2.9323742E0,1.93E2,-6.855229E0,5.2776227E0,9.134828E0,1.99E2,2.08E2,-4.4085306E-1,1.070529E-1,4.4E2,2.434198E0,3.66E2,1.4192146E1,2.3150932E-2,-2.0791376E-1,-5.095359E-2,-3.6242884E-1,-5.0811242E-2,9.2740995E-1,3.24E2,9.127289E0,9.2740995E-1,3.29E2,7.6138146E-2,1.7243564E-2,-8.416248E-3,5.9957784E-3,-2.7024657E-2,-3.7489838E-3,-2.2531243E-2,-8.453896E-3,-2.1751244E-2,3.0475885E-2,4.037123E-2,-1.0942156E-2,3.0043576E-2,2.1542948E-2,-8.400542E-3,-1.4652892E-2,1.4732593E-2,2.5793232E-2,-1.0110398E-3,1.0193638E-2,1.2598211E-5,9.95309E-3,-1.50953205E-2,-1.0318825E-2,1.6957987E-2,6.3517867E-3,-5.1211677E-2,-4.8634373E-2,7.128161E-3],"split_indices":[7,1,6,4,0,6,0,1,0,7,3,1,0,0,5,4,0,3,0,1,6,6,0,5,0,1,0,3,1,0,4,0,0,0,0,0,0,0,0,0,0,0,0,0,0,0,0,0,0,0,0,0,0,0,0,0,0,0,0],"split_type":[0,0,0,0,0,0,0,0,0,0,0,0,0,0,0,0,0,0,0,0,0,0,0,0,0,0,0,0,0,0,0,0,0,0,0,0,0,0,0,0,0,0,0,0,0,0,0,0,0,0,0,0,0,0,0,0,0,0,0],"sum_hessian":[3.1447307E4,1.8079455E4,1.3367851E4,1.670379E4,1.3756664E3,7.011021E3,6.3568296E3,5.9062466E3,1.0797542E4,9.8931256E2,3.8635382E2,2.8753384E2,6.7234873E3,5.569066E3,7.877635E2,2.799107E3,3.10714E3,2.7705354E3,8.027007E3,7.854401E2,2.0387247E2,3.5136954E2,3.4984272E1,2.3860278E2,4.893107E1,1.8466191E3,4.876868E3,2.1693975E3,3.3996687E3,4.6327682E1,7.414358E2,2.9635962E2,2.5027473E3,3.0278843E3,7.925564E1,2.6621704E2,2.5043184E3,6.2484316E3,1.7785751E3,3.8208353E2,4.0335657E2,1.2016138E2,8.371109E1,1.6011299E2,1.9125655E2,1.57991E2,8.061178E1,9.464517E1,1.7519739E3,3.904301E3,9.7256726E2,2.0524126E3,1.16984764E2,5.7458145E1,3.3422104E3,2.4828617E1,2.1499063E1,9.499169E0,7.319366E2],"tree_param":{"num_deleted":"0","num_feature":"9","num_nodes":"59","size_leaf_vector":"1"}},{"base_weights":[4.053043E-3,-2.2560126E-1,3.203042E-1,6.900962E-2,-6.5514207E-1,5.0538206E-1,9.4245106E-2,-1.5109576E-1,7.4014217E-1,-2.2576556E-1,-8.138247E-1,4.4511718E-1,9.071798E-1,1.7091335E-1,-6.1695194E-1,1.0095793E-1,-3.1821886E-1,5.0374854E-1,1.1655234E0,4.1009092E-1,-3.9418107E-1,-9.655256E-1,-4.6948168E-1,3.1018654E-1,5.766812E-1,9.6345586E-1,-1.22046374E-1,2.5289092E-2,3.1425616E-1,-1.1370573E0,-1.0695349E-1,-5.1504127E-3,8.345709E-3,-1.0421244E-2,2.6579075E-3,-7.716338E-4,1.7809533E-2,1.1720941E-2,3.4564793E-2,-3.3370525E-2,1.40569145E-2,-2.5700912E-2,-7.5745406E-3,-2.0782784E-2,-3.1192645E-2,-1.4606874E-2,1.1337249E-2,8.8509E-3,-3.941966E-2,1.6297469E-2,-7.7842153E-3,2.6133493E-2,-4.464726E-2,-4.975543E-2,1.2646238E-2,-3.99307E-3,9.66822E-3,7.8098923E-3,3.186358E-2,1.0162428E-3,-3.7691284E-2,-9.633734E-3,2.4738412E-2],"categories":[],"categories_nodes":[],"categories_segments":[],"categories_sizes":[],"default_left":[0,0,0,0,0,0,0,0,0,0,0,0,0,0,0,0,0,0,0,0,0,0,0,0,0,0,0,0,0,0,0,0,0,0,0,0,0,0,0,0,0,0,0,0,0,0,0,0,0,0,0,0,0,0,0,0,0,0,0,0,0,0,0],"id":3,"left_children":[1,3,5,7,9,11,13,15,17,19,21,23,25,27,29,31,33,35,37,39,41,43,45,47,49,51,53,55,57,59,61,-1,-1,-1,-1,-1,-1,-1,-1,-1,-1,-1,-1,-1,-1,-1,-1,-1,-1,-1,-1,-1,-1,-1,-1,-1,-1,-1,-1,-1,-1,-1,-1],"loss_changes":[2.2924517E3,2.3140361E3,5.555073E2,1.6024661E3,5.066914E2,1.7638086E2,3.261023E2,3.4415045E2,2.688131E2,2.1528238E2,2.8327295E2,1.1255664E2,5.5214844E1,1.1266467E2,1.5425928E2,2.0286015E2,1.4840457E2,1.5024994E2,8.950293E1,8.22344E1,9.945627E1,1.422229E2,1.1604031E2,1.2090512E2,9.512537E1,3.9256958E1,5.3011753E1,1.5795097E2,5.1347748E1,9.3245056E1,7.781233E1,0E0,0E0,0E0,0E0,0E0,0E0,0E0,0E0,0E0,0E0,0E0,0E0,0E0,0E0,0E0,0E0,0E0,0E0,0E0,0E0,0E0,0E0,0E0,0E0,0E0,0E0,0E0,0E0,0E0,0E0,0E0,0E0],"parents":[2147483647,0,0,1,1,2,2,3,3,4,4,5,5,6,6,7,7,8,8,9,9,10,10,11,11,12,12,13,13,14,14,15,15,16,16,17,17,18,18,19,19,20,20,21,21,22,22,23,23,24,24,25,25,26,26,27,27,28,28,29,29,30,30],"right_children":[2,4,6,8,10,12,14,16,18,20,22,24,26,28,30,32,34,36,38,40,42,44,46,48,50,52,54,56,58,60,62,-1,-1,-1,-1,-1,-1,-1,-1,-1,-1,-1,-1,-1,-1,-1,-1,-1,-1,-1,-1,-1,-1,-1,-1,-1,-1,-1,-1,-1,-1,-1,-1],"split_conditions":[-5.123274E0,1.6587605E2,1.9412445E2,6.5517735E0,2.8442028E-1,5.659305E0,6.5720153E0,3.1970114E-1,1.1212192E1,-7.4347076E0,3.1480722E2,5.6483284E1,-2.8576577E-1,-3.572487E0,-3.6175487E0,2.6301937E0,-5.8929105E0,3.8847816E1,3.3865517E1,-1.1123591E1,1.6970563E2,3.7296247E0,-5.4511156E0,5.038517E1,4.6892264E-1,1.3254807E0,-3.4833598E0,3.14808E2,-1.4497975E-1,1.6823104E-1,4.9385595E-1,-5.1504127E-3,8.345709E-3,-1.0421244E-2,2.6579075E-3,-7.716338E-4,1.7809533E-2,1.1720941E-2,3.4564793E-2,-3.3370525E-2,1.40569145E-2,-2.5700912E-2,-7.5745406E-3,-2.0782784E-2,-3.1192645E-2,-1.4606874E-2,1.1337249E-2,8.8509E-3,-3.941966E-2,1.6297469E-2,-7.7842153E-3,2.6133493E-2,-4.464726E-2,-4.975543E-2,1.2646238E-2,-3.99307E-3,9.66822E-3,7.8098923E-3,3.186358E-2,1.0162428E-3,-3.7691284E-2,-9.633734E-3,2.4738412E-2],"split_indices":[7,2,2,1,4,1,1,4,1,7,2,2,5,7,7,1,7,2,2,7,8,1,7,2,4,7,7,2,5,4,4,0,0,0,0,0,0,0,0,0,0,0,0,0,0,0,0,0,0,0,0,0,0,0,0,0,0,0,0,0,0,0,0],"split_type":[0,0,0,0,0,0,0,0,0,0,0,0,0,0,0,0,0,0,0,0,0,0,0,0,0,0,0,0,0,0,0,0,0,0,0,0,0,0,0,0,0,0,0,0,0,0,0,0,0,0,0,0,0,0,0,0,0,0,0,0,0,0,0],"sum_hessian":[3.1562117E4,1.8284568E4,1.3277548E4,1.0846248E4,7.438321E3,7.299832E3,5.9777153E3,8.168178E3,2.67807E3,2.0078202E3,5.4305005E3,6.3495786E3,9.5025336E2,5.396701E3,5.810139E2,3.2567578E3,4.9114204E3,1.7228367E3,9.5523334E2,4.2013943E2,1.5876808E3,3.7684841E3,1.6620165E3,3.13634E3,3.2132388E3,9.010497E2,4.92037E1,2.6776301E3,2.7190713E3,2.870479E2,2.93966E2,1.3638005E3,1.8929573E3,4.1870835E3,7.2433673E2,4.050247E2,1.3178119E3,1.4538585E2,8.098475E2,2.6938585E1,3.9320087E2,2.566796E2,1.3310012E3,1.9668044E3,1.8016798E3,1.5292537E3,1.3276282E2,3.09991E3,3.643029E1,3.0923953E3,1.208435E2,8.963008E2,4.7489038E0,1.1997214E1,3.7206486E1,1.7630719E3,9.1455817E2,2.6551992E3,6.387214E1,5.4648186E1,2.3239973E2,2.3650708E2,5.7458908E1],"tree_param":{"num_deleted":"0","num_feature":"9","num_nodes":"63","size_leaf_vector":"1"}},{"base_weights":[7.986808E-3,-2.1740296E-1,3.1915292E-1,7.582581E-2,-6.4929503E-1,5.0067264E-1,9.6241355E-2,-8.2065E-2,9.8084307E-1,-8.4560615E-1,-3.6111102E-1,4.433449E-1,8.4939516E-1,2.4701238E-1,-1.0323007E-1,-2.4880826E-1,1.7794214E-1,4.5324054E-2,1.1491039E0,-9.2873037E-1,-1.2806319E-1,-4.417917E-1,5.30203E-1,5.021568E-1,7.6102845E-2,-4.4210754E-2,8.6316544E-1,3.0261067E-1,-1.3114184E-1,-8.978328E-1,6.0470225E-3,1.20934455E-4,-9.473627E-3,-3.8634855E-3,1.2442496E-2,2.2969376E-2,-6.5502143E-3,3.3051625E-2,6.5641664E-3,-2.7327765E-2,-1.4207081E-2,-2.367758E-2,5.517974E-3,-7.9186745E-3,-2.310078E-2,-6.598887E-3,1.8422097E-2,1.3709831E-2,-5.201603E-2,2.109017E-2,-4.5032016E-4,2.4430119E-2,5.3846333E-3,7.4457377E-3,2.9561855E-2,-1.90591E-2,4.2070015E-3,-3.3100862E-2,1.8794477E-3,-4.717508E-3,9.976025E-3],"categories":[],"categories_nodes":[],"categories_segments":[],"categories_sizes":[],"default_left":[0,0,0,0,0,0,0,0,0,0,0,0,0,0,0,0,0,0,0,0,0,0,0,0,0,0,0,0,0,0,0,0,0,0,0,0,0,0,0,0,0,0,0,0,0,0,0,0,0,0,0,0,0,0,0,0,0,0,0,0,0],"id":4,"left_children":[1,3,5,7,9,11,13,15,17,19,21,23,25,27,29,31,33,35,37,39,41,43,45,47,49,-1,51,53,55,57,59,-1,-1,-1,-1,-1,-1,-1,-1,-1,-1,-1,-1,-1,-1,-1,-1,-1,-1,-1,-1,-1,-1,-1,-1,-1,-1,-1,-1,-1,-1],"loss_changes":[2.2221272E3,2.3270796E3,5.384916E2,1.5640717E3,4.200703E2,1.462727E2,1.7971756E2,4.041159E2,2.558877E2,2.634568E2,2.1687003E2,1.3607397E2,3.7132263E1,7.158974E1,2.2340259E2,1.5277374E2,3.3893988E2,5.9223236E1,1.1096509E2,1.4903418E2,1.1710001E2,1.6962299E2,3.1354446E1,1.5516113E2,5.7857174E1,0E0,3.5415344E1,5.608133E1,7.367716E1,1.0324623E2,1.5220384E2,0E0,0E0,0E0,0E0,0E0,0E0,0E0,0E0,0E0,0E0,0E0,0E0,0E0,0E0,0E0,0E0,0E0,0E0,0E0,0E0,0E0,0E0,0E0,0E0,0E0,0E0,0E0,0E0,0E0,0E0],"parents":[2147483647,0,0,1,1,2,2,3,3,4,4,5,5,6,6,7,7,8,8,9,9,10,10,11,11,12,12,13,13,14,14,15,15,16,16,17,17,18,18,19,19,20,20,21,21,22,22,23,23,24,24,26,26,27,27,28,28,29,29,30,30],"right_children":[2,4,6,8,10,12,14,16,18,20,22,24,26,28,30,32,34,36,38,40,42,44,46,48,50,-1,52,54,56,58,60,-1,-1,-1,-1,-1,-1,-1,-1,-1,-1,-1,-1,-1,-1,-1,-1,-1,-1,-1,-1,-1,-1,-1,-1,-1,-1,-1,-1,-1,-1],"split_conditions":[-5.123274E0,1.6587605E2,1.9412445E2,8.723436E0,-2.1718146E-2,5.4187646E0,3.3472672E0,2.3150932E-2,3.3865517E1,-2.963194E-1,1.9582665E-1,6.4473863E0,-1.7915572E-1,8.0610175E2,-4.7691793E0,3.0182931E0,2.9475968E0,-9.450809E0,5.3075415E2,3.2613132E2,2.7E2,3.9420319E0,2.343075E2,3.590914E0,-4.5428672E-1,-4.4210754E-2,-2.920635E-1,-1.6557531E-1,2.0757704E0,3.1481223E2,3.0351288E2,1.20934455E-4,-9.473627E-3,-3.8634855E-3,1.2442496E-2,2.2969376E-2,-6.5502143E-3,3.3051625E-2,6.5641664E-3,-2.7327765E-2,-1.4207081E-2,-2.367758E-2,5.517974E-3,-7.9186745E-3,-2.310078E-2,-6.598887E-3,1.8422097E-2,1.3709831E-2,-5.201603E-2,2.109017E-2,-4.5032016E-4,2.4430119E-2,5.3846333E-3,7.4457377E-3,2.9561855E-2,-1.90591E-2,4.2070015E-3,-3.3100862E-2,1.8794477E-3,-4.717508E-3,9.976025E-3],"split_indices":[7,2,2,1,6,1,1,6,2,5,6,3,6,8,7,3,1,7,8,2,2,1,8,7,5,0,5,5,1,2,2,0,0,0,0,0,0,0,0,0,0,0,0,0,0,0,0,0,0,0,0,0,0,0,0,0,0,0,0,0,0],"split_type":[0,0,0,0,0,0,0,0,0,0,0,0,0,0,0,0,0,0,0,0,0,0,0,0,0,0,0,0,0,0,0,0,0,0,0,0,0,0,0,0,0,0,0,0,0,0,0,0,0,0,0,0,0,0,0,0,0,0,0,0,0],"sum_hessian":[3.1682184E4,1.83737E4,1.3308486E4,1.0944121E4,7.429577E3,7.3345903E3,5.9738955E3,9.319189E3,1.6249319E3,4.4180586E3,3.011518E3,6.301015E3,1.0335751E3,3.4021401E3,2.5717554E3,5.6779487E3,3.6412407E3,2.4789897E2,1.377033E3,3.959118E3,4.5894095E2,2.7620085E3,2.4950949E2,5.430915E3,8.701003E2,4.9962687E0,1.0285789E3,2.966229E3,4.3591122E2,3.1004718E2,2.2617083E3,1.6772798E3,4.0006692E3,1.7183201E3,1.9229205E3,6.46495E1,1.8324947E2,1.2526545E3,1.2437846E2,3.19047E3,7.6864795E2,1.3995782E2,3.1898312E2,2.0589976E3,7.0301117E2,4.251522E1,2.0699426E2,5.406172E3,2.4743355E1,9.936285E1,7.707374E2,9.528751E2,7.570369E1,2.8830527E3,8.317624E1,1.4390459E2,2.9200662E2,2.2882074E2,8.122644E1,1.511071E3,7.506371E2],"tree_param":{"num_deleted":"0","num_feature":"9","num_nodes":"61","size_leaf_vector":"1"}},{"base_weights":[-8.179858E-3,2.3337385E-1,-3.21032E-1,1.2239699E-1,8.120209E-1,-5.2010767E-2,-7.689521E-1,-1.8420789E-1,3.4468088E-1,9.741851E-1,2.6813182E-1,-2.1629089E-1,9.390962E-2,-5.2410346E-1,-1.0022234E0,6.5265775E-2,-3.0198893E-1,1.641104E-1,4.7910082E-1,6.285184E-1,1.1625714E0,-1.3485286E0,4.3873498E-1,5.1123705E-2,-3.112126E-1,1.822867E-1,-5.542155E-1,-8.9803684E-1,-3.724416E-1,-1.134893E0,-6.2482756E-1,-6.9314414E-3,4.181945E-3,-1.718887E-2,-4.3427097E-3,-2.6327835E-2,5.0194426E-3,7.4998555E-3,1.6019912E-2,6.936239E-3,3.1694133E-2,3.2637525E-2,1.3214853E-2,-5.1524226E-2,-6.5891654E-3,1.3341575E-2,-5.01615E-2,1.3671513E-2,-2.8321196E-3,-5.4974062E-3,-1.732934E-2,7.3772715E-3,-1.0461208E-2,-9.745273E-3,-4.0584873E-2,-1.9223122E-2,-4.6242643E-2,-5.3819465E-3,-2.9882815E-2,-2.2606261E-2,-3.5397794E-2,-1.9953704E-2,6.3827853E-3],"categories":[],"categories_nodes":[],"categories_segments":[],"categories_sizes":[],"default_left":[0,0,0,0,0,0,0,0,0,0,0,0,0,0,0,0,0,0,0,0,0,0,0,0,0,0,0,0,0,0,0,0,0,0,0,0,0,0,0,0,0,0,0,0,0,0,0,0,0,0,0,0,0,0,0,0,0,0,0,0,0,0,0],"id":5,"left_children":[1,3,5,7,9,11,13,15,17,19,21,23,25,27,29,31,33,35,37,39,41,43,45,47,49,51,53,55,57,59,61,-1,-1,-1,-1,-1,-1,-1,-1,-1,-1,-1,-1,-1,-1,-1,-1,-1,-1,-1,-1,-1,-1,-1,-1,-1,-1,-1,-1,-1,-1,-1,-1],"loss_changes":[2.3718538E3,1.1372476E3,1.6477725E3,1.01297095E3,2.5110425E2,2.048501E2,2.9254785E2,1.8357704E2,2.0905585E2,1.422063E2,1.8150798E2,1.0205084E2,2.593398E2,1.417597E2,1.3080298E2,5.9603924E1,2.0207547E2,1.0167579E2,1.183866E2,1.5971692E2,5.6636597E1,3.9837975E1,8.5233E1,7.648355E1,1.0542087E2,2.1550496E2,9.872388E1,1.0589819E2,2.274856E2,1.05933105E2,7.294702E1,0E0,0E0,0E0,0E0,0E0,0E0,0E0,0E0,0E0,0E0,0E0,0E0,0E0,0E0,0E0,0E0,0E0,0E0,0E0,0E0,0E0,0E0,0E0,0E0,0E0,0E0,0E0,0E0,0E0,0E0,0E0,0E0],"parents":[2147483647,0,0,1,1,2,2,3,3,4,4,5,5,6,6,7,7,8,8,9,9,10,10,11,11,12,12,13,13,14,14,15,15,16,16,17,17,18,18,19,19,20,20,21,21,22,22,23,23,24,24,25,25,26,26,27,27,28,28,29,29,30,30],"right_children":[2,4,6,8,10,12,14,16,18,20,22,24,26,28,30,32,34,36,38,40,42,44,46,48,50,52,54,56,58,60,62,-1,-1,-1,-1,-1,-1,-1,-1,-1,-1,-1,-1,-1,-1,-1,-1,-1,-1,-1,-1,-1,-1,-1,-1,-1,-1,-1,-1,-1,-1,-1,-1],"split_conditions":[1.8E2,7.0678506E0,4.009737E-1,1.8004E-2,3.39E2,2.24E2,3.3559315E0,3.0804498E0,4.518869E1,2.16E2,1.412511E1,1.5879962E-1,3.76E2,1.98E2,3.148088E2,1.94E2,3.8961716E0,1.63E2,2.630137E0,1.174106E1,5.408327E2,6.791268E-1,8.006368E0,1.3157815E0,6.441273E2,5.4187646E0,4.179139E0,6.29759E-1,3.51E2,2.7007072E0,-3.2602254E-2,-6.9314414E-3,4.181945E-3,-1.718887E-2,-4.3427097E-3,-2.6327835E-2,5.0194426E-3,7.4998555E-3,1.6019912E-2,6.936239E-3,3.1694133E-2,3.2637525E-2,1.3214853E-2,-5.1524226E-2,-6.5891654E-3,1.3341575E-2,-5.01615E-2,1.3671513E-2,-2.8321196E-3,-5.4974062E-3,-1.732934E-2,7.3772715E-3,-1.0461208E-2,-9.745273E-3,-4.0584873E-2,-1.9223122E-2,-4.6242643E-2,-5.3819465E-3,-2.9882815E-2,-2.2606261E-2,-3.5397794E-2,-1.9953704E-2,6.3827853E-3],"split_indices":[2,1,4,6,0,0,1,3,2,0,2,4,0,0,2,0,3,0,1,1,8,4,3,1,8,1,3,4,0,3,6,0,0,0,0,0,0,0,0,0,0,0,0,0,0,0,0,0,0,0,0,0,0,0,0,0,0,0,0,0,0,0,0],"split_type":[0,0,0,0,0,0,0,0,0,0,0,0,0,0,0,0,0,0,0,0,0,0,0,0,0,0,0,0,0,0,0,0,0,0,0,0,0,0,0,0,0,0,0,0,0,0,0,0,0,0,0,0,0,0,0,0,0,0,0,0,0,0,0],"sum_hessian":[3.1383943E4,1.7710154E4,1.3673789E4,1.4861187E4,2.8489678E3,8.543606E3,5.130182E3,6.246002E3,8.615185E3,2.1940159E3,6.5495184E2,4.0187427E3,4.524864E3,2.5045635E3,2.6256187E3,2.0032776E3,4.2427246E3,3.677417E3,4.937767E3,7.754651E2,1.4185508E3,6.185932E1,5.930925E2,1.052916E3,2.9658267E3,3.9825325E3,5.4233154E2,7.2127826E2,1.7832853E3,1.9412021E3,6.8441644E2,4.3946573E2,1.5638119E3,1.2263569E3,3.0163677E3,7.424773E1,3.6031692E3,1.8757076E3,3.0620596E3,4.682408E2,3.0722427E2,1.3000217E3,1.1852904E2,3.9978687E1,2.1880634E1,5.78603E2,1.4489482E1,2.6715463E2,7.857614E2,2.2632424E3,7.025843E2,3.4220142E3,5.6051825E2,4.5476733E2,8.756423E1,5.962163E2,1.2506194E2,1.452621E3,3.3066428E2,7.7784937E2,1.1633528E3,5.99317E2,8.50994E1],"tree_param":{"num_deleted":"0","num_feature":"9","num_nodes":"63","size_leaf_vector":"1"}},{"base_weights":[-6.098406E-3,2.2317567E-1,-3.0461138E-1,1.1195498E-1,7.828501E-1,-6.5832883E-1,7.540911E-2,-1.2549615E-1,4.5952058E-1,9.2742795E-1,1.8813786E-1,-2.3858577E-1,-8.293676E-1,1.1510405E-1,-9.86749E-1,-3.0285066E-1,1.2772179E-1,4.8910177E-1,-4.898893E-1,5.862935E-1,1.0783145E0,-1.1954515E-1,9.182846E-1,-3.1783342E-1,7.1891516E-1,-6.7320067E-1,-1.2354983E0,-5.806017E-2,2.8317118E-1,-1.5252857E0,-5.4497052E-2,-1.2510724E-2,-3.3958636E-3,-5.198672E-3,9.222826E-3,7.6677636E-3,1.5292719E-2,-1.7964814E-2,3.3744134E-2,3.3414014E-2,6.9114724E-3,1.4990903E-2,3.160255E-2,-1.8056506E-2,7.434938E-3,2.6371153E-2,-4.2721875E-2,5.1232206E-4,-1.26106525E-2,2.4031559E-2,-2.150795E-2,-2.3644404E-2,-8.179393E-3,-2.7008811E-2,-3.8338874E-2,-1.8137567E-2,-2.542261E-5,1.180976E-2,-1.8228994E-3,-4.348412E-2,1.6999936E-3,3.8050087E-3,-4.655874E-2],"categories":[],"categories_nodes":[],"categories_segments":[],"categories_sizes":[],"default_left":[0,0,0,0,0,0,0,0,0,0,0,0,0,0,0,0,0,0,0,0,0,0,0,0,0,0,0,0,0,0,0,0,0,0,0,0,0,0,0,0,0,0,0,0,0,0,0,0,0,0,0,0,0,0,0,0,0,0,0,0,0,0,0],"id":6,"left_children":[1,3,5,7,9,11,13,15,17,19,21,23,25,27,29,31,33,35,37,39,41,43,45,47,49,51,53,55,57,59,61,-1,-1,-1,-1,-1,-1,-1,-1,-1,-1,-1,-1,-1,-1,-1,-1,-1,-1,-1,-1,-1,-1,-1,-1,-1,-1,-1,-1,-1,-1,-1,-1],"loss_changes":[2.1464219E3,1.1040488E3,1.8313367E3,1.2213734E3,2.5264856E2,5.063767E2,2.7705768E2,3.9491486E2,1.6893665E2,1.2110693E2,1.295756E2,1.5534448E2,3.1710522E2,1.843208E2,1.1877243E2,1.5063708E2,2.5462053E2,9.8513794E1,5.9373116E1,1.5821141E2,8.897241E1,9.0309074E1,3.1685074E1,9.848999E1,4.4079742E1,2.8243726E2,6.1056885E1,1.1074883E2,1.8004828E2,2.4931091E1,2.9467747E1,0E0,0E0,0E0,0E0,0E0,0E0,0E0,0E0,0E0,0E0,0E0,0E0,0E0,0E0,0E0,0E0,0E0,0E0,0E0,0E0,0E0,0E0,0E0,0E0,0E0,0E0,0E0,0E0,0E0,0E0,0E0,0E0],"parents":[2147483647,0,0,1,1,2,2,3,3,4,4,5,5,6,6,7,7,8,8,9,9,10,10,11,11,12,12,13,13,14,14,15,15,16,16,17,17,18,18,19,19,20,20,21,21,22,22,23,23,24,24,25,25,26,26,27,27,28,28,29,29,30,30],"right_children":[2,4,6,8,10,12,14,16,18,20,22,24,26,28,30,32,34,36,38,40,42,44,46,48,50,52,54,56,58,60,62,-1,-1,-1,-1,-1,-1,-1,-1,-1,-1,-1,-1,-1,-1,-1,-1,-1,-1,-1,-1,-1,-1,-1,-1,-1,-1,-1,-1,-1,-1,-1,-1],"split_conditions":[1.8E2,7.035404E0,-5.216663E0,-5.0007634E0,3.53E2,3.0129948E-1,8.783166E0,2.3150932E-2,8.1240547E-1,2.08E2,7.1568096E-1,2.1232876E-1,3.27E2,2.34E2,-3.1234803E0,2.41E2,2.6302202E0,1.8665442E0,9.73026E0,-8.835315E0,3.5720646E1,-1.0266915E-1,4.8098946E0,2.0757704E0,5.5097938E0,2.33E2,4.638271E0,-4.9535766E0,3.13E2,3.4145123E2,1.2769178E1,-1.2510724E-2,-3.3958636E-3,-5.198672E-3,9.222826E-3,7.6677636E-3,1.5292719E-2,-1.7964814E-2,3.3744134E-2,3.3414014E-2,6.9114724E-3,1.4990903E-2,3.160255E-2,-1.8056506E-2,7.434938E-3,2.6371153E-2,-4.2721875E-2,5.1232206E-4,-1.26106525E-2,2.4031559E-2,-2.150795E-2,-2.3644404E-2,-8.179393E-3,-2.7008811E-2,-3.8338874E-2,-1.8137567E-2,-2.542261E-5,1.180976E-2,-1.8228994E-3,-4.348412E-2,1.6999936E-3,3.8050087E-3,-4.655874E-2],"split_indices":[2,1,7,7,0,4,1,6,7,0,4,6,0,0,7,0,1,1,3,7,2,6,3,1,3,0,1,7,0,2,1,0,0,0,0,0,0,0,0,0,0,0,0,0,0,0,0,0,0,0,0,0,0,0,0,0,0,0,0,0,0,0,0],"split_type":[0,0,0,0,0,0,0,0,0,0,0,0,0,0,0,0,0,0,0,0,0,0,0,0,0,0,0,0,0,0,0,0,0,0,0,0,0,0,0,0,0,0,0,0,0,0,0,0,0,0,0,0,0,0,0,0,0,0,0,0,0,0,0],"sum_hessian":[3.1359516E4,1.7736883E4,1.3622632E4,1.4797472E4,2.9394116E3,7.055108E3,6.5675234E3,8.791739E3,6.005733E3,2.364121E3,5.752906E2,2.0432356E3,5.0118726E3,6.3317837E3,2.3573962E2,5.170271E3,3.6214678E3,5.824734E3,1.8099896E2,7.264962E2,1.6376248E3,4.0532388E2,1.6996675E2,1.8876704E3,1.5556517E2,3.6218442E3,1.3900282E3,3.1189243E3,3.2128596E3,1.4901917E2,8.672046E1,2.657316E3,2.512955E3,1.4601222E3,2.1613455E3,1.7126376E3,4.1120967E3,1.6443562E2,1.6563341E1,2.3850752E2,4.879887E2,2.7966693E2,1.3579579E3,1.6865317E2,2.366707E2,1.659696E2,3.997138E0,5.941754E2,1.2934951E3,1.3937636E2,1.6188816E1,2.2909575E3,1.3308868E3,6.6138336E2,7.2864484E2,2.6151773E2,2.8574065E3,2.2103887E3,1.00247076E3,1.3982861E2,9.190543E0,7.84845E1,8.235961E0],"tree_param":{"num_deleted":"0","num_feature":"9","num_nodes":"63","size_leaf_vector":"1"}},{"base_weights":[4.301975E-3,2.2898011E-1,-2.8878838E-1,5.8721494E-2,4.9277085E-1,-6.341591E-1,7.792498E-2,-2.8296202E-1,1.937339E-1,2.9666668E-1,5.824927E-1,-3.3901295E-1,-8.709703E-1,1.0181806E-1,-1.622155E0,-3.950383E-1,6.3139834E-3,4.024494E-1,2.4463102E-2,3.2288767E-2,5.067303E-1,5.9960586E-1,-9.331767E-1,-4.091947E-1,2.9053378E-1,-7.371795E-1,-1.2286431E0,-6.292033E-2,2.9746076E-1,-2.7947935E-1,-4.8610672E-2,-8.859848E-3,-2.621352E-2,4.2490726E-3,-2.884101E-2,1.3539376E-2,-4.669684E-3,1.0389549E-2,-4.655054E-3,1.2474593E-2,-8.370156E-3,1.4851153E-2,-2.8062986E-2,1.7450446E-2,5.3917235E-3,2.6111053E-2,-4.0287618E-2,8.666222E-3,-1.2216151E-2,-1.809141E-2,1.2038836E-2,-2.5612174E-2,-8.511649E-3,-3.8396783E-2,-1.0500408E-2,1.0079067E-4,-1.1317318E-2,1.7992169E-2,2.1284746E-3,-4.2528823E-2,3.5648197E-2],"categories":[],"categories_nodes":[],"categories_segments":[],"categories_sizes":[],"default_left":[0,0,0,0,0,0,0,0,0,0,0,0,0,0,0,0,0,0,0,0,0,0,0,0,0,0,0,0,0,0,0,0,0,0,0,0,0,0,0,0,0,0,0,0,0,0,0,0,0,0,0,0,0,0,0,0,0,0,0,0,0],"id":7,"left_children":[1,3,5,7,9,11,13,15,17,19,21,23,25,27,29,31,33,35,37,39,41,43,45,47,49,51,53,55,57,59,-1,-1,-1,-1,-1,-1,-1,-1,-1,-1,-1,-1,-1,-1,-1,-1,-1,-1,-1,-1,-1,-1,-1,-1,-1,-1,-1,-1,-1,-1,-1],"loss_changes":[2.078419E3,8.0239716E2,1.7346855E3,5.010112E2,1.2313281E2,4.926941E2,2.7003247E2,9.973067E1,2.750041E2,1.2226848E2,1.25247314E2,1.3892307E2,1.8633496E2,2.1120625E2,2.4156342E1,8.175156E1,1.4311153E2,2.112348E2,3.120658E2,1.4706725E2,9.5744415E1,1.02493164E2,6.1053764E1,1.0091748E2,4.94006E1,2.649867E2,1.8613098E2,8.570965E1,2.4562912E2,2.9924263E1,0E0,0E0,0E0,0E0,0E0,0E0,0E0,0E0,0E0,0E0,0E0,0E0,0E0,0E0,0E0,0E0,0E0,0E0,0E0,0E0,0E0,0E0,0E0,0E0,0E0,0E0,0E0,0E0,0E0,0E0,0E0],"parents":[2147483647,0,0,1,1,2,2,3,3,4,4,5,5,6,6,7,7,8,8,9,9,10,10,11,11,12,12,13,13,14,14,15,15,16,16,17,17,18,18,19,19,20,20,21,21,22,22,23,23,24,24,25,25,26,26,27,27,28,28,29,29],"right_children":[2,4,6,8,10,12,14,16,18,20,22,24,26,28,30,32,34,36,38,40,42,44,46,48,50,52,54,56,58,60,-1,-1,-1,-1,-1,-1,-1,-1,-1,-1,-1,-1,-1,-1,-1,-1,-1,-1,-1,-1,-1,-1,-1,-1,-1,-1,-1,-1,-1,-1,-1],"split_conditions":[1.8E2,-5.1467986E0,-5.216663E0,2.672005E1,2.04E2,4.124294E-1,6.3273454E-1,-6.0134153E0,3E2,5.9201748E1,2.1203182E0,-2.2285418E-1,3.4E2,2.45E2,-4.822422E-1,8.7E2,-3.2446325E-1,3.42E2,2.8364167E0,1.7263253E-1,2.02E2,3.31E2,2.624299E0,1.1851332E-1,8.485281E1,2.47E2,3.332793E2,3.6460692E-1,2.72E2,-4.843549E-1,-4.8610672E-2,-8.859848E-3,-2.621352E-2,4.2490726E-3,-2.884101E-2,1.3539376E-2,-4.669684E-3,1.0389549E-2,-4.655054E-3,1.2474593E-2,-8.370156E-3,1.4851153E-2,-2.8062986E-2,1.7450446E-2,5.3917235E-3,2.6111053E-2,-4.0287618E-2,8.666222E-3,-1.2216151E-2,-1.809141E-2,1.2038836E-2,-2.5612174E-2,-8.511649E-3,-3.8396783E-2,-1.0500408E-2,1.0079067E-4,-1.1317318E-2,1.7992169E-2,2.1284746E-3,-4.2528823E-2,3.5648197E-2],"split_indices":[2,7,7,2,0,4,4,7,8,2,7,5,0,0,5,8,5,0,3,4,0,0,3,4,8,0,2,4,0,5,0,0,0,0,0,0,0,0,0,0,0,0,0,0,0,0,0,0,0,0,0,0,0,0,0,0,0,0,0,0,0],"split_type":[0,0,0,0,0,0,0,0,0,0,0,0,0,0,0,0,0,0,0,0,0,0,0,0,0,0,0,0,0,0,0,0,0,0,0,0,0,0,0,0,0,0,0,0,0,0,0,0,0,0,0,0,0,0,0,0,0,0,0,0,0],"sum_hessian":[3.1560447E4,1.7865373E4,1.3695075E4,1.085831E4,7.007063E3,7.0523975E3,6.642678E3,3.0750388E3,7.7832705E3,2.200895E3,4.806168E3,3.1405955E3,3.9118022E3,6.551542E3,9.1135895E1,2.216081E3,8.58958E2,3.4849072E3,4.2983633E3,9.7497864E2,1.2259164E3,4.753106E3,5.306208E1,2.825913E3,3.1468228E2,2.8491226E3,1.0626796E3,3.5570515E3,2.9944907E3,1.2094107E1,7.904179E1,2.0026523E3,2.1342862E2,7.5378204E2,1.05175964E2,2.9492583E3,5.3564905E2,1.5161691E3,2.782194E3,4.316482E2,5.4333044E2,1.188596E3,3.7320484E1,4.181396E3,5.717101E2,1.2132713E1,4.0929367E1,1.7504652E2,2.6508667E3,4.4299583E1,2.703827E2,1.8587203E3,9.904023E2,8.4845404E2,2.1422548E2,3.003393E3,5.5365845E2,1.0959012E3,1.8985896E3,6.6760406E0,5.418066E0],"tree_param":{"num_deleted":"0","num_feature":"9","num_nodes":"61","size_leaf_vector":"1"}},{"base_weights":[1.0048243E-2,2.3461235E-1,-2.829381E-1,1.1392217E-1,7.407365E-1,-6.0579807E-1,6.57152E-2,-1.9278003E-1,3.9210907E-1,9.149916E-1,1.7045708E-1,-2.5330937E-1,-8.055033E-1,1.7797627E-1,-3.12329E-1,1.322783E-1,-3.2212794E-1,2.1691862E-1,5.5523753E-1,6.376703E-1,1.1110799E0,-1.478559E-1,5.9828085E-1,4.604387E-1,-3.4537053E-1,-5.4812294E-1,-1.0327795E0,-3.7919328E-2,3.2020658E-1,-4.2432374E-1,4.28065E-1,-9.773498E-3,6.3678543E-3,-1.5553414E-2,-5.195201E-3,1.9736208E-3,1.0768219E-2,1.5753908E-2,-1.7450686E-3,4.1602198E-2,1.3830696E-2,3.0045621E-2,-5.027227E-2,-3.5724215E-2,7.1504817E-4,-1.0025899E-2,2.2610135E-2,2.025652E-2,-6.825012E-3,-1.490772E-2,9.514143E-5,-2.2383336E-2,-7.060485E-3,-3.098825E-2,-2.0788822E-2,1.5042099E-2,-2.1912314E-3,1.1482079E-2,-9.4725686E-4,-1.7155703E-2,5.6034187E-4,1.8136268E-2,-3.258433E-2],"categories":[],"categories_nodes":[],"categories_segments":[],"categories_sizes":[],"default_left":[0,0,0,0,0,0,0,0,0,0,0,0,0,0,0,0,0,0,0,0,0,0,0,0,0,0,0,0,0,0,0,0,0,0,0,0,0,0,0,0,0,0,0,0,0,0,0,0,0,0,0,0,0,0,0,0,0,0,0,0,0,0,0],"id":8,"left_children":[1,3,5,7,9,11,13,15,17,19,21,23,25,27,29,31,33,35,37,39,41,43,45,47,49,51,53,55,57,59,61,-1,-1,-1,-1,-1,-1,-1,-1,-1,-1,-1,-1,-1,-1,-1,-1,-1,-1,-1,-1,-1,-1,-1,-1,-1,-1,-1,-1,-1,-1,-1,-1],"loss_changes":[2.0791914E3,1.0926882E3,1.5435264E3,1.2326357E3,3.421261E2,5.0095386E2,2.7988E2,2.8896466E2,2.1637903E2,1.4274512E2,1.1003775E2,1.6943887E2,2.6524854E2,1.5613998E2,1.25392365E2,1.0381507E2,1.6322095E2,9.745181E1,8.546216E1,1.19647644E2,7.0506226E1,9.648082E1,8.388717E1,6.323098E1,1.698429E2,1.7555841E2,7.770093E1,5.375099E1,1.2000455E2,1.2770595E2,8.333258E1,0E0,0E0,0E0,0E0,0E0,0E0,0E0,0E0,0E0,0E0,0E0,0E0,0E0,0E0,0E0,0E0,0E0,0E0,0E0,0E0,0E0,0E0,0E0,0E0,0E0,0E0,0E0,0E0,0E0,0E0,0E0,0E0],"parents":[2147483647,0,0,1,1,2,2,3,3,4,4,5,5,6,6,7,7,8,8,9,9,10,10,11,11,12,12,13,13,14,14,15,15,16,16,17,17,18,18,19,19,20,20,21,21,22,22,23,23,24,24,25,25,26,26,27,27,28,28,29,29,30,30],"right_children":[2,4,6,8,10,12,14,16,18,20,22,24,26,28,30,32,34,36,38,40,42,44,46,48,50,52,54,56,58,60,62,-1,-1,-1,-1,-1,-1,-1,-1,-1,-1,-1,-1,-1,-1,-1,-1,-1,-1,-1,-1,-1,-1,-1,-1,-1,-1,-1,-1,-1,-1,-1,-1],"split_conditions":[1.8E2,6.5308075E0,-5.216663E0,-5.6203465E0,3.29E2,3.500184E-1,4.647099E0,2.7498123E-1,-4.047362E0,2.2E2,1.0272339E1,1.1851332E-1,3.3472672E0,2.17E2,3.366651E2,1.84E2,3.3863964E1,2.932389E0,8.1240547E-1,-1.035827E1,-1.0032834E0,-8.976918E0,3.217442E1,2.9478061E0,2.53E2,2.32E2,5.1E2,9.33471E-1,3.14E2,-2.8225496E0,3.16E2,-9.773498E-3,6.3678543E-3,-1.5553414E-2,-5.195201E-3,1.9736208E-3,1.0768219E-2,1.5753908E-2,-1.7450686E-3,4.1602198E-2,1.3830696E-2,3.0045621E-2,-5.027227E-2,-3.5724215E-2,7.1504817E-4,-1.0025899E-2,2.2610135E-2,2.025652E-2,-6.825012E-3,-1.490772E-2,9.514143E-5,-2.2383336E-2,-7.060485E-3,-3.098825E-2,-2.0788822E-2,1.5042099E-2,-2.1912314E-3,1.1482079E-2,-9.4725686E-4,-1.7155703E-2,5.6034187E-4,1.8136268E-2,-3.258433E-2],"split_indices":[2,1,7,7,0,4,1,4,7,0,1,4,1,0,2,0,2,1,7,7,7,7,2,1,0,0,8,1,0,7,0,0,0,0,0,0,0,0,0,0,0,0,0,0,0,0,0,0,0,0,0,0,0,0,0,0,0,0,0,0,0,0,0],"split_type":[0,0,0,0,0,0,0,0,0,0,0,0,0,0,0,0,0,0,0,0,0,0,0,0,0,0,0,0,0,0,0,0,0,0,0,0,0,0,0,0,0,0,0,0,0,0,0,0,0,0,0,0,0,0,0,0,0,0,0,0,0,0,0],"sum_hessian":[3.1599424E4,1.788861E4,1.3710813E4,1.444523E4,3.443379E3,7.1183457E3,6.5924683E3,6.8706343E3,7.574596E3,2.637008E3,8.0637103E2,2.5752256E3,4.54312E3,5.0834546E3,1.5090139E3,1.9557373E3,4.914897E3,3.6533938E3,3.9212021E3,1.0940211E3,1.5429868E3,4.6273645E2,3.436346E2,2.9375424E2,2.2814714E3,2.132063E3,2.411057E3,2.019194E3,3.0642605E3,1.3111165E3,1.9789746E2,3.4340656E2,1.6123307E3,1.6127194E3,3.3021777E3,2.0692988E3,1.584095E3,3.711395E3,2.0980722E2,1.2414697E2,9.6987415E2,1.5360259E3,6.9609995E0,5.833455E1,4.044019E2,6.985357E1,2.7378104E2,2.072723E2,8.648194E1,1.4156805E3,8.6579083E2,1.0519338E3,1.0801292E3,1.5985995E3,8.124574E2,1.3737094E2,1.881823E3,2.3400652E3,7.241953E2,8.7921265E2,4.3190375E2,1.7221661E2,2.568085E1],"tree_param":{"num_deleted":"0","num_feature":"9","num_nodes":"63","size_leaf_vector":"1"}},{"base_weights":[-1.2116996E-2,-2.5006467E-1,2.3959567E-1,1.1681152E-2,-6.440721E-1,4.1802478E-1,4.4838823E-2,-1.6792938E-1,6.5056366E-1,-7.38724E-1,-1.0800309E-2,2.3942164E-1,6.067262E-1,1.12681195E-1,-5.571647E-1,-3.0239722E-1,1.0334538E-1,2.5166909E-3,8.0877364E-1,-7.9067355E-1,2.308989E-1,-1.23745315E-1,7.892955E-1,-7.658476E-2,3.3831078E-1,4.1628388E-1,7.5075287E-1,-5.1314678E-2,3.1511745E-1,-8.0953276E-1,-2.540929E-2,-1.1030813E-2,-2.9543384E-3,-1.15219485E-2,7.7783586E-3,2.330733E-2,-2.730261E-3,1.6262705E-2,3.0303774E-2,-2.4373928E-2,-1.3714113E-2,2.470774E-2,-5.2530486E-3,-4.73895E-2,-1.9759268E-3,-4.4782415E-2,2.5926756E-2,-4.7229026E-3,1.5214238E-2,9.391896E-3,-5.220494E-2,-9.418186E-3,1.427327E-2,1.8194236E-2,2.9731806E-2,-1.2248607E-2,8.590523E-4,1.2922939E-2,-4.309516E-3,-1.0959553E-2,-3.4102216E-2,-4.014676E-2,7.422908E-3],"categories":[],"categories_nodes":[],"categories_segments":[],"categories_sizes":[],"default_left":[0,0,0,0,0,0,0,0,0,0,0,0,0,0,0,0,0,0,0,0,0,0,0,0,0,0,0,0,0,0,0,0,0,0,0,0,0,0,0,0,0,0,0,0,0,0,0,0,0,0,0,0,0,0,0,0,0,0,0,0,0,0,0],"id":9,"left_children":[1,3,5,7,9,11,13,15,17,19,21,23,25,27,29,31,33,35,37,39,41,43,45,47,49,51,53,55,57,59,61,-1,-1,-1,-1,-1,-1,-1,-1,-1,-1,-1,-1,-1,-1,-1,-1,-1,-1,-1,-1,-1,-1,-1,-1,-1,-1,-1,-1,-1,-1,-1,-1],"loss_changes":[1.8731705E3,1.6580072E3,5.281059E2,1.1086742E3,3.846372E2,2.6715735E2,2.9687753E2,2.751296E2,2.1737207E2,2.8139062E2,7.559319E1,1.2740793E2,1.0545068E2,2.1687949E2,9.8779465E1,1.0719739E2,2.5179826E2,3.8159477E1,1.1033203E2,1.7943921E2,8.480214E1,6.005258E1,4.8158646E1,6.3230595E1,9.7736694E1,1.5182202E2,5.4237427E1,1.22894226E2,2.3574835E2,9.273459E1,1.0726317E2,0E0,0E0,0E0,0E0,0E0,0E0,0E0,0E0,0E0,0E0,0E0,0E0,0E0,0E0,0E0,0E0,0E0,0E0,0E0,0E0,0E0,0E0,0E0,0E0,0E0,0E0,0E0,0E0,0E0,0E0,0E0,0E0],"parents":[2147483647,0,0,1,1,2,2,3,3,4,4,5,5,6,6,7,7,8,8,9,9,10,10,11,11,12,12,13,13,14,14,15,15,16,16,17,17,18,18,19,19,20,20,21,21,22,22,23,23,24,24,25,25,26,26,27,27,28,28,29,29,30,30],"right_children":[2,4,6,8,10,12,14,16,18,20,22,24,26,28,30,32,34,36,38,40,42,44,46,48,50,52,54,56,58,60,62,-1,-1,-1,-1,-1,-1,-1,-1,-1,-1,-1,-1,-1,-1,-1,-1,-1,-1,-1,-1,-1,-1,-1,-1,-1,-1,-1,-1,-1,-1,-1,-1],"split_conditions":[-5.495796E0,1.6587605E2,1.8E2,7.0678506E0,-2.941725E-1,2.9323742E0,6.5517735E0,3.6315322E-2,3.5720646E1,1.7682838E-1,9.592577E0,-4.741012E0,5.6483284E1,2.43E2,-3.0686176E0,3.8421366E0,2.6716251E1,-2.4148978E-1,1.174106E1,3.1480722E2,1.315883E0,-2.007552E-1,2.0671907E2,8.006368E0,4.35E2,1.94E2,7.3788605E0,-4.9535766E0,3.27E2,8.394458E0,7.3788605E0,-1.1030813E-2,-2.9543384E-3,-1.15219485E-2,7.7783586E-3,2.330733E-2,-2.730261E-3,1.6262705E-2,3.0303774E-2,-2.4373928E-2,-1.3714113E-2,2.470774E-2,-5.2530486E-3,-4.73895E-2,-1.9759268E-3,-4.4782415E-2,2.5926756E-2,-4.7229026E-3,1.5214238E-2,9.391896E-3,-5.220494E-2,-9.418186E-3,1.427327E-2,1.8194236E-2,2.9731806E-2,-1.2248607E-2,8.590523E-4,1.2922939E-2,-4.309516E-3,-1.0959553E-2,-3.4102216E-2,-4.014676E-2,7.422908E-3],"split_indices":[7,2,2,1,5,1,1,6,2,6,3,7,2,0,7,1,2,6,1,2,1,6,2,3,0,0,1,7,0,1,1,0,0,0,0,0,0,0,0,0,0,0,0,0,0,0,0,0,0,0,0,0,0,0,0,0,0,0,0,0,0,0,0],"split_type":[0,0,0,0,0,0,0,0,0,0,0,0,0,0,0,0,0,0,0,0,0,0,0,0,0,0,0,0,0,0,0,0,0,0,0,0,0,0,0,0,0,0,0,0,0,0,0,0,0,0,0,0,0,0,0,0,0,0,0,0,0,0,0],"sum_hessian":[3.127253E4,1.6075824E4,1.5196706E4,9.659695E3,6.416129E3,7.9301997E3,7.2665063E3,7.540542E3,2.119153E3,5.581695E3,8.34434E2,4.0752778E3,3.854922E3,6.531281E3,7.3522534E2,5.0414414E3,2.4991003E3,4.1603604E2,1.7031171E3,5.298027E3,2.8366794E2,7.319536E2,1.02480415E2,9.7138434E2,3.1038936E3,1.6616544E3,2.1932676E3,3.6086333E3,2.9226477E3,4.9824078E2,2.3698459E2,3.1925032E3,1.8489384E3,6.497324E2,1.8493679E3,4.3910313E1,3.721257E2,1.0595175E3,6.435996E2,3.6694565E3,1.6285704E3,1.0763283E2,1.7603511E2,2.0364214E1,7.1158936E2,6.4837003E0,9.599672E1,8.414803E2,1.2990404E2,3.0864167E3,1.747681E1,2.21655E2,1.4399994E3,1.8457507E3,3.475169E2,6.127486E2,2.9958845E3,2.1571362E3,7.655115E2,2.7009586E2,2.2814493E2,3.968422E1,1.9730037E2],"tree_param":{"num_deleted":"0","num_feature":"9","num_nodes":"63","size_leaf_vector":"1"}},{"base_weights":[7.09722E-3,-1.8376799E-1,2.9601E-1,-2.4810371E-1,5.6730473E-1,-7.2305626E-1,3.1025633E-1,-4.1674948E-1,3.6372475E-2,9.6966076E-1,1.7049469E-1,-3.4509428E-2,-1.5678788E0,1.4319693E-1,3.8192892E-1,-7.104259E-1,-3.1723282E-1,-1.393355E-1,2.7145565E-1,1.1839539E0,3.559007E-1,-5.2875385E-2,9.908605E-1,2.2936589E-1,-4.879751E-2,-4.7613237E-2,-2.8253156E-1,1.6495755E-1,-1.3193628E0,4.9259683E-1,1.8772283E-1,-2.1506714E-2,3.907856E-5,-4.909755E-3,-1.4982922E-2,7.958123E-3,-5.3463634E-3,1.1004297E-2,-1.7639855E-2,3.377216E-2,1.571889E-2,-4.8380822E-2,1.34759415E-2,1.0024105E-2,-1.7051006E-2,-4.6891164E-2,2.9430063E-2,1.1232679E-2,-4.4699334E-2,4.060125E-2,-4.493336E-2,-1.8941019E-2,5.1956037E-3,-4.329585E-2,3.8352653E-2,1.1026777E-2,2.1875512E-2,8.023909E-3,-6.9295167E-4],"categories":[],"categories_nodes":[],"categories_segments":[],"categories_sizes":[],"default_left":[0,0,0,0,0,0,0,0,0,0,0,0,0,0,0,0,0,0,0,0,0,0,0,0,0,0,0,0,0,0,0,0,0,0,0,0,0,0,0,0,0,0,0,0,0,0,0,0,0,0,0,0,0,0,0,0,0,0,0],"id":10,"left_children":[1,3,5,7,9,11,13,15,17,19,21,23,25,27,29,31,33,35,37,39,41,43,45,47,-1,-1,49,51,53,55,57,-1,-1,-1,-1,-1,-1,-1,-1,-1,-1,-1,-1,-1,-1,-1,-1,-1,-1,-1,-1,-1,-1,-1,-1,-1,-1,-1,-1],"loss_changes":[1.7390056E3,9.1777277E2,1.8236218E2,8.3924304E2,2.3910706E2,1.00736015E2,1.48099E2,3.2073938E2,2.6900125E2,9.742114E1,1.3853758E2,4.6095936E1,2.1119324E1,1.1849545E2,1.8598914E2,1.8886597E2,2.6688452E2,9.9538666E1,3.662329E2,2.598761E1,6.3619804E1,1.4964749E2,5.1705322E1,3.171112E1,0E0,0E0,3.3883156E1,9.539597E1,4.7932808E1,1.4289734E2,7.5901955E1,0E0,0E0,0E0,0E0,0E0,0E0,0E0,0E0,0E0,0E0,0E0,0E0,0E0,0E0,0E0,0E0,0E0,0E0,0E0,0E0,0E0,0E0,0E0,0E0,0E0,0E0,0E0,0E0],"parents":[2147483647,0,0,1,1,2,2,3,3,4,4,5,5,6,6,7,7,8,8,9,9,10,10,11,11,12,12,13,13,14,14,15,15,16,16,17,17,18,18,19,19,20,20,21,21,22,22,23,23,26,26,27,27,28,28,29,29,30,30],"right_children":[2,4,6,8,10,12,14,16,18,20,22,24,26,28,30,32,34,36,38,40,42,44,46,48,-1,-1,50,52,54,56,58,-1,-1,-1,-1,-1,-1,-1,-1,-1,-1,-1,-1,-1,-1,-1,-1,-1,-1,-1,-1,-1,-1,-1,-1,-1,-1,-1,-1],"split_conditions":[-4.977877E0,1.0272339E1,-1.6338582E-1,2.3150932E-2,-8.184801E0,4.647099E0,2.03E2,1.93E2,2.33E2,3.53E2,3.4225844E-2,-2.8874564E0,-3.6485282E-1,1.0044628E1,2.72E2,-2.8576577E-1,3.25E2,-7.506835E0,3.73E2,8.276518E0,1.10306635E1,-6.855229E0,1.601873E0,3.4E2,-4.879751E-2,-4.7613237E-2,-3.6167663E-1,-7.806324E-2,3.590914E0,2.56E2,4.539824E2,-2.1506714E-2,3.907856E-5,-4.909755E-3,-1.4982922E-2,7.958123E-3,-5.3463634E-3,1.1004297E-2,-1.7639855E-2,3.377216E-2,1.571889E-2,-4.8380822E-2,1.34759415E-2,1.0024105E-2,-1.7051006E-2,-4.6891164E-2,2.9430063E-2,1.1232679E-2,-4.4699334E-2,4.060125E-2,-4.493336E-2,-1.8941019E-2,5.1956037E-3,-4.329585E-2,3.8352653E-2,1.1026777E-2,2.1875512E-2,8.023909E-3,-6.9295167E-4],"split_indices":[7,1,6,6,7,1,0,0,0,0,6,7,5,3,0,5,0,7,0,3,1,7,3,0,0,0,5,6,7,0,8,0,0,0,0,0,0,0,0,0,0,0,0,0,0,0,0,0,0,0,0,0,0,0,0,0,0,0,0],"split_type":[0,0,0,0,0,0,0,0,0,0,0,0,0,0,0,0,0,0,0,0,0,0,0,0,0,0,0,0,0,0,0,0,0,0,0,0,0,0,0,0,0,0,0,0,0,0,0,0,0,0,0,0,0,0,0,0,0,0,0],"sum_hessian":[3.1534076E4,1.8989414E4,1.2544663E4,1.7491766E4,1.4976477E3,1.7226828E2,1.2372395E4,1.0981278E4,6.5104873E3,7.4291046E2,7.547373E2,9.548609E1,7.678218E1,3.7153638E3,8.657031E3,2.7777937E3,8.203485E3,3.7259854E3,2.7845022E3,5.4996295E2,1.9294746E2,5.939512E2,1.6078612E2,8.400269E1,1.1483405E1,6.539088E1,1.1391301E1,3.6617695E3,5.3594273E1,5.513588E3,3.143443E3,2.4491946E3,3.2859906E2,5.3085576E3,2.8949275E3,4.5544547E2,3.2705398E3,2.4194702E3,3.6503207E2,4.8266977E2,6.72932E1,1.1691089E1,1.8125638E2,3.4330338E2,2.5064778E2,5.718226E0,1.5506789E2,7.703339E1,6.9693065E0,4.942485E0,6.4488163E0,1.1962199E2,3.5421475E3,4.865694E1,4.937332E0,4.438502E3,1.0750862E3,2.0561982E3,1.0872448E3],"tree_param":{"num_deleted":"0","num_feature":"9","num_nodes":"59","size_leaf_vector":"1"}},{"base_weights":[-1.3794926E-2,1.8053062E-1,-2.6246685E-1,6.688046E-2,6.516715E-1,-5.815639E-1,2.8476952E-2,-1.1372854E-1,4.003428E-1,8.185069E-1,1.503711E-1,-4.4399884E-1,-1.0136222E0,1.4125027E-1,-3.59471E-1,-2.8529707E-1,1.0512331E-1,4.343328E-1,-2.2569233E-1,5.04415E-1,9.98233E-1,-9.0741205E-1,2.7877164E-1,-4.9192742E-1,3.303976E-1,-1.1884102E0,-6.303918E-1,-3.5948842E-3,3.3107322E-1,-6.1573595E-1,3.4166738E-1,-1.1605574E-2,-3.7712671E-3,-7.988226E-3,7.059382E-3,-5.1253352E-2,1.1796682E-2,-4.2341165E-2,1.7778693E-3,-3.9305698E-2,1.5783586E-2,1.8505402E-2,2.9891757E-2,1.761493E-2,-3.201499E-2,1.9264352E-2,-2.6354732E-4,-1.1375756E-2,-2.4037339E-2,1.749326E-2,-9.533413E-3,-2.7962398E-2,-4.15985E-2,1.06330365E-2,-2.2334814E-2,3.9913193E-3,-4.5735273E-3,1.3984815E-2,-7.1917493E-3,-2.2723079E-2,-2.690456E-3,-4.778417E-2,1.065034E-2],"categories":[],"categories_nodes":[],"categories_segments":[],"categories_sizes":[],"default_left":[0,0,0,0,0,0,0,0,0,0,0,0,0,0,0,0,0,0,0,0,0,0,0,0,0,0,0,0,0,0,0,0,0,0,0,0,0,0,0,0,0,0,0,0,0,0,0,0,0,0,0,0,0,0,0,0,0,0,0,0,0,0,0],"id":11,"left_children":[1,3,5,7,9,11,13,15,17,19,21,23,25,27,29,31,33,35,37,39,41,43,45,47,49,51,53,55,57,59,61,-1,-1,-1,-1,-1,-1,-1,-1,-1,-1,-1,-1,-1,-1,-1,-1,-1,-1,-1,-1,-1,-1,-1,-1,-1,-1,-1,-1,-1,-1,-1,-1],"loss_changes":[1.5020433E3,9.3422815E2,1.2658762E3,8.4673285E2,2.8346838E2,3.860569E2,3.1212323E2,3.4247052E2,1.0520264E2,1.4310156E2,1.1541832E2,1.832995E2,1.0439453E2,1.5197272E2,2.8891592E2,1.10050354E2,2.5851865E2,8.5942444E1,1.01558365E2,1.6053851E2,5.928943E1,4.2946396E1,9.681556E1,1.24341675E2,6.4659744E1,5.4445312E1,1.0526276E2,8.061365E1,2.773703E2,1.42797E2,5.3451946E1,0E0,0E0,0E0,0E0,0E0,0E0,0E0,0E0,0E0,0E0,0E0,0E0,0E0,0E0,0E0,0E0,0E0,0E0,0E0,0E0,0E0,0E0,0E0,0E0,0E0,0E0,0E0,0E0,0E0,0E0,0E0,0E0],"parents":[2147483647,0,0,1,1,2,2,3,3,4,4,5,5,6,6,7,7,8,8,9,9,10,10,11,11,12,12,13,13,14,14,15,15,16,16,17,17,18,18,19,19,20,20,21,21,22,22,23,23,24,24,25,25,26,26,27,27,28,28,29,29,30,30],"right_children":[2,4,6,8,10,12,14,16,18,20,22,24,26,28,30,32,34,36,38,40,42,44,46,48,50,52,54,56,58,60,62,-1,-1,-1,-1,-1,-1,-1,-1,-1,-1,-1,-1,-1,-1,-1,-1,-1,-1,-1,-1,-1,-1,-1,-1,-1,-1,-1,-1,-1,-1,-1,-1],"split_conditions":[1.8E2,6.5308075E0,-5.4511156E0,-4.662298E0,3.29E2,5.0102997E0,4.647411E0,2.5015254E-2,3.762662E-1,2.1E2,1.502827E1,1.752532E-1,3.1099884E2,2.44E2,3.066912E2,2.35E2,2.6716251E1,1.51E2,1.8543341E0,1.8547722E1,2.1673532E0,9E1,-1.9405133E-1,3.55E2,2.6302483E0,3.6E2,-9.231128E0,3.773652E0,3.27E2,-2.8225496E0,1.7E2,-1.1605574E-2,-3.7712671E-3,-7.988226E-3,7.059382E-3,-5.1253352E-2,1.1796682E-2,-4.2341165E-2,1.7778693E-3,-3.9305698E-2,1.5783586E-2,1.8505402E-2,2.9891757E-2,1.761493E-2,-3.201499E-2,1.9264352E-2,-2.6354732E-4,-1.1375756E-2,-2.4037339E-2,1.749326E-2,-9.533413E-3,-2.7962398E-2,-4.15985E-2,1.06330365E-2,-2.2334814E-2,3.9913193E-3,-4.5735273E-3,1.3984815E-2,-7.1917493E-3,-2.2723079E-2,-2.690456E-3,-4.778417E-2,1.065034E-2],"split_indices":[2,1,7,7,0,1,1,6,7,0,2,6,2,0,2,0,2,0,1,2,3,8,6,0,1,0,7,3,0,7,0,0,0,0,0,0,0,0,0,0,0,0,0,0,0,0,0,0,0,0,0,0,0,0,0,0,0,0,0,0,0,0,0],"split_type":[0,0,0,0,0,0,0,0,0,0,0,0,0,0,0,0,0,0,0,0,0,0,0,0,0,0,0,0,0,0,0,0,0,0,0,0,0,0,0,0,0,0,0,0,0,0,0,0,0,0,0,0,0,0,0,0,0,0,0,0,0,0,0],"sum_hessian":[3.1081225E4,1.744727E4,1.3633956E4,1.4057432E4,3.389838E3,6.5019E3,7.1320557E3,9.119053E3,4.9383784E3,2.5429111E3,8.469268E2,4.933218E3,1.5686821E3,5.5262544E3,1.6058013E3,5.111555E3,4.007498E3,4.6843525E3,2.5402625E2,9.2688324E2,1.616028E3,9.102033E1,7.559065E2,4.6460327E3,2.871852E2,1.0758811E3,4.9280096E2,3.135035E3,2.3912195E3,1.176071E3,4.297303E2,2.505976E3,2.6055789E3,1.1326819E3,2.8748162E3,1.4481502E1,4.669871E3,4.4132324E1,2.0989392E2,3.8404346E1,8.884789E2,4.6350003E2,1.1525278E3,1.41058855E1,7.691445E1,2.975844E2,4.5832205E2,4.0048718E3,6.4116077E2,1.950251E2,9.2160126E1,7.826069E2,2.9327426E2,8.2234604E1,4.1056635E2,1.6390128E3,1.4960221E3,1.809833E3,5.8138654E2,8.062817E2,3.6978937E2,1.0477807E1,4.1925247E2],"tree_param":{"num_deleted":"0","num_feature":"9","num_nodes":"63","size_leaf_vector":"1"}},{"base_weights":[-6.270123E-3,2.0825888E-1,-2.6823014E-1,1.0952575E-1,7.206467E-1,-6.022521E-1,3.526267E-2,-1.7264794E-1,3.3034915E-1,-2.4632458E-1,7.998754E-1,-8.840251E-1,-4.1681615E-1,1.0103242E-1,-6.700256E-1,-2.9155526E-1,2.733979E-2,1.7624173E-1,4.6207762E-1,4.0398395E-1,-1.0978812E0,6.2512326E-1,1.0897361E0,-7.35901E-1,-1.3836251E0,-3.133877E-1,-9.214234E-1,-2.4459088E-2,2.6336023E-1,-8.443619E-1,7.566055E-2,-8.720112E-3,1.2277417E-2,3.257384E-3,-1.356854E-2,3.1267486E-3,2.00791E-2,1.4113054E-2,9.71365E-4,2.6556699E-2,-8.835173E-3,-5.019241E-2,-8.487636E-3,1.2417772E-2,2.4027452E-2,3.0838832E-2,1.3040897E-2,-2.6775254E-2,-8.210266E-3,-2.5303656E-2,-4.294854E-2,-1.3639997E-2,-2.7185925E-3,-4.336023E-3,-2.9914921E-2,-3.587942E-3,6.182147E-3,1.19826915E-2,-3.094946E-3,-2.8974436E-2,-3.1265763E-3,2.4907246E-2,-1.9583741E-2],"categories":[],"categories_nodes":[],"categories_segments":[],"categories_sizes":[],"default_left":[0,0,0,0,0,0,0,0,0,0,0,0,0,0,0,0,0,0,0,0,0,0,0,0,0,0,0,0,0,0,0,0,0,0,0,0,0,0,0,0,0,0,0,0,0,0,0,0,0,0,0,0,0,0,0,0,0,0,0,0,0,0,0],"id":12,"left_children":[1,3,5,7,9,11,13,15,17,19,21,23,25,27,29,31,33,35,37,39,41,43,45,47,49,51,53,55,57,59,61,-1,-1,-1,-1,-1,-1,-1,-1,-1,-1,-1,-1,-1,-1,-1,-1,-1,-1,-1,-1,-1,-1,-1,-1,-1,-1,-1,-1,-1,-1,-1,-1],"loss_changes":[1.7580013E3,8.6996747E2,1.4277789E3,8.986221E2,2.1305237E2,3.4996826E2,3.4241287E2,1.5057315E2,1.6415167E2,1.173839E2,1.2940735E2,1.9585132E2,2.1085461E2,1.3754172E2,8.191882E1,1.0521869E2,1.19921814E2,1.268716E2,1.2392969E2,5.267431E1,5.5392883E1,7.015607E1,3.761853E1,2.3492676E2,5.816394E1,1.4043018E2,1.0396002E2,1.07323235E2,2.0737251E2,8.946353E1,8.415925E1,0E0,0E0,0E0,0E0,0E0,0E0,0E0,0E0,0E0,0E0,0E0,0E0,0E0,0E0,0E0,0E0,0E0,0E0,0E0,0E0,0E0,0E0,0E0,0E0,0E0,0E0,0E0,0E0,0E0,0E0,0E0,0E0],"parents":[2147483647,0,0,1,1,2,2,3,3,4,4,5,5,6,6,7,7,8,8,9,9,10,10,11,11,12,12,13,13,14,14,15,15,16,16,17,17,18,18,19,19,20,20,21,21,22,22,23,23,24,24,25,25,26,26,27,27,28,28,29,29,30,30],"right_children":[2,4,6,8,10,12,14,16,18,20,22,24,26,28,30,32,34,36,38,40,42,44,46,48,50,52,54,56,58,60,62,-1,-1,-1,-1,-1,-1,-1,-1,-1,-1,-1,-1,-1,-1,-1,-1,-1,-1,-1,-1,-1,-1,-1,-1,-1,-1,-1,-1,-1,-1,-1,-1],"split_conditions":[1.5328136E2,7.0678506E0,-5.4511156E0,-5.8929105E0,1.502827E1,-4.095649E-1,6.688437E0,3.8418336E0,-4.346865E0,2.96E2,1.1212192E1,3.63E2,5.547545E0,2.43E2,3.0351706E2,-2.1641502E-1,3.66E2,5.659305E0,6.4473863E0,-4.2857143E-1,3.1272542E0,-6.0348125E0,1.1043254E2,2.47E2,2.6202407E0,2.29E2,-8.265305E0,-2.8874564E0,3.16E2,-2.3830223E0,-4.107308E-1,-8.720112E-3,1.2277417E-2,3.257384E-3,-1.356854E-2,3.1267486E-3,2.00791E-2,1.4113054E-2,9.71365E-4,2.6556699E-2,-8.835173E-3,-5.019241E-2,-8.487636E-3,1.2417772E-2,2.4027452E-2,3.0838832E-2,1.3040897E-2,-2.6775254E-2,-8.210266E-3,-2.5303656E-2,-4.294854E-2,-1.3639997E-2,-2.7185925E-3,-4.336023E-3,-2.9914921E-2,-3.587942E-3,6.182147E-3,1.19826915E-2,-3.094946E-3,-2.8974436E-2,-3.1265763E-3,2.4907246E-2,-1.9583741E-2],"split_indices":[2,1,7,7,2,5,1,1,7,0,1,0,1,0,2,5,0,1,3,5,3,7,2,0,3,0,7,7,0,7,5,0,0,0,0,0,0,0,0,0,0,0,0,0,0,0,0,0,0,0,0,0,0,0,0,0,0,0,0,0,0,0,0],"split_type":[0,0,0,0,0,0,0,0,0,0,0,0,0,0,0,0,0,0,0,0,0,0,0,0,0,0,0,0,0,0,0,0,0,0,0,0,0,0,0,0,0,0,0,0,0,0,0,0,0,0,0,0,0,0,0,0,0,0,0,0,0,0,0],"sum_hessian":[3.1280273E4,1.7197111E4,1.4083161E4,1.4419751E4,2.7773596E3,6.7039062E3,7.3792554E3,6.330587E3,8.0891646E3,2.1016965E2,2.5671902E3,2.6592961E3,4.04461E3,6.750603E3,6.2865247E2,3.9697954E3,2.3607913E3,3.728997E3,4.3601675E3,1.1946407E2,9.0705574E1,1.6035773E3,9.6361273E2,2.0530652E3,6.062309E2,3.3579568E3,6.866534E2,3.8077654E3,2.9428376E3,5.09421E2,1.19231476E2,3.792715E3,1.7708041E2,2.0067832E3,3.540082E2,3.3832969E3,3.4570007E2,3.7687998E3,5.913676E2,6.6017494E1,5.344658E1,4.455846E1,4.6147114E1,1.01622864E3,5.8734863E2,8.6762836E2,9.598438E1,1.2630212E3,7.90044E2,2.0875365E2,3.9747726E2,1.7348077E3,1.623149E3,1.4333173E2,5.4332166E2,2.664137E3,1.1436284E3,1.9757E3,9.671376E2,3.821032E2,1.2731777E2,5.7819283E1,6.1412193E1],"tree_param":{"num_deleted":"0","num_feature":"9","num_nodes":"63","size_leaf_vector":"1"}},{"base_weights":[-4.426395E-3,-1.698075E-1,2.4983399E-1,-2.3600204E-1,5.5985916E-1,2.9006776E-1,-7.644743E-2,-3.663791E-1,-1.093463E-2,7.761276E-1,-1.4795129E-1,9.273189E-2,3.7365523E-1,-4.4222042E-2,-5.0006445E-2,-6.089281E-1,-2.718763E-1,3.428135E-2,-8.549833E-1,1.0224807E0,2.2841267E-1,-8.920269E-1,3.2291496E-1,-1.169479E-2,4.8512456E-1,8.926877E-1,3.536245E-1,1.4482289E-2,-8.193026E-1,-1.7708171E-2,1.0628901E-2,-3.7332964E-3,-1.3397258E-2,-2.1517514E-3,9.561199E-3,-4.9897265E-2,-1.7371923E-2,2.7923372E-2,-4.675187E-2,9.312599E-3,-4.6863127E-2,-3.988854E-2,-2.7310543E-3,-3.5662696E-2,1.5992219E-2,4.747916E-3,-4.5569786E-3,2.2647446E-2,-2.7726034E-3,-4.9718674E-2,2.5986409E-2,1.0618785E-2,4.255661E-3,2.0205146E-3,-2.5168704E-2,1.7829043E-3,-4.267227E-2],"categories":[],"categories_nodes":[],"categories_segments":[],"categories_sizes":[],"default_left":[0,0,0,0,0,0,0,0,0,0,0,0,0,0,0,0,0,0,0,0,0,0,0,0,0,0,0,0,0,0,0,0,0,0,0,0,0,0,0,0,0,0,0,0,0,0,0,0,0,0,0,0,0,0,0,0,0],"id":13,"left_children":[1,3,5,7,9,11,13,15,17,19,21,23,25,27,-1,29,31,33,35,37,39,41,43,45,47,49,51,53,55,-1,-1,-1,-1,-1,-1,-1,-1,-1,-1,-1,-1,-1,-1,-1,-1,-1,-1,-1,-1,-1,-1,-1,-1,-1,-1,-1,-1],"loss_changes":[1.3083286E3,9.10672E2,1.6099152E2,5.0718622E2,2.4018008E2,1.800246E2,7.792805E1,2.5069983E2,2.4202992E2,1.6187201E2,1.2917549E2,1.3315292E2,7.9402954E1,6.0260845E1,0E0,1.6907507E2,2.3921582E2,2.2414157E2,6.554266E1,5.6676453E1,9.008545E1,6.7827896E1,1.04443504E2,7.746193E1,1.463348E2,6.532498E1,6.342633E1,7.23026E1,6.4531494E1,0E0,0E0,0E0,0E0,0E0,0E0,0E0,0E0,0E0,0E0,0E0,0E0,0E0,0E0,0E0,0E0,0E0,0E0,0E0,0E0,0E0,0E0,0E0,0E0,0E0,0E0,0E0,0E0],"parents":[2147483647,0,0,1,1,2,2,3,3,4,4,5,5,6,6,7,7,8,8,9,9,10,10,11,11,12,12,13,13,15,15,16,16,17,17,18,18,19,19,20,20,21,21,22,22,23,23,24,24,25,25,26,26,27,27,28,28],"right_children":[2,4,6,8,10,12,14,16,18,20,22,24,26,28,-1,30,32,34,36,38,40,42,44,46,48,50,52,54,56,-1,-1,-1,-1,-1,-1,-1,-1,-1,-1,-1,-1,-1,-1,-1,-1,-1,-1,-1,-1,-1,-1,-1,-1,-1,-1,-1,-1],"split_conditions":[-4.977877E0,1.0272339E1,3.25E2,2.3150932E-2,-6.855229E0,1.99E2,4.88E2,1.97E2,3.73E2,3.42E2,-1.4971069E-1,7.851751E2,-4.7459987E-1,1.7364682E-1,-5.0006445E-2,-2.091768E-1,3.25E2,2.58E2,2.5455844E2,8.694793E0,5.2776227E0,3E2,2.11E2,2.0839763E0,1.83E2,-4.7691793E0,7.427651E2,7.4675384E0,3.49E2,-1.7708171E-2,1.0628901E-2,-3.7332964E-3,-1.3397258E-2,-2.1517514E-3,9.561199E-3,-4.9897265E-2,-1.7371923E-2,2.7923372E-2,-4.675187E-2,9.312599E-3,-4.6863127E-2,-3.988854E-2,-2.7310543E-3,-3.5662696E-2,1.5992219E-2,4.747916E-3,-4.5569786E-3,2.2647446E-2,-2.7726034E-3,-4.9718674E-2,2.5986409E-2,1.0618785E-2,4.255661E-3,2.0205146E-3,-2.5168704E-2,1.7829043E-3,-4.267227E-2],"split_indices":[7,1,0,6,7,0,0,0,0,0,6,8,5,6,0,5,0,0,8,3,3,8,0,1,0,7,8,3,0,0,0,0,0,0,0,0,0,0,0,0,0,0,0,0,0,0,0,0,0,0,0,0,0,0,0,0,0],"split_type":[0,0,0,0,0,0,0,0,0,0,0,0,0,0,0,0,0,0,0,0,0,0,0,0,0,0,0,0,0,0,0,0,0,0,0,0,0,0,0,0,0,0,0,0,0,0,0,0,0,0,0,0,0,0,0,0,0],"sum_hessian":[3.1111734E4,1.8850771E4,1.2260962E4,1.7283508E4,1.5672644E3,1.0915128E4,1.3458341E3,1.0943519E4,6.3399893E3,1.200393E3,3.668714E2,3.2483748E3,7.6667534E3,1.3231362E3,2.2697851E1,3.0668242E3,7.8766943E3,6.0185337E3,3.2145554E2,8.273829E2,3.7301013E2,1.4183905E2,2.2503235E2,2.5663638E3,6.820111E2,2.832655E2,7.383488E3,1.2308904E3,9.224589E1,2.9093596E3,1.5746481E2,5.0069497E3,2.8697444E3,4.443357E3,1.5751768E3,5.2444355E1,2.6901117E2,8.209445E2,6.4383574E0,3.5242575E2,2.058438E1,7.993863E1,6.1900414E1,3.157998E1,1.9345236E2,1.1707186E3,1.395645E3,4.214609E2,2.6055017E2,7.4673886E0,2.7579813E2,6.0113857E3,1.3721023E3,1.1577812E3,7.3109085E1,4.360493E1,4.864096E1],"tree_param":{"num_deleted":"0","num_feature":"9","num_nodes":"57","size_leaf_vector":"1"}},{"base_weights":[4.9356986E-3,-2.0409277E-1,2.3666614E-1,4.8300788E-2,-5.955872E-1,3.867746E-1,5.408804E-2,-1.3406959E-1,5.711071E-1,-4.9444565E-1,-1.0390733E0,2.5100285E-1,5.3478545E-1,1.5787166E-1,-2.693465E-1,-2.8743672E-1,1.5145999E-1,1.1267832E-2,7.066955E-1,-5.289883E-1,5.873369E-1,-1.2340959E0,1.6787456E-2,-1.6081369E-1,3.6166465E-1,5.8520484E-1,-7.675248E-2,-1.671243E-2,3.778255E-1,-5.0884235E-1,2.5278333E-1,-1.6039712E-2,-4.483969E-3,-9.225631E-3,8.771184E-3,2.1144473E-3,-4.857067E-2,1.2686258E-2,2.6005356E-2,-1.0231704E-2,-2.0184083E-2,3.4175705E-2,7.303834E-3,-3.686184E-2,-2.2515206E-2,-1.8306883E-2,1.48425475E-2,-8.253401E-3,5.6081084E-3,1.0848963E-2,-2.0166148E-2,1.12254685E-2,2.0420535E-2,1.0403969E-2,-2.60795E-2,-3.4243092E-2,-7.04122E-5,1.4929303E-2,-4.6847914E-3,-1.9586008E-2,2.9546672E-3,7.5066993E-3,-4.404725E-2],"categories":[],"categories_nodes":[],"categories_segments":[],"categories_sizes":[],"default_left":[0,0,0,0,0,0,0,0,0,0,0,0,0,0,0,0,0,0,0,0,0,0,0,0,0,0,0,0,0,0,0,0,0,0,0,0,0,0,0,0,0,0,0,0,0,0,0,0,0,0,0,0,0,0,0,0,0,0,0,0,0,0,0],"id":14,"left_children":[1,3,5,7,9,11,13,15,17,19,21,23,25,27,29,31,33,35,37,39,41,43,45,47,49,51,53,55,57,59,61,-1,-1,-1,-1,-1,-1,-1,-1,-1,-1,-1,-1,-1,-1,-1,-1,-1,-1,-1,-1,-1,-1,-1,-1,-1,-1,-1,-1,-1,-1,-1,-1],"loss_changes":[1.5187325E3,1.6288708E3,4.075006E2,9.5578534E2,2.8932568E2,1.6385107E2,2.2528862E2,3.255083E2,1.9678265E2,1.9700037E2,2.4693188E2,1.941034E2,1.2039551E2,1.951115E2,2.0401868E2,1.8098059E2,2.289872E2,6.318273E1,1.2880908E2,1.6855688E2,3.516946E1,5.6996826E1,7.162235E1,4.976934E1,1.685708E2,1.06491455E2,1.2567228E2,5.0500412E1,2.2604346E2,1.560054E2,2.8319954E1,0E0,0E0,0E0,0E0,0E0,0E0,0E0,0E0,0E0,0E0,0E0,0E0,0E0,0E0,0E0,0E0,0E0,0E0,0E0,0E0,0E0,0E0,0E0,0E0,0E0,0E0,0E0,0E0,0E0,0E0,0E0,0E0],"parents":[2147483647,0,0,1,1,2,2,3,3,4,4,5,5,6,6,7,7,8,8,9,9,10,10,11,11,12,12,13,13,14,14,15,15,16,16,17,17,18,18,19,19,20,20,21,21,22,22,23,23,24,24,25,25,26,26,27,27,28,28,29,29,30,30],"right_children":[2,4,6,8,10,12,14,16,18,20,22,24,26,28,30,32,34,36,38,40,42,44,46,48,50,52,54,56,58,60,62,-1,-1,-1,-1,-1,-1,-1,-1,-1,-1,-1,-1,-1,-1,-1,-1,-1,-1,-1,-1,-1,-1,-1,-1,-1,-1,-1,-1,-1,-1,-1,-1],"split_conditions":[-5.428898E0,1.8E2,1.9412445E2,6.5308075E0,3.51E2,2.7987075E0,4.647099E0,3.6315322E-2,3.5720646E1,2.0046261E-1,-3.2041308E-1,-4.741012E0,3.47E2,2.44E2,2.9641473E2,1.96E2,2.6716251E1,8.4852814E2,9.976775E0,3.7296247E0,-7.385948E0,3.14808E2,4.5E2,2.54E2,3.762662E-1,7.167809E1,-3.904547E-1,1.54E2,3.27E2,-2.4603012E0,4.64E2,-1.6039712E-2,-4.483969E-3,-9.225631E-3,8.771184E-3,2.1144473E-3,-4.857067E-2,1.2686258E-2,2.6005356E-2,-1.0231704E-2,-2.0184083E-2,3.4175705E-2,7.303834E-3,-3.686184E-2,-2.2515206E-2,-1.8306883E-2,1.48425475E-2,-8.253401E-3,5.6081084E-3,1.0848963E-2,-2.0166148E-2,1.12254685E-2,2.0420535E-2,1.0403969E-2,-2.60795E-2,-3.4243092E-2,-7.04122E-5,1.4929303E-2,-4.6847914E-3,-1.9586008E-2,2.9546672E-3,7.5066993E-3,-4.404725E-2],"split_indices":[7,2,2,1,0,1,1,6,2,6,5,7,0,0,2,0,2,8,1,1,7,2,8,0,7,2,5,0,0,7,0,0,0,0,0,0,0,0,0,0,0,0,0,0,0,0,0,0,0,0,0,0,0,0,0,0,0,0,0,0,0,0,0],"split_type":[0,0,0,0,0,0,0,0,0,0,0,0,0,0,0,0,0,0,0,0,0,0,0,0,0,0,0,0,0,0,0,0,0,0,0,0,0,0,0,0,0,0,0,0,0,0,0,0,0,0,0,0,0,0,0,0,0,0,0,0,0,0,0],"sum_hessian":[3.1351988E4,1.6483475E4,1.4868516E4,1.0022755E4,6.4607188E3,8.1592144E3,6.709301E3,7.4312554E3,2.5914993E3,5.262636E3,1.1980829E3,4.25696E3,3.9022544E3,5.0798057E3,1.6294952E3,4.8344893E3,2.596766E3,5.0547906E2,2.0860203E3,5.1002886E3,1.6234744E2,1.0111499E3,1.8693307E2,9.015352E2,3.3554248E3,3.6050706E3,2.9718396E2,2.8324932E3,2.2473125E3,1.1171123E3,5.1238306E2,1.3321008E3,3.5023882E3,6.8213245E2,1.9146338E3,4.883132E2,1.7165874E1,1.1206946E3,9.6532574E2,3.1108813E3,1.9894073E3,4.9608536E1,1.1273891E2,7.3246106E2,2.786888E2,8.105432E1,1.05878746E2,6.4398157E2,2.5755365E2,3.2264978E3,1.28927E2,1.884993E3,1.7200775E3,1.9612515E2,1.0105883E2,3.0140362E1,2.8023528E3,1.6920186E3,5.55294E2,8.192842E2,2.9782806E2,5.0566156E2,6.7214866E0],"tree_param":{"num_deleted":"0","num_feature":"9","num_nodes":"63","size_leaf_vector":"1"}},{"base_weights":[6.561246E-3,1.8498604E-1,-2.1634473E-1,5.5698626E-2,3.4837914E-1,-2.788791E-1,4.9897698E-1,1.3678682E-2,4.7931662E-1,3.669047E-1,-7.849541E-2,-3.8207075E-1,4.972467E-2,7.5369036E-1,-4.3864283E-1,-1.8460006E-2,5.258031E-1,8.596346E-1,3.0660152E-1,5.6961334E-1,3.4046498E-1,-3.0592427E-1,7.9418445E-1,-4.3979663E-1,-1.4080472E-1,6.460338E-2,-5.3517535E-2,1.3114309E0,5.657132E-1,-1.212642E0,5.0293756E-1,-3.453173E-3,1.5862539E-3,1.8861499E-2,-9.627179E-3,-4.4549756E-2,2.4092514E-2,3.1405803E-2,3.7643916E-3,-4.963035E-4,1.8073795E-2,1.5772766E-2,8.442039E-3,-5.145698E-2,-3.3194872E-3,-4.667479E-2,2.8333014E-2,-1.2440558E-2,1.4916902E-3,1.8223045E-4,-2.4154082E-2,-2.5769068E-2,2.2456383E-3,3.5757728E-2,-3.295362E-2,1.743621E-2,-1.812521E-2,-1.1838041E-2,-4.5687445E-2,-1.2179114E-2,2.0953214E-2],"categories":[],"categories_nodes":[],"categories_segments":[],"categories_sizes":[],"default_left":[0,0,0,0,0,0,0,0,0,0,0,0,0,0,0,0,0,0,0,0,0,0,0,0,0,0,0,0,0,0,0,0,0,0,0,0,0,0,0,0,0,0,0,0,0,0,0,0,0,0,0,0,0,0,0,0,0,0,0,0,0],"id":15,"left_children":[1,3,5,7,9,11,13,15,17,19,21,23,25,27,29,31,33,35,37,39,41,43,45,47,49,51,-1,53,55,57,59,-1,-1,-1,-1,-1,-1,-1,-1,-1,-1,-1,-1,-1,-1,-1,-1,-1,-1,-1,-1,-1,-1,-1,-1,-1,-1,-1,-1,-1,-1],"loss_changes":[1.25243E3,3.6945575E2,6.2639246E2,1.7382076E2,6.112567E1,4.3660583E2,2.6921542E2,1.4625038E2,5.7620346E1,3.9491943E1,6.418414E1,1.3640271E2,9.424267E1,9.211929E1,1.7635353E2,7.226745E1,8.4439804E1,3.1485672E1,8.735961E1,5.4016937E1,3.9425232E1,7.523669E1,4.735742E1,1.0339282E2,2.136291E2,6.1629932E1,0E0,1.7791656E1,7.2924576E1,5.017993E1,3.000482E1,0E0,0E0,0E0,0E0,0E0,0E0,0E0,0E0,0E0,0E0,0E0,0E0,0E0,0E0,0E0,0E0,0E0,0E0,0E0,0E0,0E0,0E0,0E0,0E0,0E0,0E0,0E0,0E0,0E0,0E0],"parents":[2147483647,0,0,1,1,2,2,3,3,4,4,5,5,6,6,7,7,8,8,9,9,10,10,11,11,12,12,13,13,14,14,15,15,16,16,17,17,18,18,19,19,20,20,21,21,22,22,23,23,24,24,25,25,27,27,28,28,29,29,30,30],"right_children":[2,4,6,8,10,12,14,16,18,20,22,24,26,28,30,32,34,36,38,40,42,44,46,48,50,52,-1,54,56,58,60,-1,-1,-1,-1,-1,-1,-1,-1,-1,-1,-1,-1,-1,-1,-1,-1,-1,-1,-1,-1,-1,-1,-1,-1,-1,-1,-1,-1,-1,-1],"split_conditions":[3.440157E-1,-4.2840557E0,1.1212192E1,7.0678506E0,1.3254807E0,-5.4511156E0,-6.5140877E0,2.1232876E-1,-4.0592784E-1,1.100071E-1,7.4675384E0,6.5308075E0,8.3798885E-2,-1.0095259E1,-1.0458333E-1,-5.9154596E0,6.640783E2,-4.7801068E-1,-5.317324E-2,1.3158543E0,-4.4791466E-1,1.3157855E0,-3.807267E-1,2.5015254E-2,-3.846154E-1,3E1,-5.3517535E-2,7.6837494E2,6.640783E2,-4.5428672E-1,1.5E2,-3.453173E-3,1.5862539E-3,1.8861499E-2,-9.627179E-3,-4.4549756E-2,2.4092514E-2,3.1405803E-2,3.7643916E-3,-4.963035E-4,1.8073795E-2,1.5772766E-2,8.442039E-3,-5.145698E-2,-3.3194872E-3,-4.667479E-2,2.8333014E-2,-1.2440558E-2,1.4916902E-3,1.8223045E-4,-2.4154082E-2,-2.5769068E-2,2.2456383E-3,3.5757728E-2,-3.295362E-2,1.743621E-2,-1.812521E-2,-1.1838041E-2,-4.5687445E-2,-1.2179114E-2,2.0953214E-2],"split_indices":[4,7,1,1,7,7,7,6,5,4,3,1,6,7,6,7,8,5,6,1,5,1,5,6,5,8,0,8,8,5,8,0,0,0,0,0,0,0,0,0,0,0,0,0,0,0,0,0,0,0,0,0,0,0,0,0,0,0,0,0,0],"split_type":[0,0,0,0,0,0,0,0,0,0,0,0,0,0,0,0,0,0,0,0,0,0,0,0,0,0,0,0,0,0,0,0,0,0,0,0,0,0,0,0,0,0,0,0,0,0,0,0,0,0,0,0,0,0,0,0,0,0,0,0,0],"sum_hessian":[3.1488277E4,1.748922E4,1.3999055E4,9.764357E3,7.7248643E3,1.2874187E4,1.1248687E3,8.884145E3,8.8021277E2,7.4036978E3,3.2116632E2,9.7973545E3,3.0768318E3,8.847217E2,2.4014696E2,8.360443E3,5.237009E2,2.7365292E2,6.065598E2,8.518871E2,6.551811E3,2.5528581E2,6.588052E1,7.9051313E3,1.892223E3,3.055678E3,2.1153873E1,2.2151007E2,6.632116E2,1.316445E2,1.08502464E2,3.4486182E3,4.9118257E3,4.3508792E2,8.861299E1,3.9595277E0,2.696934E2,9.59665E1,5.1059332E2,1.3191277E2,7.199743E2,5.733447E2,5.978466E3,2.4723839E1,2.3056198E2,5.7431383E0,6.0137383E1,7.5058086E3,3.993227E2,1.5867197E3,3.0550333E2,5.5991066E1,2.999687E3,2.1952826E2,1.9818177E0,6.2002924E2,4.3182392E1,5.257043E1,7.9074066E1,2.45241E1,8.397836E1],"tree_param":{"num_deleted":"0","num_feature":"9","num_nodes":"61","size_leaf_vector":"1"}},{"base_weights":[3.6018812E-3,2.0133106E-1,-2.546375E-1,8.863263E-2,5.260327E-1,-5.591703E-1,6.373603E-2,-2.5573105E-1,2.858188E-1,8.327965E-2,6.2135273E-1,-2.7776965E-1,-7.1235377E-1,1.3247019E-1,-4.9057472E-1,1.01925224E-1,-3.8368818E-1,9.19604E-2,4.2280874E-1,-3.921417E-2,7.844104E-1,5.181098E-1,9.632032E-1,3.8639805E-1,-3.5831457E-1,-5.7527786E-1,-1.0408657E0,8.547026E-3,2.6220873E-1,-7.6999396E-1,2.0714004E-2,1.7516239E-2,-8.927856E-4,-3.2885703E-3,-1.2786657E-2,-1.6263579E-3,6.215151E-3,1.3054867E-2,2.1035844E-3,-1.2121073E-2,4.85288E-3,-4.5954935E-2,2.329819E-2,8.497952E-3,1.8627102E-2,2.7889876E-2,7.88151E-3,2.8896058E-2,-4.909503E-3,-1.520574E-2,-4.123662E-3,5.52431E-3,-1.6480802E-2,-3.5483226E-2,-2.1759463E-2,-2.7723827E-3,7.439426E-3,-3.4984034E-2,7.4009453E-3,-4.6488155E-2,-1.645499E-2,3.5107294E-3,-4.893582E-2],"categories":[],"categories_nodes":[],"categories_segments":[],"categories_sizes":[],"default_left":[0,0,0,0,0,0,0,0,0,0,0,0,0,0,0,0,0,0,0,0,0,0,0,0,0,0,0,0,0,0,0,0,0,0,0,0,0,0,0,0,0,0,0,0,0,0,0,0,0,0,0,0,0,0,0,0,0,0,0,0,0,0,0],"id":16,"left_children":[1,3,5,7,9,11,13,15,17,19,21,23,25,27,29,31,33,35,37,39,41,43,45,47,49,51,53,55,57,59,61,-1,-1,-1,-1,-1,-1,-1,-1,-1,-1,-1,-1,-1,-1,-1,-1,-1,-1,-1,-1,-1,-1,-1,-1,-1,-1,-1,-1,-1,-1,-1,-1],"loss_changes":[1.5979873E3,6.485426E2,1.3158274E3,8.935976E2,1.9267102E2,2.9880396E2,2.528854E2,2.1933414E2,2.2218433E2,6.960728E1,1.3211389E2,1.3102098E2,2.0162769E2,9.49269E1,1.0462952E2,9.4853836E1,8.768738E1,7.470504E1,1.1191583E2,6.343528E1,2.8275864E1,1.035108E2,4.729254E1,1.05495674E2,9.3972015E1,1.05031006E2,8.4927246E1,9.181141E1,6.8970535E1,6.952762E1,5.3629444E1,0E0,0E0,0E0,0E0,0E0,0E0,0E0,0E0,0E0,0E0,0E0,0E0,0E0,0E0,0E0,0E0,0E0,0E0,0E0,0E0,0E0,0E0,0E0,0E0,0E0,0E0,0E0,0E0,0E0,0E0,0E0,0E0],"parents":[2147483647,0,0,1,1,2,2,3,3,4,4,5,5,6,6,7,7,8,8,9,9,10,10,11,11,12,12,13,13,14,14,15,15,16,16,17,17,18,18,19,19,20,20,21,21,22,22,23,23,24,24,25,25,26,26,27,27,28,28,29,29,30,30],"right_children":[2,4,6,8,10,12,14,16,18,20,22,24,26,28,30,32,34,36,38,40,42,44,46,48,50,52,54,56,58,60,62,-1,-1,-1,-1,-1,-1,-1,-1,-1,-1,-1,-1,-1,-1,-1,-1,-1,-1,-1,-1,-1,-1,-1,-1,-1,-1,-1,-1,-1,-1,-1,-1],"split_conditions":[1.8E2,5.4018316E0,-5.216663E0,-6.1975555E0,2.672005E1,3.4682247E-1,5.9422107E0,2.937762E-1,-4.662298E0,1.5484327E-1,1.1212192E1,1.1851332E-1,5.0102997E0,-3.572487E0,1.11846775E-1,-8.38652E0,2.1E2,2.6301937E0,5.9013796E0,2.3553667E0,1.8729122E0,-6.6722155E0,1.1640965E2,2.0757558E0,2.839481E2,-2.5515592E-1,7.225638E0,3.148088E2,2.3553667E0,-4.928864E0,7.5E2,1.7516239E-2,-8.927856E-4,-3.2885703E-3,-1.2786657E-2,-1.6263579E-3,6.215151E-3,1.3054867E-2,2.1035844E-3,-1.2121073E-2,4.85288E-3,-4.5954935E-2,2.329819E-2,8.497952E-3,1.8627102E-2,2.7889876E-2,7.88151E-3,2.8896058E-2,-4.909503E-3,-1.520574E-2,-4.123662E-3,5.52431E-3,-1.6480802E-2,-3.5483226E-2,-2.1759463E-2,-2.7723827E-3,7.439426E-3,-3.4984034E-2,7.4009453E-3,-4.6488155E-2,-1.645499E-2,3.5107294E-3,-4.893582E-2],"split_indices":[2,1,7,7,2,4,1,4,7,6,1,4,1,7,6,7,8,1,3,3,3,7,2,1,2,6,1,2,3,7,8,0,0,0,0,0,0,0,0,0,0,0,0,0,0,0,0,0,0,0,0,0,0,0,0,0,0,0,0,0,0,0,0],"split_type":[0,0,0,0,0,0,0,0,0,0,0,0,0,0,0,0,0,0,0,0,0,0,0,0,0,0,0,0,0,0,0,0,0,0,0,0,0,0,0,0,0,0,0,0,0,0,0,0,0,0,0,0,0,0,0,0,0,0,0,0,0,0,0],"sum_hessian":[3.1293365E4,1.772323E4,1.3570135E4,1.3157692E4,4.565539E3,6.9354424E3,6.6346924E3,4.7907983E3,8.366894E3,8.0912036E2,3.7564185E3,2.4456167E3,4.4898257E3,5.9034316E3,7.312605E2,1.2624093E3,3.5283892E3,3.46506E3,4.9018335E3,6.8958734E2,1.19533005E2,2.8870195E3,8.693992E2,2.6409665E2,2.18152E3,3.1698962E3,1.3199294E3,3.0199312E3,2.8835005E3,4.7252155E2,2.5873898E2,2.469962E2,1.015413E3,9.4690405E2,2.581485E3,1.6622266E3,1.8028335E3,4.1085337E3,7.9329987E2,2.3930261E2,4.5028473E2,3.4525254E0,1.16080475E2,1.3695586E3,1.5174608E3,7.739429E2,9.545626E1,1.1850657E2,1.4559007E2,1.0697013E3,1.1118187E3,1.6237614E2,3.00752E3,5.766265E2,7.43303E2,2.1330378E3,8.868933E2,2.6633652E1,2.856867E3,6.299335E1,4.095282E2,2.4502296E2,1.3716006E1],"tree_param":{"num_deleted":"0","num_feature":"9","num_nodes":"63","size_leaf_vector":"1"}},{"base_weights":[-5.2939737E-3,1.9590506E-1,-2.7152792E-1,9.257903E-2,6.023087E-1,-5.716753E-1,3.352981E-2,-1.0472457E-1,3.6647376E-1,1.6591752E-1,7.250276E-1,-3.5806873E-1,-8.0071E-1,1.1345629E-1,-4.300018E-1,-3.581904E-1,3.1402584E-2,-7.943567E-1,3.7809446E-1,3.0423543E-1,-6.476254E-1,5.178984E-1,9.907749E-1,3.6316484E-2,-4.3353757E-1,-6.667637E-1,-1.1541872E0,-6.414393E-2,2.900825E-1,-6.789064E-1,3.2975024E-1,-1.0642853E-2,1.25191165E-2,6.5046283E-3,-4.0824795E-3,-5.3109363E-2,1.4569748E-3,1.1639395E-2,3.6946E-3,4.1886214E-3,2.4196606E-2,2.226232E-2,-2.2708533E-2,6.441515E-3,2.0273509E-2,2.8124798E-2,8.1266E-3,1.9431477E-2,-4.653793E-3,-1.4811977E-2,-5.0191157E-3,-2.3582285E-2,-9.852937E-3,-3.7625812E-2,-8.914228E-3,-5.9691447E-5,-1.4233704E-2,1.178943E-2,-5.4290085E-3,-4.0438857E-2,-1.2231357E-2,1.1035132E-2,-4.5652565E-2],"categories":[],"categories_nodes":[],"categories_segments":[],"categories_sizes":[],"default_left":[0,0,0,0,0,0,0,0,0,0,0,0,0,0,0,0,0,0,0,0,0,0,0,0,0,0,0,0,0,0,0,0,0,0,0,0,0,0,0,0,0,0,0,0,0,0,0,0,0,0,0,0,0,0,0,0,0,0,0,0,0,0,0],"id":17,"left_children":[1,3,5,7,9,11,13,15,17,19,21,23,25,27,29,31,33,35,37,39,41,43,45,47,49,51,53,55,57,59,61,-1,-1,-1,-1,-1,-1,-1,-1,-1,-1,-1,-1,-1,-1,-1,-1,-1,-1,-1,-1,-1,-1,-1,-1,-1,-1,-1,-1,-1,-1,-1,-1],"loss_changes":[1.6616096E3,7.4185474E2,1.2225577E3,7.613403E2,1.9166687E2,3.2897778E2,2.4541222E2,2.8257962E2,7.987732E1,8.879442E1,1.5332874E2,1.037189E2,1.5296606E2,1.7723859E2,1.8445474E2,9.6347046E1,2.086729E2,5.978994E1,8.121161E1,5.9626945E1,3.5274704E1,1.0497235E2,5.2657715E1,8.183939E1,8.7116455E1,1.5180676E2,1.8638733E2,8.18515E1,2.1215369E2,1.3474808E2,4.1908806E1,0E0,0E0,0E0,0E0,0E0,0E0,0E0,0E0,0E0,0E0,0E0,0E0,0E0,0E0,0E0,0E0,0E0,0E0,0E0,0E0,0E0,0E0,0E0,0E0,0E0,0E0,0E0,0E0,0E0,0E0,0E0,0E0],"parents":[2147483647,0,0,1,1,2,2,3,3,4,4,5,5,6,6,7,7,8,8,9,9,10,10,11,11,12,12,13,13,14,14,15,15,16,16,17,17,18,18,19,19,20,20,21,21,22,22,23,23,24,24,25,25,26,26,27,27,28,28,29,29,30,30],"right_children":[2,4,6,8,10,12,14,16,18,20,22,24,26,28,30,32,34,36,38,40,42,44,46,48,50,52,54,56,58,60,62,-1,-1,-1,-1,-1,-1,-1,-1,-1,-1,-1,-1,-1,-1,-1,-1,-1,-1,-1,-1,-1,-1,-1,-1,-1,-1,-1,-1,-1,-1,-1,-1],"split_conditions":[1.8E2,6.2295218E0,-5.268049E0,-5.0259748E0,3.7054455E1,4.626813E-1,5.5845027E0,2.084036E0,1.57E2,5.824946E2,9.791936E0,1.5879962E-1,3.42E2,2.34E2,3.035155E2,1.1356495E3,3.7104148E-1,5.4E2,2.8E2,4.5E2,6.5069695E0,-6.632824E0,5.3075415E2,-7.9820147E0,3.1480722E2,2.32E2,3.2613132E2,3.8289964E-1,3.25E2,-4.662298E0,9.791936E0,-1.0642853E-2,1.25191165E-2,6.5046283E-3,-4.0824795E-3,-5.3109363E-2,1.4569748E-3,1.1639395E-2,3.6946E-3,4.1886214E-3,2.4196606E-2,2.226232E-2,-2.2708533E-2,6.441515E-3,2.0273509E-2,2.8124798E-2,8.1266E-3,1.9431477E-2,-4.653793E-3,-1.4811977E-2,-5.0191157E-3,-2.3582285E-2,-9.852937E-3,-3.7625812E-2,-8.914228E-3,-5.9691447E-5,-1.4233704E-2,1.178943E-2,-5.4290085E-3,-4.0438857E-2,-1.2231357E-2,1.1035132E-2,-4.5652565E-2],"split_indices":[2,1,7,7,2,4,1,1,0,8,1,4,0,0,2,8,4,8,0,8,1,7,8,7,2,0,2,4,0,7,1,0,0,0,0,0,0,0,0,0,0,0,0,0,0,0,0,0,0,0,0,0,0,0,0,0,0,0,0,0,0,0,0],"split_type":[0,0,0,0,0,0,0,0,0,0,0,0,0,0,0,0,0,0,0,0,0,0,0,0,0,0,0,0,0,0,0,0,0,0,0,0,0,0,0,0,0,0,0,0,0,0,0,0,0,0,0,0,0,0,0,0,0,0,0,0,0,0,0],"sum_hessian":[3.1017855E4,1.7666867E4,1.3350988E4,1.408664E4,3.5802278E3,6.7292153E3,6.6217725E3,8.188538E3,5.8981016E3,7.8633954E2,2.7938882E3,3.4832068E3,3.2460088E3,5.648552E3,9.732211E2,2.8605762E3,5.327962E3,5.7791176E1,5.84031E3,6.7260913E2,1.13730415E2,1.5717672E3,1.2221211E3,5.595624E2,2.9236445E3,2.3560833E3,8.899256E2,2.8168276E3,2.8317239E3,7.33141E2,2.400801E2,2.7271965E3,1.3337958E2,2.476096E3,2.851866E3,2.3436491E1,3.4354687E1,4.7007153E3,1.1395951E3,5.41494E2,1.3111514E2,1.3346867E1,1.00383545E2,7.34154E2,8.3761316E2,1.1186956E3,1.0342554E2,1.3006233E2,4.2950003E2,1.9548079E3,9.6883655E2,1.3615626E3,9.945206E2,6.778505E2,2.1207507E2,2.4893918E3,3.2743573E2,2.1660564E3,6.6566736E2,1.5176718E2,5.8137384E2,2.3137955E2,8.700547E0],"tree_param":{"num_deleted":"0","num_feature":"9","num_nodes":"63","size_leaf_vector":"1"}},{"base_weights":[3.972264E-3,-1.623237E-1,2.276137E-1,-9.869368E-2,-5.8451396E-1,2.6573133E-1,-1.1428354E-1,-2.3933479E-1,1.17111176E-1,-2.5304782E-1,-7.553671E-1,1.1416562E-1,3.2297865E-1,-9.746555E-1,1.983193E-2,4.6765694E-1,-2.8672007E-1,3.2165295E-1,4.2940286E-4,7.251222E-1,-4.1214785E-1,-5.6850183E-1,-9.442171E-1,1.4508013E-1,-5.761192E-1,3.7034887E-1,1.7094312E-2,-1.3239026E0,-5.867984E-2,-5.7789403E-1,1.23272404E-1,2.35707E-2,-1.6649622E-3,-1.1349244E-2,-2.2995092E-3,1.337365E-2,-3.3889841E-3,-3.908418E-3,7.847242E-3,3.946128E-2,-3.3706482E-3,-1.5750185E-2,1.4910344E-2,-3.5686623E-2,-1.2952678E-2,-1.9197026E-2,-3.4158282E-2,6.67767E-4,8.45959E-3,-2.3658551E-2,2.0223048E-2,-1.1909843E-2,1.01456335E-2,2.142076E-3,-2.9131066E-2,-1.2824127E-2,-4.4461362E-2,1.18550565E-2,-4.7549494E-2,1.17350845E-2,-2.8752897E-2,2.103636E-2,1.1600043E-3],"categories":[],"categories_nodes":[],"categories_segments":[],"categories_sizes":[],"default_left":[0,0,0,0,0,0,0,0,0,0,0,0,0,0,0,0,0,0,0,0,0,0,0,0,0,0,0,0,0,0,0,0,0,0,0,0,0,0,0,0,0,0,0,0,0,0,0,0,0,0,0,0,0,0,0,0,0,0,0,0,0,0,0],"id":18,"left_children":[1,3,5,7,9,11,13,15,17,19,21,23,25,27,29,31,33,35,37,39,41,43,45,47,49,51,53,55,57,59,61,-1,-1,-1,-1,-1,-1,-1,-1,-1,-1,-1,-1,-1,-1,-1,-1,-1,-1,-1,-1,-1,-1,-1,-1,-1,-1,-1,-1,-1,-1,-1,-1],"loss_changes":[1.1639205E3,4.8213144E2,1.7396967E2,4.7349164E2,1.3293335E2,1.04155945E2,1.5457794E2,3.1654645E2,1.4691415E2,1.2496249E2,5.4184937E1,7.0370384E1,1.2628125E2,5.771492E1,7.178042E1,1.3082306E2,2.4595166E2,1.8011795E2,1.6913889E2,7.231996E1,1.1953407E2,4.9326782E1,5.719403E1,6.507631E1,5.9215218E1,6.0740234E1,8.201923E1,3.6926178E1,4.491208E1,8.754065E1,5.24799E1,0E0,0E0,0E0,0E0,0E0,0E0,0E0,0E0,0E0,0E0,0E0,0E0,0E0,0E0,0E0,0E0,0E0,0E0,0E0,0E0,0E0,0E0,0E0,0E0,0E0,0E0,0E0,0E0,0E0,0E0,0E0,0E0],"parents":[2147483647,0,0,1,1,2,2,3,3,4,4,5,5,6,6,7,7,8,8,9,9,10,10,11,11,12,12,13,13,14,14,15,15,16,16,17,17,18,18,19,19,20,20,21,21,22,22,23,23,24,24,25,25,26,26,27,27,28,28,29,29,30,30],"right_children":[2,4,6,8,10,12,14,16,18,20,22,24,26,28,30,32,34,36,38,40,42,44,46,48,50,52,54,56,58,60,62,-1,-1,-1,-1,-1,-1,-1,-1,-1,-1,-1,-1,-1,-1,-1,-1,-1,-1,-1,-1,-1,-1,-1,-1,-1,-1,-1,-1,-1,-1,-1,-1],"split_conditions":[-5.1467986E0,3.66E2,4.2822483E-1,2.4E2,2.67496E0,1.99E2,1.89E2,-9.335148E0,-4.2236024E-1,2.6577082E-1,5.391272E-1,9.337267E0,3.24E2,-3.6807936E-1,-1.6338582E-1,-1.0458333E-1,2.5015254E-2,3.27E2,4.3343652E-2,-4.453003E-3,7.3648864E-1,-8.903793E0,-4.4316474E-1,1.3378303E-1,1.2921527E-2,3E1,8.4852814E2,1.66E2,-1.0835469E-1,-4.4967806E-1,-5.050087E0,2.35707E-2,-1.6649622E-3,-1.1349244E-2,-2.2995092E-3,1.337365E-2,-3.3889841E-3,-3.908418E-3,7.847242E-3,3.946128E-2,-3.3706482E-3,-1.5750185E-2,1.4910344E-2,-3.5686623E-2,-1.2952678E-2,-1.9197026E-2,-3.4158282E-2,6.67767E-4,8.45959E-3,-2.3658551E-2,2.0223048E-2,-1.1909843E-2,1.01456335E-2,2.142076E-3,-2.9131066E-2,-1.2824127E-2,-4.4461362E-2,1.18550565E-2,-4.7549494E-2,1.17350845E-2,-2.8752897E-2,2.103636E-2,1.1600043E-3],"split_indices":[7,0,4,0,3,0,0,7,5,4,4,3,0,5,6,6,6,0,6,6,4,7,5,6,7,8,8,0,6,5,7,0,0,0,0,0,0,0,0,0,0,0,0,0,0,0,0,0,0,0,0,0,0,0,0,0,0,0,0,0,0,0,0],"split_type":[0,0,0,0,0,0,0,0,0,0,0,0,0,0,0,0,0,0,0,0,0,0,0,0,0,0,0,0,0,0,0,0,0,0,0,0,0,0,0,0,0,0,0,0,0,0,0,0,0,0,0,0,0,0,0,0,0,0,0,0,0,0,0],"sum_hessian":[3.1294043E4,1.7948281E4,1.3345762E4,1.5598588E4,2.3496934E3,1.2007307E4,1.3384547E3,9.443864E3,6.1547236E3,8.0004175E2,1.5496516E3,3.2926936E3,8.714613E3,1.7965732E2,1.1587974E3,5.9264777E2,8.851217E3,2.235014E3,3.9197097E3,1.11425285E2,6.8861646E2,7.809345E2,7.6871704E2,3.152307E3,1.4038669E2,7.5458306E3,1.1687827E3,1.2974301E2,4.991431E1,1.702764E2,9.88521E2,3.318185E2,2.6082925E2,5.234009E3,3.6172078E3,1.5962882E3,6.387256E2,2.6130325E3,1.3066772E3,5.8718636E1,5.2706654E1,5.822353E2,1.0638117E2,7.474271E1,7.0619183E2,4.6226843E2,3.064486E2,1.8567806E3,1.2955262E3,1.1415684E2,2.6229855E1,8.920527E1,7.4566255E3,1.106653E3,6.212966E1,3.8139393E1,9.1603615E1,3.9211887E1,1.0702422E1,5.6103752E1,1.14172646E2,1.0496713E2,8.835539E2],"tree_param":{"num_deleted":"0","num_feature":"9","num_nodes":"63","size_leaf_vector":"1"}},{"base_weights":[3.5899917E-3,1.7027138E-1,-2.671877E-1,7.786052E-2,5.947474E-1,-5.4709535E-2,-6.122404E-1,-2.1933536E-1,2.2622539E-1,-7.802776E-2,6.388129E-1,2.4899118E-1,-1.1130578E-1,-4.4403E-1,-9.4215775E-1,2.4633732E-2,-3.2851514E-1,1.10100925E-1,3.0410227E-1,-5.1468696E-2,3.6455996E-2,6.905293E-1,1.0114014E-1,4.437545E-1,-1.438065E-1,2.88115E-1,-1.443169E-1,-5.090136E-1,4.9236447E-2,-4.4489942E-2,-8.729766E-1,-5.640662E-3,6.8004862E-3,-1.2471074E-2,-2.0279998E-3,3.4168398E-3,-2.8126653E-2,1.01623675E-2,1.2018228E-3,6.143536E-3,-2.9822975E-2,1.2992462E-2,2.1540584E-2,-6.135608E-3,1.6802242E-2,1.2800566E-2,-4.9983148E-2,-5.266477E-2,-8.361441E-4,1.9326616E-2,-2.4948895E-3,-2.6240138E-2,-2.7921072E-3,-3.9580658E-2,-1.2726144E-2,4.8559597E-3,-4.6630427E-2,-4.6978306E-2,-2.2015644E-2],"categories":[],"categories_nodes":[],"categories_segments":[],"categories_sizes":[],"default_left":[0,0,0,0,0,0,0,0,0,0,0,0,0,0,0,0,0,0,0,0,0,0,0,0,0,0,0,0,0,0,0,0,0,0,0,0,0,0,0,0,0,0,0,0,0,0,0,0,0,0,0,0,0,0,0,0,0,0,0],"id":19,"left_children":[1,3,5,7,9,11,13,15,17,19,21,23,25,27,29,31,33,35,37,-1,39,41,43,45,47,49,51,53,55,-1,57,-1,-1,-1,-1,-1,-1,-1,-1,-1,-1,-1,-1,-1,-1,-1,-1,-1,-1,-1,-1,-1,-1,-1,-1,-1,-1,-1,-1],"loss_changes":[1.4050254E3,7.558036E2,8.6959485E2,6.97836E2,1.0217578E2,1.262247E2,2.5043982E2,1.403837E2,9.542987E1,4.5123516E1,8.983362E1,8.831795E1,8.165093E1,9.6052185E1,7.505762E1,8.861715E1,1.2757626E2,8.863481E1,1.2552899E2,0E0,4.5253204E1,6.9672485E1,4.9983475E1,6.5075195E1,7.8786316E1,7.875203E1,1.9028693E2,8.2171936E1,8.3689545E1,0E0,5.796582E1,0E0,0E0,0E0,0E0,0E0,0E0,0E0,0E0,0E0,0E0,0E0,0E0,0E0,0E0,0E0,0E0,0E0,0E0,0E0,0E0,0E0,0E0,0E0,0E0,0E0,0E0,0E0,0E0],"parents":[2147483647,0,0,1,1,2,2,3,3,4,4,5,5,6,6,7,7,8,8,9,9,10,10,11,11,12,12,13,13,14,14,15,15,16,16,17,17,18,18,20,20,21,21,22,22,23,23,24,24,25,25,26,26,27,27,28,28,30,30],"right_children":[2,4,6,8,10,12,14,16,18,20,22,24,26,28,30,32,34,36,38,-1,40,42,44,46,48,50,52,54,56,-1,58,-1,-1,-1,-1,-1,-1,-1,-1,-1,-1,-1,-1,-1,-1,-1,-1,-1,-1,-1,-1,-1,-1,-1,-1,-1,-1,-1,-1],"split_conditions":[2.0671907E2,6.5517735E0,3.9173853E-1,-2.1718146E-2,1.502827E1,1.3180245E-1,4.748623E0,3.0804784E0,4.518869E1,2.0649062E-1,1.348121E2,3.347218E0,-3.4868922E-2,-3.4035087E-1,4.2426407E1,5.4E2,-3.724015E-1,4.3135694E-1,2.8872132E-1,-5.1468696E-2,5.824946E2,8.249254E0,1.8004E-2,1.0606602E3,3.3558397E0,3.1182796E-1,-8.3058365E-3,2.2518716E2,3.3328152E2,-4.4489942E-2,4.1883615E-1,-5.640662E-3,6.8004862E-3,-1.2471074E-2,-2.0279998E-3,3.4168398E-3,-2.8126653E-2,1.01623675E-2,1.2018228E-3,6.143536E-3,-2.9822975E-2,1.2992462E-2,2.1540584E-2,-6.135608E-3,1.6802242E-2,1.2800566E-2,-4.9983148E-2,-5.266477E-2,-8.361441E-4,1.9326616E-2,-2.4948895E-3,-2.6240138E-2,-2.7921072E-3,-3.9580658E-2,-1.2726144E-2,4.8559597E-3,-4.6630427E-2,-4.6978306E-2,-2.2015644E-2],"split_indices":[2,1,4,6,2,4,1,3,2,4,2,1,6,5,8,8,5,4,4,0,8,1,6,8,1,4,6,2,2,0,4,0,0,0,0,0,0,0,0,0,0,0,0,0,0,0,0,0,0,0,0,0,0,0,0,0,0,0,0],"split_type":[0,0,0,0,0,0,0,0,0,0,0,0,0,0,0,0,0,0,0,0,0,0,0,0,0,0,0,0,0,0,0,0,0,0,0,0,0,0,0,0,0,0,0,0,0,0,0,0,0,0,0,0,0,0,0,0,0,0,0],"sum_hessian":[3.1128355E4,1.9268008E4,1.1860349E4,1.5824178E4,3.4438303E3,7.341019E3,4.519329E3,5.2690483E3,1.0555129E4,2.116512E2,3.2321792E3,1.1526097E3,6.1884097E3,2.994772E3,1.524557E3,1.6292227E3,3.6398257E3,4.238055E3,6.317074E3,1.1407352E1,2.0024385E2,2.9483098E3,2.8386935E2,7.704586E2,3.8215106E2,4.7182266E2,5.716587E3,2.6461345E3,3.4863736E2,1.3079732E2,1.3937596E3,8.0450555E2,8.2471704E2,2.3482441E3,1.2915815E3,4.1746265E3,6.3428898E1,4.873665E3,1.4434088E3,1.7214165E2,2.8102205E1,1.0754767E3,1.8728331E3,1.7488217E2,1.0898719E2,7.5948004E2,1.0978605E1,2.1173386E1,3.6097766E2,2.197721E2,2.5205057E2,2.5716223E2,5.459425E3,8.307246E1,2.563062E3,3.2548975E2,2.314762E1,6.97002E1,1.3240594E3],"tree_param":{"num_deleted":"0","num_feature":"9","num_nodes":"59","size_leaf_vector":"1"}},{"base_weights":[-1.1483555E-2,1.3682179E-1,-2.4841951E-1,1.5930131E-1,-2.6055762E-1,-3.2997516E-1,2.99053E-1,2.5345623E-2,2.3899047E-1,-2.1595289E-1,-5.014746E-2,-6.017959E-1,-2.1213503E-1,5.24698E-1,-2.0040476E-1,-3.7675335E-3,6.850284E-1,3.057927E-1,-1.2604686E-2,7.5194605E-2,-4.755127E-1,-4.4172287E-2,-6.4954877E-1,-8.919738E-2,-6.4523405E-1,7.8149337E-1,-4.111271E-2,2.2835398E-1,-6.428734E-1,-1.4756516E-3,8.175504E-3,-2.570055E-2,2.5322543E-2,7.3120766E-3,1.5124324E-2,-1.67145E-2,5.2588E-3,2.4661936E-2,-2.4250154E-3,-3.3282181E-3,-2.2936467E-2,-2.2660425E-2,6.313313E-3,-1.1811821E-3,-1.8560937E-2,-9.441051E-3,8.935004E-4,-6.3307034E-3,-2.2010248E-2,-5.0794877E-2,2.1845287E-2,6.228117E-3,-2.4416335E-2,-7.7702957E-3,1.472805E-2,-3.8834322E-2,-9.2509305E-3],"categories":[],"categories_nodes":[],"categories_segments":[],"categories_sizes":[],"default_left":[0,0,0,0,0,0,0,0,0,0,0,0,0,0,0,0,0,0,0,0,0,0,0,0,0,0,0,0,0,0,0,0,0,0,0,0,0,0,0,0,0,0,0,0,0,0,0,0,0,0,0,0,0,0,0,0,0],"id":20,"left_children":[1,3,5,7,9,11,13,15,17,19,-1,21,23,25,27,29,31,33,35,37,39,41,43,45,47,49,51,53,55,-1,-1,-1,-1,-1,-1,-1,-1,-1,-1,-1,-1,-1,-1,-1,-1,-1,-1,-1,-1,-1,-1,-1,-1,-1,-1,-1,-1],"loss_changes":[1.0862511E3,1.6987912E2,5.3145044E2,1.9209021E2,7.311302E1,3.3165503E2,1.7405412E2,1.2893504E2,1.896377E2,7.501237E1,0E0,8.3368164E1,3.8474554E2,1.5454614E2,9.140519E1,1.0277667E2,1.2430736E2,7.381586E1,3.0485077E2,6.6129906E1,7.0561325E1,5.627342E1,8.0232056E1,1.8276357E2,1.1684082E2,7.440845E1,8.006743E1,4.134804E1,5.6523514E1,0E0,0E0,0E0,0E0,0E0,0E0,0E0,0E0,0E0,0E0,0E0,0E0,0E0,0E0,0E0,0E0,0E0,0E0,0E0,0E0,0E0,0E0,0E0,0E0,0E0,0E0,0E0,0E0],"parents":[2147483647,0,0,1,1,2,2,3,3,4,4,5,5,6,6,7,7,8,8,9,9,11,11,12,12,13,13,14,14,15,15,16,16,17,17,18,18,19,19,20,20,21,21,22,22,23,23,24,24,25,25,26,26,27,27,28,28],"right_children":[2,4,6,8,10,12,14,16,18,20,-1,22,24,26,28,30,32,34,36,38,40,42,44,46,48,50,52,54,56,-1,-1,-1,-1,-1,-1,-1,-1,-1,-1,-1,-1,-1,-1,-1,-1,-1,-1,-1,-1,-1,-1,-1,-1,-1,-1,-1,-1],"split_conditions":[3.8895497E-1,3.76E2,9.508496E0,2.04E2,1.9820033E-1,2.03E2,3.53E2,1.1002273E3,6.9065186E2,3.0804245E0,-5.014746E-2,-2.3732345E-1,3.66E2,-4.1744286E-1,-4.6624023E-1,1.7841163E-1,6.036217E-2,7.3788605E0,2.22E2,-4.0391944E-2,-3.7871382E-1,2.630137E0,2.3553667E0,2.41E2,5.060046E-1,4.5628834E-1,8.276518E0,2.324976E0,1.6155495E2,-1.4756516E-3,8.175504E-3,-2.570055E-2,2.5322543E-2,7.3120766E-3,1.5124324E-2,-1.67145E-2,5.2588E-3,2.4661936E-2,-2.4250154E-3,-3.3282181E-3,-2.2936467E-2,-2.2660425E-2,6.313313E-3,-1.1811821E-3,-1.8560937E-2,-9.441051E-3,8.935004E-4,-6.3307034E-3,-2.2010248E-2,-5.0794877E-2,2.1845287E-2,6.228117E-3,-2.4416335E-2,-7.7702957E-3,1.472805E-2,-3.8834322E-2,-9.2509305E-3],"split_indices":[4,0,1,0,6,0,0,8,8,3,0,6,0,5,5,6,6,1,0,6,5,1,3,0,4,4,3,3,8,0,0,0,0,0,0,0,0,0,0,0,0,0,0,0,0,0,0,0,0,0,0,0,0,0,0,0,0],"split_type":[0,0,0,0,0,0,0,0,0,0,0,0,0,0,0,0,0,0,0,0,0,0,0,0,0,0,0,0,0,0,0,0,0,0,0,0,0,0,0,0,0,0,0,0,0,0,0,0,0,0,0,0,0,0,0,0,0],"sum_hessian":[3.0911121E4,1.9011605E4,1.1899515E4,1.799428E4,1.0173262E3,1.0357047E4,1.542467E3,6.7123276E3,1.1281952E4,9.9114545E2,2.618073E1,3.1309072E3,7.22614E3,1.0624313E3,4.8003574E2,6.429572E3,2.8275595E2,8.914742E3,2.3672102E3,4.6748227E2,5.236632E2,2.4712196E2,2.8837852E3,5.6294067E3,1.5967335E3,7.305068E2,3.3192447E2,2.4404062E2,2.359951E2,5.514183E3,9.153889E2,3.8656136E1,2.4409981E2,7.9483345E3,9.6640753E2,6.022691E2,1.7649412E3,7.573805E1,3.917442E2,2.74342E2,2.4932117E2,6.3378063E1,1.837439E2,2.0367944E2,2.6801057E3,1.7827394E3,3.8466672E3,4.8861734E2,1.1081161E3,9.269098E0,7.2123773E2,2.531387E2,7.878579E1,9.369242E1,1.503482E2,6.2016365E1,1.7397873E2],"tree_param":{"num_deleted":"0","num_feature":"9","num_nodes":"57","size_leaf_vector":"1"}},{"base_weights":[2.2878014E-2,1.8755189E-1,-1.880621E-1,1.1750093E-1,7.005521E-1,-4.652339E-1,9.1712445E-2,-1.2385859E-1,2.7658853E-1,8.530903E-1,3.0334654E-1,-3.761211E-1,-9.752964E-1,1.2448371E-1,-9.2404497E-1,-1.5226921E-1,8.205359E-1,1.4415032E-1,3.786111E-1,4.7141898E-1,9.582256E-1,-8.761436E-1,4.3269888E-1,-5.706724E-1,-1.7076916E-1,-1.1077846E0,-1.7221059E-1,-3.0713394E-2,3.083E-1,-1.3054007E0,-1.5469804E-1,-6.054758E-3,3.260202E-3,-2.2827383E-2,2.6598414E-2,-3.8613852E-3,7.1374676E-3,1.0808937E-2,-8.7226005E-3,-4.119507E-3,1.9105548E-2,-4.9223803E-2,2.5986968E-2,-3.0131284E-2,4.4604044E-2,1.3568785E-2,-3.4915287E-2,-1.855192E-2,6.814244E-3,1.4001483E-3,-1.3057229E-2,-3.434618E-2,-1.3448372E-2,3.2749653E-2,-1.2252718E-2,-3.969198E-3,5.5507184E-3,1.3201609E-2,2.0063878E-3,-2.5042484E-2,-4.6006255E-2,2.207763E-2,-2.6613029E-2],"categories":[],"categories_nodes":[],"categories_segments":[],"categories_sizes":[],"default_left":[0,0,0,0,0,0,0,0,0,0,0,0,0,0,0,0,0,0,0,0,0,0,0,0,0,0,0,0,0,0,0,0,0,0,0,0,0,0,0,0,0,0,0,0,0,0,0,0,0,0,0,0,0,0,0,0,0,0,0,0,0,0,0],"id":21,"left_children":[1,3,5,7,9,11,13,15,17,19,21,23,25,27,29,31,33,35,37,39,41,43,45,47,49,51,53,55,57,59,61,-1,-1,-1,-1,-1,-1,-1,-1,-1,-1,-1,-1,-1,-1,-1,-1,-1,-1,-1,-1,-1,-1,-1,-1,-1,-1,-1,-1,-1,-1,-1,-1],"loss_changes":[1.0905787E3,6.335256E2,1.0674127E3,5.957432E2,1.2807727E2,3.139203E2,2.2816484E2,1.6551425E2,1.2629578E2,6.09375E1,9.028477E1,2.351286E2,1.0916034E2,1.8936649E2,6.2654892E1,1.2258125E2,5.4046875E1,1.4501889E2,9.857593E1,5.0965775E1,5.405493E1,3.9626568E1,7.078928E1,3.1106946E2,2.0379358E2,9.481262E1,5.9476444E1,1.0144955E2,1.3199829E2,2.0364456E1,6.0508167E1,0E0,0E0,0E0,0E0,0E0,0E0,0E0,0E0,0E0,0E0,0E0,0E0,0E0,0E0,0E0,0E0,0E0,0E0,0E0,0E0,0E0,0E0,0E0,0E0,0E0,0E0,0E0,0E0,0E0,0E0,0E0,0E0],"parents":[2147483647,0,0,1,1,2,2,3,3,4,4,5,5,6,6,7,7,8,8,9,9,10,10,11,11,12,12,13,13,14,14,15,15,16,16,17,17,18,18,19,19,20,20,21,21,22,22,23,23,24,24,25,25,26,26,27,27,28,28,29,29,30,30],"right_children":[2,4,6,8,10,12,14,16,18,20,22,24,26,28,30,32,34,36,38,40,42,44,46,48,50,52,54,56,58,60,62,-1,-1,-1,-1,-1,-1,-1,-1,-1,-1,-1,-1,-1,-1,-1,-1,-1,-1,-1,-1,-1,-1,-1,-1,-1,-1,-1,-1,-1,-1,-1,-1],"split_conditions":[1.8E2,8.249254E0,-5.268049E0,-6.1975555E0,3.29E2,3.66E2,9.256426E0,1.9582665E-1,-4.662298E0,4.5187588E1,1.412511E1,2.24E2,-3.2041308E-1,2.44E2,-3.0686176E0,5.4016185E0,1.315883E0,2.0757797E0,8.1240547E-1,2.17E2,1.53E2,-2.091768E-1,8.157414E0,-2.8576577E-1,3.7296247E0,3.261338E2,-3.1480876E-1,-2.8874564E0,3.347218E0,-3.9675257E-1,-3.97984E-1,-6.054758E-3,3.260202E-3,-2.2827383E-2,2.6598414E-2,-3.8613852E-3,7.1374676E-3,1.0808937E-2,-8.7226005E-3,-4.119507E-3,1.9105548E-2,-4.9223803E-2,2.5986968E-2,-3.0131284E-2,4.4604044E-2,1.3568785E-2,-3.4915287E-2,-1.855192E-2,6.814244E-3,1.4001483E-3,-1.3057229E-2,-3.434618E-2,-1.3448372E-2,3.2749653E-2,-1.2252718E-2,-3.969198E-3,5.5507184E-3,1.3201609E-2,2.0063878E-3,-2.5042484E-2,-4.6006255E-2,2.207763E-2,-2.6613029E-2],"split_indices":[2,1,7,7,0,0,1,6,7,2,2,0,5,0,7,1,1,1,7,0,0,5,3,5,1,2,5,7,1,5,5,0,0,0,0,0,0,0,0,0,0,0,0,0,0,0,0,0,0,0,0,0,0,0,0,0,0,0,0,0,0,0,0],"split_type":[0,0,0,0,0,0,0,0,0,0,0,0,0,0,0,0,0,0,0,0,0,0,0,0,0,0,0,0,0,0,0,0,0,0,0,0,0,0,0,0,0,0,0,0,0,0,0,0,0,0,0,0,0,0,0,0,0,0,0,0,0,0,0],"sum_hessian":[3.1393902E4,1.7630486E4,1.3763418E4,1.5513344E4,2.1171416E3,6.913536E3,6.849882E3,6.1631504E3,9.350193E3,1.528866E3,5.8827563E2,5.886794E3,1.026742E3,6.636642E3,2.1323978E2,5.9839707E3,1.7917958E2,4.0696655E3,5.2805283E3,3.313725E2,1.1974934E3,5.7568455E1,5.307072E2,3.0219792E3,2.8648147E3,8.810175E2,1.457244E2,3.5989019E3,3.03774E3,1.4210388E2,7.1135895E1,4.7049453E3,1.2790254E3,1.667578E1,1.625038E2,1.2174913E3,2.852174E3,5.0903105E3,1.9021764E2,9.320119E1,2.3817131E2,5.9614387E0,1.191532E3,5.287546E1,4.6929913E0,5.0925806E2,2.144914E1,2.6262803E3,3.9569897E2,1.6848123E3,1.1800024E3,6.784947E2,2.0252281E2,2.4236929E1,1.21487465E2,2.408496E3,1.1904056E3,1.6874236E3,1.3503164E3,7.74406E1,6.4663284E1,3.2857918E1,3.8277977E1],"tree_param":{"num_deleted":"0","num_feature":"9","num_nodes":"63","size_leaf_vector":"1"}},{"base_weights":[1.2955606E-2,1.8416685E-1,-2.4313058E-1,1.1334365E-1,5.8440185E-1,-5.118619E-1,3.600943E-2,-1.2099728E-1,3.2758704E-1,-1.4498174E-1,6.7220414E-1,-6.0736E-1,4.82699E-2,-1.806227E-1,1.8751878E-1,-3.2719567E-1,9.359839E-3,2.1384645E-1,4.5107165E-1,4.3039292E-1,-6.759418E-1,6.9880897E-1,-1.2141721E0,-5.236003E-1,-1.04544E0,5.7489544E-1,-1.5288693E-1,-2.609514E-1,4.4174662E-1,2.3413032E-1,-5.131057E-1,-6.121122E-3,-2.2952422E-2,-8.636858E-3,2.8573906E-3,-4.9890254E-2,5.915238E-3,1.2252005E-2,-4.951173E-2,2.1989277E-2,-7.3671574E-3,-2.3590839E-2,1.8722055E-2,2.1270946E-2,9.332613E-3,-4.4243567E-2,6.230977E-3,-1.9367939E-2,-8.491753E-3,-3.2882936E-2,-1.1996921E-2,4.7787614E-2,1.153802E-2,-2.765549E-4,-2.4540564E-2,-3.4755364E-3,-2.2254733E-2,1.4684744E-2,-5.079148E-2,8.997463E-3,-3.8973262E-4,-3.0596232E-2,9.213317E-3],"categories":[],"categories_nodes":[],"categories_segments":[],"categories_sizes":[],"default_left":[0,0,0,0,0,0,0,0,0,0,0,0,0,0,0,0,0,0,0,0,0,0,0,0,0,0,0,0,0,0,0,0,0,0,0,0,0,0,0,0,0,0,0,0,0,0,0,0,0,0,0,0,0,0,0,0,0,0,0,0,0,0,0],"id":22,"left_children":[1,3,5,7,9,11,13,15,17,19,21,23,25,27,29,31,33,35,37,39,41,43,45,47,49,51,53,55,57,59,61,-1,-1,-1,-1,-1,-1,-1,-1,-1,-1,-1,-1,-1,-1,-1,-1,-1,-1,-1,-1,-1,-1,-1,-1,-1,-1,-1,-1,-1,-1,-1,-1],"loss_changes":[1.3654481E3,5.289904E2,9.360701E2,7.962754E2,1.7979303E2,3.4011816E2,2.0095601E2,2.036188E2,1.1627118E2,9.2645035E1,1.26547E2,1.9876453E2,9.828854E1,1.260939E2,1.1777549E2,1.527532E2,1.5107886E2,7.061087E1,7.445331E1,4.0738316E1,4.5789757E1,8.4458374E1,2.2997047E1,1.8919128E2,9.635608E1,4.366588E1,7.337428E1,1.6709541E2,7.444664E1,8.6584656E1,1.22747986E2,0E0,0E0,0E0,0E0,0E0,0E0,0E0,0E0,0E0,0E0,0E0,0E0,0E0,0E0,0E0,0E0,0E0,0E0,0E0,0E0,0E0,0E0,0E0,0E0,0E0,0E0,0E0,0E0,0E0,0E0,0E0,0E0],"parents":[2147483647,0,0,1,1,2,2,3,3,4,4,5,5,6,6,7,7,8,8,9,9,10,10,11,11,12,12,13,13,14,14,15,15,16,16,17,17,18,18,19,19,20,20,21,21,22,22,23,23,24,24,25,25,26,26,27,27,28,28,29,29,30,30],"right_children":[2,4,6,8,10,12,14,16,18,20,22,24,26,28,30,32,34,36,38,40,42,44,46,48,50,52,54,56,58,60,62,-1,-1,-1,-1,-1,-1,-1,-1,-1,-1,-1,-1,-1,-1,-1,-1,-1,-1,-1,-1,-1,-1,-1,-1,-1,-1,-1,-1,-1,-1,-1,-1],"split_conditions":[1.9412445E2,7.0678506E0,-5.216663E0,-5.6203465E0,2.3338358E1,-3.0165893E-1,2.24E2,2.6302483E0,1.18322514E-1,2.71E2,1.8E2,3.66E2,1.84E2,-2.6017183E-1,8.2891E0,6.046353E-1,2.6716251E1,1.51E2,3.590914E0,-4.130891E-1,7.433445E-1,3.39E2,-4.5163617E0,2.24E2,3.2613132E2,2.0193608E2,5.4187646E0,4.6468773E0,1.04369484E-1,3.13E2,-3.0686176E0,-6.121122E-3,-2.2952422E-2,-8.636858E-3,2.8573906E-3,-4.9890254E-2,5.915238E-3,1.2252005E-2,-4.951173E-2,2.1989277E-2,-7.3671574E-3,-2.3590839E-2,1.8722055E-2,2.1270946E-2,9.332613E-3,-4.4243567E-2,6.230977E-3,-1.9367939E-2,-8.491753E-3,-3.2882936E-2,-1.1996921E-2,4.7787614E-2,1.153802E-2,-2.765549E-4,-2.4540564E-2,-3.4755364E-3,-2.2254733E-2,1.4684744E-2,-5.079148E-2,8.997463E-3,-3.8973262E-4,-3.0596232E-2,9.213317E-3],"split_indices":[2,1,7,7,2,5,0,1,6,0,2,0,0,5,1,4,2,0,7,5,4,0,7,0,2,2,1,1,6,0,7,0,0,0,0,0,0,0,0,0,0,0,0,0,0,0,0,0,0,0,0,0,0,0,0,0,0,0,0,0,0,0,0],"split_type":[0,0,0,0,0,0,0,0,0,0,0,0,0,0,0,0,0,0,0,0,0,0,0,0,0,0,0,0,0,0,0,0,0,0,0,0,0,0,0,0,0,0,0,0,0,0,0,0,0,0,0,0,0,0,0,0,0,0,0,0,0,0,0],"sum_hessian":[3.1140713E4,1.8663295E4,1.2477417E4,1.5858375E4,2.8049207E3,6.3568096E3,6.120608E3,7.574151E3,8.284224E3,3.0130386E2,2.5036167E3,5.430814E3,9.259955E2,2.518869E3,3.601739E3,2.93309E3,4.641061E3,4.313671E3,3.9705532E3,1.446948E2,1.5660905E2,2.4694185E3,3.4198357E1,4.560965E3,8.698489E2,2.5542882E2,6.7056665E2,2.2314397E3,2.8742938E2,3.3776917E3,2.2404724E2,2.4793616E3,4.5372864E2,1.0523557E3,3.588705E3,1.5218875E1,4.2984517E3,3.9575664E3,1.2986863E1,9.2817055E1,5.1877743E1,1.3637027E2,2.0238794E1,1.9260404E3,5.4337805E2,2.6064198E1,8.134159E0,2.2973508E3,2.2636143E3,6.6147784E2,2.08371E2,2.5591026E1,2.2983778E2,5.663074E2,1.04259315E2,1.817933E3,4.1350665E2,2.754478E2,1.1981563E1,2.3881829E3,9.895087E2,1.2872334E2,9.532389E1],"tree_param":{"num_deleted":"0","num_feature":"9","num_nodes":"63","size_leaf_vector":"1"}},{"base_weights":[1.5835894E-2,1.627409E-1,-1.7143895E-1,9.611224E-2,6.451681E-1,-2.06048E-2,-5.376707E-1,2.1703744E-1,-1.6322842E-1,-5.8320925E-2,7.456399E-1,1.5653038E-2,-5.1487386E-1,-4.13755E-1,-8.941498E-1,5.174091E-2,3.3597955E-1,-3.1013796E-1,4.3098822E-2,-3.8048193E-1,4.899139E-1,-1.1962165E0,7.8380895E-1,-1.1969382E-1,1.3615453E-1,-4.0387005E-1,-4.436533E-2,-6.249528E-1,-5.123248E-2,-1.1054453E0,-2.4660094E-1,-3.329684E-2,1.8225786E-3,3.2903277E-3,1.2259191E-2,-1.0344663E-2,1.1376074E-3,-8.472989E-3,4.3738545E-3,-5.1041763E-2,-4.6594036E-3,-5.1441323E-2,2.097803E-2,1.9072612E-3,-5.6785874E-2,2.297975E-2,4.300123E-3,-9.940217E-4,-9.409532E-3,6.0324147E-3,-4.352049E-3,1.08243795E-2,-1.3244095E-2,3.4507026E-3,-1.8098826E-2,1.0475882E-3,-2.5341213E-2,-1.2533799E-2,-3.2201454E-2,-4.4011835E-2,-2.2477482E-3],"categories":[],"categories_nodes":[],"categories_segments":[],"categories_sizes":[],"default_left":[0,0,0,0,0,0,0,0,0,0,0,0,0,0,0,0,0,0,0,0,0,0,0,0,0,0,0,0,0,0,0,0,0,0,0,0,0,0,0,0,0,0,0,0,0,0,0,0,0,0,0,0,0,0,0,0,0,0,0,0,0],"id":23,"left_children":[1,3,5,7,9,11,13,15,17,19,21,23,25,27,29,31,33,35,37,39,41,43,45,47,49,51,-1,53,55,57,59,-1,-1,-1,-1,-1,-1,-1,-1,-1,-1,-1,-1,-1,-1,-1,-1,-1,-1,-1,-1,-1,-1,-1,-1,-1,-1,-1,-1,-1,-1],"loss_changes":[8.6084796E2,5.6357715E2,7.598315E2,4.8325446E2,1.5043341E2,1.7462642E2,1.7687671E2,2.0659534E2,1.4855333E2,4.7314323E1,1.3893933E2,1.4808647E2,8.4160706E1,2.280805E2,1.4122424E2,9.4709946E1,1.6032855E2,7.827261E1,8.886822E1,5.2860634E1,7.254348E1,4.300991E1,8.776721E1,8.210312E1,1.2923834E2,4.5723167E1,0E0,7.569177E1,8.92818E1,4.9586426E1,5.8098583E1,0E0,0E0,0E0,0E0,0E0,0E0,0E0,0E0,0E0,0E0,0E0,0E0,0E0,0E0,0E0,0E0,0E0,0E0,0E0,0E0,0E0,0E0,0E0,0E0,0E0,0E0,0E0,0E0,0E0,0E0],"parents":[2147483647,0,0,1,1,2,2,3,3,4,4,5,5,6,6,7,7,8,8,9,9,10,10,11,11,12,12,13,13,14,14,15,15,16,16,17,17,18,18,19,19,20,20,21,21,22,22,23,23,24,24,25,25,27,27,28,28,29,29,30,30],"right_children":[2,4,6,8,10,12,14,16,18,20,22,24,26,28,30,32,34,36,38,40,42,44,46,48,50,52,-1,54,56,58,60,-1,-1,-1,-1,-1,-1,-1,-1,-1,-1,-1,-1,-1,-1,-1,-1,-1,-1,-1,-1,-1,-1,-1,-1,-1,-1,-1,-1,-1,-1],"split_conditions":[1.8E2,8.249254E0,4.626813E-1,4.124294E-1,2.67175E1,6.724601E0,3.42E2,4.518837E1,3.8422596E0,-1.0214007E-2,1.65E2,2.24E2,4.1883615E-1,2.48E2,3.2294836E2,1.58E2,2.630173E0,6.896088E0,2.02E2,1.5E2,1.8729122E0,1.9196393E0,5.3075415E2,6.441273E2,3.29E2,1.1851332E-1,-4.436533E-2,-2.5515592E-1,8.2891E0,5.032202E-1,2.0296714E0,-3.329684E-2,1.8225786E-3,3.2903277E-3,1.2259191E-2,-1.0344663E-2,1.1376074E-3,-8.472989E-3,4.3738545E-3,-5.1041763E-2,-4.6594036E-3,-5.1441323E-2,2.097803E-2,1.9072612E-3,-5.6785874E-2,2.297975E-2,4.300123E-3,-9.940217E-4,-9.409532E-3,6.0324147E-3,-4.352049E-3,1.08243795E-2,-1.3244095E-2,3.4507026E-3,-1.8098826E-2,1.0475882E-3,-2.5341213E-2,-1.2533799E-2,-3.2201454E-2,-4.4011835E-2,-2.2477482E-3],"split_indices":[2,1,4,4,2,1,0,2,1,6,0,0,4,0,2,0,1,3,0,8,3,3,8,8,0,4,0,6,1,4,3,0,0,0,0,0,0,0,0,0,0,0,0,0,0,0,0,0,0,0,0,0,0,0,0,0,0,0,0,0,0],"split_type":[0,0,0,0,0,0,0,0,0,0,0,0,0,0,0,0,0,0,0,0,0,0,0,0,0,0,0,0,0,0,0,0,0,0,0,0,0,0,0,0,0,0,0,0,0,0,0,0,0,0,0,0,0,0,0,0,0,0,0,0,0],"sum_hessian":[3.1288336E4,1.75341E4,1.3754236E4,1.5407367E4,2.126733E3,9.742714E3,4.0115234E3,1.0507908E4,4.8994585E3,2.6583246E2,1.8609004E3,9.077769E3,6.649448E2,2.9783723E3,1.033151E3,4.3977256E3,6.110183E3,2.8615024E3,2.0379557E3,1.676322E2,9.8200264E1,3.5287746E1,1.8256127E3,4.275523E3,4.8022456E3,6.0753125E2,5.7413574E1,1.8815171E3,1.0968553E3,7.7843896E2,2.54712E2,5.438624E1,4.3433394E3,2.2441685E3,3.8660144E3,2.346021E3,5.1548157E2,5.1098114E2,1.5269746E3,1.88754E1,1.487568E2,1.011645E1,8.808382E1,1.5339306E1,1.994844E1,1.6236934E3,2.0191933E2,3.1585618E3,1.116961E3,3.693068E3,1.1091776E3,6.1903378E1,5.4562787E2,1.2397116E2,1.7575459E3,9.973522E2,9.950319E1,1.0767426E2,6.707647E2,2.5477343E1,2.2923466E2],"tree_param":{"num_deleted":"0","num_feature":"9","num_nodes":"61","size_leaf_vector":"1"}},{"base_weights":[-4.779253E-3,1.5122202E-1,-2.0595287E-1,5.502145E-2,5.5373216E-1,-1.693127E-2,-5.157052E-1,1.8203086E-1,-2.2568582E-1,1.1115024E-1,6.70056E-1,9.511847E-2,-1.9814777E-1,-4.121841E-1,-8.2478386E-1,7.9227574E-2,3.1091276E-1,-4.3134522E-1,-1.16385065E-1,3.5331216E-1,-3.5018575E-1,4.7597063E-1,8.9706045E-1,-4.3222167E-2,3.1344163E-1,-1.5736103E-1,-7.352096E-1,-6.3698995E-1,-3.2444235E-2,-9.433872E-1,-3.6300936E-1,1.6087806E-3,2.8139405E-2,-3.378523E-5,1.0089722E-2,-1.9388702E-2,-4.7455416E-3,-7.057792E-3,4.1795345E-3,1.1733867E-2,-5.2945305E-2,2.123658E-2,-1.5393385E-2,-5.0657783E-2,1.3324497E-2,-5.4802306E-2,2.450471E-2,1.2731161E-3,-1.2891932E-2,1.2662272E-2,-8.780336E-4,-6.4690695E-3,1.9161066E-3,-4.7553513E-2,-1.0752147E-2,-1.23085845E-2,-2.428348E-2,6.4256955E-3,-9.4224205E-3,-2.1462677E-2,-3.732642E-2,-1.654871E-2,1.5400289E-2],"categories":[],"categories_nodes":[],"categories_segments":[],"categories_sizes":[],"default_left":[0,0,0,0,0,0,0,0,0,0,0,0,0,0,0,0,0,0,0,0,0,0,0,0,0,0,0,0,0,0,0,0,0,0,0,0,0,0,0,0,0,0,0,0,0,0,0,0,0,0,0,0,0,0,0,0,0,0,0,0,0,0,0],"id":24,"left_children":[1,3,5,7,9,11,13,15,17,19,21,23,25,27,29,31,33,35,37,39,41,43,45,47,49,51,53,55,57,59,61,-1,-1,-1,-1,-1,-1,-1,-1,-1,-1,-1,-1,-1,-1,-1,-1,-1,-1,-1,-1,-1,-1,-1,-1,-1,-1,-1,-1,-1,-1,-1,-1],"loss_changes":[9.733222E2,6.7636774E2,7.930958E2,5.0273062E2,1.7339587E2,1.7085397E2,1.6391077E2,1.2860147E2,9.86922E1,7.8603516E1,1.1712024E2,1.5705356E2,7.030568E1,3.2842883E2,7.014288E1,9.9726685E1,9.0319214E1,1.1392349E2,1.16053925E2,9.397819E1,6.3391647E1,8.0714966E1,7.8663025E1,