{"learner":{"attributes":{"scikit_learn":"{\"_estimator_type\": \"classifier\"}"},"feature_names":[],"feature_types":[],"gradient_booster":{"model":{"cats":{"enc":[],"feature_segments":[],"sorted_idx":[]},"gbtree_model_param":{"num_parallel_tree":"1","num_trees":"125"},"iteration_indptr":[0,1,2,3,4,5,6,7,8,9,10,11,12,13,14,15,16,17,18,19,20,21,22,23,24,25,26,27,28,29,30,31,32,33,34,35,36,37,38,39,40,41,42,43,44,45,46,47,48,49,50,51,52,53,54,55,56,57,58,59,60,61,62,63,64,65,66,67,68,69,70,71,72,73,74,75,76,77,78,79,80,81,82,83,84,85,86,87,88,89,90,91,92,93,94,95,96,97,98,99,100,101,102,103,104,105,106,107,108,109,110,111,112,113,114,115,116,117,118,119,120,121,122,123,124,125],"tree_info":[0,0,0,0,0,0,0,0,0,0,0,0,0,0,0,0,0,0,0,0,0,0,0,0,0,0,0,0,0,0,0,0,0,0,0,0,0,0,0,0,0,0,0,0,0,0,0,0,0,0,0,0,0,0,0,0,0,0,0,0,0,0,0,0,0,0,0,0,0,0,0,0,0,0,0,0,0,0,0,0,0,0,0,0,0,0,0,0,0,0,0,0,0,0,0,0,0,0,0,0,0,0,0,0,0,0,0,0,0,0,0,0,0,0,0,0,0,0,0,0,0,0,0,0,0],"trees":[{"base_weights":[-4.25895E-3,1.5145542E-1,-1.5153162E-1],"categories":[],"categories_nodes":[],"categories_segments":[],"categories_sizes":[],"default_left":[0,0,0],"id":0,"left_children":[1,-1,-1],"loss_changes":[1.19522805E5,0E0,0E0],"parents":[2147483647,0,0],"right_children":[2,-1,-1],"split_conditions":[-1.9974375E0,1.5145542E-1,-1.5153162E-1],"split_indices":[8,0,0],"split_type":[0,0,0],"sum_hessian":[2.9897832E4,1.4920831E4,1.4977E4],"tree_param":{"num_deleted":"0","num_feature":"13","num_nodes":"3","size_leaf_vector":"1"}},{"base_weights":[1.4450779E-3,-2.3583116E-1,3.206404E-1,4.548265E-2,-6.4366E-1,5.053303E-1,9.262747E-2,-1.857603E-1,7.165151E-1,-1.9557145E-1,-7.985907E-1,3.568614E-1,6.4376277E-1,1.7994739E-1,-3.72435E-1,6.585247E-2,-3.484686E-1,4.4993612E-1,1.0744303E0,5.4430676E-1,-3.376517E-1,-9.0821445E-1,-3.7259346E-1,3.8954216E-1,-4.8313543E-1,4.5150888E-1,8.235417E-1,8.892782E-2,3.4000936E-1,-7.511774E-1,2.6699492E-1,-1.4508294E-2,2.5592955E-2,-3.4264766E-2,9.442204E-3,-3.9303326E-3,4.51817E-2,2.0405564E-2,9.191926E-2,1.2719765E-2,8.234588E-2,-1.8589452E-2,-6.9793515E-2,-5.4088533E-2,-8.582187E-2,-3.391999E-2,4.2429812E-2,1.1981499E-2,4.0468633E-2,-8.10485E-2,6.936119E-2,1.2666087E-2,4.881793E-2,6.522922E-2,2.1346092E-2,-1.7917667E-2,1.4297181E-2,2.2018367E-2,8.2946554E-2,-1.9839546E-2,-8.861296E-2,-1.2364964E-2,5.5438664E-2],"categories":[],"categories_nodes":[],"categories_segments":[],"categories_sizes":[],"default_left":[0,0,0,0,0,0,0,0,0,0,0,0,0,0,0,0,0,0,0,0,0,0,0,0,0,0,0,0,0,0,0,0,0,0,0,0,0,0,0,0,0,0,0,0,0,0,0,0,0,0,0,0,0,0,0,0,0,0,0,0,0,0,0],"id":1,"left_children":[1,3,5,7,9,11,13,15,17,19,21,23,25,27,29,31,33,35,37,39,41,43,45,47,49,51,53,55,57,59,61,-1,-1,-1,-1,-1,-1,-1,-1,-1,-1,-1,-1,-1,-1,-1,-1,-1,-1,-1,-1,-1,-1,-1,-1,-1,-1,-1,-1,-1,-1,-1,-1],"loss_changes":[2.25848E3,1.9624321E3,5.354037E2,1.5710026E3,4.8458105E2,1.4414758E2,2.3118863E2,3.082854E2,2.4708643E2,1.8890717E2,2.4194385E2,9.32962E1,1.25229004E2,6.978841E1,2.1816393E2,2.0702904E2,2.2449744E2,1.09375824E2,1.2327295E2,5.895417E1,8.092641E1,1.7916553E2,7.4708206E1,1.0914081E2,1.0553189E2,9.6270874E1,3.7718872E1,9.926383E1,6.446097E1,1.1544574E2,6.718831E1,0E0,0E0,0E0,0E0,0E0,0E0,0E0,0E0,0E0,0E0,0E0,0E0,0E0,0E0,0E0,0E0,0E0,0E0,0E0,0E0,0E0,0E0,0E0,0E0,0E0,0E0,0E0,0E0,0E0,0E0,0E0,0E0],"parents":[2147483647,0,0,1,1,2,2,3,3,4,4,5,5,6,6,7,7,8,8,9,9,10,10,11,11,12,12,13,13,14,14,15,15,16,16,17,17,18,18,19,19,20,20,21,21,22,22,23,23,24,24,25,25,26,26,27,27,28,28,29,29,30,30],"right_children":[2,4,6,8,10,12,14,16,18,20,22,24,26,28,30,32,34,36,38,40,42,44,46,48,50,52,54,56,58,60,62,-1,-1,-1,-1,-1,-1,-1,-1,-1,-1,-1,-1,-1,-1,-1,-1,-1,-1,-1,-1,-1,-1,-1,-1,-1,-1,-1,-1,-1,-1,-1,-1],"split_conditions":[-5.1467986E0,1.6587605E2,1.9412445E2,6.5308075E0,2.7498123E-1,5.6483284E1,5.547545E0,3.1970114E-1,1.0272339E1,1.1851332E-1,3.2613132E2,3.762662E-1,2.932389E0,3.035155E2,-2.8225496E0,2.932389E0,-6.0134153E0,3.8847816E1,3.3865517E1,2.0562162E-1,7.925907E2,3.7296247E0,-5.4511156E0,-4.081087E0,7.6009026E0,1.04369484E-1,4.626813E-1,-4.430575E0,9.839303E0,2.6355296E-1,4.699681E0,-1.4508294E-2,2.5592955E-2,-3.4264766E-2,9.442204E-3,-3.9303326E-3,4.51817E-2,2.0405564E-2,9.191926E-2,1.2719765E-2,8.234588E-2,-1.8589452E-2,-6.9793515E-2,-5.4088533E-2,-8.582187E-2,-3.391999E-2,4.2429812E-2,1.1981499E-2,4.0468633E-2,-8.10485E-2,6.936119E-2,1.2666087E-2,4.881793E-2,6.522922E-2,2.1346092E-2,-1.7917667E-2,1.4297181E-2,2.2018367E-2,8.2946554E-2,-1.9839546E-2,-8.861296E-2,-1.2364964E-2,5.5438664E-2],"split_indices":[7,2,2,1,4,2,1,4,1,4,2,7,1,2,7,1,7,2,2,6,9,1,7,7,3,6,4,7,3,4,3,0,0,0,0,0,0,0,0,0,0,0,0,0,0,0,0,0,0,0,0,0,0,0,0,0,0,0,0,0,0,0,0],"split_type":[0,0,0,0,0,0,0,0,0,0,0,0,0,0,0,0,0,0,0,0,0,0,0,0,0,0,0,0,0,0,0,0,0,0,0,0,0,0,0,0,0,0,0,0,0,0,0,0,0,0,0,0,0,0,0,0,0,0,0,0,0,0,0],"sum_hessian":[2.9817854E4,1.7103844E4,1.271401E4,1.01224375E4,6.9814062E3,7.023652E3,5.6903584E3,7.5287095E3,2.593728E3,1.7942784E3,5.187128E3,3.3907007E3,3.632951E3,4.79135E3,8.9900854E2,2.9568381E3,4.571871E3,1.487832E3,1.105896E3,2.8859555E2,1.505683E3,4.1245957E3,1.0625325E3,3.2642393E3,1.2646151E2,1.7572622E3,1.8756887E3,3.0554294E3,1.7359207E3,5.644833E2,3.3452527E2,1.5193188E3,1.4375193E3,3.7496252E3,8.222461E2,3.361029E2,1.1517291E3,1.6294055E2,9.4295544E2,1.7114337E2,1.1745218E2,1.3012261E3,2.044568E2,2.2125815E3,1.9120139E3,9.8385223E2,7.868021E1,1.2558344E3,2.0084049E3,8.926215E1,3.719936E1,7.107546E2,1.0465077E3,1.754229E3,1.214597E2,7.166187E2,2.3388108E3,1.6305367E3,1.0538382E2,2.6090268E2,3.035806E2,1.7404503E2,1.6048024E2],"tree_param":{"num_deleted":"0","num_feature":"13","num_nodes":"63","size_leaf_vector":"1"}},{"base_weights":[-1.9721028E-3,1.4004992E-1,-1.8480266E0,-1.8337923E0,-1.4198323E-1,-1.4037065E-1,-1.3741842E-1],"categories":[],"categories_nodes":[],"categories_segments":[],"categories_sizes":[],"default_left":[0,0,0,0,0,0,0],"id":2,"left_children":[1,-1,3,5,-1,-1,-1],"loss_changes":[1.0176566E5,0E0,2.0507812E0,3.0078125E-1,0E0,0E0,0E0],"parents":[2147483647,0,0,2,2,3,3],"right_children":[2,-1,4,6,-1,-1,-1],"split_conditions":[-1.9974375E0,1.4004992E-1,-5.1467986E0,1.6587605E2,-1.4198323E-1,-1.4037065E-1,-1.3741842E-1],"split_indices":[8,0,7,2,0,0,0],"split_type":[0,0,0,0,0,0,0],"sum_hessian":[2.9790916E4,1.4878322E4,1.4912595E4,9.659895E3,5.2526997E3,4.9580254E3,4.7018696E3],"tree_param":{"num_deleted":"0","num_feature":"13","num_nodes":"7","size_leaf_vector":"1"}},{"base_weights":[6.9030765E-3,1.3165735E-1,-1.3164417E-1],"categories":[],"categories_nodes":[],"categories_segments":[],"categories_sizes":[],"default_left":[0,0,0],"id":3,"left_children":[1,-1,-1],"loss_changes":[8.865763E4,0E0,0E0],"parents":[2147483647,0,0],"right_children":[2,-1,-1],"split_conditions":[-1.9974375E0,1.3165735E-1,-1.3164417E-1],"split_indices":[8,0,0],"split_type":[0,0,0],"sum_hessian":[2.936642E4,1.4740813E4,1.4625605E4],"tree_param":{"num_deleted":"0","num_feature":"13","num_nodes":"3","size_leaf_vector":"1"}},{"base_weights":[-2.4549747E-3,1.8459405E-1,-2.4371132E-1,1.1722749E-1,7.747597E-1,-5.600499E-1,-2.9093329E-2,-1.5958983E-1,2.9032773E-1,-6.4042425E-3,8.9143616E-1,-6.439723E-1,1.0469977E-1,-1.7742102E-1,1.0006542E-1,8.474566E-2,-2.6558483E-1,1.4662555E-1,3.9683715E-1,5.9472275E-1,-1.7179248E-1,9.7942746E-1,4.7977865E-1,-9.6835357E-1,-5.2590895E-1,2.9043788E-1,-4.131939E-1,1.8189661E-2,-2.8669825E-1,1.901353E-1,-5.4529285E-1,-1.120126E-2,1.3992514E-2,-2.4616303E-2,3.0324792E-2,-1.9769846E-2,1.4989694E-2,1.6777849E-2,3.7582494E-2,7.137683E-2,-1.0856258E-1,-5.3263165E-2,1.0898987E-2,-1.8201092E-2,7.667306E-2,4.4178084E-2,-1.1785984E-1,-5.4950584E-2,-9.016024E-2,-2.2387516E-2,-6.375255E-2,2.4665663E-2,-1.10432036E-1,3.327282E-2,-6.5056264E-2,1.4847355E-2,-1.339678E-2,-3.47108E-2,-1.0905315E-2,2.0229803E-2,-2.3198564E-2,-8.445545E-2,-3.1827975E-2],"categories":[],"categories_nodes":[],"categories_segments":[],"categories_sizes":[],"default_left":[0,0,0,0,0,0,0,0,0,0,0,0,0,0,0,0,0,0,0,0,0,0,0,0,0,0,0,0,0,0,0,0,0,0,0,0,0,0,0,0,0,0,0,0,0,0,0,0,0,0,0,0,0,0,0,0,0,0,0,0,0,0,0],"id":4,"left_children":[1,3,5,7,9,11,13,15,17,19,21,23,25,27,29,31,33,35,37,39,41,43,45,47,49,51,53,55,57,59,61,-1,-1,-1,-1,-1,-1,-1,-1,-1,-1,-1,-1,-1,-1,-1,-1,-1,-1,-1,-1,-1,-1,-1,-1,-1,-1,-1,-1,-1,-1,-1,-1],"loss_changes":[1.2914393E3,6.407992E2,8.4849945E2,6.933899E2,1.5051764E2,2.8189282E2,1.4269095E2,1.442156E2,1.3620752E2,2.1536272E1,5.157373E1,1.7127966E2,5.467458E1,7.410993E1,2.3153763E2,3.9193092E1,1.5343622E2,7.9168785E1,8.882031E1,3.4261627E1,2.8576893E1,4.709729E1,5.450009E1,6.354956E1,2.3899823E2,2.6114159E1,5.7365997E1,4.313731E1,5.4366196E1,1.333715E2,3.431816E1,0E0,0E0,0E0,0E0,0E0,0E0,0E0,0E0,0E0,0E0,0E0,0E0,0E0,0E0,0E0,0E0,0E0,0E0,0E0,0E0,0E0,0E0,0E0,0E0,0E0,0E0,0E0,0E0,0E0,0E0,0E0,0E0],"parents":[2147483647,0,0,1,1,2,2,3,3,4,4,5,5,6,6,7,7,8,8,9,9,10,10,11,11,12,12,13,13,14,14,15,15,16,16,17,17,18,18,19,19,20,20,21,21,22,22,23,23,24,24,25,25,26,26,27,27,28,28,29,29,30,30],"right_children":[2,4,6,8,10,12,14,16,18,20,22,24,26,28,30,32,34,36,38,40,42,44,46,48,50,52,54,56,58,60,62,-1,-1,-1,-1,-1,-1,-1,-1,-1,-1,-1,-1,-1,-1,-1,-1,-1,-1,-1,-1,-1,-1,-1,-1,-1,-1,-1,-1,-1,-1,-1,-1],"split_conditions":[1.8E2,8.723436E0,-1.9664666E-2,-2.6592377E-3,2.672005E1,-2.8783384E-1,2.23E2,3.0182931E0,4.518869E1,-2.1798545E-1,3.53E2,2E2,4.6468773E0,2.0757704E0,3.73E2,3.5720646E1,-2.4890982E-1,1.8E2,2.630173E0,2.9079905E0,-8.799083E-2,1.65E2,5.003089E0,1.75E2,3.25E2,-2.3587005E-2,1.87E2,4.116946E0,2.839481E2,5.547545E0,2.0842454E0,-1.120126E-2,1.3992514E-2,-2.4616303E-2,3.0324792E-2,-1.9769846E-2,1.4989694E-2,1.6777849E-2,3.7582494E-2,7.137683E-2,-1.0856258E-1,-5.3263165E-2,1.0898987E-2,-1.8201092E-2,7.667306E-2,4.4178084E-2,-1.1785984E-1,-5.4950584E-2,-9.016024E-2,-2.2387516E-2,-6.375255E-2,2.4665663E-2,-1.10432036E-1,3.327282E-2,-6.5056264E-2,1.4847355E-2,-1.339678E-2,-3.47108E-2,-1.0905315E-2,2.0229803E-2,-2.3198564E-2,-8.445545E-2,-3.1827975E-2],"split_indices":[2,1,6,6,2,5,0,3,2,6,0,0,1,1,0,2,5,0,1,3,6,0,3,0,0,6,0,3,2,1,1,0,0,0,0,0,0,0,0,0,0,0,0,0,0,0,0,0,0,0,0,0,0,0,0,0,0,0,0,0,0,0,0],"split_type":[0,0,0,0,0,0,0,0,0,0,0,0,0,0,0,0,0,0,0,0,0,0,0,0,0,0,0,0,0,0,0,0,0,0,0,0,0,0,0,0,0,0,0,0,0,0,0,0,0,0,0,0,0,0,0,0,0,0,0,0,0,0,0],"sum_hessian":[2.8616041E4,1.611901E4,1.2497032E4,1.4468635E4,1.6503751E3,5.050776E3,7.4462563E3,5.566659E3,8.901976E3,2.1459293E2,1.4357822E3,4.4846367E3,5.66139E2,3.465758E3,3.9804983E3,1.6842932E3,3.882366E3,3.7903809E3,5.111594E3,4.5741833E1,1.6885109E2,1.1817955E3,2.5398662E2,1.194773E3,3.2898638E3,4.170182E2,1.4912077E2,1.2424879E3,2.22327E3,3.4936147E3,4.8688345E2,5.0602164E2,1.1782716E3,3.5653623E3,3.1700345E2,4.2261295E2,3.3677678E3,1.8472693E3,3.2643252E3,3.9509678E1,6.232154E0,6.2480297E1,1.063708E2,3.048936E1,1.1513063E3,2.4240063E2,1.1585986E1,5.7168085E2,6.2309216E2,1.9022614E3,1.3876024E3,4.0960837E2,7.409827E0,5.1185596E1,9.793518E1,6.499657E2,5.925222E2,1.00932965E3,1.2139404E3,3.025574E3,4.680407E2,8.636621E1,4.0051724E2],"tree_param":{"num_deleted":"0","num_feature":"13","num_nodes":"63","size_leaf_vector":"1"}},{"base_weights":[-9.4193695E-3,1.6415415E0,-1.6410192E0,1.646724E0,1.2057767E-1,-1.22475736E-1,-1.2599534E-1,1.23771615E-1,1.2710816E-1],"categories":[],"categories_nodes":[],"categories_segments":[],"categories_sizes":[],"default_left":[0,0,0,0,0,0,0,0,0],"id":5,"left_children":[1,3,5,7,-1,-1,-1,-1,-1],"loss_changes":[7.6333984E4,1.0429688E0,4.9765625E0,2.4492188E0,0E0,0E0,0E0,0E0,0E0],"parents":[2147483647,0,0,1,1,2,2,3,3],"right_children":[2,4,6,8,-1,-1,-1,-1,-1],"split_conditions":[-1.9974375E0,8.783166E0,-1.2058955E-2,3.8555515E-1,1.2057767E-1,-1.22475736E-1,-1.2599534E-1,1.23771615E-1,1.2710816E-1],"split_indices":[8,1,6,4,0,0,0,0,0],"split_type":[0,0,0,0,0,0,0,0,0],"sum_hessian":[2.8335893E4,1.4084378E4,1.4251514E4,1.2737483E4,1.3468944E3,6.7321567E3,7.519357E3,8.949709E3,3.7877751E3],"tree_param":{"num_deleted":"0","num_feature":"13","num_nodes":"9","size_leaf_vector":"1"}},{"base_weights":[-5.6376513E-3,-1.8348727E-1,2.38823E-1,-2.4128903E-1,4.6663436E-1,2.5335592E-1,-3.3409977E-1,5.225198E-3,-3.7568888E-1,6.6151375E-1,-2.4561061E-1,1.1702176E-1,2.882861E-1,-1.1242369E-1,-1.11966744E-1,-4.38434E-2,4.1743544E-1,-2.0295998E-1,-4.2020497E-1,7.4301785E-1,-1.4768544E-1,-6.026764E-1,6.0341424E-1,1.5568516E-1,-2.3023076E-1,3.0502263E-1,-5.4288637E-2,-1.10947095E-1,-1.9536488E-2,-1.410557E-2,6.822376E-3,-3.1172894E-2,3.5942156E-2,-1.9665665E-3,-4.1674916E-2,-4.297785E-2,-2.4294969E-2,8.875885E-2,4.6142712E-2,-3.8351342E-2,4.6608444E-2,-2.0321405E-2,-9.93681E-2,-1.0619269E-1,6.009187E-2,4.4600625E-2,9.689299E-3,8.109757E-3,-6.652692E-2,2.859171E-2,1.8173622E-2,-4.7306158E-2,9.597194E-3,3.9331023E-2,-2.0893453E-2],"categories":[],"categories_nodes":[],"categories_segments":[],"categories_sizes":[],"default_left":[0,0,0,0,0,0,0,0,0,0,0,0,0,0,0,0,0,0,0,0,0,0,0,0,0,0,0,0,0,0,0,0,0,0,0,0,0,0,0,0,0,0,0,0,0,0,0,0,0,0,0,0,0,0,0],"id":6,"left_children":[1,3,5,7,9,11,13,15,17,19,21,23,25,27,-1,29,31,33,35,37,39,41,43,45,47,49,51,-1,53,-1,-1,-1,-1,-1,-1,-1,-1,-1,-1,-1,-1,-1,-1,-1,-1,-1,-1,-1,-1,-1,-1,-1,-1,-1,-1],"loss_changes":[1.1969546E3,5.989768E2,9.662018E1,4.849121E2,1.8082022E2,5.3816162E1,7.265575E1,1.0448976E2,7.274597E1,6.7527435E1,8.5352165E1,3.1022596E1,5.1623413E1,3.0320522E1,0E0,8.797957E1,2.6119751E1,1.1933473E2,1.1003369E2,5.2622437E1,2.611623E1,4.655094E1,3.2860943E1,2.4935013E1,5.0697647E1,4.0358948E1,4.3412575E1,0E0,3.1492186E1,0E0,0E0,0E0,0E0,0E0,0E0,0E0,0E0,0E0,0E0,0E0,0E0,0E0,0E0,0E0,0E0,0E0,0E0,0E0,0E0,0E0,0E0,0E0,0E0,0E0,0E0],"parents":[2147483647,0,0,1,1,2,2,3,3,4,4,5,5,6,6,7,7,8,8,9,9,10,10,11,11,12,12,13,13,15,15,16,16,17,17,18,18,19,19,20,20,21,21,22,22,23,23,24,24,25,25,26,26,28,28],"right_children":[2,4,6,8,10,12,14,16,18,20,22,24,26,28,-1,30,32,34,36,38,40,42,44,46,48,50,52,-1,54,-1,-1,-1,-1,-1,-1,-1,-1,-1,-1,-1,-1,-1,-1,-1,-1,-1,-1,-1,-1,-1,-1,-1,-1,-1,-1],"split_conditions":[-5.123274E0,1.0272339E1,5.704932E-1,3.1407034E-1,-6.855229E0,-4.5768323E0,9.256426E0,1.9582665E-1,-8.302297E0,5.939697E2,2.3150932E-2,-2.941725E-1,8.1240547E-1,1.3158401E0,-1.11966744E-1,2.9323819E0,1.2727922E2,-1.0266915E-1,-1.312229E-1,-1.0095259E1,2.311637E0,1.2769178E1,1.9794722E-1,-5.1000433E0,5.031133E-2,3.5295606E0,2.0757558E0,-1.10947095E-1,2.7985437E0,-1.410557E-2,6.822376E-3,-3.1172894E-2,3.5942156E-2,-1.9665665E-3,-4.1674916E-2,-4.297785E-2,-2.4294969E-2,8.875885E-2,4.6142712E-2,-3.8351342E-2,4.6608444E-2,-2.0321405E-2,-9.93681E-2,-1.0619269E-1,6.009187E-2,4.4600625E-2,9.689299E-3,8.109757E-3,-6.652692E-2,2.859171E-2,1.8173622E-2,-4.7306158E-2,9.597194E-3,3.9331023E-2,-2.0893453E-2],"split_indices":[7,1,4,4,7,7,1,6,7,9,6,5,7,1,0,1,9,6,6,7,3,1,4,7,6,3,1,0,1,0,0,0,0,0,0,0,0,0,0,0,0,0,0,0,0,0,0,0,0,0,0,0,0,0,0],"split_type":[0,0,0,0,0,0,0,0,0,0,0,0,0,0,0,0,0,0,0,0,0,0,0,0,0,0,0,0,0,0,0,0,0,0,0,0,0,0,0,0,0,0,0,0,0,0,0,0,0,0,0,0,0,0,0],"sum_hessian":[2.7528602E4,1.5935489E4,1.1593112E4,1.4634938E4,1.3005513E3,1.1306856E4,2.862554E2,5.1640586E3,9.47088E3,1.0212071E3,2.793442E2,2.306973E3,8.999884E3,2.4069695E2,4.5558453E1,4.61553E3,5.485289E2,1.9418358E3,7.529044E3,9.278355E2,9.33716E1,1.9684799E2,8.2496216E1,2.0763428E3,2.3063011E2,8.580777E3,4.1910605E2,1.4526329E1,2.2617061E2,2.2371023E3,2.3784277E3,3.48474E1,5.1368146E2,1.2866732E3,6.5516254E2,3.038404E3,4.4906396E3,2.1927988E2,7.085556E2,6.3750206E1,2.9621387E1,1.3467116E2,6.2176834E1,6.577293E0,7.591892E1,1.2410212E2,1.9522406E3,1.5221458E2,7.841553E1,4.0650469E3,4.5157305E3,1.00391945E2,3.187141E2,7.257461E1,1.5359601E2],"tree_param":{"num_deleted":"0","num_feature":"13","num_nodes":"55","size_leaf_vector":"1"}},{"base_weights":[6.085467E-3,1.5647191E0,-1.5631872E0,1.588907E0,1.1747374E-1,-1.1623256E-1,-1.2036918E-1,1.21492475E-1,1.13069475E-1],"categories":[],"categories_nodes":[],"categories_segments":[],"categories_sizes":[],"default_left":[0,0,0,0,0,0,0,0,0],"id":7,"left_children":[1,3,5,7,-1,-1,-1,-1,-1],"loss_changes":[6.765854E4,2.3515625E0,7.7851562E0,4.794922E0,0E0,0E0,0E0,0E0,0E0],"parents":[2147483647,0,0,1,1,2,2,3,3],"right_children":[2,4,6,8,-1,-1,-1,-1,-1],"split_conditions":[-1.9974375E0,-6.7136623E-4,-1.2058955E-2,1.0272339E1,1.1747374E-1,-1.1623256E-1,-1.2036918E-1,1.21492475E-1,1.13069475E-1],"split_indices":[8,6,6,1,0,0,0,0,0],"split_type":[0,0,0,0,0,0,0,0,0],"sum_hessian":[2.7659783E4,1.3876934E4,1.378285E4,5.1235625E3,8.75337E3,6.4429077E3,7.339942E3,4.441136E3,6.824265E2],"tree_param":{"num_deleted":"0","num_feature":"13","num_nodes":"9","size_leaf_vector":"1"}},{"base_weights":[9.92041E-3,1.5007559E0,-1.500499E0,1.5159222E0,1.1249374E-1,-1.1547291E-1,-1.4768722E0,1.1376363E-1,1.1733615E-1,-1.1346795E-1,-1.10426545E-1],"categories":[],"categories_nodes":[],"categories_segments":[],"categories_sizes":[],"default_left":[0,0,0,0,0,0,0,0,0,0,0],"id":8,"left_children":[1,3,5,7,-1,-1,9,-1,-1,-1,-1],"loss_changes":[6.029604E4,1.0410156E0,5.126953E0,9.3847656E-1,0E0,0E0,4.970703E-1,0E0,0E0,0E0,0E0],"parents":[2147483647,0,0,1,1,2,2,3,3,6,6],"right_children":[2,4,6,8,-1,-1,10,-1,-1,-1,-1],"split_conditions":[-1.9974375E0,-5.123274E0,3.4682247E-1,1.6587605E2,1.1249374E-1,-1.1547291E-1,1.6587605E2,1.1376363E-1,1.1733615E-1,-1.1346795E-1,-1.10426545E-1],"split_indices":[8,7,4,2,0,0,2,0,0,0,0],"split_type":[0,0,0,0,0,0,0,0,0,0,0],"sum_hessian":[2.6774977E4,1.3474849E4,1.3300128E4,6.8904287E3,6.58442E3,6.639487E3,6.6606416E3,4.803072E3,2.0873567E3,3.198556E3,3.4620857E3],"tree_param":{"num_deleted":"0","num_feature":"13","num_nodes":"11","size_leaf_vector":"1"}},{"base_weights":[-1.5135846E-2,1.330622E-1,-2.0537873E-1,5.9692502E-2,4.6469963E-1,-6.6793576E-2,-3.7689704E-1,8.197341E-2,-3.278151E-1,6.006443E-1,8.722118E-2,-2.0231342E-1,1.2407194E-1,-4.692846E-1,-1.17017135E-1,-4.175899E-2,1.5808672E-1,1.8944724E-2,-4.5393252E-1,3.3342397E-1,7.6732093E-1,-8.385513E-1,1.7530961E-1,-2.5534195E-1,1.4198942E-1,3.0589694E-1,-2.972982E-1,-3.905581E-1,-8.7444276E-1,-5.041709E-1,-4.786019E-3,-1.5336629E-2,6.1482857E-3,3.4048376E-3,1.7331975E-2,9.957882E-3,-1.01968564E-1,-3.1510305E-2,-1.03402644E-1,-1.4917006E-2,3.4500107E-2,4.0028714E-2,6.5429784E-2,-5.9501547E-3,-1.0681575E-1,1.6310195E-2,-6.795632E-2,-1.8247047E-2,-1.067204E-1,1.5388922E-2,-1.0511699E-1,3.134935E-2,1.2800697E-2,-3.9550155E-2,1.9573394E-2,-2.2266153E-2,-4.585525E-2,-7.095421E-2,-9.967014E-3,-1.042241E-2,-8.282738E-2,-6.295328E-3,3.3464726E-2],"categories":[],"categories_nodes":[],"categories_segments":[],"categories_sizes":[],"default_left":[0,0,0,0,0,0,0,0,0,0,0,0,0,0,0,0,0,0,0,0,0,0,0,0,0,0,0,0,0,0,0,0,0,0,0,0,0,0,0,0,0,0,0,0,0,0,0,0,0,0,0,0,0,0,0,0,0,0,0,0,0,0,0],"id":9,"left_children":[1,3,5,7,9,11,13,15,17,19,21,23,25,27,29,31,33,35,37,39,41,43,45,47,49,51,53,55,57,59,61,-1,-1,-1,-1,-1,-1,-1,-1,-1,-1,-1,-1,-1,-1,-1,-1,-1,-1,-1,-1,-1,-1,-1,-1,-1,-1,-1,-1,-1,-1,-1,-1],"loss_changes":[7.141103E2,3.4640753E2,2.6360794E2,1.0069653E2,1.322981E2,1.58731E2,1.1894592E2,1.0385061E2,2.7741768E1,8.419281E1,5.5932907E1,6.55535E1,1.9532605E2,1.1627771E2,5.6536392E1,8.294847E1,5.4570663E1,2.628502E1,1.5556984E1,4.728528E1,2.6377808E1,2.5765163E1,2.698189E1,5.1741867E1,4.509824E1,2.6229141E1,9.60863E1,6.3392517E1,2.7233063E1,6.299095E1,3.5334484E1,0E0,0E0,0E0,0E0,0E0,0E0,0E0,0E0,0E0,0E0,0E0,0E0,0E0,0E0,0E0,0E0,0E0,0E0,0E0,0E0,0E0,0E0,0E0,0E0,0E0,0E0,0E0,0E0,0E0,0E0,0E0,0E0],"parents":[2147483647,0,0,1,1,2,2,3,3,4,4,5,5,6,6,7,7,8,8,9,9,10,10,11,11,12,12,13,13,14,14,15,15,16,16,17,17,18,18,19,19,20,20,21,21,22,22,23,23,24,24,25,25,26,26,27,27,28,28,29,29,30,30],"right_children":[2,4,6,8,10,12,14,16,18,20,22,24,26,28,30,32,34,36,38,40,42,44,46,48,50,52,54,56,58,60,62,-1,-1,-1,-1,-1,-1,-1,-1,-1,-1,-1,-1,-1,-1,-1,-1,-1,-1,-1,-1,-1,-1,-1,-1,-1,-1,-1,-1,-1,-1,-1,-1],"split_conditions":[1.8E2,6.5517735E0,3.3472672E0,3.95E2,3.29E2,2.43E2,3.148088E2,2.04E2,2.7005403E0,2.14E2,1.412511E1,-2.8576577E-1,3.29E2,3.66E2,-4.345319E-1,5.331619E1,2.0841231E0,7.925907E2,5.8494205E0,4.518799E1,2.1673532E0,2.4186774E2,8.358E0,-2.941725E-1,2.33E2,-3.7171465E-1,-3.3606556E-1,5.9414754E0,-2.8107777E-1,-4.5927903E-1,-2.7270287E-1,-1.5336629E-2,6.1482857E-3,3.4048376E-3,1.7331975E-2,9.957882E-3,-1.01968564E-1,-3.1510305E-2,-1.03402644E-1,-1.4917006E-2,3.4500107E-2,4.0028714E-2,6.5429784E-2,-5.9501547E-3,-1.0681575E-1,1.6310195E-2,-6.795632E-2,-1.8247047E-2,-1.067204E-1,1.5388922E-2,-1.0511699E-1,3.134935E-2,1.2800697E-2,-3.9550155E-2,1.9573394E-2,-2.2266153E-2,-4.585525E-2,-7.095421E-2,-9.967014E-3,-1.042241E-2,-8.282738E-2,-6.295328E-3,3.3464726E-2],"split_indices":[2,1,1,0,0,0,2,0,3,0,2,5,0,0,5,2,1,9,1,2,3,9,3,5,0,5,5,1,5,5,5,0,0,0,0,0,0,0,0,0,0,0,0,0,0,0,0,0,0,0,0,0,0,0,0,0,0,0,0,0,0,0,0],"split_type":[0,0,0,0,0,0,0,0,0,0,0,0,0,0,0,0,0,0,0,0,0,0,0,0,0,0,0,0,0,0,0,0,0,0,0,0,0,0,0,0,0,0,0,0,0,0,0,0,0,0,0,0,0,0,0,0,0,0,0,0,0,0,0],"sum_hessian":[2.5326818E4,1.4236766E4,1.1090054E4,1.1658648E4,2.5781174E3,6.1346807E3,4.955373E3,1.1025493E4,6.3315533E2,1.8950463E3,6.830711E2,3.5874387E3,2.5472417E3,3.6551558E3,1.3002174E3,4.1993447E3,6.826148E3,1.6909062E2,4.640647E2,7.291133E2,1.165933E3,5.8607845E1,6.2446326E2,3.108877E3,4.7856186E2,1.7796016E3,7.6764E2,3.062118E3,5.930379E2,2.9142435E2,1.008793E3,1.8198796E3,2.3794653E3,2.624608E3,4.20154E3,1.5705043E2,1.2040191E1,4.4684308E2,1.7221638E1,1.3615965E2,5.929537E2,3.3644437E2,8.294886E2,2.5634687E1,3.297316E1,6.028032E2,2.1660038E1,3.0714023E3,3.7474495E1,4.610077E2,1.7554153E1,9.9449963E2,7.85102E2,5.4665436E2,2.2098566E2,2.1126575E3,9.494604E2,5.471247E2,4.5913197E1,1.8037611E2,1.1104824E2,8.589612E2,1.4983182E2],"tree_param":{"num_deleted":"0","num_feature":"13","num_nodes":"63","size_leaf_vector":"1"}},{"base_weights":[7.428924E-3,1.0954248E-1,-1.4438916E0,-1.0832872E-1,-1.1129668E-1],"categories":[],"categories_nodes":[],"categories_segments":[],"categories_sizes":[],"default_left":[0,0,0,0,0],"id":10,"left_children":[1,-1,3,-1,-1],"loss_changes":[5.3350746E4,0E0,2.4101562E0,0E0,0E0],"parents":[2147483647,0,0,2,2],"right_children":[2,-1,4,-1,-1],"split_conditions":[-1.9974375E0,1.0954248E-1,-5.1467986E0,-1.0832872E-1,-1.1129668E-1],"split_indices":[8,0,7,0,0],"split_type":[0,0,0,0,0],"sum_hessian":[2.5556436E4,1.2835895E4,1.272054E4,8.1451177E3,4.575423E3],"tree_param":{"num_deleted":"0","num_feature":"13","num_nodes":"5","size_leaf_vector":"1"}},{"base_weights":[-5.1640756E-3,1.4001111E0,-1.3982989E0,1.0512331E-1,1.07660905E-1,-1.07405856E-1,-1.3801992E0,-1.0620996E-1,-1.0298139E-1],"categories":[],"categories_nodes":[],"categories_segments":[],"categories_sizes":[],"default_left":[0,0,0,0,0,0,0,0,0],"id":11,"left_children":[1,3,5,-1,-1,-1,7,-1,-1],"loss_changes":[4.7343105E4,1.2089844E0,2.2636719E0,0E0,0E0,0E0,9.501953E-1,0E0,0E0],"parents":[2147483647,0,0,1,1,2,2,6,6],"right_children":[2,4,6,-1,-1,-1,8,-1,-1],"split_conditions":[-1.9974375E0,1.8E2,3.3333334E-1,1.0512331E-1,1.07660905E-1,-1.07405856E-1,1.8E2,-1.0620996E-1,-1.0298139E-1],"split_indices":[8,2,4,0,0,0,2,0,0],"split_type":[0,0,0,0,0,0,0,0,0],"sum_hessian":[2.4180559E4,1.2037825E4,1.2142732E4,7.505328E3,4.532497E3,5.853208E3,6.289525E3,3.0796697E3,3.209855E3],"tree_param":{"num_deleted":"0","num_feature":"13","num_nodes":"9","size_leaf_vector":"1"}},{"base_weights":[-4.7775526E-3,1.02982104E-1,-1.358216E0,-1.0409656E-1,-1.0163663E-1],"categories":[],"categories_nodes":[],"categories_segments":[],"categories_sizes":[],"default_left":[0,0,0,0,0],"id":12,"left_children":[1,-1,3,-1,-1],"loss_changes":[4.269084E4,0E0,1.2128906E0,0E0,0E0],"parents":[2147483647,0,0,2,2],"right_children":[2,-1,4,-1,-1],"split_conditions":[-1.9974375E0,1.02982104E-1,3.5895675E-1,-1.0409656E-1,-1.0163663E-1],"split_indices":[8,0,4,0,0],"split_type":[0,0,0,0,0],"sum_hessian":[2.3124648E4,1.1517797E4,1.1606853E4,5.9815947E3,5.6252573E3],"tree_param":{"num_deleted":"0","num_feature":"13","num_nodes":"5","size_leaf_vector":"1"}},{"base_weights":[1.772659E-3,1.0030508E-1,-1.3232615E0,-9.90725E-2,-1.0121741E-1],"categories":[],"categories_nodes":[],"categories_segments":[],"categories_sizes":[],"default_left":[0,0,0,0,0],"id":13,"left_children":[1,-1,3,-1,-1],"loss_changes":[3.8485695E4,0E0,4.2382812E-1,0E0,0E0],"parents":[2147483647,0,0,2,2],"right_children":[2,-1,4,-1,-1],"split_conditions":[-1.9974375E0,1.0030508E-1,-1.9664666E-2,-9.90725E-2,-1.0121741E-1],"split_indices":[8,0,6,0,0],"split_type":[0,0,0,0,0],"sum_hessian":[2.196818E4,1.0996589E4,1.097159E4,4.920064E3,6.051526E3],"tree_param":{"num_deleted":"0","num_feature":"13","num_nodes":"5","size_leaf_vector":"1"}},{"base_weights":[6.6275806E-3,9.796745E-2,-9.79265E-2],"categories":[],"categories_nodes":[],"categories_segments":[],"categories_sizes":[],"default_left":[0,0,0],"id":14,"left_children":[1,-1,-1],"loss_changes":[3.5030152E4,0E0,0E0],"parents":[2147483647,0,0],"right_children":[2,-1,-1],"split_conditions":[-1.9974375E0,9.796745E-2,-9.79265E-2],"split_indices":[8,0,0],"split_type":[0,0,0],"sum_hessian":[2.0962041E4,1.0532568E4,1.0429474E4],"tree_param":{"num_deleted":"0","num_feature":"13","num_nodes":"3","size_leaf_vector":"1"}},{"base_weights":[2.4885465E-3,9.589198E-2,-9.586924E-2],"categories":[],"categories_nodes":[],"categories_segments":[],"categories_sizes":[],"default_left":[0,0,0],"id":15,"left_children":[1,-1,-1],"loss_changes":[3.1898373E4,0E0,0E0],"parents":[2147483647,0,0],"right_children":[2,-1,-1],"split_conditions":[-1.9974375E0,9.589198E-2,-9.586924E-2],"split_indices":[8,0,0],"split_type":[0,0,0],"sum_hessian":[1.9919084E4,9.977948E3,9.941136E3],"tree_param":{"num_deleted":"0","num_feature":"13","num_nodes":"3","size_leaf_vector":"1"}},{"base_weights":[1.6358582E-3,-1.3377719E-1,1.9695693E-1,2.7060106E-2,-3.7696236E-1,2.985334E-1,6.9788784E-2,-9.755353E-2,2.8917062E-1,-3.0851772E-1,-5.918751E-1,3.1433126E-1,-1.9963215E-1,1.2550196E-1,-1.1809436E-1,-1.769506E-1,4.0214688E-2,1.24076335E-2,3.815482E-1,-2.684059E-1,-6.552473E-1,-6.9139105E-1,-3.5163108E-1,-4.672672E-1,3.2316813E-1,-3.1662607E-1,7.5383085E-1,2.9188799E-2,2.394432E-1,-2.579363E-1,2.7876157E-1,3.9748166E-4,-1.8251596E-2,-5.239401E-3,1.4575557E-2,9.359422E-3,-1.9273655E-2,2.2692041E-2,4.7185596E-2,-2.8922435E-2,-7.8497445E-3,-6.4677805E-2,-9.522055E-3,-3.7044413E-2,-6.117754E-2,-1.0151768E-2,-4.452446E-2,-6.8754563E-3,-8.9229435E-2,2.6125789E-2,3.517495E-3,-5.3021155E-2,-4.904581E-3,-6.1805427E-2,7.871904E-2,1.1364761E-2,-4.9279574E-3,3.3902075E-2,7.986814E-3,-8.850082E-2,-1.6219188E-2,2.8833134E-2,-2.9562358E-2],"categories":[],"categories_nodes":[],"categories_segments":[],"categories_sizes":[],"default_left":[0,0,0,0,0,0,0,0,0,0,0,0,0,0,0,0,0,0,0,0,0,0,0,0,0,0,0,0,0,0,0,0,0,0,0,0,0,0,0,0,0,0,0,0,0,0,0,0,0,0,0,0,0,0,0,0,0,0,0,0,0,0,0],"id":16,"left_children":[1,3,5,7,9,11,13,15,17,19,21,23,25,27,29,31,33,35,37,39,41,43,45,47,49,51,53,55,57,59,61,-1,-1,-1,-1,-1,-1,-1,-1,-1,-1,-1,-1,-1,-1,-1,-1,-1,-1,-1,-1,-1,-1,-1,-1,-1,-1,-1,-1,-1,-1,-1,-1],"loss_changes":[4.9535492E2,4.3262476E2,9.9030334E1,2.1750839E2,6.45863E1,3.3609955E1,3.5671635E1,4.9378845E1,5.485576E1,4.6299927E1,2.5159058E1,2.8690674E1,1.4922527E1,2.8830715E1,4.3337368E1,3.3354942E1,2.7485348E1,1.5979688E1,3.1656784E1,5.5921677E1,3.6216858E1,1.7229492E1,1.6010254E1,1.2358288E1,2.444757E1,1.1338249E1,7.416977E0,1.623218E1,3.350641E1,2.279155E1,1.4009389E1,0E0,0E0,0E0,0E0,0E0,0E0,0E0,0E0,0E0,0E0,0E0,0E0,0E0,0E0,0E0,0E0,0E0,0E0,0E0,0E0,0E0,0E0,0E0,0E0,0E0,0E0,0E0,0E0,0E0,0E0,0E0,0E0],"parents":[2147483647,0,0,1,1,2,2,3,3,4,4,5,5,6,6,7,7,8,8,9,9,10,10,11,11,12,12,13,13,14,14,15,15,16,16,17,17,18,18,19,19,20,20,21,21,22,22,23,23,24,24,25,25,26,26,27,27,28,28,29,29,30,30],"right_children":[2,4,6,8,10,12,14,16,18,20,22,24,26,28,30,32,34,36,38,40,42,44,46,48,50,52,54,56,58,60,62,-1,-1,-1,-1,-1,-1,-1,-1,-1,-1,-1,-1,-1,-1,-1,-1,-1,-1,-1,-1,-1,-1,-1,-1,-1,-1,-1,-1,-1,-1,-1,-1],"split_conditions":[-5.0007634E0,1.8E2,1.9412445E2,5.4016185E0,5.0102997E0,8.1240547E-1,4.647411E0,-6.1975555E0,3.8847816E1,3.73E2,3.148065E2,1.58E2,9.337267E0,2.41E2,3.066912E2,-8.302297E0,2.33E2,3.51E2,1.1212192E1,2.34E2,3.14808E2,2.4339883E0,2.84E2,4.412119E0,3.35E2,4.5194267E1,1.7492856E2,3.430352E0,2.71E2,-4.8760552E0,7.0802545E2,3.9748166E-4,-1.8251596E-2,-5.239401E-3,1.4575557E-2,9.359422E-3,-1.9273655E-2,2.2692041E-2,4.7185596E-2,-2.8922435E-2,-7.8497445E-3,-6.4677805E-2,-9.522055E-3,-3.7044413E-2,-6.117754E-2,-1.0151768E-2,-4.452446E-2,-6.8754563E-3,-8.9229435E-2,2.6125789E-2,3.517495E-3,-5.3021155E-2,-4.904581E-3,-6.1805427E-2,7.871904E-2,1.1364761E-2,-4.9279574E-3,3.3902075E-2,7.986814E-3,-8.850082E-2,-1.6219188E-2,2.8833134E-2,-2.9562358E-2],"split_indices":[7,2,2,1,1,7,1,7,2,0,2,0,3,0,2,7,0,0,1,0,2,3,0,3,0,2,9,3,0,7,9,0,0,0,0,0,0,0,0,0,0,0,0,0,0,0,0,0,0,0,0,0,0,0,0,0,0,0,0,0,0,0,0],"split_type":[0,0,0,0,0,0,0,0,0,0,0,0,0,0,0,0,0,0,0,0,0,0,0,0,0,0,0,0,0,0,0,0,0,0,0,0,0,0,0,0,0,0,0,0,0,0,0,0,0,0,0,0,0,0,0,0,0,0,0,0,0,0,0],"sum_hessian":[1.872667E4,1.1059563E4,7.6671074E3,6.657397E3,4.4021665E3,4.2616978E3,3.4054094E3,4.5126177E3,2.1447793E3,3.3406753E3,1.061491E3,4.1310625E3,1.3063539E2,2.6268108E3,7.7859863E2,2.8625942E3,1.6500234E3,5.370158E2,1.6077634E3,2.995869E3,3.4480646E2,7.4925146E2,3.1223944E2,4.560428E1,4.085458E3,1.1695273E2,1.368267E1,1.4242043E3,1.2026064E3,5.759859E2,2.0261272E2,7.437661E2,2.1188281E3,9.603104E2,6.897131E2,3.794905E2,1.5752531E2,1.2012719E3,4.0649152E2,1.774562E3,1.2213069E3,2.5040654E2,9.439992E1,2.7480627E2,4.744452E2,1.632461E2,1.4899336E2,3.0542704E1,1.5061575E1,3.789042E3,2.964161E2,4.56865E1,7.126623E1,1.817117E0,1.1865553E1,6.2384E2,8.003643E2,4.7037665E2,7.322298E2,2.531628E1,5.506697E2,1.762319E2,2.6380825E1],"tree_param":{"num_deleted":"0","num_feature":"13","num_nodes":"63","size_leaf_vector":"1"}},{"base_weights":[-3.2532178E-3,9.388472E-2,-1.2401814E0,-9.497218E-2,-9.29096E-2],"categories":[],"categories_nodes":[],"categories_segments":[],"categories_sizes":[],"default_left":[0,0,0,0,0],"id":17,"left_children":[1,-1,3,-1,-1],"loss_changes":[2.838995E4,0E0,1.7578125E-1,0E0,0E0],"parents":[2147483647,0,0,2,2],"right_children":[2,-1,4,-1,-1],"split_conditions":[-1.9974375E0,9.388472E-2,1.8E2,-9.497218E-2,-9.29096E-2],"split_indices":[8,0,2,0,0],"split_type":[0,0,0,0,0],"sum_hessian":[1.8473182E4,9.216525E3,9.256657E3,4.711781E3,4.5448765E3],"tree_param":{"num_deleted":"0","num_feature":"13","num_nodes":"5","size_leaf_vector":"1"}},{"base_weights":[1.7900642E-3,-1.1644454E-1,1.6003731E-1,2.6371267E-2,-3.3352473E-1,2.4710678E-1,4.181259E-2,-6.8381965E-2,3.278611E-1,-9.3302175E-2,-4.400053E-1,2.2327241E-1,5.289368E-1,-1.0214175E-1,1.4166978E-1,-1.3576934E-1,6.754616E-2,4.2317715E-1,-3.603454E-2,3.0442023E-1,-1.5670703E-1,-3.1707078E-1,-5.700258E-1,1.2380379E-1,2.8842285E-1,5.446862E-1,-6.8545975E-2,-2.1757065E-1,4.340692E-2,1.9676462E-1,-2.0531283E-1,1.3758462E-2,-1.1855244E-2,-5.8155693E-4,2.1048572E-2,2.2605095E-2,4.681154E-2,4.5985836E-3,-6.0820702E-2,-4.6084043E-2,2.8931484E-2,-1.935396E-2,2.150633E-3,-3.534288E-2,-9.8871915E-3,-2.763553E-2,-4.879141E-2,1.0868544E-2,-5.7179905E-2,2.5527239E-2,3.0123973E-3,-6.984733E-2,4.2376425E-2,-1.621791E-3,-3.2303695E-2,1.1756222E-2,-1.2205717E-2,9.527044E-3,3.1000525E-2,-5.7883583E-2,-3.4994972E-3],"categories":[],"categories_nodes":[],"categories_segments":[],"categories_sizes":[],"default_left":[0,0,0,0,0,0,0,0,0,0,0,0,0,0,0,0,0,0,0,0,0,0,0,0,0,0,0,0,0,0,0,0,0,0,0,0,0,0,0,0,0,0,0,0,0,0,0,0,0,0,0,0,0,0,0,0,0,0,0,0,0],"id":18,"left_children":[1,3,5,7,9,11,13,15,17,19,21,23,25,27,29,31,33,35,37,39,41,43,45,47,49,51,-1,53,55,57,59,-1,-1,-1,-1,-1,-1,-1,-1,-1,-1,-1,-1,-1,-1,-1,-1,-1,-1,-1,-1,-1,-1,-1,-1,-1,-1,-1,-1,-1,-1],"loss_changes":[3.2856763E2,3.1161807E2,7.729256E1,1.7323929E2,1.0198367E2,2.893042E1,4.5815907E1,4.2276047E1,5.0313187E1,3.0971012E1,4.3988525E1,2.5814697E1,8.089653E0,2.194336E1,3.6012085E1,2.028875E1,2.4200129E1,2.7738907E1,2.2437443E1,1.2167678E1,1.9344938E1,3.958853E1,2.0123383E1,2.7369564E1,2.9032974E1,7.6472626E0,0E0,2.9815655E1,1.3239526E1,2.4451084E1,2.2927582E1,0E0,0E0,0E0,0E0,0E0,0E0,0E0,0E0,0E0,0E0,0E0,0E0,0E0,0E0,0E0,0E0,0E0,0E0,0E0,0E0,0E0,0E0,0E0,0E0,0E0,0E0,0E0,0E0,0E0,0E0],"parents":[2147483647,0,0,1,1,2,2,3,3,4,4,5,5,6,6,7,7,8,8,9,9,10,10,11,11,12,12,13,13,14,14,15,15,16,16,17,17,18,18,19,19,20,20,21,21,22,22,23,23,24,24,25,25,27,27,28,28,29,29,30,30],"right_children":[2,4,6,8,10,12,14,16,18,20,22,24,26,28,30,32,34,36,38,40,42,44,46,48,50,52,-1,54,56,58,60,-1,-1,-1,-1,-1,-1,-1,-1,-1,-1,-1,-1,-1,-1,-1,-1,-1,-1,-1,-1,-1,-1,-1,-1,-1,-1,-1,-1,-1,-1],"split_conditions":[-5.1467986E0,1.6587605E2,2.0671907E2,6.5308075E0,3.0367735E-1,6.76236E0,2.24E2,-6.1796546E0,3.53E2,1.1851332E-1,3.3559315E0,4.5189026E1,6.184756E-1,2.9641428E2,5.9414754E0,1.4918256E-1,3.84281E0,1.050021E1,4.8098946E0,2.2518716E2,2.57E2,2.44E2,4.530466E-1,8.1240547E-1,2.78E2,9.538125E-2,-6.8545975E-2,2.9475968E0,3.2294836E2,3.1481085E2,-4.430575E0,1.3758462E-2,-1.1855244E-2,-5.8155693E-4,2.1048572E-2,2.2605095E-2,4.681154E-2,4.5985836E-3,-6.0820702E-2,-4.6084043E-2,2.8931484E-2,-1.935396E-2,2.150633E-3,-3.534288E-2,-9.8871915E-3,-2.763553E-2,-4.879141E-2,1.0868544E-2,-5.7179905E-2,2.5527239E-2,3.0123973E-3,-6.984733E-2,4.2376425E-2,-1.621791E-3,-3.2303695E-2,1.1756222E-2,-1.2205717E-2,9.527044E-3,3.1000525E-2,-5.7883583E-2,-3.4994972E-3],"split_indices":[7,2,2,1,4,1,0,7,0,4,1,2,4,2,1,4,1,1,3,2,0,0,4,7,0,4,0,1,2,2,7,0,0,0,0,0,0,0,0,0,0,0,0,0,0,0,0,0,0,0,0,0,0,0,0,0,0,0,0,0,0],"split_type":[0,0,0,0,0,0,0,0,0,0,0,0,0,0,0,0,0,0,0,0,0,0,0,0,0,0,0,0,0,0,0,0,0,0,0,0,0,0,0,0,0,0,0,0,0,0,0,0,0,0,0,0,0,0,0,0,0,0,0,0,0],"sum_hessian":[1.7558791E4,1.0050107E4,7.508684E3,6.062501E3,3.987606E3,4.32347E3,3.185214E3,4.613369E3,1.4491318E3,1.2252622E3,2.7623438E3,3.9879973E3,3.3547263E2,1.3045497E3,1.8806646E3,3.084304E3,1.5290654E3,1.1482145E3,3.0091742E2,1.6795053E2,1.0573118E3,1.4216301E3,1.3407135E3,1.579457E3,2.4085403E3,3.324405E2,3.0321448E0,7.2727875E2,5.772709E2,1.6233392E3,2.573253E2,1.8832248E2,2.8959814E3,1.1268628E3,4.0220264E2,7.010577E2,4.4715674E2,2.680232E2,3.2894238E1,1.2595541E1,1.5535498E2,6.8928986E2,3.6802188E2,7.887096E2,6.329205E2,3.564639E2,9.8424963E2,1.545742E3,3.3715107E1,2.0153015E3,3.9323886E2,2.6610305E0,3.2977945E2,3.7551987E2,3.517589E2,3.7344122E2,2.0382964E2,1.2176686E3,4.0567075E2,5.620771E1,2.0111757E2],"tree_param":{"num_deleted":"0","num_feature":"13","num_nodes":"61","size_leaf_vector":"1"}},{"base_weights":[1.5276133E-3,9.2292376E-2,-9.231918E-2],"categories":[],"categories_nodes":[],"categories_segments":[],"categories_sizes":[],"default_left":[0,0,0],"id":19,"left_children":[1,-1,-1],"loss_changes":[2.5863604E4,0E0,0E0],"parents":[2147483647,0,0],"right_children":[2,-1,-1],"split_conditions":[-1.9974375E0,9.2292376E-2,-9.231918E-2],"split_indices":[8,0,0],"split_type":[0,0,0],"sum_hessian":[1.7425562E4,8.724973E3,8.700591E3],"tree_param":{"num_deleted":"0","num_feature":"13","num_nodes":"3","size_leaf_vector":"1"}},{"base_weights":[-4.150112E-3,9.081483E-2,-9.0865135E-2],"categories":[],"categories_nodes":[],"categories_segments":[],"categories_sizes":[],"default_left":[0,0,0],"id":20,"left_children":[1,-1,-1],"loss_changes":[2.3499598E4,0E0,0E0],"parents":[2147483647,0,0],"right_children":[2,-1,-1],"split_conditions":[-1.9974375E0,9.081483E-2,-9.0865135E-2],"split_indices":[8,0,0],"split_type":[0,0,0],"sum_hessian":[1.6347906E4,8.147919E3,8.199987E3],"tree_param":{"num_deleted":"0","num_feature":"13","num_nodes":"3","size_leaf_vector":"1"}},{"base_weights":[1.3124318E-2,8.953058E-2,-8.954326E-2],"categories":[],"categories_nodes":[],"categories_segments":[],"categories_sizes":[],"default_left":[0,0,0],"id":21,"left_children":[1,-1,-1],"loss_changes":[2.1728664E4,0E0,0E0],"parents":[2147483647,0,0],"right_children":[2,-1,-1],"split_conditions":[-1.9974375E0,8.953058E-2,-8.954326E-2],"split_indices":[8,0,0],"split_type":[0,0,0],"sum_hessian":[1.5560793E4,7.8673657E3,7.6934272E3],"tree_param":{"num_deleted":"0","num_feature":"13","num_nodes":"3","size_leaf_vector":"1"}},{"base_weights":[9.2626745E-3,8.832499E-2,-8.8373646E-2],"categories":[],"categories_nodes":[],"categories_segments":[],"categories_sizes":[],"default_left":[0,0,0],"id":22,"left_children":[1,-1,-1],"loss_changes":[1.9786932E4,0E0,0E0],"parents":[2147483647,0,0],"right_children":[2,-1,-1],"split_conditions":[-1.9974375E0,8.832499E-2,-8.8373646E-2],"split_indices":[8,0,0],"split_type":[0,0,0],"sum_hessian":[1.4552789E4,7.3362056E3,7.2165835E3],"tree_param":{"num_deleted":"0","num_feature":"13","num_nodes":"3","size_leaf_vector":"1"}},{"base_weights":[1.0134765E-2,8.726184E-2,-8.731189E-2],"categories":[],"categories_nodes":[],"categories_segments":[],"categories_sizes":[],"default_left":[0,0,0],"id":23,"left_children":[1,-1,-1],"loss_changes":[1.821104E4,0E0,0E0],"parents":[2147483647,0,0],"right_children":[2,-1,-1],"split_conditions":[-1.9974375E0,8.726184E-2,-8.731189E-2],"split_indices":[8,0,0],"split_type":[0,0,0],"sum_hessian":[1.3721894E4,6.923279E3,6.7986147E3],"tree_param":{"num_deleted":"0","num_feature":"13","num_nodes":"3","size_leaf_vector":"1"}},{"base_weights":[-1.8869528E-3,8.623244E-2,-8.634747E-2],"categories":[],"categories_nodes":[],"categories_segments":[],"categories_sizes":[],"default_left":[0,0,0],"id":24,"left_children":[1,-1,-1],"loss_changes":[1.6532143E4,0E0,0E0],"parents":[2147483647,0,0],"right_children":[2,-1,-1],"split_conditions":[-1.9974375E0,8.623244E-2,-8.634747E-2],"split_indices":[8,0,0],"split_type":[0,0,0],"sum_hessian":[1.2745167E4,6.366272E3,6.378895E3],"tree_param":{"num_deleted":"0","num_feature":"13","num_nodes":"3","size_leaf_vector":"1"}},{"base_weights":[-4.372294E-3,8.534372E-2,-8.5479595E-2],"categories":[],"categories_nodes":[],"categories_segments":[],"categories_sizes":[],"default_left":[0,0,0],"id":25,"left_children":[1,-1,-1],"loss_changes":[1.5106823E4,0E0,0E0],"parents":[2147483647,0,0],"right_children":[2,-1,-1],"split_conditions":[-1.9974375E0,8.534372E-2,-8.5479595E-2],"split_indices":[8,0,0],"split_type":[0,0,0],"sum_hessian":[1.1887061E4,5.925203E3,5.9618574E3],"tree_param":{"num_deleted":"0","num_feature":"13","num_nodes":"3","size_leaf_vector":"1"}},{"base_weights":[-4.3096826E-3,8.45758E-2,-8.4686734E-2],"categories":[],"categories_nodes":[],"categories_segments":[],"categories_sizes":[],"default_left":[0,0,0],"id":26,"left_children":[1,-1,-1],"loss_changes":[1.3866916E4,0E0,0E0],"parents":[2147483647,0,0],"right_children":[2,-1,-1],"split_conditions":[-1.9974375E0,8.45758E-2,-8.4686734E-2],"split_indices":[8,0,0],"split_type":[0,0,0],"sum_hessian":[1.1113453E4,5.5389263E3,5.574527E3],"tree_param":{"num_deleted":"0","num_feature":"13","num_nodes":"3","size_leaf_vector":"1"}},{"base_weights":[5.9292945E-3,8.38228E-2,-8.39624E-2],"categories":[],"categories_nodes":[],"categories_segments":[],"categories_sizes":[],"default_left":[0,0,0],"id":27,"left_children":[1,-1,-1],"loss_changes":[1.2873203E4,0E0,0E0],"parents":[2147483647,0,0],"right_children":[2,-1,-1],"split_conditions":[-1.9974375E0,8.38228E-2,-8.39624E-2],"split_indices":[8,0,0],"split_type":[0,0,0],"sum_hessian":[1.0499722E4,5.2823467E3,5.217375E3],"tree_param":{"num_deleted":"0","num_feature":"13","num_nodes":"3","size_leaf_vector":"1"}},{"base_weights":[3.0330917E-5,7.686738E-2,-1.2383736E-1,3.6480673E-2,3.1304714E-1,-2.752489E-1,-1.649383E-2,-9.756468E-2,1.3416739E-1,3.6247066E-1,2.7308667E-2,-3.5183457E-1,1.0563906E-1,5.1595192E-2,-8.838191E-2,-1.212579E-1,1.3116437E-1,2.8400226E-2,1.975899E-1,-3.4787484E-2,4.0563074E-1,-6.6534445E-2,6.0807493E-2,-4.15919E-1,-1.1957254E-1,2.0962472E-1,-4.316201E-1,3.416747E-2,3.9231998E-1,-4.5495644E-2,-3.1118253E-1,-1.35584315E-2,-9.048903E-4,1.2464026E-2,-7.079922E-2,-1.7779601E-3,1.1332248E-2,8.282775E-3,1.7648954E-2,-5.8231823E-2,8.059371E-3,3.4432E-2,1.3084551E-2,-3.490919E-2,9.02174E-3,-2.8494133E-2,-5.0536066E-2,5.911266E-3,-1.9145863E-2,2.5376691E-3,3.292958E-2,-4.8074517E-2,1.8422231E-2,3.0214563E-3,-7.0042245E-2,-6.3456364E-2,3.6622297E-2,-7.952206E-3,8.770098E-3,-4.7607366E-2,-1.0249689E-2],"categories":[],"categories_nodes":[],"categories_segments":[],"categories_sizes":[],"default_left":[0,0,0,0,0,0,0,0,0,0,0,0,0,0,0,0,0,0,0,0,0,0,0,0,0,0,0,0,0,0,0,0,0,0,0,0,0,0,0,0,0,0,0,0,0,0,0,0,0,0,0,0,0,0,0,0,0,0,0,0,0],"id":28,"left_children":[1,3,5,7,9,11,13,15,17,19,21,23,25,27,29,31,33,35,37,39,41,-1,43,45,47,49,51,53,55,57,59,-1,-1,-1,-1,-1,-1,-1,-1,-1,-1,-1,-1,-1,-1,-1,-1,-1,-1,-1,-1,-1,-1,-1,-1,-1,-1,-1,-1,-1,-1],"loss_changes":[9.260041E1,5.726366E1,6.0534023E1,6.717313E1,1.2371231E1,4.510962E1,1.0678215E1,1.17360935E1,1.9898602E1,1.2827965E1,4.00733E0,1.9101913E1,1.458469E1,6.6403747E0,1.0124604E1,1.2357906E1,7.380505E0,7.0004544E0,5.760071E0,7.762403E0,7.5842667E0,0E0,3.9028413E0,9.836761E0,7.374646E0,8.625276E0,5.9575133E0,5.8762574E0,6.496727E0,8.553586E0,9.460209E0,0E0,0E0,0E0,0E0,0E0,0E0,0E0,0E0,0E0,0E0,0E0,0E0,0E0,0E0,0E0,0E0,0E0,0E0,0E0,0E0,0E0,0E0,0E0,0E0,0E0,0E0,0E0,0E0,0E0,0E0],"parents":[2147483647,0,0,1,1,2,2,3,3,4,4,5,5,6,6,7,7,8,8,9,9,10,10,11,11,12,12,13,13,14,14,15,15,16,16,17,17,18,18,19,19,20,20,22,22,23,23,24,24,25,25,26,26,27,27,28,28,29,29,30,30],"right_children":[2,4,6,8,10,12,14,16,18,20,22,24,26,28,30,32,34,36,38,40,42,-1,44,46,48,50,52,54,56,58,60,-1,-1,-1,-1,-1,-1,-1,-1,-1,-1,-1,-1,-1,-1,-1,-1,-1,-1,-1,-1,-1,-1,-1,-1,-1,-1,-1,-1,-1,-1],"split_conditions":[2.0671907E2,7.0678506E0,-1.0214007E-2,1.8004E-2,5.515433E2,-3.0855244E-1,2.9475968E0,-2.6358697E-1,4.518837E1,2.3338358E1,-5.084463E-1,3.2613132E2,-3.4868922E-2,2.2039251E-1,6.9065186E2,3.8422596E0,5.849558E0,1.6240875E-1,2.0757613E0,1.5E2,1.1641321E2,-6.6534445E-2,1.41265135E1,7.8809576E0,3.3328302E2,3.066849E2,-1.6557531E-1,1.2531959E3,1.3157716E0,3.148088E2,2.883212E2,-1.35584315E-2,-9.048903E-4,1.2464026E-2,-7.079922E-2,-1.7779601E-3,1.1332248E-2,8.282775E-3,1.7648954E-2,-5.8231823E-2,8.059371E-3,3.4432E-2,1.3084551E-2,-3.490919E-2,9.02174E-3,-2.8494133E-2,-5.0536066E-2,5.911266E-3,-1.9145863E-2,2.5376691E-3,3.292958E-2,-4.8074517E-2,1.8422231E-2,3.0214563E-3,-7.0042245E-2,-6.3456364E-2,3.6622297E-2,-7.952206E-3,8.770098E-3,-4.7607366E-2,-1.0249689E-2],"split_indices":[2,1,6,6,9,5,1,5,2,2,5,2,6,6,9,1,1,6,1,9,2,0,2,1,2,2,5,9,1,2,2,0,0,0,0,0,0,0,0,0,0,0,0,0,0,0,0,0,0,0,0,0,0,0,0,0,0,0,0,0,0],"split_type":[0,0,0,0,0,0,0,0,0,0,0,0,0,0,0,0,0,0,0,0,0,0,0,0,0,0,0,0,0,0,0,0,0,0,0,0,0,0,0,0,0,0,0,0,0,0,0,0,0,0,0,0,0,0,0,0,0,0,0,0,0],"sum_hessian":[9.727358E3,6.003607E3,3.723751E3,5.1278926E3,8.757144E2,1.5441348E3,2.1796162E3,2.161665E3,2.9662275E3,7.4635126E2,1.2936322E2,1.2856946E3,2.5844025E2,1.1195311E3,1.0600851E3,1.9591896E3,2.0247551E2,1.112464E3,1.8537635E3,7.315988E1,6.7319135E2,3.715927E0,1.25647285E2,1.00704553E3,2.7864902E2,2.1704193E2,4.1398296E1,1.0661013E3,5.3429714E1,8.899796E2,1.7010548E2,1.2820559E3,6.7713367E2,1.9715388E2,5.321628E0,7.795603E2,3.3290366E2,5.31083E2,1.3226805E3,1.1086337E1,6.2073544E1,5.5582025E2,1.1737112E2,1.1931239E1,1.1371605E2,8.7120557E2,1.3584003E2,1.12325645E2,1.6632338E2,1.22378265E2,9.4663666E1,3.1875246E1,9.523049E0,1.0607424E3,5.3588924E0,3.1163871E0,5.0313328E1,6.5047565E2,2.3950398E2,5.9774525E1,1.1033096E2],"tree_param":{"num_deleted":"0","num_feature":"13","num_nodes":"61","size_leaf_vector":"1"}},{"base_weights":[-8.479376E-3,7.8182146E-2,-1.17512874E-1,1.3619086E-1,-1.3923488E-2,-9.086469E-3,-2.6062697E-1,1.4386368E-1,-4.4773784E-1,8.426639E-3,-3.649651E-1,-9.139649E-2,3.3215588E-1,-1.4440799E-1,-4.2188796E-1,8.369372E-2,2.1463576E-1,1.5137046E-2,-6.327242E-1,-7.947496E-3,4.1701588E-1,-9.86829E-2,-5.8807814E-1,-2.4990657E-1,-3.475882E-2,-5.295074E-1,3.891016E-1,-9.253693E-2,-4.647231E-1,-5.116594E-1,-2.0154007E-1,-5.6898896E-2,6.774836E-3,9.0367645E-3,2.3402225E-2,2.5742732E-2,-6.2491436E-2,-2.1261454E-2,-7.787032E-2,-6.5343734E-3,4.5901216E-3,-2.9419435E-2,3.7149955E-2,-1.6054958E-2,6.5013394E-2,-5.8618788E-2,1.9518973E-3,2.6263911E-2,-2.0778542E-2,-8.12238E-3,5.0587775E-3,2.0583577E-2,-6.752824E-2,3.758223E-2,1.4114926E-2,-1.761941E-2,-2.9435249E-3,-6.017451E-2,-2.474714E-2,-3.2739304E-2,-5.902873E-2,-3.3033977E-3,-3.520286E-2],"categories":[],"categories_nodes":[],"categories_segments":[],"categories_sizes":[],"default_left":[0,0,0,0,0,0,0,0,0,0,0,0,0,0,0,0,0,0,0,0,0,0,0,0,0,0,0,0,0,0,0,0,0,0,0,0,0,0,0,0,0,0,0,0,0,0,0,0,0,0,0,0,0,0,0,0,0,0,0,0,0,0,0],"id":29,"left_children":[1,3,5,7,9,11,13,15,17,19,21,23,25,27,29,31,33,35,37,39,41,43,45,47,49,51,53,55,57,59,61,-1,-1,-1,-1,-1,-1,-1,-1,-1,-1,-1,-1,-1,-1,-1,-1,-1,-1,-1,-1,-1,-1,-1,-1,-1,-1,-1,-1,-1,-1,-1,-1],"loss_changes":[9.113345E1,2.8713402E1,6.627303E1,1.4837379E1,1.6302633E1,6.831299E1,3.444233E1,1.384404E1,3.692093E0,1.3076872E1,7.3311825E0,1.7582148E1,2.3397991E1,1.7759066E1,1.5139252E1,8.4721985E0,1.3398788E1,3.8943756E0,3.9884872E0,1.0090352E1,4.6344557E0,6.4530115E0,7.7049065E0,7.5765533E0,1.0632013E1,8.855661E0,9.532127E0,6.931348E0,6.5238724E0,1.1298981E1,9.315818E0,0E0,0E0,0E0,0E0,0E0,0E0,0E0,0E0,0E0,0E0,0E0,0E0,0E0,0E0,0E0,0E0,0E0,0E0,0E0,0E0,0E0,0E0,0E0,0E0,0E0,0E0,0E0,0E0,0E0,0E0,0E0,0E0],"parents":[2147483647,0,0,1,1,2,2,3,3,4,4,5,5,6,6,7,7,8,8,9,9,10,10,11,11,12,12,13,13,14,14,15,15,16,16,17,17,18,18,19,19,20,20,21,21,22,22,23,23,24,24,25,25,26,26,27,27,28,28,29,29,30,30],"right_children":[2,4,6,8,10,12,14,16,18,20,22,24,26,28,30,32,34,36,38,40,42,44,46,48,50,52,54,56,58,60,62,-1,-1,-1,-1,-1,-1,-1,-1,-1,-1,-1,-1,-1,-1,-1,-1,-1,-1,-1,-1,-1,-1,-1,-1,-1,-1,-1,-1,-1,-1,-1,-1],"split_conditions":[3.440157E-1,2.0671686E2,1.8E2,4.4E2,6.688437E0,8.249254E0,5.4785347E-1,2.932389E0,8.184474E0,-1.6557531E-1,2.4339883E0,1.95E2,1.502827E1,5.933192E0,3.14808E2,2.971543E0,2.31E2,3.4503677E0,-3.6485282E-1,2.24E2,2.9661798E0,2.3553667E0,3.148099E2,2.1608562E0,3.8422596E0,1.92E2,3.29E2,1.97E2,2.28E2,3.66E2,3.773582E0,-5.6898896E-2,6.774836E-3,9.0367645E-3,2.3402225E-2,2.5742732E-2,-6.2491436E-2,-2.1261454E-2,-7.787032E-2,-6.5343734E-3,4.5901216E-3,-2.9419435E-2,3.7149955E-2,-1.6054958E-2,6.5013394E-2,-5.8618788E-2,1.9518973E-3,2.6263911E-2,-2.0778542E-2,-8.12238E-3,5.0587775E-3,2.0583577E-2,-6.752824E-2,3.758223E-2,1.4114926E-2,-1.761941E-2,-2.9435249E-3,-6.017451E-2,-2.474714E-2,-3.2739304E-2,-5.902873E-2,-3.3033977E-3,-3.520286E-2],"split_indices":[4,2,2,0,1,1,4,1,2,5,3,0,2,1,2,3,0,3,5,0,3,3,2,3,1,0,0,0,0,0,3,0,0,0,0,0,0,0,0,0,0,0,0,0,0,0,0,0,0,0,0,0,0,0,0,0,0,0,0,0,0,0,0],"split_type":[0,0,0,0,0,0,0,0,0,0,0,0,0,0,0,0,0,0,0,0,0,0,0,0,0,0,0,0,0,0,0,0,0,0,0,0,0,0,0,0,0,0,0,0,0,0,0,0,0,0,0,0,0,0,0,0,0,0,0,0,0,0,0],"sum_hessian":[9.642792E3,5.3727383E3,4.270053E3,3.2962563E3,2.076482E3,2.430054E3,1.8399993E3,3.2542493E3,4.20072E1,1.9531074E3,1.23374504E2,1.9584053E3,4.7164877E2,1.0704404E3,7.6955884E2,1.7600492E3,1.4942E3,1.2256651E1,2.9750547E1,1.8787957E3,7.431182E1,5.690341E1,6.647109E1,5.146521E2,1.4437532E3,2.8723673E1,4.429251E2,9.223639E2,1.4807649E2,5.458523E2,2.2370653E2,1.1090071E1,1.7489591E3,7.436865E2,7.505134E2,9.269528E0,2.9871228E0,1.6632935E1,1.3117613E1,8.767992E2,1.00199646E3,5.839535E0,6.847229E1,5.157873E1,5.3246784E0,5.084201E1,1.5629082E1,1.9642532E1,4.9500958E2,8.4253735E2,6.0121576E2,9.011881E0,1.9711792E1,2.891043E2,1.5382079E2,2.5475108E2,6.6761285E2,4.233904E1,1.0573746E2,4.226751E2,1.23177155E2,1.4050873E2,8.319781E1],"tree_param":{"num_deleted":"0","num_feature":"13","num_nodes":"63","size_leaf_vector":"1"}},{"base_weights":[-7.1186135E-3,-8.912198E-2,1.1670261E-1,-4.742723E-3,-2.3941047E-1,1.8568745E-1,5.257351E-2,-6.808651E-2,2.6173893E-1,-1.3445608E-1,-3.6944327E-1,1.91664E-1,-7.5267684E-1,-2.917987E-2,1.279181E-1,-1.8770453E-1,-2.4495807E-2,-2.1795623E-3,3.2735115E-1,-1.583219E-1,4.1547632E-1,-6.9905914E-2,-4.042548E-1,5.7881556E-2,2.2998144E-1,-7.21481E-2,-3.2509544E-1,1.1535175E-2,-2.868685E-1,-7.015511E-2,1.3464543E-1,-3.6333673E-2,-8.4219575E-3,-1.4245664E-2,1.6700368E-3,1.157365E-2,-1.4466023E-2,1.890899E-2,3.6276314E-2,-1.8504528E-2,-1.9637977E-3,-5.0621327E-2,3.530156E-2,6.561243E-4,-7.161917E-2,-3.4521412E-2,-8.948106E-3,-3.8429808E-2,7.564076E-3,1.3334755E-2,2.4561878E-2,-5.5385485E-2,9.632291E-3,1.2845479E-2,-2.6533203E-3,6.678092E-3,-3.0992895E-2,1.1654453E-2,-6.6746594E-3],"categories":[],"categories_nodes":[],"categories_segments":[],"categories_sizes":[],"default_left":[0,0,0,0,0,0,0,0,0,0,0,0,0,0,0,0,0,0,0,0,0,0,0,0,0,0,0,0,0,0,0,0,0,0,0,0,0,0,0,0,0,0,0,0,0,0,0,0,0,0,0,0,0,0,0,0,0,0,0],"id":30,"left_children":[1,3,5,7,9,11,13,15,17,19,21,23,25,27,29,31,33,35,37,39,41,43,45,47,49,-1,51,53,55,-1,57,-1,-1,-1,-1,-1,-1,-1,-1,-1,-1,-1,-1,-1,-1,-1,-1,-1,-1,-1,-1,-1,-1,-1,-1,-1,-1,-1,-1],"loss_changes":[9.743799E1,7.3206635E1,1.6904285E1,6.2442917E1,2.8279053E1,1.0471844E1,1.2217016E1,1.5579326E1,1.2303078E1,1.5161783E1,9.63308E0,9.371056E0,7.0198584E-1,9.988999E0,7.440941E0,1.7775951E1,1.6681047E1,4.1944375E0,6.5829506E0,1.2538996E1,2.9401274E0,6.7253017E0,1.2139893E1,9.743313E0,7.17762E0,0E0,1.0640206E0,6.0581946E0,5.9871006E0,0E0,4.395054E0,0E0,0E0,0E0,0E0,0E0,0E0,0E0,0E0,0E0,0E0,0E0,0E0,0E0,0E0,0E0,0E0,0E0,0E0,0E0,0E0,0E0,0E0,0E0,0E0,0E0,0E0,0E0,0E0],"parents":[2147483647,0,0,1,1,2,2,3,3,4,4,5,5,6,6,7,7,8,8,9,9,10,10,11,11,12,12,13,13,14,14,15,15,16,16,17,17,18,18,19,19,20,20,21,21,22,22,23,23,24,24,26,26,27,27,28,28,30,30],"right_children":[2,4,6,8,10,12,14,16,18,20,22,24,26,28,30,32,34,36,38,40,42,44,46,48,50,-1,52,54,56,-1,58,-1,-1,-1,-1,-1,-1,-1,-1,-1,-1,-1,-1,-1,-1,-1,-1,-1,-1,-1,-1,-1,-1,-1,-1,-1,-1,-1,-1],"split_conditions":[-4.977877E0,2.0193608E2,1.3481134E2,7.0678506E0,4.626813E-1,3.590914E0,-3.5293984E0,2.6716805E1,3.7054455E1,2.159091E-1,1.3158543E0,1.8543341E0,7.876463E1,5.6245933E0,-1.6938454E-1,-4.317962E-1,2.0757704E0,-4.3384224E-1,1.174106E1,3.1099884E2,1.3157601E0,3.148115E2,3.3328476E2,1.1295957E-1,7.167729E1,-7.21481E-2,2.9479783E0,1.8543341E0,1.7263253E-1,-7.015511E-2,6.5720153E0,-3.6333673E-2,-8.4219575E-3,-1.4245664E-2,1.6700368E-3,1.157365E-2,-1.4466023E-2,1.890899E-2,3.6276314E-2,-1.8504528E-2,-1.9637977E-3,-5.0621327E-2,3.530156E-2,6.561243E-4,-7.161917E-2,-3.4521412E-2,-8.948106E-3,-3.8429808E-2,7.564076E-3,1.3334755E-2,2.4561878E-2,-5.5385485E-2,9.632291E-3,1.2845479E-2,-2.6533203E-3,6.678092E-3,-3.0992895E-2,1.1654453E-2,-6.6746594E-3],"split_indices":[7,2,2,1,4,7,7,2,2,6,1,1,2,1,6,5,1,5,1,2,1,2,2,4,2,0,1,1,4,0,1,0,0,0,0,0,0,0,0,0,0,0,0,0,0,0,0,0,0,0,0,0,0,0,0,0,0,0,0],"split_type":[0,0,0,0,0,0,0,0,0,0,0,0,0,0,0,0,0,0,0,0,0,0,0,0,0,0,0,0,0,0,0,0,0,0,0,0,0,0,0,0,0,0,0,0,0,0,0,0,0,0,0,0,0,0,0,0,0,0,0],"sum_hessian":[9.594227E3,5.7719224E3,3.8223042E3,3.6971785E3,2.074744E3,1.8405237E3,1.9817804E3,2.9877278E3,7.094507E2,1.1492084E3,9.255356E2,1.8296661E3,1.0857591E1,9.5076086E2,1.0310195E3,7.970961E2,2.1906316E3,1.4144984E2,5.6800085E2,1.1020922E3,4.7116177E1,9.66776E1,8.28858E2,4.079279E2,1.4217382E3,6.5666513E0,4.2909393E0,8.2186127E2,1.288996E2,5.673437E0,1.0253462E3,1.645576E2,6.325385E2,4.8465845E2,1.7059731E3,7.7788376E1,6.3661472E1,3.769635E2,1.9103737E2,6.6793585E2,4.3415637E2,1.5503349E0,4.556584E1,8.96233E1,7.054296E0,7.022551E2,1.2660285E2,2.7422825E1,3.8050507E2,9.0548334E2,5.162548E2,1.9365295E0,2.3544097E0,1.8644507E2,6.354162E2,3.1742012E1,9.715759E1,9.4439087E2,8.0955315E1],"tree_param":{"num_deleted":"0","num_feature":"13","num_nodes":"59","size_leaf_vector":"1"}},{"base_weights":[5.2119596E-3,8.3187036E-2,-8.328469E-2],"categories":[],"categories_nodes":[],"categories_segments":[],"categories_sizes":[],"default_left":[0,0,0],"id":31,"left_children":[1,-1,-1],"loss_changes":[1.1662567E4,0E0,0E0],"parents":[2147483647,0,0],"right_children":[2,-1,-1],"split_conditions":[-1.9974375E0,8.3187036E-2,-8.328469E-2],"split_indices":[8,0,0],"split_type":[0,0,0],"sum_hessian":[9.662738E3,4.857129E3,4.8056094E3],"tree_param":{"num_deleted":"0","num_feature":"13","num_nodes":"3","size_leaf_vector":"1"}},{"base_weights":[1.8387215E-3,8.2467064E-2,-8.2681924E-2],"categories":[],"categories_nodes":[],"categories_segments":[],"categories_sizes":[],"default_left":[0,0,0],"id":32,"left_children":[1,-1,-1],"loss_changes":[1.0687453E4,0E0,0E0],"parents":[2147483647,0,0],"right_children":[2,-1,-1],"split_conditions":[-1.9974375E0,8.2467064E-2,-8.2681924E-2],"split_indices":[8,0,0],"split_type":[0,0,0],"sum_hessian":[8.996929E3,4.5119087E3,4.4850195E3],"tree_param":{"num_deleted":"0","num_feature":"13","num_nodes":"3","size_leaf_vector":"1"}},{"base_weights":[1.4848771E-2,8.199845E-2,-8.213697E-2],"categories":[],"categories_nodes":[],"categories_segments":[],"categories_sizes":[],"default_left":[0,0,0],"id":33,"left_children":[1,-1,-1],"loss_changes":[9.966793E3,0E0,0E0],"parents":[2147483647,0,0],"right_children":[2,-1,-1],"split_conditions":[-1.9974375E0,8.199845E-2,-8.213697E-2],"split_indices":[8,0,0],"split_type":[0,0,0],"sum_hessian":[8.495816E3,4.3097373E3,4.186079E3],"tree_param":{"num_deleted":"0","num_feature":"13","num_nodes":"3","size_leaf_vector":"1"}},{"base_weights":[9.720109E-3,8.14063E-2,-8.162801E-2],"categories":[],"categories_nodes":[],"categories_segments":[],"categories_sizes":[],"default_left":[0,0,0],"id":34,"left_children":[1,-1,-1],"loss_changes":[9.145883E3,0E0,0E0],"parents":[2147483647,0,0],"right_children":[2,-1,-1],"split_conditions":[-1.9974375E0,8.14063E-2,-8.162801E-2],"split_indices":[8,0,0],"split_type":[0,0,0],"sum_hessian":[7.900764E3,3.9914514E3,3.9093127E3],"tree_param":{"num_deleted":"0","num_feature":"13","num_nodes":"3","size_leaf_vector":"1"}},{"base_weights":[1.26869995E-2,8.102071E-2,-8.117309E-2],"categories":[],"categories_nodes":[],"categories_segments":[],"categories_sizes":[],"default_left":[0,0,0],"id":35,"left_children":[1,-1,-1],"loss_changes":[8.441954E3,0E0,0E0],"parents":[2147483647,0,0],"right_children":[2,-1,-1],"split_conditions":[-1.9974375E0,8.102071E-2,-8.117309E-2],"split_indices":[8,0,0],"split_type":[0,0,0],"sum_hessian":[7.368724E3,3.7315037E3,3.6372202E3],"tree_param":{"num_deleted":"0","num_feature":"13","num_nodes":"3","size_leaf_vector":"1"}},{"base_weights":[1.1594784E-2,8.056879E-2,-8.0752835E-2],"categories":[],"categories_nodes":[],"categories_segments":[],"categories_sizes":[],"default_left":[0,0,0],"id":36,"left_children":[1,-1,-1],"loss_changes":[7.788787E3,0E0,0E0],"parents":[2147483647,0,0],"right_children":[2,-1,-1],"split_conditions":[-1.9974375E0,8.056879E-2,-8.0752835E-2],"split_indices":[8,0,0],"split_type":[0,0,0],"sum_hessian":[6.8720405E3,3.4773713E3,3.394669E3],"tree_param":{"num_deleted":"0","num_feature":"13","num_nodes":"3","size_leaf_vector":"1"}},{"base_weights":[8.684452E-3,8.007515E-2,-8.03645E-2],"categories":[],"categories_nodes":[],"categories_segments":[],"categories_sizes":[],"default_left":[0,0,0],"id":37,"left_children":[1,-1,-1],"loss_changes":[7.1684517E3,0E0,0E0],"parents":[2147483647,0,0],"right_children":[2,-1,-1],"split_conditions":[-1.9974375E0,8.007515E-2,-8.03645E-2],"split_indices":[8,0,0],"split_type":[0,0,0],"sum_hessian":[6.394022E3,3.229007E3,3.165015E3],"tree_param":{"num_deleted":"0","num_feature":"13","num_nodes":"3","size_leaf_vector":"1"}},{"base_weights":[6.6121006E-3,-8.766059E-2,6.550152E-2,3.5287165E-3,-2.065803E-1,1.2069483E-1,5.4964717E-3,-6.765251E-2,2.3543552E-1,-3.6296466E-1,-9.6687734E-2,2.2455754E-2,1.8209034E-1,-8.826515E-3,2.5020945E-1,-9.391435E-2,2.6812062E-1,-1.01577476E-1,3.151554E-1,7.0618816E-2,-3.983809E-1,-5.8580708E-2,-5.777482E-1,3.4127664E-2,-6.6304606E-1,2.7708468E-1,1.2517692E-1,2.1721752E-2,-1.3233285E-1,3.1283948E-1,-2.689725E-1,3.4314587E-3,-1.20864455E-2,-4.543465E-3,3.760228E-2,-2.2014162E-2,1.0895455E-2,2.9167976E-2,-2.185907E-3,1.0145075E-2,-4.9684364E-2,-3.6243625E-2,-1.631845E-2,-9.339255E-3,1.1854387E-2,-6.439964E-3,-6.261357E-2,4.5913495E-2,1.7534825E-3,-5.1348708E-3,-7.0720114E-2,1.776463E-2,3.2271072E-2,6.879586E-3,2.0860536E-2,5.2476366E-4,2.0062814E-2,-1.3070619E-2,1.2377103E-2,-4.2785607E-2,2.507676E-2,-6.1284546E-2,4.5019826E-3],"categories":[],"categories_nodes":[],"categories_segments":[],"categories_sizes":[],"default_left":[0,0,0,0,0,0,0,0,0,0,0,0,0,0,0,0,0,0,0,0,0,0,0,0,0,0,0,0,0,0,0,0,0,0,0,0,0,0,0,0,0,0,0,0,0,0,0,0,0,0,0,0,0,0,0,0,0,0,0,0,0,0,0],"id":38,"left_children":[1,3,5,7,9,11,13,15,17,19,21,23,25,27,29,31,33,35,37,39,41,43,45,47,49,51,53,55,57,59,61,-1,-1,-1,-1,-1,-1,-1,-1,-1,-1,-1,-1,-1,-1,-1,-1,-1,-1,-1,-1,-1,-1,-1,-1,-1,-1,-1,-1,-1,-1,-1,-1],"loss_changes":[3.30041E1,2.478831E1,1.2117756E1,2.1388384E1,1.7014126E1,1.1491287E1,6.1506057E0,8.767603E0,8.207319E0,6.309696E0,1.0672035E1,5.8966794E0,6.3057632E0,6.2588806E0,3.2391481E0,8.410441E0,5.432195E0,2.7757707E0,5.925276E0,1.546468E0,5.432724E0,7.560569E0,5.167141E0,4.5266366E0,1.9222631E0,2.682598E0,3.7700586E0,4.7820272E0,3.935111E0,1.5706177E0,1.994996E0,0E0,0E0,0E0,0E0,0E0,0E0,0E0,0E0,0E0,0E0,0E0,0E0,0E0,0E0,0E0,0E0,0E0,0E0,0E0,0E0,0E0,0E0,0E0,0E0,0E0,0E0,0E0,0E0,0E0,0E0,0E0,0E0],"parents":[2147483647,0,0,1,1,2,2,3,3,4,4,5,5,6,6,7,7,8,8,9,9,10,10,11,11,12,12,13,13,14,14,15,15,16,16,17,17,18,18,19,19,20,20,21,21,22,22,23,23,24,24,25,25,26,26,27,27,28,28,29,29,30,30],"right_children":[2,4,6,8,10,12,14,16,18,20,22,24,26,28,30,32,34,36,38,40,42,44,46,48,50,52,54,56,58,60,62,-1,-1,-1,-1,-1,-1,-1,-1,-1,-1,-1,-1,-1,-1,-1,-1,-1,-1,-1,-1,-1,-1,-1,-1,-1,-1,-1,-1,-1,-1,-1,-1],"split_conditions":[-2.1718146E-2,1.6587605E2,1.26687416E2,7.225638E0,-4.095649E-1,2.630173E0,2.1232876E-1,9.337267E0,3.5720646E1,-2.5515592E-1,8.2891E0,1.0524744E1,2.9698486E2,4.6468773E0,7.5E2,3.01836E0,-3.703587E-1,-1.14016734E-1,4.8373547E2,1.1212192E1,3.14808E2,-2.941725E-1,-1.8970527E-1,-5.0364405E-1,-4.2541137E-1,7.4730854E0,3.7736065E0,9.839303E0,1.7841163E-1,-5.084463E-1,9.1241437E2,3.4314587E-3,-1.20864455E-2,-4.543465E-3,3.760228E-2,-2.2014162E-2,1.0895455E-2,2.9167976E-2,-2.185907E-3,1.0145075E-2,-4.9684364E-2,-3.6243625E-2,-1.631845E-2,-9.339255E-3,1.1854387E-2,-6.439964E-3,-6.261357E-2,4.5913495E-2,1.7534825E-3,-5.1348708E-3,-7.0720114E-2,1.776463E-2,3.2271072E-2,6.879586E-3,2.0860536E-2,5.2476366E-4,2.0062814E-2,-1.3070619E-2,1.2377103E-2,-4.2785607E-2,2.507676E-2,-6.1284546E-2,4.5019826E-3],"split_indices":[6,2,2,1,5,1,6,3,2,6,1,3,9,1,9,3,5,6,9,1,2,5,6,5,5,1,3,3,6,5,9,0,0,0,0,0,0,0,0,0,0,0,0,0,0,0,0,0,0,0,0,0,0,0,0,0,0,0,0,0,0,0,0],"split_type":[0,0,0,0,0,0,0,0,0,0,0,0,0,0,0,0,0,0,0,0,0,0,0,0,0,0,0,0,0,0,0,0,0,0,0,0,0,0,0,0,0,0,0,0,0,0,0,0,0,0,0,0,0,0,0,0,0,0,0,0,0,0,0],"sum_hessian":[5.9428687E3,2.2847903E3,3.6580784E3,1.2937189E3,9.910715E2,1.9049097E3,1.7531687E3,9.9042664E2,3.032922E2,4.0806506E2,5.830065E2,7.3315405E2,1.1717556E3,1.6571406E3,9.6028076E1,9.1924963E2,7.117703E1,5.7966537E1,2.4532568E2,3.0739729E1,3.7732532E2,5.4125305E2,4.175339E1,7.218141E2,1.1339976E1,4.3755786E2,7.341977E2,1.3291985E3,3.279421E2,8.604564E1,9.982432E0,2.9454004E2,6.2470953E2,2.9496408E1,4.1680622E1,3.2643826E1,2.5322712E1,2.0384828E2,4.1477398E1,2.902681E1,1.7129205E0,2.614821E2,1.15843254E2,4.164288E2,1.2482425E2,1.4451436E1,2.7301954E1,1.2585075E1,7.09229E2,3.931742E0,7.408234E0,3.4212372E2,9.543417E1,5.986947E2,1.35503E2,1.2538972E3,7.530123E1,2.8908575E2,3.8856346E1,1.1301801E0,8.491546E1,3.2222893E0,6.760143E0],"tree_param":{"num_deleted":"0","num_feature":"13","num_nodes":"63","size_leaf_vector":"1"}},{"base_weights":[-9.008694E-3,6.172924E-2,-1.2696765E-1,1.0101852E-1,5.243061E-3,-2.6712777E-2,-2.6743862E-1,1.0839693E-1,-3.3070615E-1,-7.2200105E-2,7.0455484E-2,-7.711237E-2,2.7183124E-1,-2.0250103E-1,-4.8095268E-1,8.152613E-2,2.3641977E-1,-1.6809401E-1,-6.966028E-2,-2.3330372E-2,-3.081446E-1,1.3418469E-1,-9.240659E-2,-1.54565E-1,-4.158004E-3,3.2629627E-1,-1.50221E-1,-3.343661E-1,9.767508E-3,-1.9680318E-1,-5.555692E-1,-5.3062998E-2,6.467458E-3,9.705496E-3,2.4179975E-2,-4.168768E-2,3.5980314E-2,-9.02025E-3,1.7141129E-3,-4.124961E-2,1.6763061E-2,1.5501979E-2,-2.6502747E-3,-4.1923154E-2,-2.6525466E-3,-1.7299443E-2,5.972689E-3,9.287022E-3,-8.69129E-3,6.9202264E-3,3.0595811E-2,-2.3625249E-2,3.0505924E-2,-4.254346E-2,-1.9598955E-2,9.410994E-3,-1.7407477E-2,-6.009496E-2,9.747812E-3,-5.7189085E-2,-2.7993625E-2],"categories":[],"categories_nodes":[],"categories_segments":[],"categories_sizes":[],"default_left":[0,0,0,0,0,0,0,0,0,0,0,0,0,0,0,0,0,0,0,0,0,0,0,0,0,0,0,0,0,0,0,0,0,0,0,0,0,0,0,0,0,0,0,0,0,0,0,0,0,0,0,0,0,0,0,0,0,0,0,0,0],"id":39,"left_children":[1,3,5,7,9,11,13,15,17,19,21,23,25,27,29,31,33,35,-1,37,39,41,43,45,47,49,51,53,55,57,59,-1,-1,-1,-1,-1,-1,-1,-1,-1,-1,-1,-1,-1,-1,-1,-1,-1,-1,-1,-1,-1,-1,-1,-1,-1,-1,-1,-1,-1,-1],"loss_changes":[4.875036E1,8.105104E0,3.0836746E1,6.8973236E0,7.577071E0,1.9267546E1,1.254792E1,7.2687607E0,3.3336904E0,7.9014263E0,8.465557E0,6.1876082E0,4.301017E0,1.9626497E1,4.3848114E0,5.3068E0,3.2470303E0,7.5764594E0,0E0,2.5066142E0,1.4829097E1,6.9838514E0,6.05599E0,9.160654E0,7.9290195E0,2.9521046E0,2.0752103E0,7.2901344E0,7.417844E0,8.95813E0,5.924782E0,0E0,0E0,0E0,0E0,0E0,0E0,0E0,0E0,0E0,0E0,0E0,0E0,0E0,0E0,0E0,0E0,0E0,0E0,0E0,0E0,0E0,0E0,0E0,0E0,0E0,0E0,0E0,0E0,0E0,0E0],"parents":[2147483647,0,0,1,1,2,2,3,3,4,4,5,5,6,6,7,7,8,8,9,9,10,10,11,11,12,12,13,13,14,14,15,15,16,16,17,17,19,19,20,20,21,21,22,22,23,23,24,24,25,25,26,26,27,27,28,28,29,29,30,30],"right_children":[2,4,6,8,10,12,14,16,18,20,22,24,26,28,30,32,34,36,-1,38,40,42,44,46,48,50,52,54,56,58,60,-1,-1,-1,-1,-1,-1,-1,-1,-1,-1,-1,-1,-1,-1,-1,-1,-1,-1,-1,-1,-1,-1,-1,-1,-1,-1,-1,-1,-1,-1],"split_conditions":[3.8895497E-1,1.9412445E2,1.8E2,4.35E2,2.24E2,9.508496E0,3.4E2,5.4016185E0,6.177378E2,4.6385703E0,3.16E2,2.4E2,5.515433E2,2.47E2,-4.7161376E-1,1.51E2,2.34E2,5.1E2,-6.966028E-2,-3.9173552E-1,-2.90047E-1,-3.2567784E-1,-4.1551414E-1,5.010654E0,3.13E2,4.5189026E1,4.44E2,-4.3316063E-1,4.638271E0,-4.8895898E-1,-4.187462E-1,-5.3062998E-2,6.467458E-3,9.705496E-3,2.4179975E-2,-4.168768E-2,3.5980314E-2,-9.02025E-3,1.7141129E-3,-4.124961E-2,1.6763061E-2,1.5501979E-2,-2.6502747E-3,-4.1923154E-2,-2.6525466E-3,-1.7299443E-2,5.972689E-3,9.287022E-3,-8.69129E-3,6.9202264E-3,3.0595811E-2,-2.3625249E-2,3.0505924E-2,-4.254346E-2,-1.9598955E-2,9.410994E-3,-1.7407477E-2,-6.009496E-2,9.747812E-3,-5.7189085E-2,-2.7993625E-2],"split_indices":[4,2,2,0,0,1,0,1,9,1,0,0,9,0,5,0,0,9,0,5,5,5,5,1,0,2,0,5,1,5,5,0,0,0,0,0,0,0,0,0,0,0,0,0,0,0,0,0,0,0,0,0,0,0,0,0,0,0,0,0,0],"split_type":[0,0,0,0,0,0,0,0,0,0,0,0,0,0,0,0,0,0,0,0,0,0,0,0,0,0,0,0,0,0,0,0,0,0,0,0,0,0,0,0,0,0,0,0,0,0,0,0,0,0,0,0,0,0,0,0,0,0,0,0,0],"sum_hessian":[5.840503E3,3.6513367E3,2.1891663E3,2.1530103E3,1.4983267E3,1.2781406E3,9.110257E2,2.1175686E3,3.5441483E1,6.84884E2,8.134427E2,1.0941672E3,1.8397337E2,7.000598E2,2.1096587E2,1.7515677E3,3.6600092E2,2.8777384E1,6.6640983E0,5.6827875E2,1.1660521E2,5.8478705E2,2.2865564E2,5.3017926E2,5.6398804E2,1.6314651E2,2.0826866E1,4.314562E2,2.686036E2,4.463341E1,1.6633246E2,7.6506753E0,1.7439171E3,1.5955133E2,2.0644958E2,1.8141005E1,1.0636379E1,1.8381505E2,3.8446368E2,8.060421E1,3.6001003E1,4.127786E2,1.7200847E2,2.436659E1,2.0428905E2,4.0289334E2,1.2728589E2,2.6271573E2,3.012723E2,4.100419E1,1.2214233E2,1.6453829E1,4.373037E0,1.06262276E2,3.2519394E2,1.8208493E2,8.651869E1,1.5251599E1,2.9381813E1,7.886804E1,8.746441E1],"tree_param":{"num_deleted":"0","num_feature":"13","num_nodes":"61","size_leaf_vector":"1"}},{"base_weights":[7.5222235E-3,5.5431366E-2,-7.065855E-2,-6.5581175E-3,1.10611804E-1,-4.7965698E-2,-3.0453432E-1,-1.6443224E-1,4.3893717E-2,1.2196969E-1,-2.5001964E-1,-1.479656E-1,3.5726827E-2,-6.460154E-1,-6.991878E-2,2.0767501E-1,-2.0015012E-1,8.321008E-2,-4.421664E-2,2.0717677E-2,1.601193E-1,2.2152519E-1,-3.4157756E-1,-1.9358182E-1,1.1104192E-1,8.1792325E-2,-1.4510784E-1,-7.7082336E-1,1.8270577E-1,-6.573985E-2,-2.7073467E-2,2.4862599E-2,-6.081148E-2,-2.6761264E-2,-9.209928E-3,7.946181E-3,-1.4935566E-2,-5.2436213E-3,1.996165E-2,-2.1657918E-2,3.7422113E-3,7.460572E-3,1.9192537E-2,-4.6261027E-2,3.1591605E-2,-1.1639063E-2,-5.4901414E-2,-1.1921185E-2,-3.1159336E-2,2.1770928E-2,-5.102225E-3,7.364287E-3,-1.7018165E-2,-3.2700356E-2,-5.842197E-3,-3.8580384E-2,-7.161061E-2,3.523411E-2,-5.4088462E-2,2.948066E-2,-9.846807E-3],"categories":[],"categories_nodes":[],"categories_segments":[],"categories_sizes":[],"default_left":[0,0,0,0,0,0,0,0,0,0,0,0,0,0,0,0,0,0,0,0,0,0,0,0,0,0,0,0,0,0,0,0,0,0,0,0,0,0,0,0,0,0,0,0,0,0,0,0,0,0,0,0,0,0,0,0,0,0,0,0,0],"id":40,"left_children":[1,3,5,7,9,11,13,15,17,19,21,23,25,27,29,31,33,35,37,39,41,43,45,47,49,51,53,55,57,-1,59,-1,-1,-1,-1,-1,-1,-1,-1,-1,-1,-1,-1,-1,-1,-1,-1,-1,-1,-1,-1,-1,-1,-1,-1,-1,-1,-1,-1,-1,-1],"loss_changes":[2.2122677E1,1.2527281E1,1.1896163E1,1.3751533E1,7.9665394E0,1.713639E1,1.5842682E1,5.5985804E0,4.5364637E0,7.25482E0,2.6438723E0,1.1042395E1,9.301078E0,8.481503E0,4.032312E0,4.779083E0,4.552024E0,5.516588E0,3.126875E0,4.5437937E0,7.815037E0,1.9258053E0,3.5031314E0,6.19561E0,4.4316955E0,4.2180405E0,4.384012E0,2.7232742E0,3.207997E0,0E0,4.9164786E0,0E0,0E0,0E0,0E0,0E0,0E0,0E0,0E0,0E0,0E0,0E0,0E0,0E0,0E0,0E0,0E0,0E0,0E0,0E0,0E0,0E0,0E0,0E0,0E0,0E0,0E0,0E0,0E0,0E0,0E0],"parents":[2147483647,0,0,1,1,2,2,3,3,4,4,5,5,6,6,7,7,8,8,9,9,10,10,11,11,12,12,13,13,14,14,15,15,16,16,17,17,18,18,19,19,20,20,21,21,22,22,23,23,24,24,25,25,26,26,27,27,28,28,30,30],"right_children":[2,4,6,8,10,12,14,16,18,20,22,24,26,28,30,32,34,36,38,40,42,44,46,48,50,52,54,56,58,-1,60,-1,-1,-1,-1,-1,-1,-1,-1,-1,-1,-1,-1,-1,-1,-1,-1,-1,-1,-1,-1,-1,-1,-1,-1,-1,-1,-1,-1,-1,-1],"split_conditions":[2.0671907E2,2.3150932E-2,3.89E2,1.93E2,3.89E2,2.24E2,2.8699728E2,-2.4148978E-1,3.29E2,2.6716805E1,1.4248872E-1,-2.8576577E-1,3.27E2,-2.8107777E-1,-4.8664123E-1,5.161395E2,5.331619E1,8.909545E2,7.433445E-1,1.2727922E2,2.33E2,5.515433E2,4.4E2,7.925907E2,1.87E2,6.571902E-1,-4.3650594E-1,4.5628834E-1,2.5876212E2,-6.573985E-2,-4.637844E-1,2.4862599E-2,-6.081148E-2,-2.6761264E-2,-9.209928E-3,7.946181E-3,-1.4935566E-2,-5.2436213E-3,1.996165E-2,-2.1657918E-2,3.7422113E-3,7.460572E-3,1.9192537E-2,-4.6261027E-2,3.1591605E-2,-1.1639063E-2,-5.4901414E-2,-1.1921185E-2,-3.1159336E-2,2.1770928E-2,-5.102225E-3,7.364287E-3,-1.7018165E-2,-3.2700356E-2,-5.842197E-3,-3.8580384E-2,-7.161061E-2,3.523411E-2,-5.4088462E-2,2.948066E-2,-9.846807E-3],"split_indices":[2,6,0,0,0,0,2,6,0,2,4,5,0,5,5,9,2,9,4,9,0,9,0,9,0,4,5,4,2,0,5,0,0,0,0,0,0,0,0,0,0,0,0,0,0,0,0,0,0,0,0,0,0,0,0,0,0,0,0,0,0],"split_type":[0,0,0,0,0,0,0,0,0,0,0,0,0,0,0,0,0,0,0,0,0,0,0,0,0,0,0,0,0,0,0,0,0,0,0,0,0,0,0,0,0,0,0,0,0,0,0,0,0,0,0,0,0,0,0,0,0,0,0,0,0],"sum_hessian":[5.904306E3,3.6610857E3,2.2432207E3,1.7245803E3,1.9365054E3,2.045912E3,1.9730873E2,4.171072E2,1.3074731E3,1.8780199E3,5.8485413E1,9.317927E2,1.1141193E3,7.963993E1,1.176688E2,3.6109177E1,3.8099805E2,9.0410254E2,4.0337054E2,5.14374E2,1.3636459E3,9.278654E0,4.9206757E1,7.924751E2,1.393176E2,8.883661E2,2.2575311E2,6.9276535E1,1.0363397E1,5.0167594E0,1.1265204E2,3.2865726E1,3.2434506E0,1.2809705E2,2.52901E2,8.398333E2,6.42692E1,3.7378833E2,2.9582237E1,4.3226093E1,4.7114795E2,8.2186383E2,5.4178204E2,1.3606391E0,7.918015E0,3.3947033E1,1.5259726E1,6.808084E2,1.1166673E2,6.97632E1,6.955439E1,8.4650385E2,4.1862247E1,4.2285164E1,1.8346794E2,2.9262817E1,4.0013714E1,8.247712E0,2.1156843E0,2.1778303E1,9.087373E1],"tree_param":{"num_deleted":"0","num_feature":"13","num_nodes":"61","size_leaf_vector":"1"}},{"base_weights":[1.3362962E-2,1.0511396E0,-8.0011755E-2,8.005462E-2,9.8428166E-1,7.487026E-2,5.6006545E-3],"categories":[],"categories_nodes":[],"categories_segments":[],"categories_sizes":[],"default_left":[0,0,0,0,0,0,0],"id":41,"left_children":[1,3,-1,-1,5,-1,-1],"loss_changes":[6.59845E3,4.8583984E-2,0E0,0E0,7.641754E-1,0E0,0E0],"parents":[2147483647,0,0,1,1,4,4],"right_children":[2,4,-1,-1,6,-1,-1],"split_conditions":[-1.9974375E0,-2.0482295E0,-8.0011755E-2,8.005462E-2,3.4587384E2,7.487026E-2,5.6006545E-3],"split_indices":[8,8,0,0,2,0,0],"split_type":[0,0,0,0,0,0,0],"sum_hessian":[5.944003E3,3.016519E3,2.927484E3,2.7775432E3,2.3897578E2,2.3788895E2,1.08685E0],"tree_param":{"num_deleted":"0","num_feature":"13","num_nodes":"7","size_leaf_vector":"1"}},{"base_weights":[5.866246E-3,-6.328993E-2,1.1054224E-1,1.7060809E-2,-1.861191E-1,1.4763658E-1,6.286912E-2,3.244334E-1,5.449641E-3,-2.1136357E-1,2.4398166E-1,1.548841E-1,-2.161943E-1,-6.012379E-1,6.785532E-2,6.705622E-1,-3.395346E-1,-4.0932093E-2,7.718094E-2,-2.8280318E-1,-1.1009294E-1,-5.574565E-2,2.8681487E-1,1.597034E-1,-5.403987E-1,-3.3483595E-1,3.949944E-1,-6.49326E-2,1.814781E-2,2.799889E-1,4.4715595E-2,-7.6367236E-3,5.3193532E-2,-3.2597672E-2,3.8191266E-2,3.8663486E-3,-1.142513E-2,2.5348286E-3,1.2973614E-2,2.1867696E-3,-2.3153227E-2,-1.093786E-2,1.2983942E-2,2.3525037E-2,-4.3965086E-2,6.332119E-3,1.4971347E-2,-5.2874304E-2,2.4308836E-2,-4.540714E-2,1.2389973E-2,5.0056327E-2,-9.597098E-4,2.8595146E-2,-2.0540746E-2,-5.597038E-4,9.579092E-3],"categories":[],"categories_nodes":[],"categories_segments":[],"categories_sizes":[],"default_left":[0,0,0,0,0,0,0,0,0,0,0,0,0,0,0,0,0,0,0,0,0,0,0,0,0,0,0,0,0,0,0,0,0,0,0,0,0,0,0,0,0,0,0,0,0,0,0,0,0,0,0,0,0,0,0,0,0],"id":42,"left_children":[1,3,5,7,9,11,13,15,17,19,21,23,25,27,29,31,33,35,37,39,41,-1,43,45,47,49,51,-1,-1,53,55,-1,-1,-1,-1,-1,-1,-1,-1,-1,-1,-1,-1,-1,-1,-1,-1,-1,-1,-1,-1,-1,-1,-1,-1,-1,-1],"loss_changes":[3.9716297E1,3.260982E1,3.8505516E0,7.1296463E0,1.4238491E1,3.268362E0,3.2093792E0,1.693954E1,6.4125414E0,8.901764E0,3.2703218E0,4.1186695E0,1.899947E0,1.7601643E0,4.653934E0,1.239193E0,2.1737168E0,1.1833219E1,3.106525E0,5.14122E0,4.965447E0,0E0,1.6279154E0,3.432747E0,1.377877E0,2.8596175E0,4.8717898E-1,0E0,0E0,5.1106887E0,3.6549587E0,0E0,0E0,0E0,0E0,0E0,0E0,0E0,0E0,0E0,0E0,0E0,0E0,0E0,0E0,0E0,0E0,0E0,0E0,0E0,0E0,0E0,0E0,0E0,0E0,0E0,0E0],"parents":[2147483647,0,0,1,1,2,2,3,3,4,4,5,5,6,6,7,7,8,8,9,9,10,10,11,11,12,12,13,13,14,14,15,15,16,16,17,17,18,18,19,19,20,20,22,22,23,23,24,24,25,25,26,26,29,29,30,30],"right_children":[2,4,6,8,10,12,14,16,18,20,22,24,26,28,30,32,34,36,38,40,42,-1,44,46,48,50,52,-1,-1,54,56,-1,-1,-1,-1,-1,-1,-1,-1,-1,-1,-1,-1,-1,-1,-1,-1,-1,-1,-1,-1,-1,-1,-1,-1,-1,-1],"split_conditions":[-4.9535766E0,1.58064E2,2.0671686E2,-1.035827E1,-2.2285418E-1,1.0044628E1,-1.9850886E-1,-1.06616095E-1,4.179139E0,-8.3058365E-3,-1.1910162E1,3.590914E0,-2.4890982E-1,3.0351706E2,-6.856465E-2,1.412511E1,2.0046261E-1,3.080391E0,-6.157624E0,-2.504417E-1,1.9149408E-1,-5.574565E-2,1.0151232E1,-4.1171813E0,8.844716E0,1.840378E-1,3E1,-6.49326E-2,1.814781E-2,5.731492E2,-2.8874564E0,-7.6367236E-3,5.3193532E-2,-3.2597672E-2,3.8191266E-2,3.8663486E-3,-1.142513E-2,2.5348286E-3,1.2973614E-2,2.1867696E-3,-2.3153227E-2,-1.093786E-2,1.2983942E-2,2.3525037E-2,-4.3965086E-2,6.332119E-3,1.4971347E-2,-5.2874304E-2,2.4308836E-2,-4.540714E-2,1.2389973E-2,5.0056327E-2,-9.597098E-4,2.8595146E-2,-2.0540746E-2,-5.597038E-4,9.579092E-3],"split_indices":[7,2,2,7,5,3,6,6,3,6,7,7,5,2,6,2,6,3,7,6,6,0,3,7,3,6,9,0,0,9,7,0,0,0,0,0,0,0,0,0,0,0,0,0,0,0,0,0,0,0,0,0,0,0,0,0,0],"split_type":[0,0,0,0,0,0,0,0,0,0,0,0,0,0,0,0,0,0,0,0,0,0,0,0,0,0,0,0,0,0,0,0,0,0,0,0,0,0,0,0,0,0,0,0,0,0,0,0,0,0,0,0,0,0,0,0,0],"sum_hessian":[5.484474E3,3.3028074E3,2.1816667E3,1.9971799E3,1.3056273E3,1.2257875E3,9.558794E2,7.171767E1,1.9254623E3,1.2337234E3,7.1904015E1,1.2024098E3,2.3377733E1,6.232245E0,9.496471E2,4.7135723E1,2.4581947E1,1.1696144E3,7.5584784E2,7.223568E2,5.1136655E2,2.3344102E0,6.95696E1,1.1948977E3,7.512054E0,1.9956089E1,3.4216444E0,4.763954E0,1.468291E0,9.230849E1,8.573386E2,1.7613032E0,4.537442E1,2.2638449E1,1.9434988E0,6.369522E2,5.326622E2,5.1686957E2,2.3897832E2,4.915514E1,6.7320166E2,4.563067E2,5.5059845E1,6.8346405E1,1.223198E0,3.9808334E2,7.9681433E2,6.511558E0,1.0004959E0,1.2905683E1,7.050406E0,1.6959938E0,1.7256508E0,7.871172E1,1.3596765E1,5.2406366E2,3.33275E2],"tree_param":{"num_deleted":"0","num_feature":"13","num_nodes":"57","size_leaf_vector":"1"}},{"base_weights":[1.027059E-2,1.0458542E0,-7.968438E-2,7.97173E-2,9.690993E-1,7.373859E-2,5.414699E-3],"categories":[],"categories_nodes":[],"categories_segments":[],"categories_sizes":[],"default_left":[0,0,0,0,0,0,0],"id":43,"left_children":[1,3,-1,-1,5,-1,-1],"loss_changes":[6.047052E3,3.1176758E-1,0E0,0E0,7.4212646E-1,0E0,0E0],"parents":[2147483647,0,0,1,1,4,4],"right_children":[2,4,-1,-1,6,-1,-1],"split_conditions":[-1.9974375E0,-2.0482295E0,-7.968438E-2,7.97173E-2,3.4861697E2,7.373859E-2,5.414699E-3],"split_indices":[8,8,0,0,2,0,0],"split_type":[0,0,0,0,0,0,0],"sum_hessian":[5.496786E3,2.7829094E3,2.7138767E3,2.562248E3,2.206613E2,2.1957928E2,1.0820203E0],"tree_param":{"num_deleted":"0","num_feature":"13","num_nodes":"7","size_leaf_vector":"1"}},{"base_weights":[1.8583302E-3,7.9033285E-2,-7.938387E-2],"categories":[],"categories_nodes":[],"categories_segments":[],"categories_sizes":[],"default_left":[0,0,0],"id":44,"left_children":[1,-1,-1],"loss_changes":[5.540885E3,0E0,0E0],"parents":[2147483647,0,0],"right_children":[2,-1,-1],"split_conditions":[-1.9974375E0,7.9033285E-2,-7.938387E-2],"split_indices":[8,0,0],"split_type":[0,0,0],"sum_hessian":[5.068446E3,2.5443394E3,2.5241062E3],"tree_param":{"num_deleted":"0","num_feature":"13","num_nodes":"3","size_leaf_vector":"1"}},{"base_weights":[1.0858155E-2,7.8728884E-2,-7.9104654E-2],"categories":[],"categories_nodes":[],"categories_segments":[],"categories_sizes":[],"default_left":[0,0,0],"id":45,"left_children":[1,-1,-1],"loss_changes":[5.1530312E3,0E0,0E0],"parents":[2147483647,0,0],"right_children":[2,-1,-1],"split_conditions":[-1.9974375E0,7.8728884E-2,-7.9104654E-2],"split_indices":[8,0,0],"split_type":[0,0,0],"sum_hessian":[4.7491636E3,2.4049985E3,2.344165E3],"tree_param":{"num_deleted":"0","num_feature":"13","num_nodes":"3","size_leaf_vector":"1"}},{"base_weights":[9.655873E-3,1.0343844E0,-7.884396E-2,7.886316E-2,9.5808357E-1,2.760143E-1,7.331809E-2,4.641897E-2,-1.1674288E-2],"categories":[],"categories_nodes":[],"categories_segments":[],"categories_sizes":[],"default_left":[0,0,0,0,0,0,0,0,0],"id":46,"left_children":[1,3,-1,-1,5,7,-1,-1,-1],"loss_changes":[4.754768E3,9.9365234E-2,0E0,0E0,9.458618E-1,6.691853E-1,0E0,0E0,0E0],"parents":[2147483647,0,0,1,1,4,4,5,5],"right_children":[2,4,-1,-1,6,8,-1,-1,-1],"split_conditions":[-1.9974375E0,-2.0482295E0,-7.884396E-2,7.886316E-2,9.2740995E-1,1.7579472E-1,7.331809E-2,4.641897E-2,-1.1674288E-2],"split_indices":[8,8,0,0,1,4,0,0,0],"split_type":[0,0,0,0,0,0,0,0,0],"sum_hessian":[4.4161753E3,2.2352156E3,2.1809597E3,2.0499119E3,1.853038E2,2.970376E0,1.8233344E2,1.4281895E0,1.5421866E0],"tree_param":{"num_deleted":"0","num_feature":"13","num_nodes":"9","size_leaf_vector":"1"}},{"base_weights":[7.556022E-3,1.0307528E0,-7.860754E-2,7.863123E-2,9.4341826E-1,3.701246E-1,9.536953E-1,4.662533E-2,4.3307533E-3,7.264138E-2,2.7554689E-2],"categories":[],"categories_nodes":[],"categories_segments":[],"categories_sizes":[],"default_left":[0,0,0,0,0,0,0,0,0,0,0],"id":47,"left_children":[1,3,-1,-1,5,7,9,-1,-1,-1,-1],"loss_changes":[4.3864565E3,2.8759766E-1,0E0,0E0,6.177063E-1,3.12932E-1,1.272583E-1,0E0,0E0,0E0,0E0],"parents":[2147483647,0,0,1,1,4,4,5,5,6,6],"right_children":[2,4,-1,-1,6,8,10,-1,-1,-1,-1],"split_conditions":[-1.9974375E0,-2.0482295E0,-7.860754E-2,7.863123E-2,9.2740995E-1,3.6124783E2,3.458755E2,4.662533E-2,4.3307533E-3,7.264138E-2,2.7554689E-2],"split_indices":[8,8,0,0,1,9,2,0,0,0,0],"split_type":[0,0,0,0,0,0,0,0,0,0,0],"sum_hessian":[4.100429E3,2.0718286E3,2.0286005E3,1.9080712E3,1.6375748E2,3.5357323E0,1.6022176E2,1.4407191E0,2.095013E0,1.5825517E2,1.9665767E0],"tree_param":{"num_deleted":"0","num_feature":"13","num_nodes":"11","size_leaf_vector":"1"}},{"base_weights":[6.3852826E-3,4.9967326E-2,-6.546679E-2,1.7846763E-2,1.5086073E-1,-1.2169429E-2,-2.0205651E-1,8.6259216E-2,-5.208131E-2,1.9212861E-1,1.3315455E-2,3.5905987E-2,-7.849498E-2,-4.2633024E-1,-1.3172267E-1,1.9261066E-2,1.303294E-1,-1.1435027E-1,2.1979861E-2,8.578074E-2,3.015562E-1,4.1047037E-2,-6.420743E-1,2.0895317E-1,3.957769E-3,-1.3755259E-1,6.0585078E-2,2.8243405E-1,-4.7079873E-1,2.424351E-2,-2.7816477E-1,-1.2465582E-3,2.1100426E-2,1.0165929E-2,-3.5374187E-2,-1.3910001E-2,-3.5809295E-3,1.4715898E-2,-3.3240926E-3,1.0699452E-3,1.2808277E-2,5.8057904E-3,3.0803299E-2,6.173038E-3,-2.4090199E-2,2.4195043E-3,-6.0900554E-2,1.9473337E-2,-8.246426E-3,2.3529366E-2,-1.2835021E-3,-8.756172E-3,-4.324804E-2,1.850887E-2,-3.4988269E-3,4.4678517E-2,-9.171608E-3,-1.9765014E-2,-4.7102828E-2,8.386993E-3,-2.1979487E-2,-1.7439125E-2,-7.016833E-2],"categories":[],"categories_nodes":[],"categories_segments":[],"categories_sizes":[],"default_left":[0,0,0,0,0,0,0,0,0,0,0,0,0,0,0,0,0,0,0,0,0,0,0,0,0,0,0,0,0,0,0,0,0,0,0,0,0,0,0,0,0,0,0,0,0,0,0,0,0,0,0,0,0,0,0,0,0,0,0,0,0,0,0],"id":48,"left_children":[1,3,5,7,9,11,13,15,17,19,21,23,25,27,29,31,33,35,37,39,41,43,45,47,49,51,53,55,57,59,61,-1,-1,-1,-1,-1,-1,-1,-1,-1,-1,-1,-1,-1,-1,-1,-1,-1,-1,-1,-1,-1,-1,-1,-1,-1,-1,-1,-1,-1,-1,-1,-1],"loss_changes":[1.1927479E1,7.680428E0,1.046667E1,8.612801E0,3.2463226E0,3.3046873E0,6.309904E0,2.6841989E0,4.1091213E0,5.0968933E0,2.4467218E0,3.3220506E0,3.5852027E0,3.1555843E0,7.0569186E0,3.3577952E0,1.3200722E0,2.238906E0,4.6310124E0,1.3378779E0,5.0823994E0,1.8935302E0,6.213038E-1,1.4579949E0,3.2622535E0,2.849166E0,2.5703719E0,8.5066116E-1,2.7076588E0,4.118654E0,4.7411747E0,0E0,0E0,0E0,0E0,0E0,0E0,0E0,0E0,0E0,0E0,0E0,0E0,0E0,0E0,0E0,0E0,0E0,0E0,0E0,0E0,0E0,0E0,0E0,0E0,0E0,0E0,0E0,0E0,0E0,0E0,0E0,0E0],"parents":[2147483647,0,0,1,1,2,2,3,3,4,4,5,5,6,6,7,7,8,8,9,9,10,10,11,11,12,12,13,13,14,14,15,15,16,16,17,17,18,18,19,19,20,20,21,21,22,22,23,23,24,24,25,25,26,26,27,27,28,28,29,29,30,30],"right_children":[2,4,6,8,10,12,14,16,18,20,22,24,26,28,30,32,34,36,38,40,42,44,46,48,50,52,54,56,58,60,62,-1,-1,-1,-1,-1,-1,-1,-1,-1,-1,-1,-1,-1,-1,-1,-1,-1,-1,-1,-1,-1,-1,-1,-1,-1,-1,-1,-1,-1,-1,-1,-1],"split_conditions":[2.0671907E2,5.4016185E0,4.595163E-1,2.7738777E-1,3.39E2,3.347218E0,2E2,4.518837E1,2.4E2,2.33E2,8.006368E0,1.3180245E-1,3.148088E2,2.0296714E0,3.3559315E0,2.5480315E-1,4.4E2,2.630173E0,2.72E2,8.192395E1,2.4389386E0,3.4225844E-2,5.880386E0,2.98E2,-6.856465E-2,9.256426E0,3.2613132E2,1.64E2,-1.7133258E-1,3.4E2,1.174106E1,-1.2465582E-3,2.1100426E-2,1.0165929E-2,-3.5374187E-2,-1.3910001E-2,-3.5809295E-3,1.4715898E-2,-3.3240926E-3,1.0699452E-3,1.2808277E-2,5.8057904E-3,3.0803299E-2,6.173038E-3,-2.4090199E-2,2.4195043E-3,-6.0900554E-2,1.9473337E-2,-8.246426E-3,2.3529366E-2,-1.2835021E-3,-8.756172E-3,-4.324804E-2,1.850887E-2,-3.4988269E-3,4.4678517E-2,-9.171608E-3,-1.9765014E-2,-4.7102828E-2,8.386993E-3,-2.1979487E-2,-1.7439125E-2,-7.016833E-2],"split_indices":[2,1,4,4,0,1,0,2,0,0,3,4,2,3,1,4,0,1,0,2,3,6,1,0,6,1,2,0,6,0,1,0,0,0,0,0,0,0,0,0,0,0,0,0,0,0,0,0,0,0,0,0,0,0,0,0,0,0,0,0,0,0,0],"split_type":[0,0,0,0,0,0,0,0,0,0,0,0,0,0,0,0,0,0,0,0,0,0,0,0,0,0,0,0,0,0,0,0,0,0,0,0,0,0,0,0,0,0,0,0,0,0,0,0,0,0,0,0,0,0,0,0,0,0,0,0,0,0,0],"sum_hessian":[3.806875E3,2.3697825E3,1.4370924E3,1.7984138E3,5.713686E2,1.0345138E3,4.025786E2,9.089403E2,8.894735E2,4.3919846E2,1.3217014E2,6.000397E2,4.3447415E2,9.490218E1,3.0767642E2,3.6122357E2,5.4771674E2,4.8290982E2,4.065637E2,2.2363821E2,2.1556026E2,1.2770395E2,4.466182E0,9.26518E1,5.0738788E2,3.04981E2,1.2949318E2,5.286801E0,8.961538E1,1.493973E2,1.5827913E2,3.183063E2,4.2917267E1,5.449902E2,2.7265823E0,2.368113E2,2.4609854E2,1.119088E2,2.946549E2,1.2081969E2,1.0281852E2,6.914099E1,1.4641927E2,1.1547416E2,1.222979E1,1.0192883E0,3.4468942E0,8.0648865E1,1.2002936E1,3.1493528E1,4.7589435E2,2.9145285E2,1.3528129E1,4.7124607E1,8.2368576E1,2.73947E0,2.5473309E0,3.8609474E1,5.1005905E1,1.1768044E2,3.171685E1,1.4862157E2,9.657558E0],"tree_param":{"num_deleted":"0","num_feature":"13","num_nodes":"63","size_leaf_vector":"1"}},{"base_weights":[1.498533E-2,1.02771E0,-7.839246E-2,7.839732E-2,9.3396944E-1,3.023139E-1,9.456539E-1,5.0262872E-2,-1.7764982E-2,4.6309647E-1,7.2532125E-2,5.8049094E-2,-1.4279396E-2],"categories":[],"categories_nodes":[],"categories_segments":[],"categories_sizes":[],"default_left":[0,0,0,0,0,0,0,0,0,0,0,0,0],"id":49,"left_children":[1,3,-1,-1,5,7,9,-1,-1,11,-1,-1,-1],"loss_changes":[4.067948E3,3.0322266E-1,0E0,0E0,7.8260803E-1,9.49944E-1,3.498764E-1,0E0,0E0,1.1835302E0,0E0,0E0,0E0],"parents":[2147483647,0,0,1,1,4,4,5,5,6,6,9,9],"right_children":[2,4,-1,-1,6,8,10,-1,-1,12,-1,-1,-1],"split_conditions":[-1.9974375E0,-2.0482295E0,-7.839246E-2,7.839732E-2,1.64E2,3.317425E0,9.2740995E-1,5.0262872E-2,-1.7764982E-2,1.98E2,7.2532125E-2,5.8049094E-2,-1.4279396E-2],"split_indices":[8,8,0,0,0,3,1,0,0,0,0,0,0],"split_type":[0,0,0,0,0,0,0,0,0,0,0,0,0],"sum_hessian":[3.825072E3,1.9467294E3,1.8783425E3,1.8029595E3,1.437699E2,3.099253E0,1.4067064E2,1.7119484E0,1.3873044E0,4.263364E0,1.3640727E2,2.7899919E0,1.4733719E0],"tree_param":{"num_deleted":"0","num_feature":"13","num_nodes":"13","size_leaf_vector":"1"}},{"base_weights":[-6.93257E-4,1.0221809E0,-7.818988E-2,7.819884E-2,9.0793073E-1,4.6441635E-1,9.178645E-1,5.8010787E-2,-1.3524124E-2,6.9962084E-2,2.1798132E-2],"categories":[],"categories_nodes":[],"categories_segments":[],"categories_sizes":[],"default_left":[0,0,0,0,0,0,0,0,0,0,0],"id":50,"left_children":[1,3,-1,-1,5,7,9,-1,-1,-1,-1],"loss_changes":[3.700051E3,1.0473633E0,0E0,0E0,2.268982E-1,1.157514E0,2.3095703E-1,0E0,0E0,0E0,0E0],"parents":[2147483647,0,0,1,1,4,4,5,5,6,6],"right_children":[2,4,-1,-1,6,8,10,-1,-1,-1,-1],"split_conditions":[-1.9974375E0,-2.0482295E0,-7.818988E-2,7.819884E-2,9.2740995E-1,1.98E2,3.4861697E2,5.8010787E-2,-1.3524124E-2,6.9962084E-2,2.1798132E-2],"split_indices":[8,8,0,0,1,0,2,0,0,0,0],"split_type":[0,0,0,0,0,0,0,0,0,0,0],"sum_hessian":[3.5057537E3,1.7600135E3,1.7457402E3,1.6127589E3,1.472546E2,4.2720394E0,1.4298256E2,2.7791739E0,1.4928656E0,1.4129028E2,1.6922712E0],"tree_param":{"num_deleted":"0","num_feature":"13","num_nodes":"11","size_leaf_vector":"1"}},{"base_weights":[-7.914005E-4,1.018984E0,-7.800202E-2,7.801947E-2,8.870475E-1,4.890803E-1,9.0362954E-1,-3.5278212E-2,7.1646976E-1,6.897059E-2,1.4175619E-2,1.6479032E-2,6.2328327E-2],"categories":[],"categories_nodes":[],"categories_segments":[],"categories_sizes":[],"default_left":[0,0,0,0,0,0,0,0,0,0,0,0,0],"id":51,"left_children":[1,3,-1,-1,5,7,9,-1,11,-1,-1,-1,-1],"loss_changes":[3.4271245E3,1.401001E0,0E0,0E0,4.1731262E-1,1.9374249E0,4.1728973E-1,0E0,1.5791869E-1,0E0,0E0,0E0,0E0],"parents":[2147483647,0,0,1,1,4,4,5,5,6,6,8,8],"right_children":[2,4,-1,-1,6,8,10,-1,12,-1,-1,-1,-1],"split_conditions":[-1.9974375E0,-2.0482295E0,-7.800202E-2,7.801947E-2,-4.7801068E-1,2.075818E0,3.4145038E2,-3.5278212E-2,-1.8138686E-1,6.897059E-2,1.4175619E-2,1.6479032E-2,6.2328327E-2],"split_indices":[8,8,0,0,5,1,2,0,6,0,0,0,0],"split_type":[0,0,0,0,0,0,0,0,0,0,0,0,0],"sum_hessian":[3.2650498E3,1.6396061E3,1.6254437E3,1.5103964E3,1.2920972E2,6.388187E0,1.2282153E2,1.0273627E0,5.360824E0,1.214289E2,1.3926315E0,1.4749432E0,3.885881E0],"tree_param":{"num_deleted":"0","num_feature":"13","num_nodes":"13","size_leaf_vector":"1"}},{"base_weights":[1.4658159E-3,1.0183923E0,-7.782688E-2,7.7831216E-2,9.1614646E-1,4.0909326E-1,9.2826265E-1,-2.9000284E-2,5.7428073E-2,9.3438643E-1,2.900168E-2,7.396667E-2,5.8752473E-2],"categories":[],"categories_nodes":[],"categories_segments":[],"categories_sizes":[],"default_left":[0,0,0,0,0,0,0,0,0,0,0,0,0],"id":52,"left_children":[1,3,-1,-1,5,7,9,-1,-1,11,-1,-1,-1],"loss_changes":[3.187334E3,4.3737793E-1,0E0,0E0,4.2303467E-1,1.6262472E0,6.604004E-2,0E0,0E0,7.2052E-2,0E0,0E0,0E0],"parents":[2147483647,0,0,1,1,4,4,5,5,6,6,9,9],"right_children":[2,4,-1,-1,6,8,10,-1,-1,12,-1,-1,-1],"split_conditions":[-1.9974375E0,-2.0482295E0,-7.782688E-2,7.7831216E-2,9.2740995E-1,6.9925337E0,3.4587173E2,-2.9000284E-2,5.7428073E-2,5.447667E-1,2.900168E-2,7.396667E-2,5.8752473E-2],"split_indices":[8,8,0,0,1,3,2,0,0,4,0,0,0],"split_type":[0,0,0,0,0,0,0,0,0,0,0,0,0],"sum_hessian":[3.0451326E3,1.5312606E3,1.5138721E3,1.4015908E3,1.2966982E2,3.8375025E0,1.2583231E2,1.143819E0,2.6936836E0,1.2373047E2,2.1018436E0,9.3901535E1,2.9828934E1],"tree_param":{"num_deleted":"0","num_feature":"13","num_nodes":"13","size_leaf_vector":"1"}},{"base_weights":[8.236136E-3,-4.938369E-2,6.494021E-2,-1.4476058E-1,-1.8400067E-2,7.718269E-2,-1.706551E-1,-1.7175145E-1,2.3424022E-1,2.5766648E-2,-1.0615034E-1,3.174647E-2,1.3468531E-1,-2.80461E-1,-1.7441653E-2,2.2036538E-2,-2.0149124E-1,3.5982823E-1,-3.9116564E-1,-5.413206E-2,9.9492565E-2,7.85619E-2,-1.3420774E-1,9.157002E-2,-8.26237E-2,9.8209605E-2,2.1123022E-1,3.286874E-1,-3.5540426E-1,-1.117812E-1,2.6718286E-1,8.787629E-3,-2.7996812E-2,-6.6237627E-3,-1.9168084E-2,3.286936E-2,8.824028E-4,-5.1021505E-2,6.676722E-3,-2.2902633E-3,-3.6469225E-2,6.3704564E-3,4.0215023E-2,1.512411E-2,-9.366818E-3,-1.5117979E-2,-1.5498417E-4,7.999842E-3,-2.138665E-2,-3.7128208E-3,-2.7908895E-2,8.905026E-3,-1.10116E-2,9.942096E-3,2.4557766E-2,4.122354E-2,6.587197E-4,-2.0660529E-2,-6.251299E-2,6.8554905E-4,-4.806099E-2,3.609175E-2,-1.2305611E-2],"categories":[],"categories_nodes":[],"categories_segments":[],"categories_sizes":[],"default_left":[0,0,0,0,0,0,0,0,0,0,0,0,0,0,0,0,0,0,0,0,0,0,0,0,0,0,0,0,0,0,0,0,0,0,0,0,0,0,0,0,0,0,0,0,0,0,0,0,0,0,0,0,0,0,0,0,0,0,0,0,0,0,0],"id":53,"left_children":[1,3,5,7,9,11,13,15,17,19,21,23,25,27,29,31,33,35,37,39,41,43,45,47,49,51,53,55,57,59,61,-1,-1,-1,-1,-1,-1,-1,-1,-1,-1,-1,-1,-1,-1,-1,-1,-1,-1,-1,-1,-1,-1,-1,-1,-1,-1,-1,-1,-1,-1,-1,-1],"loss_changes":[9.285883E0,4.163293E0,4.144496E0,3.574781E0,4.1311364E0,3.5549974E0,1.1907055E0,1.8667021E0,1.9781895E0,4.184065E0,1.8598704E0,5.2232466E0,1.6572542E0,2.0036392E0,8.551458E-1,1.6572437E0,1.6236658E0,5.1012516E-1,6.53271E-1,3.4686391E0,2.4107213E0,1.1916668E0,2.6768584E0,2.6534357E0,2.5019379E0,1.9406383E0,1.7014971E0,3.431183E-1,1.223629E0,1.5076447E0,7.9129255E-1,0E0,0E0,0E0,0E0,0E0,0E0,0E0,0E0,0E0,0E0,0E0,0E0,0E0,0E0,0E0,0E0,0E0,0E0,0E0,0E0,0E0,0E0,0E0,0E0,0E0,0E0,0E0,0E0,0E0,0E0,0E0,0E0],"parents":[2147483647,0,0,1,1,2,2,3,3,4,4,5,5,6,6,7,7,8,8,9,9,10,10,11,11,12,12,13,13,14,14,15,15,16,16,17,17,18,18,19,19,20,20,21,21,22,22,23,23,24,24,25,25,26,26,27,27,28,28,29,29,30,30],"right_children":[2,4,6,8,10,12,14,16,18,20,22,24,26,28,30,32,34,36,38,40,42,44,46,48,50,52,54,56,58,60,62,-1,-1,-1,-1,-1,-1,-1,-1,-1,-1,-1,-1,-1,-1,-1,-1,-1,-1,-1,-1,-1,-1,-1,-1,-1,-1,-1,-1,-1,-1,-1,-1],"split_conditions":[3.4225844E-2,1.93E2,3.66E2,1.10306635E1,3.24E2,2.28E2,4.33E2,1.54E2,1.82E2,2.41E2,-2.2395948E-1,1.9854988E2,1.6567026E-1,9.33471E-1,3.1099884E2,-5.882353E-2,3.1272542E0,2.4E2,1.545251E1,9.9E2,1.3461774E1,1.8E2,4.24E2,9.499591E0,5.0102997E0,9.127289E0,3.819982E0,2.8460498E2,1.7364682E-1,5.011142E0,4.53E2,8.787629E-3,-2.7996812E-2,-6.6237627E-3,-1.9168084E-2,3.286936E-2,8.824028E-4,-5.1021505E-2,6.676722E-3,-2.2902633E-3,-3.6469225E-2,6.3704564E-3,4.0215023E-2,1.512411E-2,-9.366818E-3,-1.5117979E-2,-1.5498417E-4,7.999842E-3,-2.138665E-2,-3.7128208E-3,-2.7908895E-2,8.905026E-3,-1.10116E-2,9.942096E-3,2.4557766E-2,4.122354E-2,6.587197E-4,-2.0660529E-2,-6.251299E-2,6.8554905E-4,-4.806099E-2,3.609175E-2,-1.2305611E-2],"split_indices":[6,0,0,1,0,0,0,0,0,0,6,2,6,1,2,6,3,9,1,9,1,2,0,3,1,3,1,9,6,1,0,0,0,0,0,0,0,0,0,0,0,0,0,0,0,0,0,0,0,0,0,0,0,0,0,0,0,0,0,0,0,0,0],"split_type":[0,0,0,0,0,0,0,0,0,0,0,0,0,0,0,0,0,0,0,0,0,0,0,0,0,0,0,0,0,0,0,0,0,0,0,0,0,0,0,0,0,0,0,0,0,0,0,0,0,0,0,0,0,0,0,0,0,0,0,0,0,0,0],"sum_hessian":[2.8401035E3,1.4087408E3,1.4313625E3,3.4452313E2,1.0642178E3,1.3612965E3,7.006608E1,3.2212924E2,2.2393885E1,7.083802E2,3.5583755E2,7.613002E2,5.9999634E2,4.0330944E1,2.9735136E1,4.2892918E1,2.7923633E2,1.9002611E1,3.3912737E0,3.400859E2,3.6829428E2,4.668604E1,3.0915152E2,4.9997687E2,2.6132333E2,4.079028E2,1.9209352E2,4.047393E0,3.628355E1,2.2788948E1,6.946189E0,3.516061E1,7.7323093E0,8.767336E1,1.9156296E2,1.5470099E1,3.5325112E0,1.8796176E0,1.5116562E0,3.230765E2,1.7009398E1,3.567359E2,1.1558359E1,2.9210947E1,1.7475092E1,2.0655997E2,1.0259155E2,4.826083E2,1.736856E1,2.3485628E2,2.646705E1,3.7840692E2,2.9495876E1,1.1367297E2,7.842055E1,2.000665E0,2.0467281E0,3.2192783E1,4.090768E0,1.9306974E1,3.4819732E0,4.598577E0,2.3476117E0],"tree_param":{"num_deleted":"0","num_feature":"13","num_nodes":"63","size_leaf_vector":"1"}},{"base_weights":[1.1751713E-2,5.9969813E-2,-5.3607333E-2,4.837495E-2,3.1412697E-1,-1.6436955E-2,-2.1671048E-1,1.2658863E-2,1.334723E-1,1.1180694E-1,4.0246573E-1,2.62512E-3,-1.9574901E-1,1.7004469E-1,-2.6572537E-1,-1.4355821E-2,9.674398E-2,-1.9385162E-1,1.4740898E-1,2.0464121E-1,-2.238771E-1,4.4413194E-1,-1.4742518E-2,-4.0931433E-2,6.33133E-2,-3.8127846E-1,2.1829009E-2,-2.9876718E-1,2.3637778E-1,-4.5847076E-1,-1.6263537E-1,-2.2303814E-3,1.2830552E-2,-1.50802145E-2,9.51124E-3,-2.956527E-2,2.1052267E-2,1.1832431E-2,-2.0839639E-2,6.053449E-4,3.1521812E-2,-5.2287072E-2,1.8887967E-2,-9.1846455E-3,3.5321232E-2,-2.4021123E-2,2.0597236E-2,6.318788E-3,-5.4699355E-3,1.7895082E-2,-2.2691158E-3,-4.179431E-2,-3.4452535E-3,-3.918211E-3,3.556696E-2,-4.6984725E-2,1.8184192E-2,-1.49035845E-2,2.1438025E-2,-3.994807E-2,9.417651E-4,-3.210373E-3,-4.0029835E-2],"categories":[],"categories_nodes":[],"categories_segments":[],"categories_sizes":[],"default_left":[0,0,0,0,0,0,0,0,0,0,0,0,0,0,0,0,0,0,0,0,0,0,0,0,0,0,0,0,0,0,0,0,0,0,0,0,0,0,0,0,0,0,0,0,0,0,0,0,0,0,0,0,0,0,0,0,0,0,0,0,0,0,0],"id":54,"left_children":[1,3,5,7,9,11,13,15,17,19,21,23,25,27,29,31,33,35,37,39,41,43,45,47,49,51,53,55,57,59,61,-1,-1,-1,-1,-1,-1,-1,-1,-1,-1,-1,-1,-1,-1,-1,-1,-1,-1,-1,-1,-1,-1,-1,-1,-1,-1,-1,-1,-1,-1,-1,-1],"loss_changes":[8.972673E0,4.812703E0,7.3249984E0,4.763976E0,1.2292738E0,3.3691564E0,4.2966433E0,2.5126834E0,2.1427011E0,7.6423705E-1,8.6256933E-1,2.3600178E0,3.8317153E0,8.740493E-1,3.8882504E0,2.3251717E0,2.314539E0,1.9012408E0,1.6884661E0,7.6906765E-1,1.3790162E0,6.1443615E-1,5.573616E-1,2.0261147E0,6.020605E0,2.9018111E0,1.4902403E0,7.796638E-1,5.232222E-1,2.2387362E0,5.7600803E0,0E0,0E0,0E0,0E0,0E0,0E0,0E0,0E0,0E0,0E0,0E0,0E0,0E0,0E0,0E0,0E0,0E0,0E0,0E0,0E0,0E0,0E0,0E0,0E0,0E0,0E0,0E0,0E0,0E0,0E0,0E0,0E0],"parents":[2147483647,0,0,1,1,2,2,3,3,4,4,5,5,6,6,7,7,8,8,9,9,10,10,11,11,12,12,13,13,14,14,15,15,16,16,17,17,18,18,19,19,20,20,21,21,22,22,23,23,24,24,25,25,26,26,27,27,28,28,29,29,30,30],"right_children":[2,4,6,8,10,12,14,16,18,20,22,24,26,28,30,32,34,36,38,40,42,44,46,48,50,52,54,56,58,60,62,-1,-1,-1,-1,-1,-1,-1,-1,-1,-1,-1,-1,-1,-1,-1,-1,-1,-1,-1,-1,-1,-1,-1,-1,-1,-1,-1,-1,-1,-1,-1,-1],"split_conditions":[1.8E2,1.174106E1,5.447667E-1,1.1991921E-1,2.2641494E0,5.9422107E0,-2.5515592E-1,5.4016185E0,9.2740995E-1,5.3075415E2,1.1640965E2,2.45E2,6.036217E-2,2.5074708E0,2.3E2,9.052183E0,1.41265135E1,2.69E2,3.92E2,7.0018405E-1,-8.799083E-2,1.9945818E-1,6.8257093E-1,1.5235636E-1,2.75E2,3.066912E2,3.4145123E2,7.518585E-1,2.067157E2,3.3328476E2,6.665644E-1,-2.2303814E-3,1.2830552E-2,-1.50802145E-2,9.51124E-3,-2.956527E-2,2.1052267E-2,1.1832431E-2,-2.0839639E-2,6.053449E-4,3.1521812E-2,-5.2287072E-2,1.8887967E-2,-9.1846455E-3,3.5321232E-2,-2.4021123E-2,2.0597236E-2,6.318788E-3,-5.4699355E-3,1.7895082E-2,-2.2691158E-3,-4.179431E-2,-3.4452535E-3,-3.918211E-3,3.556696E-2,-4.6984725E-2,1.8184192E-2,-1.49035845E-2,2.1438025E-2,-3.994807E-2,9.417651E-4,-3.210373E-3,-4.0029835E-2],"split_indices":[2,1,4,6,3,1,6,1,1,9,2,0,6,3,0,3,2,0,0,4,6,4,4,4,0,2,2,4,2,2,4,0,0,0,0,0,0,0,0,0,0,0,0,0,0,0,0,0,0,0,0,0,0,0,0,0,0,0,0,0,0,0,0],"split_type":[0,0,0,0,0,0,0,0,0,0,0,0,0,0,0,0,0,0,0,0,0,0,0,0,0,0,0,0,0,0,0,0,0,0,0,0,0,0,0,0,0,0,0,0,0,0,0,0,0,0,0,0,0,0,0,0,0,0,0,0,0,0,0],"sum_hessian":[2.8451018E3,1.6372883E3,1.2078136E3,1.5669912E3,7.029711E1,9.845422E2,2.2327138E2,1.1045505E3,4.624406E2,2.2053717E1,4.8243397E1,8.9082666E2,9.371549E1,2.4835554E1,1.9843582E2,8.365991E2,2.6795148E2,1.8358315E1,4.440823E2,1.75818E1,4.4719157E0,4.380418E1,4.4392147E0,5.188023E2,3.7202438E2,5.017702E1,4.353847E1,2.6441154E0,2.2191439E1,6.794781E1,1.30488E2,7.7390485E2,6.269426E1,2.3238417E1,2.4471307E2,1.3084635E1,5.2736797E0,4.3568658E2,8.395717E0,9.645698E0,7.936102E0,2.021613E0,2.4503028E0,1.473785E0,4.2330395E1,2.1087186E0,2.330496E0,1.0389979E2,4.149025E2,1.2983665E2,2.4218774E2,3.2866043E1,1.7310976E1,3.8153896E1,5.3845773E0,1.5617186E0,1.0823967E0,1.8409648E0,2.0350475E1,5.918693E1,8.760877E0,9.903252E1,3.1455498E1],"tree_param":{"num_deleted":"0","num_feature":"13","num_nodes":"63","size_leaf_vector":"1"}},{"base_weights":[5.921649E-3,1.0130417E0,-7.767097E-2,7.768327E-2,8.6514896E-1,5.088629E-1,6.637739E-2,5.9590552E-2,-1.0893582E-2],"categories":[],"categories_nodes":[],"categories_segments":[],"categories_sizes":[],"default_left":[0,0,0,0,0,0,0,0,0],"id":55,"left_children":[1,3,-1,-1,5,7,-1,-1,-1],"loss_changes":[2.9502417E3,1.7056885E0,0E0,0E0,3.4942627E-3,1.1675271E0,0E0,0E0,0E0],"parents":[2147483647,0,0,1,1,4,4,5,5],"right_children":[2,4,-1,-1,6,8,-1,-1,-1],"split_conditions":[-1.9974375E0,-2.0482295E0,-7.767097E-2,7.768327E-2,-4.843549E-1,2.28E2,6.637739E-2,5.9590552E-2,-1.0893582E-2],"split_indices":[8,8,0,0,5,0,0,0,0],"split_type":[0,0,0,0,0,0,0,0,0],"sum_hessian":[2.839308E3,1.4362954E3,1.4030127E3,1.321382E3,1.1491354E2,4.8203564E0,1.1009319E2,3.2380247E0,1.5823315E0],"tree_param":{"num_deleted":"0","num_feature":"13","num_nodes":"9","size_leaf_vector":"1"}},{"base_weights":[7.8493264E-4,1.0121132E0,-7.752155E-2,7.7522635E-2,8.8441193E-1,7.9815006E-1,7.324578E-2,8.221891E-1,2.1042128E-1,6.496188E-2,3.208947E-2,-3.0868286E-2,4.7710434E-2],"categories":[],"categories_nodes":[],"categories_segments":[],"categories_sizes":[],"default_left":[0,0,0,0,0,0,0,0,0,0,0,0,0],"id":56,"left_children":[1,3,-1,-1,5,7,-1,9,11,-1,-1,-1,-1],"loss_changes":[2.703929E3,9.415283E-1,0E0,0E0,2.0462036E-2,6.7778397E-1,0E0,4.429741E-1,1.2175164E0,0E0,0E0,0E0,0E0],"parents":[2147483647,0,0,1,1,4,4,5,5,7,7,8,8],"right_children":[2,4,-1,-1,6,8,-1,10,12,-1,-1,-1,-1],"split_conditions":[-1.9974375E0,-2.0482295E0,-7.752155E-2,7.7522635E-2,5.031133E-2,3.6315322E-2,7.324578E-2,9.019978E2,2.68E2,6.496188E-2,3.208947E-2,-3.0868286E-2,4.7710434E-2],"split_indices":[8,8,0,0,6,6,0,9,0,0,0,0,0],"split_type":[0,0,0,0,0,0,0,0,0,0,0,0,0],"sum_hessian":[2.6092588E3,1.3126874E3,1.2965713E3,1.2020743E3,1.1061303E2,5.9218315E1,5.1394714E1,5.6508118E1,2.7101989E0,5.0871624E1,5.6364937E0,1.1070712E0,1.6031277E0],"tree_param":{"num_deleted":"0","num_feature":"13","num_nodes":"13","size_leaf_vector":"1"}},{"base_weights":[1.6723142E-3,1.0077734E0,-7.7383235E-2,7.738066E-2,8.539797E-1,2.4690479E-1,8.6855686E-1,-3.4505885E-2,5.05937E-2,8.766418E-1,7.6327915E-3,7.569948E-2,5.9781265E-2],"categories":[],"categories_nodes":[],"categories_segments":[],"categories_sizes":[],"default_left":[0,0,0,0,0,0,0,0,0,0,0,0,0],"id":57,"left_children":[1,3,-1,-1,5,7,9,-1,-1,11,-1,-1,-1],"loss_changes":[2.5078076E3,1.6730957E0,0E0,0E0,7.151718E-1,1.445E0,5.4605865E-1,0E0,0E0,2.9562378E-1,0E0,0E0,0E0],"parents":[2147483647,0,0,1,1,4,4,5,5,6,6,9,9],"right_children":[2,4,-1,-1,6,8,10,-1,-1,12,-1,-1,-1],"split_conditions":[-1.9974375E0,-2.0482295E0,-7.7383235E-2,7.738066E-2,9.2740995E-1,-3.7806347E-1,1.0151232E1,-3.4505885E-2,5.05937E-2,2.6302202E0,7.6327915E-3,7.569948E-2,5.9781265E-2],"split_indices":[8,8,0,0,1,5,3,0,0,1,0,0,0],"split_type":[0,0,0,0,0,0,0,0,0,0,0,0,0],"sum_hessian":[2.4346738E3,1.227454E3,1.2072198E3,1.1234054E3,1.040486E2,2.8604736E0,1.01188126E2,1.0409838E0,1.81949E0,9.99935E1,1.1946293E0,3.738893E1,6.2604565E1],"tree_param":{"num_deleted":"0","num_feature":"13","num_nodes":"13","size_leaf_vector":"1"}},{"base_weights":[1.4427252E-3,-7.346192E-2,7.941201E-2,-9.4185576E-2,1.7075628E-1,4.7413692E-2,1.2193052E-1,-1.0586845E-1,2.4952473E-1,2.452258E-1,-1.4720157E-1,1.2388672E-1,2.1465858E-2,1.4249548E-1,-2.801954E-2,-1.21460624E-1,-7.788731E-3,4.9336532E-1,1.6332567E-1,5.271151E-1,1.9866182E-1,-4.8023786E-2,-9.0737425E-4,1.5088424E-1,-2.0853378E-1,-3.3266257E-2,8.580592E-2,7.108598E-2,1.756458E-1,-3.294555E-1,3.871412E-2,-8.658383E-3,-3.7694115E-2,-4.6782E-3,1.9011213E-2,8.396768E-3,4.3376543E-2,-2.9529793E-2,1.6503392E-2,4.8659094E-2,-4.4272537E-3,1.8010454E-2,-1.3844746E-2,2.7818069E-2,-1.8487519E-2,2.3653144E-3,1.4836167E-2,-3.8659375E-2,3.20491E-3,-1.7700546E-3,-4.8131786E-2,2.5035605E-2,5.0074058E-3,-5.066551E-4,1.4343151E-2,2.6338495E-2,1.19269155E-2,6.4442167E-3,-3.900559E-2,2.7687637E-2,-2.5242586E-3],"categories":[],"categories_nodes":[],"categories_segments":[],"categories_sizes":[],"default_left":[0,0,0,0,0,0,0,0,0,0,0,0,0,0,0,0,0,0,0,0,0,0,0,0,0,0,0,0,0,0,0,0,0,0,0,0,0,0,0,0,0,0,0,0,0,0,0,0,0,0,0,0,0,0,0,0,0,0,0,0,0],"id":58,"left_children":[1,3,5,7,9,11,13,15,17,19,21,23,25,27,29,31,33,35,37,39,41,-1,43,45,47,49,51,53,55,57,59,-1,-1,-1,-1,-1,-1,-1,-1,-1,-1,-1,-1,-1,-1,-1,-1,-1,-1,-1,-1,-1,-1,-1,-1,-1,-1,-1,-1,-1,-1],"loss_changes":[1.3226716E1,5.862072E0,1.5039406E0,4.30447E0,2.1838436E0,1.2569777E0,1.4714279E0,1.5758257E0,6.6180944E-1,8.648653E-1,1.269243E0,1.4728959E0,1.6762038E0,9.7853374E-1,1.1840531E0,2.3481274E0,2.004344E0,2.007401E-1,9.1619575E-1,7.0237637E-1,1.0110965E0,0E0,1.4061515E0,7.9550695E-1,9.662722E-1,1.5204935E0,1.033083E0,1.2369461E0,8.39839E-1,8.6262345E-1,1.1550585E0,0E0,0E0,0E0,0E0,0E0,0E0,0E0,0E0,0E0,0E0,0E0,0E0,0E0,0E0,0E0,0E0,0E0,0E0,0E0,0E0,0E0,0E0,0E0,0E0,0E0,0E0,0E0,0E0,0E0,0E0],"parents":[2147483647,0,0,1,1,2,2,3,3,4,4,5,5,6,6,7,7,8,8,9,9,10,10,11,11,12,12,13,13,14,14,15,15,16,16,17,17,18,18,19,19,20,20,22,22,23,23,24,24,25,25,26,26,27,27,28,28,29,29,30,30],"right_children":[2,4,6,8,10,12,14,16,18,20,22,24,26,28,30,32,34,36,38,40,42,-1,44,46,48,50,52,54,56,58,60,-1,-1,-1,-1,-1,-1,-1,-1,-1,-1,-1,-1,-1,-1,-1,-1,-1,-1,-1,-1,-1,-1,-1,-1,-1,-1,-1,-1,-1,-1],"split_conditions":[-5.4734435E0,1.0272339E1,-3.6175487E0,1.9820033E-1,-6.855229E0,-6.7136623E-4,1.2921527E-2,-3.0165893E-1,-7.556577E0,-1.0671802E1,-1.9850886E-1,8.2891E0,1.3378303E-1,3.3134682E0,1.8543341E0,9.839303E0,8.976472E0,2.2572292E-1,-7.021559E0,-1.06616095E-1,-3.656968E-1,-4.8023786E-2,-4.4393498E-1,-4.0834576E-1,-1.1601065E-1,-3.6620986E0,1.3806221E-1,2.4829932E-1,-4.4881377E-1,5.3958252E-2,-4.2236024E-1,-8.658383E-3,-3.7694115E-2,-4.6782E-3,1.9011213E-2,8.396768E-3,4.3376543E-2,-2.9529793E-2,1.6503392E-2,4.8659094E-2,-4.4272537E-3,1.8010454E-2,-1.3844746E-2,2.7818069E-2,-1.8487519E-2,2.3653144E-3,1.4836167E-2,-3.8659375E-2,3.20491E-3,-1.7700546E-3,-4.8131786E-2,2.5035605E-2,5.0074058E-3,-5.066551E-4,1.4343151E-2,2.6338495E-2,1.19269155E-2,6.4442167E-3,-3.900559E-2,2.7687637E-2,-2.5242586E-3],"split_indices":[7,1,7,6,7,6,7,5,7,7,6,1,6,3,1,3,3,6,7,6,5,0,5,5,6,7,6,4,5,6,5,0,0,0,0,0,0,0,0,0,0,0,0,0,0,0,0,0,0,0,0,0,0,0,0,0,0,0,0,0,0],"split_type":[0,0,0,0,0,0,0,0,0,0,0,0,0,0,0,0,0,0,0,0,0,0,0,0,0,0,0,0,0,0,0,0,0,0,0,0,0,0,0,0,0,0,0,0,0,0,0,0,0,0,0,0,0,0,0,0,0,0,0,0,0],"sum_hessian":[2.2627483E3,1.1540841E3,1.1086642E3,1.0643784E3,8.9705765E1,6.3379877E2,4.7486536E2,1.0300582E3,3.4320175E1,7.2867966E1,1.68378E1,1.5961365E2,4.7418515E2,4.176379E2,5.7227432E1,8.885613E2,1.4149695E2,7.7299824E0,2.6590195E1,8.867233E0,6.400073E1,3.1217854E0,1.3716013E1,1.4812943E2,1.1484219E1,2.5648456E2,2.1770058E2,1.334075E2,2.842304E2,9.659336E0,4.7568096E1,8.731687E2,1.5392538E1,1.17709015E2,2.3787933E1,1.7359381E0,5.9940443E0,1.8326838E0,2.4757511E1,7.3299947E0,1.5372387E0,5.840019E1,5.600541E0,5.252773E0,8.463241E0,4.0889977E1,1.0723944E2,4.7441845E0,6.7400336E0,2.5335428E2,3.1302865E0,1.5065922E1,2.0263466E2,8.103597E1,5.237153E1,2.5523027E1,2.587074E2,3.1515884E0,6.5077477E0,7.8571887E0,3.9710907E1],"tree_param":{"num_deleted":"0","num_feature":"13","num_nodes":"61","size_leaf_vector":"1"}},{"base_weights":[9.253424E-3,1.0071398E0,-7.7251665E-2,7.726196E-2,8.628187E-1,8.7061447E-1,1.4926061E-2,6.805381E-2,5.831333E-1,6.775854E-2,-9.368631E-3],"categories":[],"categories_nodes":[],"categories_segments":[],"categories_sizes":[],"default_left":[0,0,0,0,0,0,0,0,0,0,0],"id":59,"left_children":[1,3,-1,-1,5,7,-1,-1,9,-1,-1],"loss_changes":[2.3457986E3,1.2192383E0,0E0,0E0,3.4352875E-1,2.5035095E-1,0E0,0E0,2.617115E0,0E0,0E0],"parents":[2147483647,0,0,1,1,4,4,5,5,8,8],"right_children":[2,4,-1,-1,6,8,-1,-1,10,-1,-1],"split_conditions":[-1.9974375E0,-2.0482295E0,-7.7251665E-2,7.726196E-2,1.0044628E1,8.7464276E2,1.4926061E-2,6.805381E-2,2.98709E-1,6.775854E-2,-9.368631E-3],"split_indices":[8,8,0,0,3,9,0,0,4,0,0],"split_type":[0,0,0,0,0,0,0,0,0,0,0],"sum_hessian":[2.282968E3,1.1589042E3,1.124064E3,1.0606829E3,9.822128E1,9.678058E1,1.4407015E0,8.638172E1,1.0398859E1,7.0362525E0,3.362607E0],"tree_param":{"num_deleted":"0","num_feature":"13","num_nodes":"11","size_leaf_vector":"1"}},{"base_weights":[8.029284E-3,-4.6572663E-2,8.993443E-2,1.5723472E-3,-1.14349745E-1,1.6242512E-1,6.534491E-2,-9.031149E-2,9.8432235E-2,-1.5822352E-1,-1.2424951E-2,1.7340854E-1,-3.2181185E-1,6.381786E-3,9.776761E-2,-7.1245424E-2,-3.0104217E-1,