{"learner":{"attributes":{"scikit_learn":"{\"_estimator_type\": \"classifier\"}"},"feature_names":[],"feature_types":[],"gradient_booster":{"model":{"cats":{"enc":[],"feature_segments":[],"sorted_idx":[]},"gbtree_model_param":{"num_parallel_tree":"1","num_trees":"129"},"iteration_indptr":[0,1,2,3,4,5,6,7,8,9,10,11,12,13,14,15,16,17,18,19,20,21,22,23,24,25,26,27,28,29,30,31,32,33,34,35,36,37,38,39,40,41,42,43,44,45,46,47,48,49,50,51,52,53,54,55,56,57,58,59,60,61,62,63,64,65,66,67,68,69,70,71,72,73,74,75,76,77,78,79,80,81,82,83,84,85,86,87,88,89,90,91,92,93,94,95,96,97,98,99,100,101,102,103,104,105,106,107,108,109,110,111,112,113,114,115,116,117,118,119,120,121,122,123,124,125,126,127,128,129],"tree_info":[0,0,0,0,0,0,0,0,0,0,0,0,0,0,0,0,0,0,0,0,0,0,0,0,0,0,0,0,0,0,0,0,0,0,0,0,0,0,0,0,0,0,0,0,0,0,0,0,0,0,0,0,0,0,0,0,0,0,0,0,0,0,0,0,0,0,0,0,0,0,0,0,0,0,0,0,0,0,0,0,0,0,0,0,0,0,0,0,0,0,0,0,0,0,0,0,0,0,0,0,0,0,0,0,0,0,0,0,0,0,0,0,0,0,0,0,0,0,0,0,0,0,0,0,0,0,0,0,0],"trees":[{"base_weights":[1.5176273E-3,9.5185466E-2,-9.522836E-2],"categories":[],"categories_nodes":[],"categories_segments":[],"categories_sizes":[],"default_left":[0,0,0],"id":0,"left_children":[1,-1,-1],"loss_changes":[1.4183762E5,0E0,0E0],"parents":[2147483647,0,0],"right_children":[2,-1,-1],"split_conditions":[-1.9974375E0,9.5185466E-2,-9.522836E-2],"split_indices":[8,0,0],"split_type":[0,0,0],"sum_hessian":[3.547742E4,1.7756172E4,1.772125E4],"tree_param":{"num_deleted":"0","num_feature":"10","num_nodes":"3","size_leaf_vector":"1"}},{"base_weights":[4.6315677E-3,9.085984E-2,-9.090334E-2],"categories":[],"categories_nodes":[],"categories_segments":[],"categories_sizes":[],"default_left":[0,0,0],"id":1,"left_children":[1,-1,-1],"loss_changes":[1.2958597E5,0E0,0E0],"parents":[2147483647,0,0],"right_children":[2,-1,-1],"split_conditions":[-1.9974375E0,9.085984E-2,-9.090334E-2],"split_indices":[8,0,0],"split_type":[0,0,0],"sum_hessian":[3.5571848E4,1.7833344E4,1.7738504E4],"tree_param":{"num_deleted":"0","num_feature":"10","num_nodes":"3","size_leaf_vector":"1"}},{"base_weights":[7.771667E-4,8.7104656E-2,-8.714175E-2],"categories":[],"categories_nodes":[],"categories_segments":[],"categories_sizes":[],"default_left":[0,0,0],"id":2,"left_children":[1,-1,-1],"loss_changes":[1.1800954E5,0E0,0E0],"parents":[2147483647,0,0],"right_children":[2,-1,-1],"split_conditions":[-1.9974375E0,8.7104656E-2,-8.714175E-2],"split_indices":[8,0,0],"split_type":[0,0,0],"sum_hessian":[3.524899E4,1.7635732E4,1.7613254E4],"tree_param":{"num_deleted":"0","num_feature":"10","num_nodes":"3","size_leaf_vector":"1"}},{"base_weights":[4.9579307E-3,8.380131E-2,-8.384299E-2],"categories":[],"categories_nodes":[],"categories_segments":[],"categories_sizes":[],"default_left":[0,0,0],"id":3,"left_children":[1,-1,-1],"loss_changes":[1.0826483E5,0E0,0E0],"parents":[2147483647,0,0],"right_children":[2,-1,-1],"split_conditions":[-1.9974375E0,8.380131E-2,-8.384299E-2],"split_indices":[8,0,0],"split_type":[0,0,0],"sum_hessian":[3.4935793E4,1.752144E4,1.7414354E4],"tree_param":{"num_deleted":"0","num_feature":"10","num_nodes":"3","size_leaf_vector":"1"}},{"base_weights":[1.7109187E-3,8.089067E-2,-8.0929264E-2],"categories":[],"categories_nodes":[],"categories_segments":[],"categories_sizes":[],"default_left":[0,0,0],"id":4,"left_children":[1,-1,-1],"loss_changes":[9.961012E4,0E0,0E0],"parents":[2147483647,0,0],"right_children":[2,-1,-1],"split_conditions":[-1.9974375E0,8.089067E-2,-8.0929264E-2],"split_indices":[8,0,0],"split_type":[0,0,0],"sum_hessian":[3.4498203E4,1.7270584E4,1.7227617E4],"tree_param":{"num_deleted":"0","num_feature":"10","num_nodes":"3","size_leaf_vector":"1"}},{"base_weights":[-1.9879835E-3,7.829474E-2,-7.833922E-2],"categories":[],"categories_nodes":[],"categories_segments":[],"categories_sizes":[],"default_left":[0,0,0],"id":5,"left_children":[1,-1,-1],"loss_changes":[9.147963E4,0E0,0E0],"parents":[2147483647,0,0],"right_children":[2,-1,-1],"split_conditions":[-1.9974375E0,7.829474E-2,-7.833922E-2],"split_indices":[8,0,0],"split_type":[0,0,0],"sum_hessian":[3.381496E4,1.6891846E4,1.6923117E4],"tree_param":{"num_deleted":"0","num_feature":"10","num_nodes":"3","size_leaf_vector":"1"}},{"base_weights":[-4.684015E-3,7.597918E-2,-7.602401E-2],"categories":[],"categories_nodes":[],"categories_segments":[],"categories_sizes":[],"default_left":[0,0,0],"id":6,"left_children":[1,-1,-1],"loss_changes":[8.441697E4,0E0,0E0],"parents":[2147483647,0,0],"right_children":[2,-1,-1],"split_conditions":[-1.9974375E0,7.597918E-2,-7.602401E-2],"split_indices":[8,0,0],"split_type":[0,0,0],"sum_hessian":[3.313468E4,1.6523605E4,1.6611074E4],"tree_param":{"num_deleted":"0","num_feature":"10","num_nodes":"3","size_leaf_vector":"1"}},{"base_weights":[1.6836268E-3,7.390521E-2,-7.3944144E-2],"categories":[],"categories_nodes":[],"categories_segments":[],"categories_sizes":[],"default_left":[0,0,0],"id":7,"left_children":[1,-1,-1],"loss_changes":[7.859355E4,0E0,0E0],"parents":[2147483647,0,0],"right_children":[2,-1,-1],"split_conditions":[-1.9974375E0,7.390521E-2,-7.3944144E-2],"split_indices":[8,0,0],"split_type":[0,0,0],"sum_hessian":[3.260647E4,1.632521E4,1.6281261E4],"tree_param":{"num_deleted":"0","num_feature":"10","num_nodes":"3","size_leaf_vector":"1"}},{"base_weights":[3.0314748E-3,7.201903E-2,-7.206733E-2],"categories":[],"categories_nodes":[],"categories_segments":[],"categories_sizes":[],"default_left":[0,0,0],"id":8,"left_children":[1,-1,-1],"loss_changes":[7.3221016E4,0E0,0E0],"parents":[2147483647,0,0],"right_children":[2,-1,-1],"split_conditions":[-1.9974375E0,7.201903E-2,-7.206733E-2],"split_indices":[8,0,0],"split_type":[0,0,0],"sum_hessian":[3.1985035E4,1.6029922E4,1.5955113E4],"tree_param":{"num_deleted":"0","num_feature":"10","num_nodes":"3","size_leaf_vector":"1"}},{"base_weights":[-1.0020014E-2,7.031047E-2,-7.036693E-2],"categories":[],"categories_nodes":[],"categories_segments":[],"categories_sizes":[],"default_left":[0,0,0],"id":9,"left_children":[1,-1,-1],"loss_changes":[6.7510984E4,0E0,0E0],"parents":[2147483647,0,0],"right_children":[2,-1,-1],"split_conditions":[-1.9974375E0,7.031047E-2,-7.036693E-2],"split_indices":[8,0,0],"split_type":[0,0,0],"sum_hessian":[3.0938342E4,1.5370446E4,1.5567896E4],"tree_param":{"num_deleted":"0","num_feature":"10","num_nodes":"3","size_leaf_vector":"1"}},{"base_weights":[6.174871E-3,6.8789534E-2,-6.882077E-2],"categories":[],"categories_nodes":[],"categories_segments":[],"categories_sizes":[],"default_left":[0,0,0],"id":10,"left_children":[1,-1,-1],"loss_changes":[6.3474832E4,0E0,0E0],"parents":[2147483647,0,0],"right_children":[2,-1,-1],"split_conditions":[-1.9974375E0,6.8789534E-2,-6.882077E-2],"split_indices":[8,0,0],"split_type":[0,0,0],"sum_hessian":[3.0399154E4,1.5267982E4,1.5131172E4],"tree_param":{"num_deleted":"0","num_feature":"10","num_nodes":"3","size_leaf_vector":"1"}},{"base_weights":[-8.989888E-3,6.737355E-2,-6.741024E-2],"categories":[],"categories_nodes":[],"categories_segments":[],"categories_sizes":[],"default_left":[0,0,0],"id":11,"left_children":[1,-1,-1],"loss_changes":[5.8545418E4,0E0,0E0],"parents":[2147483647,0,0],"right_children":[2,-1,-1],"split_conditions":[-1.9974375E0,6.737355E-2,-6.741024E-2],"split_indices":[8,0,0],"split_type":[0,0,0],"sum_hessian":[2.9227086E4,1.4524692E4,1.4702393E4],"tree_param":{"num_deleted":"0","num_feature":"10","num_nodes":"3","size_leaf_vector":"1"}},{"base_weights":[-5.625079E-3,6.607204E-2,-6.611962E-2],"categories":[],"categories_nodes":[],"categories_segments":[],"categories_sizes":[],"default_left":[0,0,0],"id":12,"left_children":[1,-1,-1],"loss_changes":[5.5032527E4,0E0,0E0],"parents":[2147483647,0,0],"right_children":[2,-1,-1],"split_conditions":[-1.9974375E0,6.607204E-2,-6.611962E-2],"split_indices":[8,0,0],"split_type":[0,0,0],"sum_hessian":[2.8560678E4,1.4227608E4,1.433307E4],"tree_param":{"num_deleted":"0","num_feature":"10","num_nodes":"3","size_leaf_vector":"1"}},{"base_weights":[-6.5691825E-3,6.488255E-2,-6.493542E-2],"categories":[],"categories_nodes":[],"categories_segments":[],"categories_sizes":[],"default_left":[0,0,0],"id":13,"left_children":[1,-1,-1],"loss_changes":[5.1271715E4,0E0,0E0],"parents":[2147483647,0,0],"right_children":[2,-1,-1],"split_conditions":[-1.9974375E0,6.488255E-2,-6.493542E-2],"split_indices":[8,0,0],"split_type":[0,0,0],"sum_hessian":[2.7590957E4,1.3734614E4,1.3856344E4],"tree_param":{"num_deleted":"0","num_feature":"10","num_nodes":"3","size_leaf_vector":"1"}},{"base_weights":[3.0188484E-3,6.37964E-2,-6.384623E-2],"categories":[],"categories_nodes":[],"categories_segments":[],"categories_sizes":[],"default_left":[0,0,0],"id":14,"left_children":[1,-1,-1],"loss_changes":[4.8606684E4,0E0,0E0],"parents":[2147483647,0,0],"right_children":[2,-1,-1],"split_conditions":[-1.9974375E0,6.37964E-2,-6.384623E-2],"split_indices":[8,0,0],"split_type":[0,0,0],"sum_hessian":[2.7055592E4,1.3563547E4,1.3492044E4],"tree_param":{"num_deleted":"0","num_feature":"10","num_nodes":"3","size_leaf_vector":"1"}},{"base_weights":[8.268507E-5,6.277918E-2,-6.284205E-2],"categories":[],"categories_nodes":[],"categories_segments":[],"categories_sizes":[],"default_left":[0,0,0],"id":15,"left_children":[1,-1,-1],"loss_changes":[4.5461086E4,0E0,0E0],"parents":[2147483647,0,0],"right_children":[2,-1,-1],"split_conditions":[-1.9974375E0,6.277918E-2,-6.284205E-2],"split_indices":[8,0,0],"split_type":[0,0,0],"sum_hessian":[2.6125355E4,1.3070034E4,1.3055321E4],"tree_param":{"num_deleted":"0","num_feature":"10","num_nodes":"3","size_leaf_vector":"1"}},{"base_weights":[1.5464325E-3,-1.614834E-1,2.4259903E-1,4.42709E-2,-4.6441188E-1,3.6716378E-1,8.982278E-2,-9.523598E-2,4.709992E-1,-1.7888682E-1,-5.895698E-1,2.7625734E-1,4.5525944E-1,1.5224166E-1,-2.5286093E-1,-2.3030788E-1,9.72816E-2,8.849798E-3,5.8078307E-1,-2.2606456E-1,4.9800217E-1,-5.21087E-1,-8.65351E-1,-7.301747E-1,2.882103E-1,3.0499968E-1,5.20046E-1,-7.046956E-3,2.7137864E-1,-4.140136E-1,2.7138442E-1,-4.5357308E-1,-1.7478456E-1,-5.087546E-2,2.564512E-1,-5.7700608E-2,5.2363638E-2,4.2509964E-1,7.902095E-1,-5.1476274E-2,-3.5662252E-1,5.7772225E-1,-5.1853176E-2,-7.376787E-1,-3.994371E-1,-1.0165932E0,-3.594121E-1,2.8625056E-1,-5.9099656E-2,3.2283756E-1,-3.885133E-2,4.083654E-1,-1.6067144E-2,5.242844E-1,-5.0898433E-2,1.2002997E-1,-9.241425E-2,3.5240307E-1,-7.636371E-2,-6.3291115E-1,-4.1622568E-2,3.6938366E-1,-5.6169838E-2,2.7647588E-1,-5.0838023E-1,-2.0586006E-1,3.2109645E-1,3.838008E-1,-9.930777E-2,3.0378795E-1,-5.1031005E-1,2.186107E-1,-2.60806E-1,5.3195006E-1,9.982651E-2,8.475994E-1,7.638658E-2,-5.285354E-1,5.5630017E-2,-3.069806E-1,-1.1323875E0,1.0088233E-1,7.492063E-1,-7.817557E-1,-1.1168287E-1,-2.3136672E-1,-5.907772E-1,-1.0383495E0,7.8019865E-2,6.268471E-1,-4.8963416E-1,3.973753E-2,-4.6515368E-2,1.5439716E-1,4.096793E-1,-8.885733E-1,4.7389753E-2,4.4019493E-1,-5.711976E-2,9.0899193E-1,-9.323884E-2,5.282144E-1,-5.0154526E-2,3.3968735E-1,3.1546243E-2,-9.0581846E-1,-5.1647652E-2,3.5946035E-1,-5.4751094E-2,-3.7307985E-2,-5.7486E-2,-7.44038E-2,-7.796481E-1,1.9381306E-1,-7.5465155E-1,2.6972273E-1,9.0345097E-1,-2.7366664E-2,2.5788981E-2,5.08184E-3,-2.6601236E-2,-1.3638344E-2,-2.7287228E-3,4.1515743E-3,4.5485422E-2,-1.0686364E-3,3.884011E-2,-2.5451723E-2,-2.2738026E-3,-5.754167E-2,1.5266429E-2,-1.1535601E-2,-5.8955833E-2,-1.3687297E-4,2.4452914E-2,-2.0634152E-2,1.6115913E-2,1.127758E-2,3.4460183E-2,2.1267597E-2,-5.038617E-3,-4.6515368E-2,4.0800903E-2,-2.1207428E-2,3.3246443E-2,-3.137263E-3,-5.3896755E-2,-4.8636673E-3,9.818558E-3,-4.7261912E-2,-1.2341882E-2,-7.7871014E-3,-6.071983E-2,3.582673E-2,-3.0965377E-2,4.928383E-2,2.2317778E-2,-3.8486835E-2,1.460693E-2,-4.024559E-2,7.4308836E-3,-1.4894547E-2,1.6754499E-2,-1.2805713E-2,-3.211794E-2,-5.1771358E-2,-2.5894908E-2,-5.2135695E-2,4.633933E-2,-8.860889E-3,5.064357E-2,-2.765717E-2,2.330307E-2,1.2880735E-2,-1.3162245E-2,1.1294014E-2,2.5171569E-2,-5.8930427E-2,4.3336533E-2,-1.39588835E-2,1.6715359E-2,2.330261E-2,3.501345E-3,4.9136735E-2,2.3231866E-2,-2.1909905E-4,-2.9901529E-2,4.0813666E-2,2.4224445E-2,1.8643796E-2,-5.289549E-2,1.007436E-2,-8.66172E-3,-5.994571E-2,-9.384906E-3,-3.176331E-2,-1.0568127E-3,7.58924E-3,1.9241177E-2,-1.1692303E-2,6.256182E-3,-5.7986196E-2,1.152989E-2,-3.0588625E-2,-5.128321E-2,2.8902978E-2,-3.520865E-3,1.2506021E-2,-4.9783822E-2,4.1039273E-2,8.748624E-3,-3.1945504E-2,4.7850728E-2],"categories":[],"categories_nodes":[],"categories_segments":[],"categories_sizes":[],"default_left":[0,0,0,0,0,0,0,0,0,0,0,0,0,0,0,0,0,0,0,0,0,0,0,0,0,0,0,0,0,0,0,0,0,0,0,0,0,0,0,0,0,0,0,0,0,0,0,0,0,0,0,0,0,0,0,0,0,0,0,0,0,0,0,0,0,0,0,0,0,0,0,0,0,0,0,0,0,0,0,0,0,0,0,0,0,0,0,0,0,0,0,0,0,0,0,0,0,0,0,0,0,0,0,0,0,0,0,0,0,0,0,0,0,0,0,0,0,0,0,0,0,0,0,0,0,0,0,0,0,0,0,0,0,0,0,0,0,0,0,0,0,0,0,0,0,0,0,0,0,0,0,0,0,0,0,0,0,0,0,0,0,0,0,0,0,0,0,0,0,0,0,0,0,0,0,0,0,0,0,0,0,0,0,0,0,0,0,0,0,0,0,0,0,0,0,0,0,0,0,0,0,0,0,0,0,0,0,0,0,0,0,0,0],"id":16,"left_children":[1,3,5,7,9,11,13,15,17,19,21,23,25,27,29,31,33,35,37,39,41,43,45,47,49,51,53,55,57,59,61,63,65,67,69,-1,71,73,75,77,79,81,-1,83,85,87,89,91,-1,93,95,97,99,101,-1,103,105,107,109,111,113,115,-1,117,119,121,123,125,127,129,131,133,135,137,139,141,143,145,147,149,151,153,155,157,159,161,163,165,167,169,171,-1,-1,173,175,177,179,181,-1,183,185,187,-1,189,191,193,195,197,-1,199,-1,201,203,205,207,209,211,-1,-1,-1,-1,-1,-1,-1,-1,-1,-1,-1,-1,-1,-1,-1,-1,-1,-1,-1,-1,-1,-1,-1,-1,-1,-1,-1,-1,-1,-1,-1,-1,-1,-1,-1,-1,-1,-1,-1,-1,-1,-1,-1,-1,-1,-1,-1,-1,-1,-1,-1,-1,-1,-1,-1,-1,-1,-1,-1,-1,-1,-1,-1,-1,-1,-1,-1,-1,-1,-1,-1,-1,-1,-1,-1,-1,-1,-1,-1,-1,-1,-1,-1,-1,-1,-1,-1,-1,-1,-1,-1,-1,-1,-1,-1,-1],"loss_changes":[9.92036E2,9.3861847E2,1.9378613E2,5.339633E2,2.175658E2,4.4801636E1,9.7911255E1,1.7580313E2,1.121142E2,5.9437992E1,7.9520996E1,3.3454895E1,2.7561218E1,7.346718E1,5.9706947E1,4.9170593E1,6.575807E1,2.2647326E1,5.7883423E1,3.9583466E1,1.5982336E1,8.914703E1,6.3973206E1,1.73483E1,3.0950546E1,2.8556892E1,1.3950562E1,1.7991596E1,6.242984E1,4.3987083E1,2.4105831E1,3.1774597E1,4.9119904E1,3.045343E1,4.8943222E1,0E0,2.1482224E1,3.5620087E1,3.1079132E1,3.8071247E1,3.792682E1,9.426582E0,0E0,3.3566406E1,6.983685E1,1.54835205E1,2.535773E1,8.958251E0,0E0,3.6072174E1,1.9272957E1,3.3836113E1,1.5110088E1,1.2854248E1,0E0,1.2942661E1,3.2847748E1,1.945845E1,1.847689E1,2.7804718E1,3.388162E1,8.096231E0,0E0,1.291646E1,2.2810776E1,3.5839684E1,2.7820097E1,2.5465843E1,2.9158588E1,3.2608475E1,1.5021082E1,1.7596535E1,1.4947871E1,4.353453E1,1.8235714E1,1.2721985E1,1.9022238E1,3.805631E1,1.4486167E1,3.039116E1,8.009094E0,1.6097624E1,6.3544884E0,3.3117737E1,1.6117489E1,5.5204334E1,2.7221191E1,1.47456665E1,1.5276E1,8.430317E0,1.5717304E1,0E0,0E0,4.2192017E1,3.330594E1,1.633809E1,2.4836777E1,1.1485573E1,0E0,3.4026814E-1,9.24765E0,1.2244507E1,0E0,1.4820852E1,1.8336626E1,1.1584824E1,1.7127373E1,1.5906113E1,0E0,1.4308178E1,0E0,2.6296787E1,1.02925415E1,1.6846329E1,1.5094862E1,6.6381693E0,4.5422077E0,0E0,0E0,0E0,0E0,0E0,0E0,0E0,0E0,0E0,0E0,0E0,0E0,0E0,0E0,0E0,0E0,0E0,0E0,0E0,0E0,0E0,0E0,0E0,0E0,0E0,0E0,0E0,0E0,0E0,0E0,0E0,0E0,0E0,0E0,0E0,0E0,0E0,0E0,0E0,0E0,0E0,0E0,0E0,0E0,0E0,0E0,0E0,0E0,0E0,0E0,0E0,0E0,0E0,0E0,0E0,0E0,0E0,0E0,0E0,0E0,0E0,0E0,0E0,0E0,0E0,0E0,0E0,0E0,0E0,0E0,0E0,0E0,0E0,0E0,0E0,0E0,0E0,0E0,0E0,0E0,0E0,0E0,0E0,0E0,0E0,0E0,0E0,0E0,0E0,0E0,0E0,0E0,0E0,0E0,0E0,0E0],"parents":[2147483647,0,0,1,1,2,2,3,3,4,4,5,5,6,6,7,7,8,8,9,9,10,10,11,11,12,12,13,13,14,14,15,15,16,16,17,17,18,18,19,19,20,20,21,21,22,22,23,23,24,24,25,25,26,26,27,27,28,28,29,29,30,30,31,31,32,32,33,33,34,34,36,36,37,37,38,38,39,39,40,40,41,41,43,43,44,44,45,45,46,46,47,47,49,49,50,50,51,51,52,52,53,53,55,55,56,56,57,57,58,58,59,59,60,60,61,61,63,63,64,64,65,65,66,66,67,67,68,68,69,69,70,70,71,71,72,72,73,73,74,74,75,75,76,76,77,77,78,78,79,79,80,80,81,81,82,82,83,83,84,84,85,85,86,86,87,87,88,88,89,89,90,90,93,93,94,94,95,95,96,96,97,97,99,99,100,100,101,101,103,103,104,104,105,105,106,106,107,107,109,109,111,111,112,112,113,113,114,114,115,115,116,116],"right_children":[2,4,6,8,10,12,14,16,18,20,22,24,26,28,30,32,34,36,38,40,42,44,46,48,50,52,54,56,58,60,62,64,66,68,70,-1,72,74,76,78,80,82,-1,84,86,88,90,92,-1,94,96,98,100,102,-1,104,106,108,110,112,114,116,-1,118,120,122,124,126,128,130,132,134,136,138,140,142,144,146,148,150,152,154,156,158,160,162,164,166,168,170,172,-1,-1,174,176,178,180,182,-1,184,186,188,-1,190,192,194,196,198,-1,200,-1,202,204,206,208,210,212,-1,-1,-1,-1,-1,-1,-1,-1,-1,-1,-1,-1,-1,-1,-1,-1,-1,-1,-1,-1,-1,-1,-1,-1,-1,-1,-1,-1,-1,-1,-1,-1,-1,-1,-1,-1,-1,-1,-1,-1,-1,-1,-1,-1,-1,-1,-1,-1,-1,-1,-1,-1,-1,-1,-1,-1,-1,-1,-1,-1,-1,-1,-1,-1,-1,-1,-1,-1,-1,-1,-1,-1,-1,-1,-1,-1,-1,-1,-1,-1,-1,-1,-1,-1,-1,-1,-1,-1,-1,-1,-1,-1,-1,-1,-1,-1],"split_conditions":[-5.0007634E0,1.8E2,1.9412445E2,6.5308075E0,3.0367735E-1,1.168515E-1,5.547545E0,2.3150932E-2,3.5720646E1,2.159091E-1,3.6E2,1.58E2,1.8664187E0,2.23E2,3.066912E2,1.86E2,2.9323819E0,2.0124914E-1,1.0272339E1,8.206687E-2,3.66E2,1.99E2,3.2613132E2,2.9079905E0,3.33E2,5.7885375E0,-2.3454367E-1,2.0839438E0,3.29E2,-2.8225496E0,7.925907E2,2.3872676E0,9.592577E0,1.100071E-1,3.66E2,-5.7700608E-2,3.51E2,3.22E2,5.3075415E2,1.6155495E2,5.9414754E0,2.8460498E2,-5.1853176E-2,-2.8576577E-1,3.3555944E0,-5.0754375E0,-2.5515592E-1,6.0671246E2,-5.9099656E-2,2.04E2,-8.408982E-2,8.1240547E-1,-4.8895898E-1,1.0151232E1,-5.0898433E-2,4.165418E-2,-4.8491178E0,6.15533E-1,1.9820033E-1,1.7111959E-1,3.3E2,-3.1265047E-1,-5.6169838E-2,5.9201748E1,-2.4148978E-1,3.8421366E0,-2.091768E-1,2.49E2,1.6970563E2,2.2641494E0,1.04369484E-1,-3.2602254E-2,7.3076415E-1,2.08E2,5.6483284E1,1.62E2,2.324976E0,3.3471708E0,2.29E2,9.3667865E-2,2.0193608E2,9E1,9.538125E-2,1.3461774E1,2.65268E2,-5.4064107E0,4.0980962E-1,-3.4035087E-1,6.8257093E-1,-4.168E-1,-5.3834305E0,3.973753E-2,-4.6515368E-2,3.383675E-1,2.630173E0,8.1055536E2,3.440157E-1,2.0289527E-1,-5.711976E-2,6.9925337E0,2.0479453E-1,1.8667321E0,-5.0154526E-2,9.972462E2,1.92E2,3.1481085E2,6E1,2.38E2,-5.4751094E-2,-3.6620986E0,-5.7486E-2,6.5069695E0,9.134828E0,-3.9861384E-1,1.84E2,-4.5619446E-1,3.148088E2,-2.7366664E-2,2.5788981E-2,5.08184E-3,-2.6601236E-2,-1.3638344E-2,-2.7287228E-3,4.1515743E-3,4.5485422E-2,-1.0686364E-3,3.884011E-2,-2.5451723E-2,-2.2738026E-3,-5.754167E-2,1.5266429E-2,-1.1535601E-2,-5.8955833E-2,-1.3687297E-4,2.4452914E-2,-2.0634152E-2,1.6115913E-2,1.127758E-2,3.4460183E-2,2.1267597E-2,-5.038617E-3,-4.6515368E-2,4.0800903E-2,-2.1207428E-2,3.3246443E-2,-3.137263E-3,-5.3896755E-2,-4.8636673E-3,9.818558E-3,-4.7261912E-2,-1.2341882E-2,-7.7871014E-3,-6.071983E-2,3.582673E-2,-3.0965377E-2,4.928383E-2,2.2317778E-2,-3.8486835E-2,1.460693E-2,-4.024559E-2,7.4308836E-3,-1.4894547E-2,1.6754499E-2,-1.2805713E-2,-3.211794E-2,-5.1771358E-2,-2.5894908E-2,-5.2135695E-2,4.633933E-2,-8.860889E-3,5.064357E-2,-2.765717E-2,2.330307E-2,1.2880735E-2,-1.3162245E-2,1.1294014E-2,2.5171569E-2,-5.8930427E-2,4.3336533E-2,-1.39588835E-2,1.6715359E-2,2.330261E-2,3.501345E-3,4.9136735E-2,2.3231866E-2,-2.1909905E-4,-2.9901529E-2,4.0813666E-2,2.4224445E-2,1.8643796E-2,-5.289549E-2,1.007436E-2,-8.66172E-3,-5.994571E-2,-9.384906E-3,-3.176331E-2,-1.0568127E-3,7.58924E-3,1.9241177E-2,-1.1692303E-2,6.256182E-3,-5.7986196E-2,1.152989E-2,-3.0588625E-2,-5.128321E-2,2.8902978E-2,-3.520865E-3,1.2506021E-2,-4.9783822E-2,4.1039273E-2,8.748624E-3,-3.1945504E-2,4.7850728E-2],"split_indices":[7,2,2,1,4,6,1,6,2,6,0,0,1,0,2,0,1,4,1,6,0,0,2,3,0,3,5,1,0,7,9,3,3,4,0,0,0,0,9,9,1,9,0,5,1,7,6,9,0,0,6,7,5,3,0,6,7,4,6,4,9,7,0,2,6,1,5,0,9,3,6,6,4,0,2,0,3,1,0,6,2,9,4,1,2,7,4,5,4,5,7,0,0,4,1,9,4,6,0,3,4,1,0,9,0,2,9,0,0,7,0,1,1,5,0,5,2,0,0,0,0,0,0,0,0,0,0,0,0,0,0,0,0,0,0,0,0,0,0,0,0,0,0,0,0,0,0,0,0,0,0,0,0,0,0,0,0,0,0,0,0,0,0,0,0,0,0,0,0,0,0,0,0,0,0,0,0,0,0,0,0,0,0,0,0,0,0,0,0,0,0,0,0,0,0,0,0,0,0,0,0,0,0,0,0,0,0,0,0,0,0,0,0],"split_type":[0,0,0,0,0,0,0,0,0,0,0,0,0,0,0,0,0,0,0,0,0,0,0,0,0,0,0,0,0,0,0,0,0,0,0,0,0,0,0,0,0,0,0,0,0,0,0,0,0,0,0,0,0,0,0,0,0,0,0,0,0,0,0,0,0,0,0,0,0,0,0,0,0,0,0,0,0,0,0,0,0,0,0,0,0,0,0,0,0,0,0,0,0,0,0,0,0,0,0,0,0,0,0,0,0,0,0,0,0,0,0,0,0,0,0,0,0,0,0,0,0,0,0,0,0,0,0,0,0,0,0,0,0,0,0,0,0,0,0,0,0,0,0,0,0,0,0,0,0,0,0,0,0,0,0,0,0,0,0,0,0,0,0,0,0,0,0,0,0,0,0,0,0,0,0,0,0,0,0,0,0,0,0,0,0,0,0,0,0,0,0,0,0,0,0,0,0,0,0,0,0,0,0,0,0,0,0,0,0,0,0,0,0],"sum_hessian":[2.5241443E4,1.5057806E4,1.0183637E4,8.967665E3,6.0901406E3,5.6089917E3,4.574645E3,6.7588315E3,2.208834E3,1.8567444E3,4.2333965E3,2.7624937E3,2.8464983E3,3.8702458E3,7.0439886E2,3.9719104E3,2.7869211E3,4.24198E2,1.784636E3,1.7363877E3,1.203566E2,3.3935818E3,8.398146E2,3.1718662E1,2.730775E3,8.592782E2,1.9872201E3,1.6564622E3,2.2137837E3,5.389395E2,1.6545938E2,7.896151E2,3.1822954E3,1.4437452E3,1.3431758E3,1.3677552E1,4.1052045E2,1.025402E3,7.592339E2,7.435165E2,9.928712E2,1.15205315E2,5.1512856E0,1.2186934E3,2.1748884E3,6.457645E2,1.9405005E2,1.0758258E1,2.0960403E1,2.4693486E3,2.614263E2,6.4980505E2,2.0947314E2,1.9826017E3,4.618394E0,6.6545953E2,9.910026E2,1.7954321E3,4.183516E2,3.389812E2,1.999583E2,1.556897E2,9.76968E0,5.4857075E1,7.34758E2,2.9951804E3,1.8711491E2,1.4404329E2,1.299702E3,1.2656438E3,7.753196E1,2.6836176E2,1.4215872E2,7.713744E2,2.5402765E2,7.0256195E2,5.667198E1,1.3560176E2,6.0791473E2,9.344694E2,5.8401848E1,3.0892332E1,8.431298E1,1.1382961E3,8.039727E1,1.159026E3,1.0158624E3,6.3323E2,1.2534564E1,2.2188437E1,1.7186162E2,7.7385387E0,3.0197191E0,8.409666E2,1.628382E3,2.3230999E1,2.3819531E2,6.379038E2,1.1901246E1,1.5299447E1,1.941737E2,1.9783386E3,4.263133E0,1.9027367E2,4.7518588E2,4.6284367E1,9.4471826E2,1.7877941E3,7.6381135E0,4.0538455E2,1.296703E1,7.084383E1,2.6813736E2,1.5087045E2,4.9087852E1,1.3247408E2,2.3215616E1,1.2750796E1,4.2106277E1,5.542857E1,6.7932947E2,1.9414432E3,1.0537373E3,1.3752493E2,4.958998E1,7.471309E1,6.933019E1,1.3666756E2,1.1630344E3,1.314466E1,1.2524991E3,5.763734E1,1.989462E1,1.5382835E2,1.14533394E2,1.1059446E2,3.1564253E1,3.046834E2,4.6669098E2,9.412126E1,1.5990639E2,3.0197191E0,6.9954224E2,3.0969538E1,2.5702444E1,7.737755E1,5.8224216E1,2.9701425E2,3.1090048E2,5.960666E1,8.7486273E2,7.7771416E0,5.0624706E1,1.6542862E1,1.4349472E1,4.0430397E1,4.3882584E1,1.1114893E3,2.680683E1,2.0921803E1,5.9475468E1,1.0174309E3,1.4159506E2,2.1059291E2,8.0526953E2,5.7516016E2,5.8069805E1,5.3289165E0,7.2056475E0,7.954772E0,1.42336645E1,1.5758936E2,1.4272266E1,6.6272565E2,1.7824094E2,6.658226E2,9.6255945E2,1.971699E1,3.5140085E0,1.12293564E2,1.2590175E2,5.621636E2,7.574027E1,1.0719656E1,4.5797915E0,1.674287E2,2.6745007E1,1.08200516E2,1.8701381E3,1.8441187E2,5.861808E0,2.577812E2,2.174047E2,3.0374823E1,1.5909544E1,4.2160263E1,9.0255804E2,3.2684863E2,1.4609454E3,1.8122205E2,2.241625E2,1.4743335E1,5.6100487E1,1.8561638E2,8.2520996E1,5.882677E1,9.204368E1,1.0935888E1,3.8151966E1,1.5654709E1,1.16819374E2,1.0657833E0,2.2149834E1],"tree_param":{"num_deleted":"0","num_feature":"10","num_nodes":"213","size_leaf_vector":"1"}},{"base_weights":[-5.5916916E-4,6.1744556E-2,-6.1800174E-2],"categories":[],"categories_nodes":[],"categories_segments":[],"categories_sizes":[],"default_left":[0,0,0],"id":17,"left_children":[1,-1,-1],"loss_changes":[4.2156598E4,0E0,0E0],"parents":[2147483647,0,0],"right_children":[2,-1,-1],"split_conditions":[-1.9974375E0,6.1744556E-2,-6.1800174E-2],"split_indices":[8,0,0],"split_type":[0,0,0],"sum_hessian":[2.5047477E4,1.2523979E4,1.2523498E4],"tree_param":{"num_deleted":"0","num_feature":"10","num_nodes":"3","size_leaf_vector":"1"}},{"base_weights":[-9.2563126E-4,6.0892526E-2,-6.0950235E-2],"categories":[],"categories_nodes":[],"categories_segments":[],"categories_sizes":[],"default_left":[0,0,0],"id":18,"left_children":[1,-1,-1],"loss_changes":[3.9849527E4,0E0,0E0],"parents":[2147483647,0,0],"right_children":[2,-1,-1],"split_conditions":[-1.9974375E0,6.0892526E-2,-6.0950235E-2],"split_indices":[8,0,0],"split_type":[0,0,0],"sum_hessian":[2.434275E4,1.2168333E4,1.2174416E4],"tree_param":{"num_deleted":"0","num_feature":"10","num_nodes":"3","size_leaf_vector":"1"}},{"base_weights":[2.2756082E-3,6.0119037E-2,-6.016237E-2],"categories":[],"categories_nodes":[],"categories_segments":[],"categories_sizes":[],"default_left":[0,0,0],"id":19,"left_children":[1,-1,-1],"loss_changes":[3.7418914E4,0E0,0E0],"parents":[2147483647,0,0],"right_children":[2,-1,-1],"split_conditions":[-1.9974375E0,6.0119037E-2,-6.016237E-2],"split_indices":[8,0,0],"split_type":[0,0,0],"sum_hessian":[2.3455287E4,1.1753E4,1.1702288E4],"tree_param":{"num_deleted":"0","num_feature":"10","num_nodes":"3","size_leaf_vector":"1"}},{"base_weights":[-1.0145663E-2,5.936404E-2,-5.942898E-2],"categories":[],"categories_nodes":[],"categories_segments":[],"categories_sizes":[],"default_left":[0,0,0],"id":20,"left_children":[1,-1,-1],"loss_changes":[3.496558E4,0E0,0E0],"parents":[2147483647,0,0],"right_children":[2,-1,-1],"split_conditions":[-1.9974375E0,5.936404E-2,-5.942898E-2],"split_indices":[8,0,0],"split_type":[0,0,0],"sum_hessian":[2.2471229E4,1.1150366E4,1.1320861E4],"tree_param":{"num_deleted":"0","num_feature":"10","num_nodes":"3","size_leaf_vector":"1"}},{"base_weights":[7.442035E-3,5.868007E-2,-5.874666E-2],"categories":[],"categories_nodes":[],"categories_segments":[],"categories_sizes":[],"default_left":[0,0,0],"id":21,"left_children":[1,-1,-1],"loss_changes":[3.339665E4,0E0,0E0],"parents":[2147483647,0,0],"right_children":[2,-1,-1],"split_conditions":[-1.9974375E0,5.868007E-2,-5.874666E-2],"split_indices":[8,0,0],"split_type":[0,0,0],"sum_hessian":[2.1964934E4,1.1054983E4,1.090995E4],"tree_param":{"num_deleted":"0","num_feature":"10","num_nodes":"3","size_leaf_vector":"1"}},{"base_weights":[5.6152493E-3,5.8046605E-2,-5.811168E-2],"categories":[],"categories_nodes":[],"categories_segments":[],"categories_sizes":[],"default_left":[0,0,0],"id":22,"left_children":[1,-1,-1],"loss_changes":[3.1393775E4,0E0,0E0],"parents":[2147483647,0,0],"right_children":[2,-1,-1],"split_conditions":[-1.9974375E0,5.8046605E-2,-5.811168E-2],"split_indices":[8,0,0],"split_type":[0,0,0],"sum_hessian":[2.1100617E4,1.0604793E4,1.0495825E4],"tree_param":{"num_deleted":"0","num_feature":"10","num_nodes":"3","size_leaf_vector":"1"}},{"base_weights":[6.343559E-3,5.745181E-2,-5.7518777E-2],"categories":[],"categories_nodes":[],"categories_segments":[],"categories_sizes":[],"default_left":[0,0,0],"id":23,"left_children":[1,-1,-1],"loss_changes":[2.9674006E4,0E0,0E0],"parents":[2147483647,0,0],"right_children":[2,-1,-1],"split_conditions":[-1.9974375E0,5.745181E-2,-5.7518777E-2],"split_indices":[8,0,0],"split_type":[0,0,0],"sum_hessian":[2.0358996E4,1.0238919E4,1.0120077E4],"tree_param":{"num_deleted":"0","num_feature":"10","num_nodes":"3","size_leaf_vector":"1"}},{"base_weights":[-7.903468E-4,5.6890003E-2,-5.696444E-2],"categories":[],"categories_nodes":[],"categories_segments":[],"categories_sizes":[],"default_left":[0,0,0],"id":24,"left_children":[1,-1,-1],"loss_changes":[2.7922805E4,0E0,0E0],"parents":[2147483647,0,0],"right_children":[2,-1,-1],"split_conditions":[-1.9974375E0,5.6890003E-2,-5.696444E-2],"split_indices":[8,0,0],"split_type":[0,0,0],"sum_hessian":[1.9534227E4,9.767043E3,9.767185E3],"tree_param":{"num_deleted":"0","num_feature":"10","num_nodes":"3","size_leaf_vector":"1"}},{"base_weights":[-2.4794203E-3,5.636732E-2,-5.6447264E-2],"categories":[],"categories_nodes":[],"categories_segments":[],"categories_sizes":[],"default_left":[0,0,0],"id":25,"left_children":[1,-1,-1],"loss_changes":[2.6328459E4,0E0,0E0],"parents":[2147483647,0,0],"right_children":[2,-1,-1],"split_conditions":[-1.9974375E0,5.636732E-2,-5.6447264E-2],"split_indices":[8,0,0],"split_type":[0,0,0],"sum_hessian":[1.8759926E4,9.366977E3,9.392949E3],"tree_param":{"num_deleted":"0","num_feature":"10","num_nodes":"3","size_leaf_vector":"1"}},{"base_weights":[-1.9694697E-3,5.5896867E-2,-5.5962298E-2],"categories":[],"categories_nodes":[],"categories_segments":[],"categories_sizes":[],"default_left":[0,0,0],"id":26,"left_children":[1,-1,-1],"loss_changes":[2.4845484E4,0E0,0E0],"parents":[2147483647,0,0],"right_children":[2,-1,-1],"split_conditions":[-1.9974375E0,5.5896867E-2,-5.5962298E-2],"split_indices":[8,0,0],"split_type":[0,0,0],"sum_hessian":[1.800687E4,8.9936045E3,9.013265E3],"tree_param":{"num_deleted":"0","num_feature":"10","num_nodes":"3","size_leaf_vector":"1"}},{"base_weights":[6.1171385E-4,5.5424087E-2,-5.5507313E-2],"categories":[],"categories_nodes":[],"categories_segments":[],"categories_sizes":[],"default_left":[0,0,0],"id":27,"left_children":[1,-1,-1],"loss_changes":[2.3559365E4,0E0,0E0],"parents":[2147483647,0,0],"right_children":[2,-1,-1],"split_conditions":[-1.9974375E0,5.5424087E-2,-5.5507313E-2],"split_indices":[8,0,0],"split_type":[0,0,0],"sum_hessian":[1.7361486E4,8.691815E3,8.669671E3],"tree_param":{"num_deleted":"0","num_feature":"10","num_nodes":"3","size_leaf_vector":"1"}},{"base_weights":[-9.2972815E-4,5.4977197E-2,-5.5080473E-2],"categories":[],"categories_nodes":[],"categories_segments":[],"categories_sizes":[],"default_left":[0,0,0],"id":28,"left_children":[1,-1,-1],"loss_changes":[2.222189E4,0E0,0E0],"parents":[2147483647,0,0],"right_children":[2,-1,-1],"split_conditions":[-1.9974375E0,5.4977197E-2,-5.5080473E-2],"split_indices":[8,0,0],"split_type":[0,0,0],"sum_hessian":[1.6636799E4,8.319514E3,8.317285E3],"tree_param":{"num_deleted":"0","num_feature":"10","num_nodes":"3","size_leaf_vector":"1"}},{"base_weights":[-6.991626E-3,5.4592326E-2,-5.4680668E-2],"categories":[],"categories_nodes":[],"categories_segments":[],"categories_sizes":[],"default_left":[0,0,0],"id":29,"left_children":[1,-1,-1],"loss_changes":[2.0990197E4,0E0,0E0],"parents":[2147483647,0,0],"right_children":[2,-1,-1],"split_conditions":[-1.9974375E0,5.4592326E-2,-5.4680668E-2],"split_indices":[8,0,0],"split_type":[0,0,0],"sum_hessian":[1.5941532E4,7.9286387E3,8.012893E3],"tree_param":{"num_deleted":"0","num_feature":"10","num_nodes":"3","size_leaf_vector":"1"}},{"base_weights":[-8.018157E-3,5.418956E-2,-5.430349E-2],"categories":[],"categories_nodes":[],"categories_segments":[],"categories_sizes":[],"default_left":[0,0,0],"id":30,"left_children":[1,-1,-1],"loss_changes":[1.9813373E4,0E0,0E0],"parents":[2147483647,0,0],"right_children":[2,-1,-1],"split_conditions":[-1.9974375E0,5.418956E-2,-5.430349E-2],"split_indices":[8,0,0],"split_type":[0,0,0],"sum_hessian":[1.5264932E4,7.5867593E3,7.6781724E3],"tree_param":{"num_deleted":"0","num_feature":"10","num_nodes":"3","size_leaf_vector":"1"}},{"base_weights":[-6.106447E-4,5.388716E-2,-5.3949658E-2],"categories":[],"categories_nodes":[],"categories_segments":[],"categories_sizes":[],"default_left":[0,0,0],"id":31,"left_children":[1,-1,-1],"loss_changes":[1.8895477E4,0E0,0E0],"parents":[2147483647,0,0],"right_children":[2,-1,-1],"split_conditions":[-1.9974375E0,5.388716E-2,-5.3949658E-2],"split_indices":[8,0,0],"split_type":[0,0,0],"sum_hessian":[1.4734873E4,7.3677344E3,7.3671387E3],"tree_param":{"num_deleted":"0","num_feature":"10","num_nodes":"3","size_leaf_vector":"1"}},{"base_weights":[2.6009534E-3,5.3503286E-2,-5.361658E-2],"categories":[],"categories_nodes":[],"categories_segments":[],"categories_sizes":[],"default_left":[0,0,0],"id":32,"left_children":[1,-1,-1],"loss_changes":[1.7908748E4,0E0,0E0],"parents":[2147483647,0,0],"right_children":[2,-1,-1],"split_conditions":[-1.9974375E0,5.3503286E-2,-5.361658E-2],"split_indices":[8,0,0],"split_type":[0,0,0],"sum_hessian":[1.4153061E4,7.1003804E3,7.05268E3],"tree_param":{"num_deleted":"0","num_feature":"10","num_nodes":"3","size_leaf_vector":"1"}},{"base_weights":[7.3197293E-3,5.3239938E-2,-5.330239E-2],"categories":[],"categories_nodes":[],"categories_segments":[],"categories_sizes":[],"default_left":[0,0,0],"id":33,"left_children":[1,-1,-1],"loss_changes":[1.7075654E4,0E0,0E0],"parents":[2147483647,0,0],"right_children":[2,-1,-1],"split_conditions":[-1.9974375E0,5.3239938E-2,-5.330239E-2],"split_indices":[8,0,0],"split_type":[0,0,0],"sum_hessian":[1.3641841E4,6.8695503E3,6.772291E3],"tree_param":{"num_deleted":"0","num_feature":"10","num_nodes":"3","size_leaf_vector":"1"}},{"base_weights":[6.5327347E-3,5.289886E-2,-5.300653E-2],"categories":[],"categories_nodes":[],"categories_segments":[],"categories_sizes":[],"default_left":[0,0,0],"id":34,"left_children":[1,-1,-1],"loss_changes":[1.6164922E4,0E0,0E0],"parents":[2147483647,0,0],"right_children":[2,-1,-1],"split_conditions":[-1.9974375E0,5.289886E-2,-5.300653E-2],"split_indices":[8,0,0],"split_type":[0,0,0],"sum_hessian":[1.3069931E4,6.580002E3,6.489928E3],"tree_param":{"num_deleted":"0","num_feature":"10","num_nodes":"3","size_leaf_vector":"1"}},{"base_weights":[4.155839E-3,1.4162622E-1,-1.7463909E-1,9.537802E-2,5.325006E-1,-3.8678977E-1,5.101483E-2,-4.2211104E-2,2.9030094E-1,1.710369E-1,6.1548185E-1,-2.4740297E-1,-5.3299946E-1,8.6729795E-2,-2.9516318E-1,-1.3867125E-1,9.9674866E-2,2.134433E-1,3.7468755E-1,3.4311506E-1,-9.623515E-2,6.652642E-1,1.9073115E-1,-2.6874828E-1,3.0097133E-1,-4.3575248E-1,-7.8986806E-1,4.1146227E-3,1.9016655E-1,-4.9827635E-1,1.1439551E-2,-1.2701949E-2,-2.2700368E-1,-3.88763E-2,2.895311E-1,6.1027665E-2,2.966431E-1,3.8302487E-1,-6.530733E-1,-3.6556643E-2,3.823113E-1,-2.2186461E-1,5.483364E-1,7.2398937E-1,3.983228E-1,3.530221E-1,-4.6746853E-1,-3.0480567E-1,8.937778E-2,4.2144012E-1,-4.8222595E-1,-6.345437E-1,-2.3034479E-1,-8.7732285E-1,-4.748593E-1,4.170141E-2,-2.1656585E-1,3.1142116E-1,-7.435731E-2,-3.152961E-1,-9.1299045E-1,3.916759E-1,-2.106113E-1,3.334708E-1,-4.9158376E-2,-2.8155994E-1,-5.003722E-3,-1.7768571E-1,4.757482E-2,3.3851856E-1,-3.920208E-1,-2.0207027E-1,1.7275573E-1,3.3154935E-1,-2.6302153E-1,2.9933378E-1,4.572931E-1,-4.6444464E-2,2.063942E-2,1.1525706E-1,5.785034E-1,-7.392107E-1,-2.3141848E-2,3.819545E-2,-2.9377246E-2,-9.99353E-2,7.383703E-1,1.3470209E-1,6.739134E-1,4.2026323E-1,-3.6949176E-2,3.7590683E-1,-4.6665408E-2,-4.0958592E-1,-1.9635268E-1,-1.2996618E-1,3.1766507E-1,-1.9929692E-1,6.4185697E-1,-4.37579E-2,2.768788E-2,-7.794959E-1,-4.5283207E-1,-7.9404145E-2,-4.325898E-1,-6.507025E-1,-9.821812E-1,-7.1224743E-1,9.4324306E-2,8.72445E-2,-8.661753E-2,-2.416678E-2,-3.8931105E-1,4.2481056E-1,2.3200724E-1,4.539974E-2,-3.226754E-1,-6.762553E-1,-1.17565945E-1,-9.8869634E-1,2.0552551E-2,-3.548391E-1,5.260021E-1,5.189593E-1,-3.364314E-1,4.8470544E-3,2.609246E-2,-6.812833E-3,4.4030366E-3,-2.8383387E-2,-1.2155823E-2,-1.2761848E-2,1.3314193E-2,-6.7853713E-3,-4.8725285E-2,9.727578E-3,-2.8675667E-3,9.359872E-3,2.419376E-2,5.492684E-3,-4.217729E-2,-5.1274137E-3,-4.9135085E-2,5.5069365E-3,2.9532969E-2,1.6561484E-2,-2.0641401E-2,2.587567E-2,-2.845048E-2,-1.2308483E-2,1.6160486E-2,2.910012E-2,1.974581E-2,1.7510964E-2,-2.0251049E-2,2.9971877E-2,-3.0853081E-2,-4.7675144E-2,9.161954E-3,3.3492586E-3,-3.890654E-2,2.0268986E-2,-3.9300848E-2,3.587197E-2,2.0824985E-3,-2.2229984E-2,1.5677229E-2,3.5032067E-2,-3.2827683E-2,6.730651E-3,3.410843E-2,3.393893E-3,3.3214357E-2,-2.0767398E-2,-3.5682623E-3,-2.3375157E-2,-5.667692E-3,-2.0926379E-2,1.0155725E-2,-4.2676248E-2,2.0038314E-2,-2.8807055E-2,2.897114E-2,3.3887822E-2,-1.0335355E-3,-2.7813295E-2,-4.1249953E-2,2.73104E-2,-2.4640089E-2,-1.6227003E-2,2.8789525E-3,-2.4353566E-2,2.2894444E-3,-4.985527E-2,-2.5738224E-2,-3.9627E-2,-5.2065995E-2,-2.3469164E-3,-4.084306E-2,2.3067338E-2,-2.8534524E-2,4.496118E-3,-4.4056304E-2,8.761693E-3,-9.06518E-3,2.3057163E-2,-6.5146694E-3,-3.096739E-3,-3.9944846E-2,2.1281984E-2,-4.2655397E-2,1.7841412E-2,3.2266648E-3,8.0785976E-4,3.6797885E-2,-2.5346758E-2,3.892998E-3,-4.4820912E-2,1.7868174E-2,-8.297709E-4,-4.5472268E-2,-7.4851597E-3,-5.120619E-2,3.2553785E-2,-4.1332208E-2,3.1508896E-2,-1.1824207E-2,3.9501008E-2,-3.207447E-2,1.1844315E-2,-2.8254015E-2],"categories":[],"categories_nodes":[],"categories_segments":[],"categories_sizes":[],"default_left":[0,0,0,0,0,0,0,0,0,0,0,0,0,0,0,0,0,0,0,0,0,0,0,0,0,0,0,0,0,0,0,0,0,0,0,0,0,0,0,0,0,0,0,0,0,0,0,0,0,0,0,0,0,0,0,0,0,0,0,0,0,0,0,0,0,0,0,0,0,0,0,0,0,0,0,0,0,0,0,0,0,0,0,0,0,0,0,0,0,0,0,0,0,0,0,0,0,0,0,0,0,0,0,0,0,0,0,0,0,0,0,0,0,0,0,0,0,0,0,0,0,0,0,0,0,0,0,0,0,0,0,0,0,0,0,0,0,0,0,0,0,0,0,0,0,0,0,0,0,0,0,0,0,0,0,0,0,0,0,0,0,0,0,0,0,0,0,0,0,0,0,0,0,0,0,0,0,0,0,0,0,0,0,0,0,0,0,0,0,0,0,0,0,0,0,0,0,0,0,0,0,0,0,0,0,0,0,0,0,0,0,0,0,0,0,0,0,0,0,0,0,0,0,0,0,0,0,0,0,0,0],"id":35,"left_children":[1,3,5,7,9,11,13,15,17,19,21,23,25,27,29,31,33,35,37,39,41,43,45,47,49,51,53,55,57,59,61,63,65,67,69,71,73,75,77,-1,79,81,83,85,87,89,91,93,95,97,99,101,103,105,107,109,111,113,115,117,119,121,123,125,127,129,131,133,135,137,139,141,143,145,147,149,151,-1,-1,153,155,157,159,-1,-1,161,163,165,167,169,-1,171,-1,173,175,177,179,181,183,-1,-1,185,187,189,191,193,195,197,199,201,203,205,207,209,211,213,215,217,219,221,-1,223,225,227,229,-1,-1,-1,-1,-1,-1,-1,-1,-1,-1,-1,-1,-1,-1,-1,-1,-1,-1,-1,-1,-1,-1,-1,-1,-1,-1,-1,-1,-1,-1,-1,-1,-1,-1,-1,-1,-1,-1,-1,-1,-1,-1,-1,-1,-1,-1,-1,-1,-1,-1,-1,-1,-1,-1,-1,-1,-1,-1,-1,-1,-1,-1,-1,-1,-1,-1,-1,-1,-1,-1,-1,-1,-1,-1,-1,-1,-1,-1,-1,-1,-1,-1,-1,-1,-1,-1,-1,-1,-1,-1,-1,-1,-1,-1,-1,-1,-1,-1,-1,-1,-1,-1,-1,-1,-1,-1],"loss_changes":[3.0744794E2,1.2778194E2,2.60307E2,1.6963126E2,2.2329361E1,5.698236E1,3.2611153E1,5.076809E1,1.6894073E1,6.5193844E0,1.2727646E1,1.6896545E1,3.380078E1,2.042169E1,1.5369476E1,2.456591E1,3.9505013E1,1.738002E1,1.0928009E1,4.0386515E0,4.6579046E0,8.235428E0,7.1272974E0,1.78899E1,5.3260746E0,4.0432312E1,9.890884E0,1.1038318E1,3.4060318E1,1.097504E1,8.465445E0,1.1515537E1,1.5717262E1,1.0434886E1,2.1284924E1,1.4313196E1,1.7420486E1,7.5502014E0,4.063771E0,0E0,4.3213444E0,4.8758974E0,3.282505E0,5.340225E0,7.1941586E0,4.3386116E0,6.127226E0,1.4203659E1,6.4160624E0,6.6393795E0,4.1135244E0,1.2933807E1,1.4933542E1,6.2917633E0,1.1347059E1,6.652275E0,6.427619E0,6.4553604E0,9.957475E0,7.3796997E0,4.998455E0,3.8923287E0,5.988138E0,4.2647886E0,1.0989725E1,8.457466E0,1.9315956E1,9.781742E0,9.070272E0,1.4140503E1,1.0860689E1,1.1265533E1,8.654001E0,1.0543938E1,1.4524909E1,1.3143875E1,4.029602E0,0E0,0E0,5.167852E0,3.4083595E0,3.4088058E0,2.686043E0,0E0,0E0,3.5943577E0,4.512619E0,6.297298E0,4.6161213E0,4.071331E0,0E0,5.1450497E-1,0E0,5.6393204E0,1.4053448E1,7.066696E0,8.22538E0,4.7044888E0,1.6535397E0,0E0,0E0,4.2291107E0,1.5304234E1,1.0329699E1,7.958908E0,3.5919876E0,2.38443E0,5.6515274E0,7.177258E0,6.1898985E0,8.412334E0,5.374611E0,1.481319E1,9.127197E0,1.0057192E1,4.67029E0,9.276838E0,1.0602352E1,5.7470875E0,2.9173508E0,0E0,3.915024E0,3.4978876E0,4.1550217E0,8.360117E0,0E0,0E0,0E0,0E0,0E0,0E0,0E0,0E0,0E0,0E0,0E0,0E0,0E0,0E0,0E0,0E0,0E0,0E0,0E0,0E0,0E0,0E0,0E0,0E0,0E0,0E0,0E0,0E0,0E0,0E0,0E0,0E0,0E0,0E0,0E0,0E0,0E0,0E0,0E0,0E0,0E0,0E0,0E0,0E0,0E0,0E0,0E0,0E0,0E0,0E0,0E0,0E0,0E0,0E0,0E0,0E0,0E0,0E0,0E0,0E0,0E0,0E0,0E0,0E0,0E0,0E0,0E0,0E0,0E0,0E0,0E0,0E0,0E0,0E0,0E0,0E0,0E0,0E0,0E0,0E0,0E0,0E0,0E0,0E0,0E0,0E0,0E0,0E0,0E0,0E0,0E0,0E0,0E0,0E0,0E0,0E0,0E0,0E0,0E0,0E0,0E0,0E0,0E0,0E0,0E0,0E0],"parents":[2147483647,0,0,1,1,2,2,3,3,4,4,5,5,6,6,7,7,8,8,9,9,10,10,11,11,12,12,13,13,14,14,15,15,16,16,17,17,18,18,19,19,20,20,21,21,22,22,23,23,24,24,25,25,26,26,27,27,28,28,29,29,30,30,31,31,32,32,33,33,34,34,35,35,36,36,37,37,38,38,40,40,41,41,42,42,43,43,44,44,45,45,46,46,47,47,48,48,49,49,50,50,51,51,52,52,53,53,54,54,55,55,56,56,57,57,58,58,59,59,60,60,61,61,62,62,63,63,64,64,65,65,66,66,67,67,68,68,69,69,70,70,71,71,72,72,73,73,74,74,75,75,76,76,79,79,80,80,81,81,82,82,85,85,86,86,87,87,88,88,89,89,91,91,93,93,94,94,95,95,96,96,97,97,98,98,101,101,102,102,103,103,104,104,105,105,106,106,107,107,108,108,109,109,110,110,111,111,112,112,113,113,114,114,115,115,116,116,117,117,118,118,119,119,121,121,122,122,123,123,124,124],"right_children":[2,4,6,8,10,12,14,16,18,20,22,24,26,28,30,32,34,36,38,40,42,44,46,48,50,52,54,56,58,60,62,64,66,68,70,72,74,76,78,-1,80,82,84,86,88,90,92,94,96,98,100,102,104,106,108,110,112,114,116,118,120,122,124,126,128,130,132,134,136,138,140,142,144,146,148,150,152,-1,-1,154,156,158,160,-1,-1,162,164,166,168,170,-1,172,-1,174,176,178,180,182,184,-1,-1,186,188,190,192,194,196,198,200,202,204,206,208,210,212,214,216,218,220,222,-1,224,226,228,230,-1,-1,-1,-1,-1,-1,-1,-1,-1,-1,-1,-1,-1,-1,-1,-1,-1,-1,-1,-1,-1,-1,-1,-1,-1,-1,-1,-1,-1,-1,-1,-1,-1,-1,-1,-1,-1,-1,-1,-1,-1,-1,-1,-1,-1,-1,-1,-1,-1,-1,-1,-1,-1,-1,-1,-1,-1,-1,-1,-1,-1,-1,-1,-1,-1,-1,-1,-1,-1,-1,-1,-1,-1,-1,-1,-1,-1,-1,-1,-1,-1,-1,-1,-1,-1,-1,-1,-1,-1,-1,-1,-1,-1,-1,-1,-1,-1,-1,-1,-1,-1,-1,-1,-1,-1,-1],"split_conditions":[1.8E2,8.521034E0,-5.216663E0,-5.123274E0,3.5720646E1,4.595163E-1,6.671636E0,3.8418336E0,5.6483284E1,3.29E2,5.161395E2,2.1232876E-1,3.4E2,2.43E2,-3.2335415E0,3.1970114E-1,-2.6592377E-3,-4.081087E0,4.35E2,1.5402451E-1,7.518585E-1,3.35E2,-4.107308E-1,-2.2285418E-1,6.841052E2,2.22E2,3.2613132E2,3.6460692E-1,3.16E2,9.791936E0,-3.97984E-1,-8.38652E0,-6.0348125E0,2.29E2,3.58E2,2.1E2,3.762662E-1,2.9324105E0,3.762662E-1,-3.6556643E-2,2.39E2,-4.6059176E-1,1.9196393E0,1.64E2,7.114763E-1,3.0047789E0,-9.724239E0,2.27E2,3.3941125E2,2.8460498E2,4.810081E0,-4.0472916E-1,3.7296247E0,2.67496E0,4.47E2,6.5795135E2,3.4503677E0,-3.8804612E-1,5.1E2,2.37E2,3.504772E2,2.3648882E2,9.538125E-2,4.852468E-2,2.6301937E0,3.678684E-1,2.41E2,-1.9664666E-2,-4.4085306E-1,2.34E2,3.6315322E-2,3.678684E-1,6.2295218E0,9.839303E0,-4.211476E-1,-1.9664666E-2,1.5E2,-4.6444464E-2,2.063942E-2,-7.6330013E0,-3.2688883E-1,-6.8978615E0,-5.050087E0,3.819545E-2,-2.9377246E-2,-4.4791466E-1,1.461355E2,1.0272339E1,4.699681E0,2.324976E0,-3.6949176E-2,5.5656934E-1,-4.6665408E-2,9.127289E0,1.8973666E2,8.976472E0,-1.0671802E1,-5.3122234E0,-5.666073E0,-4.37579E-2,2.768788E-2,1.6155495E2,-9.580219E0,2.52E2,3.4587173E2,-8.430471E0,5.9366125E-1,8.485281E1,5.604462E2,2.41E2,1.85E2,2.4186774E2,2.0840127E0,5.9366125E-1,2.69E2,4.57E2,3.066912E2,-2.8783384E-1,-3.0683625E-1,1.75E2,2.0552551E-2,1.100071E-1,-1.5089145E0,2.35E2,2.2519499E2,4.8470544E-3,2.609246E-2,-6.812833E-3,4.4030366E-3,-2.8383387E-2,-1.2155823E-2,-1.2761848E-2,1.3314193E-2,-6.7853713E-3,-4.8725285E-2,9.727578E-3,-2.8675667E-3,9.359872E-3,2.419376E-2,5.492684E-3,-4.217729E-2,-5.1274137E-3,-4.9135085E-2,5.5069365E-3,2.9532969E-2,1.6561484E-2,-2.0641401E-2,2.587567E-2,-2.845048E-2,-1.2308483E-2,1.6160486E-2,2.910012E-2,1.974581E-2,1.7510964E-2,-2.0251049E-2,2.9971877E-2,-3.0853081E-2,-4.7675144E-2,9.161954E-3,3.3492586E-3,-3.890654E-2,2.0268986E-2,-3.9300848E-2,3.587197E-2,2.0824985E-3,-2.2229984E-2,1.5677229E-2,3.5032067E-2,-3.2827683E-2,6.730651E-3,3.410843E-2,3.393893E-3,3.3214357E-2,-2.0767398E-2,-3.5682623E-3,-2.3375157E-2,-5.667692E-3,-2.0926379E-2,1.0155725E-2,-4.2676248E-2,2.0038314E-2,-2.8807055E-2,2.897114E-2,3.3887822E-2,-1.0335355E-3,-2.7813295E-2,-4.1249953E-2,2.73104E-2,-2.4640089E-2,-1.6227003E-2,2.8789525E-3,-2.4353566E-2,2.2894444E-3,-4.985527E-2,-2.5738224E-2,-3.9627E-2,-5.2065995E-2,-2.3469164E-3,-4.084306E-2,2.3067338E-2,-2.8534524E-2,4.496118E-3,-4.4056304E-2,8.761693E-3,-9.06518E-3,2.3057163E-2,-6.5146694E-3,-3.096739E-3,-3.9944846E-2,2.1281984E-2,-4.2655397E-2,1.7841412E-2,3.2266648E-3,8.0785976E-4,3.6797885E-2,-2.5346758E-2,3.892998E-3,-4.4820912E-2,1.7868174E-2,-8.297709E-4,-4.5472268E-2,-7.4851597E-3,-5.120619E-2,3.2553785E-2,-4.1332208E-2,3.1508896E-2,-1.1824207E-2,3.9501008E-2,-3.207447E-2,1.1844315E-2,-2.8254015E-2],"split_indices":[2,1,7,7,2,4,1,1,2,0,9,6,0,0,7,4,6,7,0,4,4,0,5,5,9,0,2,4,0,1,5,7,7,0,0,0,7,1,7,0,0,5,3,0,4,3,7,0,9,9,3,5,1,3,0,9,3,5,9,0,2,2,4,6,1,4,0,6,5,0,6,4,1,3,5,6,9,0,0,7,5,7,7,0,0,5,2,1,3,3,0,4,0,3,9,3,7,7,7,0,0,9,7,0,2,7,4,9,9,0,0,9,1,4,0,0,2,5,5,0,0,4,7,0,2,0,0,0,0,0,0,0,0,0,0,0,0,0,0,0,0,0,0,0,0,0,0,0,0,0,0,0,0,0,0,0,0,0,0,0,0,0,0,0,0,0,0,0,0,0,0,0,0,0,0,0,0,0,0,0,0,0,0,0,0,0,0,0,0,0,0,0,0,0,0,0,0,0,0,0,0,0,0,0,0,0,0,0,0,0,0,0,0,0,0,0,0,0,0,0,0,0,0,0,0,0,0,0,0,0,0],"split_type":[0,0,0,0,0,0,0,0,0,0,0,0,0,0,0,0,0,0,0,0,0,0,0,0,0,0,0,0,0,0,0,0,0,0,0,0,0,0,0,0,0,0,0,0,0,0,0,0,0,0,0,0,0,0,0,0,0,0,0,0,0,0,0,0,0,0,0,0,0,0,0,0,0,0,0,0,0,0,0,0,0,0,0,0,0,0,0,0,0,0,0,0,0,0,0,0,0,0,0,0,0,0,0,0,0,0,0,0,0,0,0,0,0,0,0,0,0,0,0,0,0,0,0,0,0,0,0,0,0,0,0,0,0,0,0,0,0,0,0,0,0,0,0,0,0,0,0,0,0,0,0,0,0,0,0,0,0,0,0,0,0,0,0,0,0,0,0,0,0,0,0,0,0,0,0,0,0,0,0,0,0,0,0,0,0,0,0,0,0,0,0,0,0,0,0,0,0,0,0,0,0,0,0,0,0,0,0,0,0,0,0,0,0,0,0,0,0,0,0,0,0,0,0,0,0,0,0,0,0,0,0],"sum_hessian":[1.2506551E4,7.0704717E3,5.4360786E3,6.323518E3,7.469538E2,2.801504E3,2.634575E3,3.7073884E3,2.6161296E3,1.4003345E2,6.0692035E2,1.4355939E3,1.36591E3,2.3888665E3,2.4570839E2,2.206999E3,1.5003895E3,1.3709893E3,1.2451403E3,8.50146E1,5.501884E1,5.427427E2,6.417769E1,1.3822982E3,5.32957E1,9.927607E2,3.7314935E2,1.3286836E3,1.0601829E3,1.474217E2,9.828668E1,9.1016815E2,1.2968308E3,8.6785284E2,6.3253674E2,4.8473166E2,8.8625757E2,1.2357432E3,9.397161E0,2.2640395E0,8.2750565E1,4.6593403E1,8.425437E0,4.434702E2,9.927245E1,5.1855453E1,1.2322236E1,1.2559897E3,1.2630854E2,4.6591106E1,6.7045913E0,5.0344406E2,4.8931662E2,2.906673E2,8.248203E1,1.1360073E3,1.9267627E2,7.268336E2,3.333492E2,1.0351089E2,4.3910824E1,3.595463E1,6.2332047E1,8.5943436E1,8.242247E2,1.0407894E3,2.5604132E2,3.32662E2,5.3519086E2,5.905905E2,4.194618E1,1.4424771E2,3.4048395E2,8.3461053E2,5.1647015E1,5.833784E2,6.523647E2,7.3262095E0,2.0709515E0,3.5718475E1,4.703209E1,1.2175758E1,3.4417645E1,7.1744466E0,1.2509909E0,7.505562E0,4.3596466E2,5.149901E1,4.777344E1,4.953308E1,2.3223708E0,4.758672E0,7.563564E0,6.373993E2,6.1859045E2,6.463569E1,6.1672848E1,1.2233891E1,3.4357216E1,4.849543E0,1.8550481E0,2.782183E2,2.2522578E2,2.8099527E2,2.0832137E2,9.42276E1,1.9643971E2,5.802876E1,2.4453274E1,8.3866693E2,2.9734045E2,9.169202E1,1.0098425E2,2.9758466E2,4.2924896E2,2.2544191E2,1.079073E2,3.5777843E1,6.773304E1,4.1820877E1,2.0899453E0,5.232654E0,3.072198E1,8.708871E0,5.3623177E1,4.202578E1,4.3917652E1,4.9557828E2,3.2864642E2,7.8575066E1,9.622144E2,1.3310222E2,1.22939095E2,3.2049423E2,1.2167737E1,2.1774286E2,3.1744797E2,3.226529E2,2.6793762E2,2.1065523E1,2.0880655E1,1.3052995E2,1.3717753E1,3.0306567E2,3.741829E1,8.177774E2,1.683313E1,1.4957662E1,3.668935E1,3.871544E1,5.44663E2,1.3861115E2,5.1375354E2,2.4564217E1,1.1154258E1,4.562408E1,1.4080082E0,9.44476E0,2.7309988E0,3.1607508E1,2.8101351E0,4.59179E0,2.9137716E0,4.2668137E2,9.283306E0,1.224241E1,3.92566E1,4.614237E1,1.6310745E0,2.6265314E1,2.3267767E1,3.0712838E0,1.6873885E0,5.902671E2,4.71322E1,1.27514656E2,4.9107578E2,3.384081E1,3.0794882E1,4.2283473E0,5.74445E1,8.310783E0,3.9231074E0,3.1020714E1,3.3365028E0,8.795095E1,1.9026733E2,1.2876346E1,2.1234944E2,9.744823E1,1.8354704E2,1.7890608E2,2.941528E1,1.8647669E1,7.557993E1,8.7272705E1,1.0916701E2,1.0684244E1,4.7344513E1,1.5843444E1,8.609829E0,8.336631E2,5.0038414E0,8.219368E1,2.1514677E2,1.6033356E1,7.565866E1,5.933225E1,4.1652E1,2.9333044E2,4.2542315E0,2.2901843E2,2.0023055E2,2.1794568E2,7.4962273E0,7.0861305E1,3.7046005E1,2.8659235E1,7.1186104E0,6.1410122E1,6.3229218E0,4.213793E0,3.7607086E1,1.6206943E0,3.61196E0,2.6264107E1,4.4578733E0,7.1508274E0,1.5580434E0,1.6370428E1,3.7252747E1],"tree_param":{"num_deleted":"0","num_feature":"10","num_nodes":"231","size_leaf_vector":"1"}},{"base_weights":[6.584612E-3,5.260502E-2,-5.2698173E-2],"categories":[],"categories_nodes":[],"categories_segments":[],"categories_sizes":[],"default_left":[0,0,0],"id":36,"left_children":[1,-1,-1],"loss_changes":[1.5258526E4,0E0,0E0],"parents":[2147483647,0,0],"right_children":[2,-1,-1],"split_conditions":[-1.9974375E0,5.260502E-2,-5.2698173E-2],"split_indices":[8,0,0],"split_type":[0,0,0],"sum_hessian":[1.2478483E4,6.281919E3,6.1965645E3],"tree_param":{"num_deleted":"0","num_feature":"10","num_nodes":"3","size_leaf_vector":"1"}},{"base_weights":[-6.4451376E-4,5.231219E-2,-5.2437104E-2],"categories":[],"categories_nodes":[],"categories_segments":[],"categories_sizes":[],"default_left":[0,0,0],"id":37,"left_children":[1,-1,-1],"loss_changes":[1.4385951E4,0E0,0E0],"parents":[2147483647,0,0],"right_children":[2,-1,-1],"split_conditions":[-1.9974375E0,5.231219E-2,-5.2437104E-2],"split_indices":[8,0,0],"split_type":[0,0,0],"sum_hessian":[1.1888993E4,5.9481035E3,5.94089E3],"tree_param":{"num_deleted":"0","num_feature":"10","num_nodes":"3","size_leaf_vector":"1"}},{"base_weights":[-3.1732523E-3,5.2076086E-2,-5.218982E-2],"categories":[],"categories_nodes":[],"categories_segments":[],"categories_sizes":[],"default_left":[0,0,0],"id":38,"left_children":[1,-1,-1],"loss_changes":[1.3610511E4,0E0,0E0],"parents":[2147483647,0,0],"right_children":[2,-1,-1],"split_conditions":[-1.9974375E0,5.2076086E-2,-5.218982E-2],"split_indices":[8,0,0],"split_type":[0,0,0],"sum_hessian":[1.1352624E4,5.6660513E3,5.6865728E3],"tree_param":{"num_deleted":"0","num_feature":"10","num_nodes":"3","size_leaf_vector":"1"}},{"base_weights":[-1.0011321E-2,5.180899E-2,-5.195602E-2],"categories":[],"categories_nodes":[],"categories_segments":[],"categories_sizes":[],"default_left":[0,0,0],"id":39,"left_children":[1,-1,-1],"loss_changes":[1.2820569E4,0E0,0E0],"parents":[2147483647,0,0],"right_children":[2,-1,-1],"split_conditions":[-1.9974375E0,5.180899E-2,-5.195602E-2],"split_indices":[8,0,0],"split_type":[0,0,0],"sum_hessian":[1.0797738E4,5.3569097E3,5.4408286E3],"tree_param":{"num_deleted":"0","num_feature":"10","num_nodes":"3","size_leaf_vector":"1"}},{"base_weights":[-1.2414121E-4,5.161369E-2,-5.173604E-2],"categories":[],"categories_nodes":[],"categories_segments":[],"categories_sizes":[],"default_left":[0,0,0],"id":40,"left_children":[1,-1,-1],"loss_changes":[1.2300163E4,0E0,0E0],"parents":[2147483647,0,0],"right_children":[2,-1,-1],"split_conditions":[-1.9974375E0,5.161369E-2,-5.173604E-2],"split_indices":[8,0,0],"split_type":[0,0,0],"sum_hessian":[1.0442179E4,5.226674E3,5.215505E3],"tree_param":{"num_deleted":"0","num_feature":"10","num_nodes":"3","size_leaf_vector":"1"}},{"base_weights":[4.3871393E-3,5.1371682E-2,-5.1527362E-2],"categories":[],"categories_nodes":[],"categories_segments":[],"categories_sizes":[],"default_left":[0,0,0],"id":41,"left_children":[1,-1,-1],"loss_changes":[1.1748904E4,0E0,0E0],"parents":[2147483647,0,0],"right_children":[2,-1,-1],"split_conditions":[-1.9974375E0,5.1371682E-2,-5.1527362E-2],"split_indices":[8,0,0],"split_type":[0,0,0],"sum_hessian":[1.006198E4,5.0590327E3,5.0029473E3],"tree_param":{"num_deleted":"0","num_feature":"10","num_nodes":"3","size_leaf_vector":"1"}},{"base_weights":[-3.2345892E-4,5.1143106E-2,-5.132979E-2],"categories":[],"categories_nodes":[],"categories_segments":[],"categories_sizes":[],"default_left":[0,0,0],"id":42,"left_children":[1,-1,-1],"loss_changes":[1.1092079E4,0E0,0E0],"parents":[2147483647,0,0],"right_children":[2,-1,-1],"split_conditions":[-1.9974375E0,5.1143106E-2,-5.132979E-2],"split_indices":[8,0,0],"split_type":[0,0,0],"sum_hessian":[9.578265E3,4.7964194E3,4.7818457E3],"tree_param":{"num_deleted":"0","num_feature":"10","num_nodes":"3","size_leaf_vector":"1"}},{"base_weights":[2.9486394E-3,5.0970405E-2,-5.1143102E-2],"categories":[],"categories_nodes":[],"categories_segments":[],"categories_sizes":[],"default_left":[0,0,0],"id":43,"left_children":[1,-1,-1],"loss_changes":[1.057415E4,0E0,0E0],"parents":[2147483647,0,0],"right_children":[2,-1,-1],"split_conditions":[-1.9974375E0,5.0970405E-2,-5.1143102E-2],"split_indices":[8,0,0],"split_type":[0,0,0],"sum_hessian":[9.195489E3,4.6181675E3,4.577322E3],"tree_param":{"num_deleted":"0","num_feature":"10","num_nodes":"3","size_leaf_vector":"1"}},{"base_weights":[-8.717643E-4,5.079338E-2,-5.096628E-2],"categories":[],"categories_nodes":[],"categories_segments":[],"categories_sizes":[],"default_left":[0,0,0],"id":44,"left_children":[1,-1,-1],"loss_changes":[9.987126E3,0E0,0E0],"parents":[2147483647,0,0],"right_children":[2,-1,-1],"split_conditions":[-1.9974375E0,5.079338E-2,-5.096628E-2],"split_indices":[8,0,0],"split_type":[0,0,0],"sum_hessian":[8.745242E3,4.376485E3,4.3687573E3],"tree_param":{"num_deleted":"0","num_feature":"10","num_nodes":"3","size_leaf_vector":"1"}},{"base_weights":[7.033305E-4,5.060678E-2,-5.0798815E-2],"categories":[],"categories_nodes":[],"categories_segments":[],"categories_sizes":[],"default_left":[0,0,0],"id":45,"left_children":[1,-1,-1],"loss_changes":[9.49832E3,0E0,0E0],"parents":[2147483647,0,0],"right_children":[2,-1,-1],"split_conditions":[-1.9974375E0,5.060678E-2,-5.0798815E-2],"split_indices":[8,0,0],"split_type":[0,0,0],"sum_hessian":[8.375365E3,4.198381E3,4.1769844E3],"tree_param":{"num_deleted":"0","num_feature":"10","num_nodes":"3","size_leaf_vector":"1"}},{"base_weights":[8.27489E-4,5.0439753E-2,-5.064019E-2],"categories":[],"categories_nodes":[],"categories_segments":[],"categories_sizes":[],"default_left":[0,0,0],"id":46,"left_children":[1,-1,-1],"loss_changes":[9.032699E3,0E0,0E0],"parents":[2147483647,0,0],"right_children":[2,-1,-1],"split_conditions":[-1.9974375E0,5.0439753E-2,-5.064019E-2],"split_indices":[8,0,0],"split_type":[0,0,0],"sum_hessian":[8.016119E3,4.0191345E3,3.9969846E3],"tree_param":{"num_deleted":"0","num_feature":"10","num_nodes":"3","size_leaf_vector":"1"}},{"base_weights":[4.2827026E-4,1.0559319E0,-5.048969E-2,5.0500877E-2,9.94939E-1,9.981416E-1,4.905944E-3,4.7821816E-2,4.6469164E-1,3.8078487E-2,-1.9654049E-2],"categories":[],"categories_nodes":[],"categories_segments":[],"categories_sizes":[],"default_left":[0,0,0,0,0,0,0,0,0,0,0],"id":47,"left_children":[1,3,-1,-1,5,7,-1,-1,9,-1,-1],"loss_changes":[8.598851E3,3.3203125E-2,0E0,0E0,7.1987915E-1,4.7647095E-1,0E0,0E0,1.840214E0,0E0,0E0],"parents":[2147483647,0,0,1,1,4,4,5,5,8,8],"right_children":[2,4,-1,-1,6,8,-1,-1,10,-1,-1],"split_conditions":[-1.9974375E0,-2.0482295E0,-5.048969E-2,5.0500877E-2,3.4861697E2,1.0151232E1,4.905944E-3,4.7821816E-2,-4.0834576E-1,3.8078487E-2,-1.9654049E-2],"split_indices":[8,8,0,0,2,3,0,0,5,0,0],"split_type":[0,0,0,0,0,0,0,0,0,0,0],"sum_hessian":[7.678037E3,3.848557E3,3.8294805E3,3.5615168E3,2.8703998E2,2.8589435E2,1.1456534E0,2.817567E2,4.1376114E0,3.0585375E0,1.079074E0],"tree_param":{"num_deleted":"0","num_feature":"10","num_nodes":"11","size_leaf_vector":"1"}},{"base_weights":[-1.339701E-3,1.0521477E0,-5.0347093E-2,5.0357282E-2,9.808835E-1,9.842217E-1,4.7924607E-3,4.7168635E-2,4.5385614E-1,3.7691317E-2,-1.9108206E-2],"categories":[],"categories_nodes":[],"categories_segments":[],"categories_sizes":[],"default_left":[0,0,0,0,0,0,0,0,0,0,0],"id":48,"left_children":[1,3,-1,-1,5,7,-1,-1,9,-1,-1],"loss_changes":[8.1346665E3,3.720703E-1,0E0,0E0,6.9958496E-1,4.6401978E-1,0E0,0E0,1.7774532E0,0E0,0E0],"parents":[2147483647,0,0,1,1,4,4,5,5,8,8],"right_children":[2,4,-1,-1,6,8,-1,-1,10,-1,-1],"split_conditions":[-1.9974375E0,-2.0482295E0,-5.0347093E-2,5.0357282E-2,3.4861697E2,1.0044628E1,4.7924607E-3,4.7168635E-2,1.9454163E-1,3.7691317E-2,-1.9108206E-2],"split_indices":[8,8,0,0,2,3,0,0,4,0,0],"split_type":[0,0,0,0,0,0,0,0,0,0,0],"sum_hessian":[7.3101885E3,3.6594456E3,3.6507432E3,3.388664E3,2.707815E2,2.6964078E2,1.1407361E0,2.655857E2,4.0550733E0,2.9603822E0,1.0946908E0],"tree_param":{"num_deleted":"0","num_feature":"10","num_nodes":"11","size_leaf_vector":"1"}},{"base_weights":[3.2683567E-3,1.0499499E0,-5.021179E-2,5.0221067E-2,9.856719E-1,4.7103383E-2,4.681575E-3],"categories":[],"categories_nodes":[],"categories_segments":[],"categories_sizes":[],"default_left":[0,0,0,0,0,0,0],"id":49,"left_children":[1,3,-1,-1,5,-1,-1],"loss_changes":[7.7763457E3,3.6376953E-2,0E0,0E0,7.135315E-1,0E0,0E0],"parents":[2147483647,0,0,1,1,4,4],"right_children":[2,4,-1,-1,6,-1,-1],"split_conditions":[-1.9974375E0,-2.0482295E0,-5.021179E-2,5.0221067E-2,3.4861697E2,4.7103383E-2,4.681575E-3],"split_indices":[8,8,0,0,2,0,0],"split_type":[0,0,0,0,0,0,0],"sum_hessian":[7.0218E3,3.5293933E3,3.4924065E3,3.2726147E3,2.5677844E2,2.5564249E2,1.1359496E0],"tree_param":{"num_deleted":"0","num_feature":"10","num_nodes":"7","size_leaf_vector":"1"}},{"base_weights":[-2.015935E-3,1.0463936E0,-5.0083295E-2,5.0092373E-2,9.76085E-1,9.793615E-1,1.6900983E-2,5.8687663E-1,4.693354E-2,3.9366648E-2,5.0826802E-5],"categories":[],"categories_nodes":[],"categories_segments":[],"categories_sizes":[],"default_left":[0,0,0,0,0,0,0,0,0,0,0],"id":50,"left_children":[1,3,-1,-1,5,7,-1,9,-1,-1,-1],"loss_changes":[7.347243E3,2.8686523E-1,0E0,0E0,1.8159485E-1,5.8502197E-2,0E0,9.182837E-1,0E0,0E0,0E0],"parents":[2147483647,0,0,1,1,4,4,5,5,7,7],"right_children":[2,4,-1,-1,6,8,-1,10,-1,-1,-1],"split_conditions":[-1.9974375E0,-2.0482295E0,-5.0083295E-2,5.0092373E-2,1.0524744E1,9.2740995E-1,1.6900983E-2,1.98E2,4.693354E-2,3.9366648E-2,5.0826802E-5],"split_indices":[8,8,0,0,3,1,0,0,0,0,0],"split_type":[0,0,0,0,0,0,0,0,0,0,0],"sum_hessian":[6.6736655E3,3.339016E3,3.3346497E3,3.0799854E3,2.590308E2,2.5709796E2,1.932833E0,5.541515E0,2.5155646E2,3.6398826E0,1.9016322E0],"tree_param":{"num_deleted":"0","num_feature":"10","num_nodes":"11","size_leaf_vector":"1"}},{"base_weights":[1.4533203E-3,1.0436021E0,-4.9961757E-2,4.9969744E-2,9.694337E-1,9.7664696E-1,2.6043022E-1,4.6668243E-2,3.8483173E-1,3.2216113E-2,-2.0676326E-2,1.8004444E-3,2.5707783E-2],"categories":[],"categories_nodes":[],"categories_segments":[],"categories_sizes":[],"default_left":[0,0,0,0,0,0,0,0,0,0,0,0,0],"id":51,"left_children":[1,3,-1,-1,5,7,9,-1,11,-1,-1,-1,-1],"loss_changes":[7.009413E3,3.6791992E-1,0E0,0E0,1.0068359E0,1.1778259E-1,1.40591E0,0E0,1.437825E-1,0E0,0E0,0E0,0E0],"parents":[2147483647,0,0,1,1,4,4,5,5,6,6,8,8],"right_children":[2,4,-1,-1,6,8,10,-1,12,-1,-1,-1,-1],"split_conditions":[-1.9974375E0,-2.0482295E0,-4.9961757E-2,4.9969744E-2,1.0151232E1,3.4861697E2,1.2535451E-1,4.6668243E-2,2.62E2,3.2216113E-2,-2.0676326E-2,1.8004444E-3,2.5707783E-2],"split_indices":[8,8,0,0,3,2,4,0,0,0,0,0,0],"split_type":[0,0,0,0,0,0,0,0,0,0,0,0,0],"sum_hessian":[6.3993843E3,3.2127666E3,3.1866177E3,2.9671636E3,2.456029E2,2.4275568E2,2.8472319E0,2.4070415E2,2.0515327E0,1.7968453E0,1.0503867E0,1.017714E0,1.0338188E0],"tree_param":{"num_deleted":"0","num_feature":"10","num_nodes":"13","size_leaf_vector":"1"}},{"base_weights":[6.3288625E-4,1.0415593E0,-4.98458E-2,4.9852993E-2,9.7247523E-1,4.666467E-2,2.6176134E-1,3.211326E-2,-1.9976709E-2],"categories":[],"categories_nodes":[],"categories_segments":[],"categories_sizes":[],"default_left":[0,0,0,0,0,0,0,0,0],"id":52,"left_children":[1,3,-1,-1,5,-1,7,-1,-1],"loss_changes":[6.696641E3,1.315918E-1,0E0,0E0,1.0138702E0,0E0,1.3661766E0,0E0,0E0],"parents":[2147483647,0,0,1,1,4,4,6,6],"right_children":[2,4,-1,-1,6,-1,8,-1,-1],"split_conditions":[-1.9974375E0,-2.0482295E0,-4.98458E-2,4.9852993E-2,1.0151232E1,4.666467E-2,1.3158152E0,3.211326E-2,-1.9976709E-2],"split_indices":[8,8,0,0,3,0,1,0,0],"split_type":[0,0,0,0,0,0,0,0,0],"sum_hessian":[6.139957E3,3.0795603E3,3.0603967E3,2.8431108E3,2.3644954E2,2.3359642E2,2.8531199E0,1.7831775E0,1.0699424E0],"tree_param":{"num_deleted":"0","num_feature":"10","num_nodes":"9","size_leaf_vector":"1"}},{"base_weights":[1.2738659E-3,1.0390178E0,-4.9735982E-2,4.9743757E-2,9.678437E-1,9.7526866E-1,4.0680608E-1,4.6622254E-2,1.5107862E-2,3.6286216E-2,-1.9301653E-2],"categories":[],"categories_nodes":[],"categories_segments":[],"categories_sizes":[],"default_left":[0,0,0,0,0,0,0,0,0,0,0],"id":53,"left_children":[1,3,-1,-1,5,7,9,-1,-1,-1,-1],"loss_changes":[6.364143E3,1.7236328E-1,0E0,0E0,5.615082E-1,2.617035E-1,1.6707335E0,0E0,0E0,0E0,0E0],"parents":[2147483647,0,0,1,1,4,4,5,5,6,6],"right_children":[2,4,-1,-1,6,8,10,-1,-1,-1,-1],"split_conditions":[-1.9974375E0,-2.0482295E0,-4.9735982E-2,4.9743757E-2,1.0044628E1,3.458755E2,1.9454163E-1,4.6622254E-2,1.5107862E-2,3.6286216E-2,-1.9301653E-2],"split_indices":[8,8,0,0,3,2,4,0,0,0,0],"split_type":[0,0,0,0,0,0,0,0,0,0,0],"sum_hessian":[5.862223E3,2.9424163E3,2.919807E3,2.7133813E3,2.2903496E2,2.2531474E2,3.7202215E0,2.2352104E2,1.7937007E0,2.631086E0,1.0891353E0],"tree_param":{"num_deleted":"0","num_feature":"10","num_nodes":"11","size_leaf_vector":"1"}},{"base_weights":[4.5305276E-3,1.0358753E0,-4.9631514E-2,4.963871E-2,9.5005596E-1,9.578296E-1,3.964815E-1,4.579573E-2,1.6716449E-2,3.5878718E-2,-1.8650303E-2],"categories":[],"categories_nodes":[],"categories_segments":[],"categories_sizes":[],"default_left":[0,0,0,0,0,0,0,0,0,0,0],"id":54,"left_children":[1,3,-1,-1,5,7,9,-1,-1,-1,-1],"loss_changes":[6.056122E3,6.064453E-1,0E0,0E0,5.3533936E-1,1.600647E-1,1.6038314E0,0E0,0E0,0E0,0E0],"parents":[2147483647,0,0,1,1,4,4,5,5,6,6],"right_children":[2,4,-1,-1,6,8,10,-1,-1,-1,-1],"split_conditions":[-1.9974375E0,-2.0482295E0,-4.9631514E-2,4.963871E-2,1.0151232E1,3.4861697E2,1.9454163E-1,4.579573E-2,1.6716449E-2,3.5878718E-2,-1.8650303E-2],"split_indices":[8,8,0,0,3,2,4,0,0,0,0],"split_type":[0,0,0,0,0,0,0,0,0,0,0],"sum_hessian":[5.6073223E3,2.8245708E3,2.7827515E3,2.6129233E3,2.1164758E2,2.0799648E2,3.6510994E0,2.0607845E2,1.9180381E0,2.5431368E0,1.1079625E0],"tree_param":{"num_deleted":"0","num_feature":"10","num_nodes":"11","size_leaf_vector":"1"}},{"base_weights":[2.6354154E-3,1.0334522E0,-4.95323E-2,4.9538977E-2,9.435249E-1,9.5198995E-1,2.4528639E-1,3.0516395E-1,9.60681E-1,3.1093534E-2,-1.8021861E-2,-6.4256247E-3,3.0136231E-2,4.595111E-2,1.4121752E-2],"categories":[],"categories_nodes":[],"categories_segments":[],"categories_sizes":[],"default_left":[0,0,0,0,0,0,0,0,0,0,0,0,0,0,0],"id":55,"left_children":[1,3,-1,-1,5,7,9,11,13,-1,-1,-1,-1,-1,-1],"loss_changes":[5.7547715E3,6.921387E-1,0E0,0E0,9.660492E-1,8.321228E-1,1.2079535E0,6.7958E-1,2.8129578E-1,0E0,0E0,0E0,0E0,0E0,0E0],"parents":[2147483647,0,0,1,1,4,4,5,5,6,6,7,7,8,8],"right_children":[2,4,-1,-1,6,8,10,12,14,-1,-1,-1,-1,-1,-1],"split_conditions":[-1.9974375E0,-2.0482295E0,-4.95323E-2,4.9538977E-2,1.0151232E1,9.2740995E-1,9.8075806E1,6.9925337E0,3.458755E2,3.1093534E-2,-1.8021861E-2,-6.4256247E-3,3.0136231E-2,4.595111E-2,1.4121752E-2],"split_indices":[8,8,0,0,3,1,2,3,2,0,0,0,0,0,0],"split_type":[0,0,0,0,0,0,0,0,0,0,0,0,0,0,0],"sum_hessian":[5.3512803E3,2.6911858E3,2.6600945E3,2.489235E3,2.0195074E2,1.9917267E2,2.7780633E0,3.119496E0,1.9605318E2,1.651643E0,1.1264203E0,1.582531E0,1.5369651E0,1.9433115E2,1.7220354E0],"tree_param":{"num_deleted":"0","num_feature":"10","num_nodes":"15","size_leaf_vector":"1"}},{"base_weights":[8.594416E-5,1.0315113E0,-4.9438056E-2,4.9444225E-2,9.4470155E-1,9.487482E-1,1.6052146E-2,8.14833E-1,9.862643E-1,8.710025E-1,-2.6863879E-2,9.9252E-1,9.511954E-3,9.088721E-1,-7.091484E-3,5.5575913E-1,4.784156E-2,2.1548908E-2,4.5930233E-2,3.9113086E-2,-7.39432E-3],"categories":[],"categories_nodes":[],"categories_segments":[],"categories_sizes":[],"default_left":[0,0,0,0,0,0,0,0,0,0,0,0,0,0,0,0,0,0,0,0,0],"id":56,"left_children":[1,3,-1,-1,5,7,-1,9,11,13,-1,15,-1,17,-1,19,-1,-1,-1,-1,-1],"loss_changes":[5.4650537E3,5.4467773E-1,0E0,0E0,1.6868591E-1,1.852417E-1,0E0,4.273468E0,5.348358E-1,1.9626617E0,0E0,2.2792053E-1,0E0,7.26635E-1,0E0,1.3076952E0,0E0,0E0,0E0,0E0,0E0],"parents":[2147483647,0,0,1,1,4,4,5,5,7,7,8,8,9,9,11,11,13,13,15,15],"right_children":[2,4,-1,-1,6,8,-1,10,12,14,-1,16,-1,18,-1,20,-1,-1,-1,-1,-1],"split_conditions":[-1.9974375E0,-2.0482295E0,-4.9438056E-2,4.9444225E-2,3.4861697E2,-9.3356244E-2,1.6052146E-2,-1.0074506E-1,4.4E2,8.694793E0,-2.6863879E-2,9.2740995E-1,9.511954E-3,1.8668203E0,-7.091484E-3,1.98E2,4.784156E-2,2.1548908E-2,4.5930233E-2,3.9113086E-2,-7.39432E-3],"split_indices":[8,8,0,0,2,6,0,6,0,3,0,1,0,1,0,0,0,0,0,0,0],"split_type":[0,0,0,0,0,0,0,0,0,0,0,0,0,0,0,0,0,0,0,0,0],"sum_hessian":[5.1009365E3,2.5589832E3,2.5419534E3,2.361287E3,1.9769603E2,1.9583029E2,1.8657413E0,4.782755E1,1.4800275E2,4.6309643E1,1.517906E0,1.4657498E2,1.4277697E0,4.475673E1,1.5529124E0,5.247697E0,1.4132727E2,5.861981E0,3.889475E1,3.707374E0,1.5403227E0],"tree_param":{"num_deleted":"0","num_feature":"10","num_nodes":"21","size_leaf_vector":"1"}},{"base_weights":[2.1754127E-4,-1.1669418E-1,1.6019204E-1,2.4730604E-2,-3.27505E-1,2.6348686E-1,2.9916111E-2,-7.33484E-2,3.867703E-1,-8.411823E-2,-4.3275514E-1,2.308785E-1,4.3089515E-1,9.112902E-2,-1.7503643E-1,-1.495128E-1,5.9437722E-2,-5.0760347E-2,4.516094E-1,-1.318085E-1,2.7843487E-1,-3.717833E-1,-6.987634E-1,2.672336E-1,7.46401E-2,4.559027E-1,-3.2500565E-2,-1.7918244E-2,1.772742E-1,-2.9847842E-1,1.5439372E-1,-2.653051E-1,-7.299036E-2,-6.0969424E-2,1.8579134E-1,3.5166913E-1,-1.5997899E-1,3.1987086E-1,6.581568E-1,-2.1863478E-1,2.6489098E-2,5.6381536E-1,1.8321903E-1,-5.013631E-1,-2.170566E-1,-7.8233546E-1,-3.981269E-1,1.6293222E-1,3.3403516E-1,1.13296896E-1,-4.4709447E-1,4.6875095E-1,-3.3662575E-1,-3.536462E-2,2.859564E-1,7.2672985E-2,-1.216011E-1,2.3657615E-1,-5.336639E-2,-4.497399E-1,-2.1142617E-2,6.0337865E-1,7.34098E-2,2.1226732E-1,-2.9327822E-1,-1.6513307E-1,6.1723087E-2,3.6788923E-1,-9.153654E-2,2.2441757E-1,-5.125998E-1,5.605157E-1,-3.0351377E-1,-3.9787465E-1,1.5052663E-2,3.948943E-1,1.0980763E-1,6.95947E-1,1.9119021E-1,-1.5346614E-1,-4.3170774E-1,6.435378E-2,-5.21243E-1,6.560425E-1,6.793078E-4,4.7080192E-1,1.9811856E-2,-5.3354985E-1,5.3802733E-3,-2.7397914E-2,-4.2196354E-1,-8.0161536E-1,-2.3714174E-2,-5.782444E-1,1.6881349E-2,1.9905072E-1,-2.0585714E-1,3.5314104E-1,-2.6485914E-1,-4.240178E-1,1.3966326E-1,-4.152065E-2,-3.624675E-2,4.8539743E-1,-1.183819E-1,-2.859136E-2,6.567419E-3,4.6188328E-1,-9.167287E-3,2.62092E-1,-5.1763013E-2,-2.6314402E-1,5.2912466E-2,4.370265E-1,2.1006286E-1,-1.610447E-1,3.53E-1,-1.1905746E-1,-5.961159E-1,2.7024546E-1,-1.4721088E-1,3.5996713E-2,-4.1993605E-3,2.2425474E-1,-1.4363623E-1,1.844406E-2,-1.3936395E-3,-1.764845E-2,-9.245501E-3,-9.51103E-3,7.0939767E-3,1.2783066E-2,-1.0674041E-4,-5.0764335E-3,3.0139145E-2,-1.004846E-2,-7.6630776E-4,-1.8960519E-2,1.1989165E-2,1.1537116E-2,-3.2347642E-2,3.2169398E-2,-6.156866E-4,5.8881296E-3,-2.6578989E-2,-2.4462255E-2,2.3808358E-2,2.5303604E-2,-8.940344E-3,5.9186956E-3,2.6479317E-2,8.341876E-3,-4.7607325E-2,-4.2705773E-3,3.368652E-2,-1.0234025E-2,3.0456947E-2,-9.354207E-3,7.087496E-3,-2.8793812E-2,-2.012943E-3,5.340181E-3,-1.0943357E-2,-3.8932905E-2,2.1621839E-3,5.148862E-3,3.448906E-2,2.7095255E-2,-4.237962E-3,-7.5576673E-3,2.494019E-2,-2.9470518E-2,-1.9696057E-2,-2.1597607E-2,8.861989E-3,-7.84164E-3,5.5697598E-3,-2.8593963E-4,-2.2012457E-2,-2.2611275E-2,-4.018633E-2,2.3576392E-2,-2.7853364E-2,-6.4507434E-3,-4.099844E-2,1.186186E-2,-2.0964222E-2,-2.9517204E-4,1.2996328E-2,-2.3842422E-2,5.922567E-3,1.8594244E-2,1.1167489E-2,-3.1133133E-3,-3.744921E-2,-3.67238E-2,-4.47096E-3,8.890464E-3,-7.87706E-3,1.6747862E-2,-2.1586409E-2,1.4380261E-2,2.4670977E-2,-3.398553E-2,2.2614736E-2,2.7375123E-3,2.6173845E-2,1.609639E-2,-1.0777294E-2,-1.1088953E-2,8.368356E-3,-4.122649E-2,-1.0057458E-2,8.981951E-3,-1.5887799E-2,2.3243746E-2,-1.2554089E-2,7.745561E-3,1.7188225E-2,-1.2829143E-2,1.3561862E-2,-2.5983488E-2,2.1342939E-2,-1.7790353E-2,3.4050515E-3,-3.819568E-2,-2.100263E-2,-3.27314E-2,2.0995896E-2,-3.8266198E-3,-3.6124054E-2,-1.1789095E-2,1.4236778E-2,-3.6835409E-4,-3.6386874E-2],"categories":[],"categories_nodes":[],"categories_segments":[],"categories_sizes":[],"default_left":[0,0,0,0,0,0,0,0,0,0,0,0,0,0,0,0,0,0,0,0,0,0,0,0,0,0,0,0,0,0,0,0,0,0,0,0,0,0,0,0,0,0,0,0,0,0,0,0,0,0,0,0,0,0,0,0,0,0,0,0,0,0,0,0,0,0,0,0,0,0,0,0,0,0,0,0,0,0,0,0,0,0,0,0,0,0,0,0,0,0,0,0,0,0,0,0,0,0,0,0,0,0,0,0,0,0,0,0,0,0,0,0,0,0,0,0,0,0,0,0,0,0,0,0,0,0,0,0,0,0,0,0,0,0,0,0,0,0,0,0,0,0,0,0,0,0,0,0,0,0,0,0,0,0,0,0,0,0,0,0,0,0,0,0,0,0,0,0,0,0,0,0,0,0,0,0,0,0,0,0,0,0,0,0,0,0,0,0,0,0,0,0,0,0,0,0,0,0,0,0,0,0,0,0,0,0,0,0,0,0,0,0,0,0,0,0,0,0,0,0,0,0,0,0,0,0,0,0,0,0,0,0,0,0,0],"id":57,"left_children":[1,3,5,7,9,11,13,15,17,19,21,23,25,27,29,31,33,35,37,39,41,43,45,47,49,51,53,55,57,59,61,63,65,67,69,71,73,75,77,79,81,83,85,87,89,91,93,95,97,99,101,103,105,-1,107,109,111,113,115,117,119,121,123,125,127,129,131,133,135,137,139,141,143,145,147,149,151,153,155,157,159,161,163,165,-1,167,169,171,173,175,177,179,181,183,185,187,189,191,193,195,197,-1,199,201,203,-1,-1,205,-1,207,209,211,213,215,217,219,221,223,225,227,229,-1,-1,231,233,-1,-1,-1,-1,-1,-1,-1,-1,-1,-1,-1,-1,-1,-1,-1,-1,-1,-1,-1,-1,-1,-1,-1,-1,-1,-1,-1,-1,-1,-1,-1,-1,-1,-1,-1,-1,-1,-1,-1,-1,-1,-1,-1,-1,-1,-1,-1,-1,-1,-1,-1,-1,-1,-1,-1,-1,-1,-1,-1,-1,-1,-1,-1,-1,-1,-1,-1,-1,-1,-1,-1,-1,-1,-1,-1,-1,-1,-1,-1,-1,-1,-1,-1,-1,-1,-1,-1,-1,-1,-1,-1,-1,-1,-1,-1,-1,-1,-1,-1,-1,-1,-1,-1,-1,-1,-1,-1,-1,-1,-1],"loss_changes":[9.124748E1,8.404695E1,2.771328E1,5.996508E1,2.8957092E1,6.17202E0,1.1459546E1,1.3449726E1,1.0234776E1,5.9660416E0,1.2551605E1,5.454014E0,2.1719017E0,6.607373E0,8.59069E0,7.4665623E0,7.3922596E0,2.1377866E0,8.322769E0,4.180556E0,9.886739E-1,1.2817947E1,3.3606567E0,5.390053E0,3.7476416E0,1.9568291E0,2.579062E0,2.9316745E0,5.3858156E0,6.416708E0,2.0621638E0,4.5480804E0,6.341487E0,3.3000484E0,6.5076942E0,1.5961906E0,1.585628E0,3.0049343E0,2.0054092E0,2.658968E0,2.2834284E0,4.7579527E-1,1.4763209E0,5.713516E0,1.1477006E1,1.6385422E0,2.5383792E0,4.1306353E0,5.5330467E0,2.4882624E0,2.2109432E0,1.760788E0,5.085515E-1,0E0,7.578585E-1,3.942793E0,3.6074293E0,1.5699921E0,3.608404E0,4.724621E0,2.0643225E0,9.8621726E-1,1.676377E0,8.2155424E-1,2.3632984E0,3.325325E0,2.7497993E0,2.1776E0,2.100595E0,3.938181E0,1.7660937E0,5.534079E-1,4.1364506E-1,1.9334097E0,2.489411E0,6.1308002E0,3.968334E0,1.0731125E0,2.0408444E0,2.0022662E0,3.034029E0,1.4649363E0,1.2336386E0,2.2741151E-1,0E0,6.7808414E-1,1.9908254E0,3.1138382E0,1.9009798E0,3.0832045E0,2.3792152E0,1.1277008E0,1.4075799E0,2.8402982E0,1.2997371E0,4.250104E0,2.776937E0,1.9515686E0,1.5372183E0,8.752717E-1,2.3874888E0,0E0,1.3851517E0,8.6157227E-1,2.3201637E0,0E0,0E0,1.8512833E-1,0E0,2.5343275E0,4.2208834E0,2.336173E0,3.5247526E0,1.4037523E0,1.9303465E0,3.210425E0,1.726327E0,1.5619943E0,1.8319187E0,3.0812335E0,1.5378282E0,0E0,0E0,1.1324879E0,1.781908E0,0E0,0E0,0E0,0E0,0E0,0E0,0E0,0E0,0E0,0E0,0E0,0E0,0E0,0E0,0E0,0E0,0E0,0E0,0E0,0E0,0E0,0E0,0E0,0E0,0E0,0E0,0E0,0E0,0E0,0E0,0E0,0E0,0E0,0E0,0E0,0E0,0E0,0E0,0E0,0E0,0E0,0E0,0E0,0E0,0E0,0E0,0E0,0E0,0E0,0E0,0E0,0E0,0E0,0E0,0E0,0E0,0E0,0E0,0E0,0E0,0E0,0E0,0E0,0E0,0E0,0E0,0E0,0E0,0E0,0E0,0E0,0E0,0E0,0E0,0E0,0E0,0E0,0E0,0E0,0E0,0E0,0E0,0E0,0E0,0E0,0E0,0E0,0E0,0E0,0E0,0E0,0E0,0E0,0E0,0E0,0E0,0E0,0E0,0E0,0E0,0E0,0E0,0E0,0E0,0E0,0E0,0E0,0E0,0E0,0E0],"parents":[2147483647,0,0,1,1,2,2,3,3,4,4,5,5,6,6,7,7,8,8,9,9,10,10,11,11,12,12,13,13,14,14,15,15,16,16,17,17,18,18,19,19,20,20,21,21,22,22,23,23,24,24,25,25,26,26,27,27,28,28,29,29,30,30,31,31,32,32,33,33,34,34,35,35,36,36,37,37,38,38,39,39,40,40,41,41,42,42,43,43,44,44,45,45,46,46,47,47,48,48,49,49,50,50,51,51,52,52,54,54,55,55,56,56,57,57,58,58,59,59,60,60,61,61,62,62,63,63,64,64,65,65,66,66,67,67,68,68,69,69,70,70,71,71,72,72,73,73,74,74,75,75,76,76,77,77,78,78,79,79,80,80,81,81,82,82,83,83,85,85,86,86,87,87,88,88,89,89,90,90,91,91,92,92,93,93,94,94,95,95,96,96,97,97,98,98,99,99,100,100,102,102,103,103,104,104,107,107,109,109,110,110,111,111,112,112,113,113,114,114,115,115,116,116,117,117,118,118,119,119,120,120,123,123,124,124],"right_children":[2,4,6,8,10,12,14,16,18,20,22,24,26,28,30,32,34,36,38,40,42,44,46,48,50,52,54,56,58,60,62,64,66,68,70,72,74,76,78,80,82,84,86,88,90,92,94,96,98,100,102,104,106,-1,108,110,112,114,116,118,120,122,124,126,128,130,132,134,136,138,140,142,144,146,148,150,152,154,156,158,160,162,164,166,-1,168,170,172,174,176,178,180,182,184,186,188,190,192,194,196,198,-1,200,202,204,-1,-1,206,-1,208,210,212,214,216,218,220,222,224,226,228,230,-1,-1,232,234,-1,-1,-1,-1,-1,-1,-1,-1,-1,-1,-1,-1,-1,-1,-1,-1,-1,-1,-1,-1,-1,-1,-1,-1,-1,-1,-1,-1,-1,-1,-1,-1,-1,-1,-1,-1,-1,-1,-1,-1,-1,-1,-1,-1,-1,-1,-1,-1,-1,-1,-1,-1,-1,-1,-1,-1,-1,-1,-1,-1,-1,-1,-1,-1,-1,-1,-1,-1,-1,-1,-1,-1,-1,-1,-1,-1,-1,-1,-1,-1,-1,-1,-1,-1,-1,-1,-1,-1,-1,-1,-1,-1,-1,-1,-1,-1,-1,-1,-1,-1,-1,-1,-1,-1,-1,-1,-1,-1,-1,-1],"split_conditions":[-5.123274E0,1.8E2,1.9412445E2,7.0678506E0,2.98709E-1,5.2493806E0,4.647411E0,3.6315322E-2,2.672005E1,1.9582665E-1,3.6E2,2.74E2,3.89E2,2.24E2,3.035155E2,2.19E2,2.9475968E0,-2.1798545E-1,1.174106E1,-3.0165893E-1,-7.607339E0,2.32E2,3.2613132E2,4.518869E1,-5.765129E-1,5.677612E-1,4.35E2,3.773652E0,3.27E2,-2.8225496E0,1.100071E-1,2.324976E0,3.8418336E0,-8.302297E0,3.58E2,3.66E2,-7.657404E0,3.33E2,5.3075415E2,3.9420319E0,8.909545E2,3.66E2,1.315883E0,-2.8576577E-1,3.3472672E0,9.052183E0,4.47E2,7.760083E0,4.6892264E-1,8.485281E1,2.6304324E0,3.762662E-1,-3.4833598E0,-3.536462E-2,3.2394364E-2,2.0838964E0,5.7885375E0,-4.4791466E-1,-2.920635E-1,1.9625348E-1,-4.0227172E-1,3.2294836E2,2.9079905E0,-1.2157449E-1,4.225804E0,8.276518E0,4.0980962E-1,5.4E2,2.6716251E1,8.184474E0,1.2E2,-8.115882E0,2.0296714E0,7.640025E-1,-7.385948E0,2.16E2,5.7329373E0,1.68E2,2.4339883E0,1.7841163E-1,3.07E2,5.547545E0,-5.7722282E0,2.4E2,6.793078E-4,4.4668117E0,-5.243603E0,1.95E2,2.65268E2,2.883212E2,2.0671907E2,2.111309E2,4.4991395E-1,3.8418336E0,6.177378E2,-4.346865E0,9.985498E0,1.348106E2,-8.01237E-2,2.7035207E-1,-2.963194E-1,-4.152065E-2,2.9480674E0,2.672005E1,8.90845E0,-2.859136E-2,6.567419E-3,2.1673532E0,-9.167287E-3,3.1182796E-1,2.964153E2,1.6155495E2,8.976472E0,5.9013796E0,5.3968987E0,3.332793E2,2.7305179E0,-3.5076496E-1,2.47E2,-4.3716958E-1,6.768309E2,3.5996713E-2,-4.1993605E-3,1.6521738E-1,3.18E2,1.844406E-2,-1.3936395E-3,-1.764845E-2,-9.245501E-3,-9.51103E-3,7.0939767E-3,1.2783066E-2,-1.0674041E-4,-5.0764335E-3,3.0139145E-2,-1.004846E-2,-7.6630776E-4,-1.8960519E-2,1.1989165E-2,1.1537116E-2,-3.2347642E-2,3.2169398E-2,-6.156866E-4,5.8881296E-3,-2.6578989E-2,-2.4462255E-2,2.3808358E-2,2.5303604E-2,-8.940344E-3,5.9186956E-3,2.6479317E-2,8.341876E-3,-4.7607325E-2,-4.2705773E-3,3.368652E-2,-1.0234025E-2,3.0456947E-2,-9.354207E-3,7.087496E-3,-2.8793812E-2,-2.012943E-3,5.340181E-3,-1.0943357E-2,-3.8932905E-2,2.1621839E-3,5.148862E-3,3.448906E-2,2.7095255E-2,-4.237962E-3,-7.5576673E-3,2.494019E-2,-2.9470518E-2,-1.9696057E-2,-2.1597607E-2,8.861989E-3,-7.84164E-3,5.5697598E-3,-2.8593963E-4,-2.2012457E-2,-2.2611275E-2,-4.018633E-2,2.3576392E-2,-2.7853364E-2,-6.4507434E-3,-4.099844E-2,1.186186E-2,-2.0964222E-2,-2.9517204E-4,1.2996328E-2,-2.3842422E-2,5.922567E-3,1.8594244E-2,1.1167489E-2,-3.1133133E-3,-3.744921E-2,-3.67238E-2,-4.47096E-3,8.890464E-3,-7.87706E-3,1.6747862E-2,-2.1586409E-2,1.4380261E-2,2.4670977E-2,-3.398553E-2,2.2614736E-2,2.7375123E-3,2.6173845E-2,1.609639E-2,-1.0777294E-2,-1.1088953E-2,8.368356E-3,-4.122649E-2,-1.0057458E-2,8.981951E-3,-1.5887799E-2,2.3243746E-2,-1.2554089E-2,7.745561E-3,1.7188225E-2,-1.2829143E-2,1.3561862E-2,-2.5983488E-2,2.1342939E-2,-1.7790353E-2,3.4050515E-3,-3.819568E-2,-2.100263E-2,-3.27314E-2,2.0995896E-2,-3.8266198E-3,-3.6124054E-2,-1.1789095E-2,1.4236778E-2,-3.6835409E-4,-3.6386874E-2],"split_indices":[7,2,2,1,4,1,1,6,2,6,0,0,0,0,2,0,1,6,1,5,7,0,2,2,7,4,0,3,0,7,4,3,1,7,0,0,7,0,9,1,9,0,1,5,1,3,0,3,4,9,1,7,7,0,6,1,3,5,5,4,5,2,3,6,3,3,4,9,2,2,9,7,3,4,7,0,3,0,3,6,0,1,7,9,0,3,7,0,2,2,2,2,4,1,9,7,3,2,6,4,5,0,1,2,3,0,0,3,0,4,2,9,3,3,3,2,3,5,0,5,9,0,0,4,0,0,0,0,0,0,0,0,0,0,0,0,0,0,0,0,0,0,0,0,0,0,0,0,0,0,0,0,0,0,0,0,0,0,0,0,0,0,0,0,0,0,0,0,0,0,0,0,0,0,0,0,0,0,0,0,0,0,0,0,0,0,0,0,0,0,0,0,0,0,0,0,0,0,0,0,0,0,0,0,0,0,0,0,0,0,0,0,0,0,0,0,0,0,0,0,0,0,0,0,0,0,0,0,0,0,0,0,0,0,0],"split_type":[0,0,0,0,0,0,0,0,0,0,0,0,0,0,0,0,0,0,0,0,0,0,0,0,0,0,0,0,0,0,0,0,0,0,0,0,0,0,0,0,0,0,0,0,0,0,0,0,0,0,0,0,0,0,0,0,0,0,0,0,0,0,0,0,0,0,0,0,0,0,0,0,0,0,0,0,0,0,0,0,0,0,0,0,0,0,0,0,0,0,0,0,0,0,0,0,0,0,0,0,0,0,0,0,0,0,0,0,0,0,0,0,0,0,0,0,0,0,0,0,0,0,0,0,0,0,0,0,0,0,0,0,0,0,0,0,0,0,0,0,0,0,0,0,0,0,0,0,0,0,0,0,0,0,0,0,0,0,0,0,0,0,0,0,0,0,0,0,0,0,0,0,0,0,0,0,0,0,0,0,0,0,0,0,0,0,0,0,0,0,0,0,0,0,0,0,0,0,0,0,0,0,0,0,0,0,0,0,0,0,0,0,0,0,0,0,0,0,0,0,0,0,0,0,0,0,0,0,0,0,0,0,0,0,0],"sum_hessian":[4.87679E3,2.8177832E3,2.0590068E3,1.686954E3,1.1308292E3,1.147857E3,9.1114984E2,1.32799E3,3.5896405E2,3.4192963E2,7.8889954E2,9.627152E2,1.8514182E2,7.0203064E2,2.091192E2,8.438453E2,4.8414465E2,4.635824E1,3.126058E2,3.027432E2,3.918643E1,6.437443E2,1.4515521E2,7.80411E2,1.8230423E2,1.7567741E2,9.46441E0,3.1017993E2,3.9185068E2,1.521867E2,5.6932495E1,3.3478616E2,5.0905914E2,2.4817079E2,2.3597388E2,9.421969E0,3.6936268E1,1.9242403E2,1.2018179E2,1.9526122E2,1.07481995E2,8.572255E0,3.0614176E1,3.4912247E2,2.9462183E2,1.1232767E2,3.282755E1,3.0602863E2,4.7438235E2,1.704574E2,1.1846826E1,1.7327682E2,2.4005792E0,2.5176492E0,6.9467607E0,1.657007E2,1.4447925E2,3.11685E2,8.01657E1,9.8074394E1,5.4112316E1,7.7140784E0,4.921842E1,1.8160004E1,3.1662616E2,3.0215927E2,2.0689987E2,1.5777399E1,2.3239339E2,2.2424985E2,1.1724019E1,7.254128E0,2.1678414E0,1.5116879E1,2.1819387E1,1.4113737E2,5.128665E1,1.10730354E2,9.451435E0,1.5084525E2,4.4415962E1,1.0135766E2,6.124339E0,7.174435E0,1.3978204E0,1.04108305E1,2.0203344E1,3.2822195E2,2.0900534E1,1.535926E2,1.4102924E2,1.0948841E2,2.8392565E0,2.2617851E1,1.0209696E1,2.7914954E2,2.6879105E1,4.601142E2,1.4268183E1,7.2677455E0,1.6318965E2,5.272196E0,6.5746303E0,1.68668E2,4.6088314E0,1.3723391E0,1.0282401E0,5.104589E0,1.8421719E0,6.525777E1,1.0044293E2,7.9495155E1,6.498409E1,3.4601494E1,2.770835E2,6.3850418E1,1.6315287E1,3.064859E1,6.7425804E1,1.5996088E1,3.8116226E1,6.2434216E0,1.4706568E0,2.901798E1,2.0200436E1,1.0178494E1,7.981509E0,1.7629341E2,1.4033273E2,2.725004E2,2.9658855E1,4.8134037E1,1.5876584E2,5.8689384E0,9.908461E0,8.924527E1,1.4314812E2,8.871281E0,2.1537857E2,2.0390217E0,9.684998E0,5.8933883E0,1.3607396E0,1.0018462E0,1.1659952E0,1.3768154E1,1.3487251E0,5.696353E0,1.6123035E1,5.3350563E1,8.7786804E1,4.922817E1,2.0584826E0,1.4997092E0,1.09230644E2,5.233008E0,4.218427E0,1.3237492E2,1.8470322E1,3.0371786E1,1.4044177E1,8.772377E1,1.3633886E1,3.7303004E0,2.3940387E0,1.0810703E0,6.0933647E0,8.842779E0,1.568052E0,1.5424248E1,4.7790966E0,1.8930545E2,1.389165E2,5.4785347E0,1.5421999E1,7.865577E1,7.493684E1,1.2563655E1,1.2846558E2,1.3959971E1,9.552844E1,1.536553E0,1.3027035E0,9.391293E0,1.322656E1,7.0721645E0,3.137531E0,7.413118E1,2.0501834E2,1.3927504E1,1.29516E1,3.4816946E2,1.1194471E2,1.1135169E1,3.1330135E0,2.8909242E0,4.3768215E0,1.4172372E2,2.1465921E1,3.4874203E0,3.08721E0,2.7082802E1,1.415852E2,2.1991692E0,2.4096622E0,1.205701E0,3.8988879E0,5.6742493E1,8.515271E0,5.5909958E1,4.453297E1,5.0629954E0,7.443216E1,4.8476913E1,1.6507177E1,3.2531624E1,2.0698702E0,2.124366E2,6.46469E1,5.1682953E1,1.2167464E1,1.1098926E0,1.5205395E1,1.27100725E1,1.7938519E1,2.7159838E1,4.026597E1,1.9618882E0,1.4034201E1,3.5379578E1,2.736652E0,3.6513283E0,2.5366653E1,1.7401754E1,2.798682E0],"tree_param":{"num_deleted":"0","num_feature":"10","num_nodes":"235","size_leaf_vector":"1"}},{"base_weights":[6.6266174E-4,1.0287249E0,-4.9339972E-2,4.9346797E-2,9.3426865E-1,9.4321334E-1,2.1070154E-1,5.5926824E-1,9.558173E-1,3.0130973E-2,-1.9082163E-2,-1.1467277E-2,7.495462E-1,4.5739416E-2,1.2134185E-2,7.4762073E-3,4.0855758E-2],"categories":[],"categories_nodes":[],"categories_segments":[],"categories_sizes":[],"default_left":[0,0,0,0,0,0,0,0,0,0,0,0,0,0,0,0,0],"id":58,"left_children":[1,3,-1,-1,5,7,9,11,13,-1,-1,-1,15,-1,-1,-1,-1],"loss_changes":[5.1795996E3,7.844238E-1,0E0,0E0,1.0436859E0,3.8168335E-1,1.1908565E0,1.4636161E0,3.614807E-1,0E0,0E0,0E0,3.1851578E-1,0E0,0E0,0E0,0E0],"parents":[2147483647,0,0,1,1,4,4,5,5,6,6,7,7,8,8,12,12],"right_children":[2,4,-1,-1,6,8,10,12,14,-1,-1,-1,16,-1,-1,-1,-1],"split_conditions":[-1.9974375E0,-2.0482295E0,-4.9339972E-2,4.9346797E-2,1.0044628E1,-4.7801068E-1,9.8075806E1,2.9323616E0,3.4587173E2,3.0130973E-2,-1.9082163E-2,-1.1467277E-2,-8.780239E0,4.5739416E-2,1.2134185E-2,7.4762073E-3,4.0855758E-2],"split_indices":[8,8,0,0,3,5,2,1,2,0,0,0,7,0,0,0,0],"split_type":[0,0,0,0,0,0,0,0,0,0,0,0,0,0,0,0,0],"sum_hessian":[4.857157E3,2.4389175E3,2.4182397E3,2.24795E3,1.9096748E2,1.8833574E2,2.6317532E0,7.4281936E0,1.8090755E2,1.5363362E0,1.095417E0,1.3761276E0,6.052066E0,1.7932098E2,1.5865654E0,1.3151209E0,4.736945E0],"tree_param":{"num_deleted":"0","num_feature":"10","num_nodes":"17","size_leaf_vector":"1"}},{"base_weights":[2.0244162E-4,1.2211578E-1,-1.5299332E-1,8.157518E-2,4.8820084E-1,-3.3859333E-1,4.4312418E-2,-9.8793305E-2,1.991479E-1,-8.118712E-2,5.266633E-1,-1.8367788E-1,-4.4792834E-1,9.596865E-2,-1.2776802E-1,-2.0324858E-1,3.246403E-2,1.3157977E-1,2.7573755E-1,2.7601162E-1,-4.613837E-1,5.869902E-1,2.7991268E-1,-2.1133225E-1,2.8994632E-1,-3.6996496E-1,-6.7512107E-1,3.2844283E-2,1.8355899E-1,-2.4057339E-1,9.5851995E-2,-9.931079E-3,-2.77048E-1,1.83168E-1,-3.539755E-2,1.3757556E-2,2.133949E-1,2.9732075E-1,3.9410867E-2,4.9023643E-1,-3.0671805E-1,-3.971565E-2,6.621753E-2,2.461773E-2,6.0464567E-1,1.1551374E-1,5.175304E-1,-2.9053682E-1,-3.4284487E-2,3.9358285E-1,-4.0782312E-1,-4.9383357E-1,-1.9698916E-1,9.111735E-2,-7.0467114E-1,7.095425E-2,-1.724549E-1,3.7005502E-1,6.1024062E-2,-3.640535E-1,8.9319535E-2,-6.276945E-1,1.5083472E-1,3.7540787E-1,-1.12622425E-1,-4.241576E-1,-2.1909231E-1,3.673385E-1,1.3468838E-2,9.9453576E-2,-1.3512683E-1,3.9886728E-1,-8.584871E-3,2.4346653E-1,-2.1198313E-1,1.8616478E-1,3.5166842E-1,1.3756408E-1,-2.9444578E-1,-8.8282017E-4,5.960363E-1,-2.6486471E-2,5.4934835E-3,-2.4783107E-2,3.8314033E-1,-2.9277736E-2,3.0864385E-1,3.9800683E-1,6.5003127E-1,-2.7733125E-2,4.470742E-1,5.4353226E-2,5.719435E-1,-5.667851E-1,-2.222137E-1,4.4647534E-4,-5.7242996E-1,4.863295E-1,-3.1748563E-1,5.497733E-3,-3.0863488E-2,-6.1966515E-1,-3.633886E-1,-5.9140466E-2,-4.4548404E-1,-3.1101543E-2,4.7411537E-1,-7.88056E-1,-3.7639984E-1,1.171354E-1,-5.349229E-2,3.1267825E-1,-2.3459508E-1,-2.998801E-2,3.8738734E-1,3.3835214E-1,1.141483E-2,-2.6780304E-1,-7.8089595E-1,1.9240461E-1,-3.3198524E-1,-3.881229E-2,5.6007206E-3,2.581686E-1,-6.802528E-2,6.5488475E-3,2.5992392E-2,-1.6937306E-2,2.2358121E-4,-1.8165639E-2,-4.842457E-2,-1.2147685E-2,4.9364E-3,-2.751058E-2,1.8902706E-2,6.803928E-3,-1.5173438E-2,-3.7224293E-2,6.150237E-3,-4.1733584E-3,-2.3639547E-2,2.3017991E-2,-1.0132305E-2,4.1867665E-4,-2.1975445E-2,1.2066731E-2,-2.192891E-2,-1.7818496E-2,1.7422825E-2,-9.055438E-3,1.1800344E-2,1.2614999E-2,2.1374056E-2,1.0022075E-2,-1.9090958E-2,-3.344393E-2,6.016452E-3,1.152463E-2,3.2604095E-2,2.5701925E-2,1.7078993E-3,2.5419561E-2,-6.499259E-3,-1.98688E-3,2.5739092E-2,3.1824775E-2,8.7235235E-3,-2.572024E-2,9.904967E-3,2.6514865E-2,-4.6715047E-3,-6.3695986E-4,4.7848015E-3,2.9054675E-2,4.3808122E-4,-2.978137E-2,1.12776E-3,-1.4733275E-2,-2.4748475E-3,1.0939437E-2,-3.756919E-3,-4.1314702E-2,1.5670976E-2,-2.412927E-3,2.5239898E-2,-2.628596E-2,4.382188E-3,-8.64664E-3,-3.273839E-2,-3.2728976E-3,-2.1291351E-2,-8.026842E-3,6.589541E-3,9.264266E-3,-2.6382636E-2,2.7177572E-2,3.697011E-3,-3.856574E-2,-1.812613E-2,-3.3873856E-2,-3.166832E-3,1.9444589E-2,4.47201E-3,9.114366E-3,-6.322235E-3,2.2565847E-2,-8.919404E-3,4.8840963E-3,-1.712996E-2,1.9648766E-2,-3.144047E-3,2.1115514E-2,-8.459379E-3,-2.545581E-2,2.1270723E-3,-8.803969E-3,-3.133751E-2,-3.9626412E-2,4.6466845E-3,-4.892472E-3,1.8611696E-2,5.3574974E-3,-2.9449064E-2,-2.9497787E-2,1.4203011E-2,3.6406456E-3,-3.7662435E-2],"categories":[],"categories_nodes":[],"categories_segments":[],"categories_sizes":[],"default_left":[0,0,0,0,0,0,0,0,0,0,0,0,0,0,0,0,0,0,0,0,0,0,0,0,0,0,0,0,0,0,0,0,0,0,0,0,0,0,0,0,0,0,0,0,0,0,0,0,0,0,0,0,0,0,0,0,0,0,0,0,0,0,0,0,0,0,0,0,0,0,0,0,0,0,0,0,0,0,0,0,0,0,0,0,0,0,0,0,0,0,0,0,0,0,0,0,0,0,0,0,0,0,0,0,0,0,0,0,0,0,0,0,0,0,0,0,0,0,0,0,0,0,0,0,0,0,0,0,0,0,0,0,0,0,0,0,0,0,0,0,0,0,0,0,0,0,0,0,0,0,0,0,0,0,0,0,0,0,0,0,0,0,0,0,0,0,0,0,0,0,0,0,0,0,0,0,0,0,0,0,0,0,0,0,0,0,0,0,0,0,0,0,0,0,0,0,0,0,0,0,0,0,0,0,0,0,0,0,0,0,0,0,0,0,0,0,0,0,0,0,0,0,0,0,0,0,0],"id":59,"left_children":[1,3,5,7,9,11,13,15,17,19,21,23,25,27,29,31,33,35,37,39,41,43,45,47,49,51,53,55,57,59,61,63,65,67,69,71,73,75,77,79,81,-1,83,85,87,89,91,93,95,97,99,101,103,105,107,109,111,113,115,117,119,121,123,125,127,129,131,133,135,137,139,141,143,145,147,149,151,153,155,-1,157,-1,-1,-1,159,-1,161,163,165,167,169,171,173,175,177,179,181,183,185,-1,-1,187,189,191,193,-1,195,197,199,201,203,205,207,-1,209,211,213,215,217,219,221,-1,-1,223,225,-1,-1,-1,-1,-1,-1,-1,-1,-1,-1,-1,-1,-1,-1,-1,-1,-1,-1,-1,-1,-1,-1,-1,-1,-1,-1,-1,-1,-1,-1,-1,-1,-1,-1,-1,-1,-1,-1,-1,-1,-1,-1,-1,-1,-1,-1,-1,-1,-1,-1,-1,-1,-1,-1,-1,-1,-1,-1,-1,-1,-1,-1,-1,-1,-1,-1,-1,-1,-1,-1,-1,-1,-1,-1,-1,-1,-1,-1,-1,-1,-1,-1,-1,-1,-1,-1,-1,-1,-1,-1,-1,-1,-1,-1,-1,-1,-1,-1,-1,-1,-1,-1],"loss_changes":[8.67948E1,3.836711E1,7.543037E1,4.9452515E1,5.688751E0,1.7893661E1,8.893368E0,1.2627599E1,7.2682533E0,2.460422E0,3.4324875E0,5.83494E0,1.0758423E1,4.2458706E0,5.852751E0,7.3123665E0,4.187222E0,7.244421E0,3.3581543E0,1.334219E0,1.7651395E0,1.9038544E0,1.8692217E0,5.838644E0,1.949584E0,9.86414E0,3.6319504E0,3.518447E0,7.3328266E0,6.301567E0,3.2058802E0,5.688965E0,3.0705147E0,3.9669704E0,3.8154545E0,2.6637173E0,5.7266483E0,3.5907593E0,1.8900268E0,4.0502334E-1,3.9743826E-1,0E0,1.0410122E0,1.4474947E0,1.4980698E0,1.459779E0,4.706049E-1,5.3103065E0,2.4308555E0,1.6085632E0,5.3896904E-1,4.210739E0,6.676135E0,2.2299726E0,3.8594666E0,2.1825895E0,2.197321E0,2.4522038E0,2.6850114E0,4.291647E0,1.919143E0,8.9436626E-1,1.743882E0,1.1517854E0,3.2366858E0,2.2370377E0,3.145112E0,1.9352932E0,2.9331837E0,3.2623894E0,2.752006E0,9.805484E-1,2.3117824E0,3.0213623E0,2.9330382E0,4.70781E0,3.299034E0,1.8236135E0,2.3445106E0,0E0,2.5442839E-2,0E0,0E0,0E0,1.7181516E-1,0E0,6.2025434E-1,2.298623E0,1.1775589E0,2.7967918E0,6.0829866E-1,1.1335482E-2,3.753848E-1,1.970377E0,3.4362192E0,2.2588303E0,2.3841116E0,4.9421597E-1,3.5328242E-1,0E0,0E0,3.9230423E0,3.3034458E0,2.768611E0,4.9488125E0,0E0,1.4830351E-1,7.618942E-1,3.3440795E0,1.831315E0,2.02874E0,7.6821226E-1,2.6964138E0,0E0,1.4686813E0,1.6851075E0,3.052985E0,2.8768578E0,1.0059814E0,2.0875928E0,1.1856313E0,0E0,0E0,1.9277775E0,2.6688614E0,0E0,0E0,0E0,0E0,0E0,0E0,0E0,0E0,0E0,0E0,0E0,0E0,0E0,0E0,0E0,0E0,0E0,0E0,0E0,0E0,0E0,0E0,0E0,0E0,0E0,0E0,0E0,0E0,0E0,0E0,0E0,0E0,0E0,0E0,0E0,0E0,0E0,0E0,0E0,0E0,0E0,0E0,0E0,0E0,0E0,0E0,0E0,0E0,0E0,0E0,0E0,0E0,0E0,0E0,0E0,0E0,0E0,0E0,0E0,0E0,0E0,0E0,0E0,0E0,0E0,0E0,0E0,0E0,0E0,0E0,0E0,0E0,0E0,0E0,0E0,0E0,0E0,0E0,0E0,0E0,0E0,0E0,0E0,0E0,0E0,0E0,0E0,0E0,0E0,0E0,0E0,0E0,0E0,0E0,0E0,0E0,0E0,0E0,0E0,0E0,0E0,0E0],"parents":[2147483647,0,0,1,1,2,2,3,3,4,4,5,5,6,6,7,7,8,8,9,9,10,10,11,11,12,12,13,13,14,14,15,15,16,16,17,17,18,18,19,19,20,20,21,21,22,22,23,23,24,24,25,25,26,26,27,27,28,28,29,29,30,30,31,31,32,32,33,33,34,34,35,35,36,36,37,37,38,38,39,39,40,40,42,42,43,43,44,44,45,45,46,46,47,47,48,48,49,49,50,50,51,51,52,52,53,53,54,54,55,55,56,56,57,57,58,58,59,59,60,60,61,61,62,62,63,63,64,64,65,65,66,66,67,67,68,68,69,69,70,70,71,71,72,72,73,73,74,74,75,75,76,76,77,77,78,78,80,80,84,84,86,86,87,87,88,88,89,89,90,90,91,91,92,92,93,93,94,94,95,95,96,96,97,97,98,98,101,101,102,102,103,103,104,104,106,106,107,107,108,108,109,109,110,110,111,111,112,112,114,114,115,115,116,116,117,117,118,118,119,119,120,120,123,123,124,124],"right_children":[2,4,6,8,10,12,14,16,18,20,22,24,26,28,30,32,34,36,38,40,42,44,46,48,50,52,54,56,58,60,62,64,66,68,70,72,74,76,78,80,82,-1,84,86,88,90,92,94,96,98,100,102,104,106,108,110,112,114,116,118,120,122,124,126,128,130,132,134,136,138,140,142,144,146,148,150,152,154,156,-1,158,-1,-1,-1,160,-1,162,164,166,168,170,172,174,176,178,180,182,184,186,-1,-1,188,190,192,194,-1,196,198,200,202,204,206,208,-1,210,212,214,216,218,220,222,-1,-1,224,226,-1,-1,-1,-1,-1,-1,-1,-1,-1,-1,-1,-1,-1,-1,-1,-1,-1,-1,-1,-1,-1,-1,-1,-1,-1,-1,-1,-1,-1,-1,-1,-1,-1,-1,-1,-1,-1,-1,-1,-1,-1,-1,-1,-1,-1,-1,-1,-1,-1,-1,-1,-1,-1,-1,-1,-1,-1,-1,-1,-1,-1,-1,-1,-1,-1,-1,-1,-1,-1,-1,-1,-1,-1,-1,-1,-1,-1,-1,-1,-1,-1,-1,-1,-1,-1,-1,-1,-1,-1,-1,-1,-1,-1,-1,-1,-1,-1,-1,-1,-1,-1,-1],"split_conditions":[1.5328401E2,8.723436E0,-5.216663E0,-6.1975555E0,1.502827E1,3.9173853E-1,4.647099E0,3.8418336E0,2.9323683E0,2.78E2,3.53E2,2.0894855E-1,3.4E2,2.43E2,-2.8225496E0,2.937762E-1,3.7104148E-1,-4.662298E0,3.51E2,-4.299183E-1,-4.1371682E-1,1.64E2,7.1568096E-1,-3.0165893E-1,6.841052E2,2.32E2,1.8E2,3.4682247E-1,2.71E2,3.0351706E2,4.7483563E0,-8.38652E0,1.502827E1,-3.827213E-1,-4.4085306E-1,3.0248868E0,-3.1265047E-1,2.04E2,-4.1171813E0,2.0296714E0,2.6932085E-2,-3.971565E-2,3.89E2,5.677612E-1,4.518837E1,-6.353171E0,-2.5515592E-1,-6.8776712E0,8.909545E2,6.703803E0,1.3158401E0,-4.0472916E-1,3.9420319E0,-7.1987224E0,3.288658E2,6.5795135E2,2.7007072E0,-1.14016734E-1,-6.473293E-2,9.134828E0,3.16E2,8.29759E2,3.3E2,4.680714E-2,2.6716251E1,9.972462E2,7.4675384E0,6E1,5.1E2,-5.1547986E-1,3.92E2,7.6837494E2,3.8E2,2.7990642E0,7.6009026E0,-1.4228124E-2,-4.182126E0,4.53E2,5.0911688E2,-8.8282017E-4,-1.06616095E-1,-2.6486471E-2,5.4934835E-3,-2.4783107E-2,4.06E2,-2.9277736E-2,6.268612E-1,2.39E2,6E2,1.10306635E1,-4.107308E-1,3.3133662E0,6.9065186E2,1.0396635E3,3.1099884E2,1.82E2,3.383675E-1,1.8E2,2.52E2,5.497733E-3,-3.0863488E-2,4.595163E-1,2.0671686E2,3.14808E2,2.0671907E2,-3.1101543E-2,2.9715323E0,8.694793E0,6.15533E-1,8.843967E-4,1.83E2,4.7434164E2,1.3157996E0,-2.998801E-2,8.7464276E2,3.92E2,-2.9047512E-2,5.731492E2,1.8763797E-1,2.24E2,2.324976E0,-3.881229E-2,5.6007206E-3,-1.0835469E-1,-3.03433E-1,6.5488475E-3,2.5992392E-2,-1.6937306E-2,2.2358121E-4,-1.8165639E-2,-4.842457E-2,-1.2147685E-2,4.9364E-3,-2.751058E-2,1.8902706E-2,6.803928E-3,-1.5173438E-2,-3.7224293E-2,6.150237E-3,-4.1733584E-3,-2.3639547E-2,2.3017991E-2,-1.0132305E-2,4.1867665E-4,-2.1975445E-2,1.2066731E-2,-2.192891E-2,-1.7818496E-2,1.7422825E-2,-9.055438E-3,1.1800344E-2,1.2614999E-2,2.1374056E-2,1.0022075E-2,-1.9090958E-2,-3.344393E-2,6.016452E-3,1.152463E-2,3.2604095E-2,2.5701925E-2,1.7078993E-3,2.5419561E-2,-6.499259E-3,-1.98688E-3,2.5739092E-2,3.1824775E-2,8.7235235E-3,-2.572024E-2,9.904967E-3,2.6514865E-2,-4.6715047E-3,-6.3695986E-4,4.7848015E-3,2.9054675E-2,4.3808122E-4,-2.978137E-2,1.12776E-3,-1.4733275E-2,-2.4748475E-3,1.0939437E-2,-3.756919E-3,-4.1314702E-2,1.5670976E-2,-2.412927E-3,2.5239898E-2,-2.628596E-2,4.382188E-3,-8.64664E-3,-3.273839E-2,-3.2728976E-3,-2.1291351E-2,-8.026842E-3,6.589541E-3,9.264266E-3,-2.6382636E-2,2.7177572E-2,3.697011E-3,-3.856574E-2,-1.812613E-2,-3.3873856E-2,-3.166832E-3,1.9444589E-2,4.47201E-3,9.114366E-3,-6.322235E-3,2.2565847E-2,-8.919404E-3,4.8840963E-3,-1.712996E-2,1.9648766E-2,-3.144047E-3,2.1115514E-2,-8.459379E-3,-2.545581E-2,2.1270723E-3,-8.803969E-3,-3.133751E-2,-3.9626412E-2,4.6466845E-3,-4.892472E-3,1.8611696E-2,5.3574974E-3,-2.9449064E-2,-2.9497787E-2,1.4203011E-2,3.6406456E-3,-3.7662435E-2],"split_indices":[2,1,7,7,2,4,1,1,1,0,0,6,0,0,7,4,4,7,0,5,5,0,4,5,9,0,2,4,0,2,1,7,2,5,5,3,7,0,7,3,6,0,0,4,2,7,6,7,9,3,1,5,1,7,2,9,3,6,6,1,0,9,9,6,2,9,3,9,9,5,0,9,0,1,3,6,7,0,9,0,6,0,0,0,0,0,4,0,9,1,5,3,9,9,2,0,4,9,0,0,0,4,2,2,2,0,3,3,4,6,0,9,1,0,9,0,6,9,6,0,3,0,0,6,5,0,0,0,0,0,0,0,0,0,0,0,0,0,0,0,0,0,0,0,0,0,0,0,0,0,0,0,0,0,0,0,0,0,0,0,0,0,0,0,0,0,0,0,0,0,0,0,0,0,0,0,0,0,0,0,0,0,0,0,0,0,0,0,0,0,0,0,0,0,0,0,0,0,0,0,0,0,0,0,0,0,0,0,0,0,0,0,0,0,0,0,0,0,0,0,0,0,0,0,0,0,0],"split_type":[0,0,0,0,0,0,0,0,0,0,0,0,0,0,0,0,0,0,0,0,0,0,0,0,0,0,0,0,0,0,0,0,0,0,0,0,0,0,0,0,0,0,0,0,0,0,0,0,0,0,0,0,0,0,0,0,0,0,0,0,0,0,0,0,0,0,0,0,0,0,0,0,0,0,0,0,0,0,0,0,0,0,0,0,0,0,0,0,0,0,0,0,0,0,0,0,0,0,0,0,0,0,0,0,0,0,0,0,0,0,0,0,0,0,0,0,0,0,0,0,0,0,0,0,0,0,0,0,0,0,0,0,0,0,0,0,0,0,0,0,0,0,0,0,0,0,0,0,0,0,0,0,0,0,0,0,0,0,0,0,0,0,0,0,0,0,0,0,0,0,0,0,0,0,0,0,0,0,0,0,0,0,0,0,0,0,0,0,0,0,0,0,0,0,0,0,0,0,0,0,0,0,0,0,0,0,0,0,0,0,0,0,0,0,0,0,0,0,0,0,0,0,0,0,0,0,0],"sum_hessian":[4.6452466E3,2.5868398E3,2.0584067E3,2.3300325E3,2.5680716E2,1.060298E3,9.981089E2,9.195339E2,1.4104987E3,1.6179502E1,2.4062767E2,4.3981265E2,6.204853E2,7.680061E2,2.3010275E2,5.1174002E2,4.0779385E2,7.5082855E2,6.596701E2,8.483342E0,7.6961603E0,1.922472E2,4.8380466E1,4.1607245E2,2.3740185E1,4.639163E2,1.5656898E2,4.4713852E2,3.2086758E2,1.528976E2,7.720517E1,1.4169766E2,3.7004236E2,1.2608679E2,2.8170706E2,3.0818234E2,4.426462E2,6.0422906E2,5.5441025E1,6.319041E0,2.164301E0,4.1698356E0,3.526325E0,5.924692E0,1.8632251E2,2.9474371E1,1.8906096E1,2.8702646E2,1.2904599E2,2.1049707E1,2.690477E0,2.6925027E2,1.9466605E2,5.736527E0,1.5083246E2,3.7768307E2,6.945544E1,1.26427345E2,1.9444025E2,1.1117925E2,4.1718338E1,4.716893E0,7.248827E1,2.9257214E1,1.1244045E2,1.02795815E2,2.6724655E2,5.9906757E1,6.618004E1,1.1976584E2,1.6194122E2,1.5974923E1,2.9220743E2,4.1381937E2,2.8826855E1,1.9986847E2,4.0436063E2,4.329912E1,1.2141905E1,1.2298119E0,5.089229E0,1.1604465E0,1.0038544E0,1.0115285E0,2.5147965E0,1.4639157E0,4.4607763E0,3.531305E1,1.5100946E2,2.1222006E1,8.252366E0,2.1976955E0,1.67084E1,5.5466263E1,2.3156021E2,1.22161095E2,6.8848915E0,1.8900518E1,2.1491888E0,1.0103328E0,1.6801441E0,1.3513963E2,1.3411063E2,1.26004814E2,6.8661224E1,1.7093517E0,4.0271754E0,1.19162994E2,3.1669456E1,2.755043E2,1.0217877E2,7.428529E0,6.2026905E1,1.5521886E0,1.2487515E2,2.862105E1,1.658192E2,9.165763E1,1.9521624E1,3.3953815E1,7.7645245E0,3.6943622E0,1.0225308E0,4.851555E1,2.3972725E1,1.2967592E1,1.6289623E1,3.59408E1,7.649965E1,9.742788E1,5.367935E0,2.4060426E2,2.6642282E1,1.2591416E0,5.8647614E1,4.803277E1,1.8147272E1,3.0803196E0,1.1668552E2,1.4423033E2,1.7710897E1,1.4219438E1,1.7554853E0,2.8235474E2,9.85269E0,4.0868527E2,5.1340933E0,2.278351E1,6.0433445E0,2.7841028E1,1.7202745E2,2.1565233E2,1.8870828E2,3.867224E1,4.626879E0,5.8256125E0,6.3162923E0,1.7665393E0,3.3226898E0,1.3511238E0,1.1636728E0,2.8298845E0,1.6308918E0,8.817688E0,2.6495361E1,1.4489183E2,6.117628E0,6.280204E0,1.4941801E1,6.8515353E0,1.4008312E0,1.1780907E0,1.0196048E0,1.5566526E1,1.141874E0,5.0400654E1,5.065609E0,1.5258588E2,7.897433E1,3.091822E1,9.1242874E1,5.2148237E0,1.670068E0,1.4113619E0,1.7489157E1,1.1452525E0,1.0039362E0,1.8621866E1,1.1651778E2,3.0084925E1,1.04025696E2,8.1178276E1,4.4826534E1,9.84349E0,5.8817738E1,2.8845074E0,1.1426679E0,1.121563E2,7.006693E0,1.4596057E1,1.7073399E1,1.9119053E1,2.5638525E2,2.4642456E1,7.7536316E1,5.656678E0,1.7718506E0,1.6839731E1,4.5187176E1,1.18371666E2,6.5034866E0,2.3895027E1,4.726023E0,8.65421E0,1.57165E2,7.681432E1,1.4843307E1,1.8494379E1,1.0272458E0,1.3845235E1,2.010858E1,3.2809646E0,4.48356E0,1.4889562E0,4.7026592E1,2.0724909E1,3.2478166E0],"tree_param":{"num_deleted":"0","num_feature":"10","num_nodes":"227","size_leaf_vector":"1"}},{"base_weights":[-2.5023515E-3,1.0259356E0,-4.9248237E-2,4.925446E-2,9.180433E-1,3.363443E-3,9.280126E-1,4.4401556E-2,1.5651058E-2],"categories":[],"categories_nodes":[],"categories_segments":[],"categories_sizes":[],"default_left":[0,0,0,0,0,0,0,0,0],"id":60,"left_children":[1,3,-1,-1,5,-1,7,-1,-1],"loss_changes":[4.891914E3,1.1564941E0,0E0,0E0,1.427063E0,0E0,1.6035461E-1,0E0,0E0],"parents":[2147483647,0,0,1,1,4,4,6,6],"right_children":[2,4,-1,-1,6,-1,8,-1,-1],"split_conditions":[-1.9974375E0,-2.0482295E0,-4.9248237E-2,4.925446E-2,9.2740995E-1,3.363443E-3,3.458755E2,4.4401556E-2,1.5651058E-2],"split_indices":[8,8,0,0,1,0,2,0,0],"split_type":[0,0,0,0,0,0,0,0,0],"sum_hessian":[4.6082324E3,2.307832E3,2.3004001E3,2.1321516E3,1.7568051E2,2.1367726E0,1.7354375E2,1.7170926E2,1.8344865E0],"tree_param":{"num_deleted":"0","num_feature":"10","num_nodes":"9","size_leaf_vector":"1"}},{"base_weights":[2.435937E-3,1.0265752E0,-4.9168188E-2,4.917184E-2,9.489179E-1,9.536566E-1,1.5310751E-2,1.6354503E-2,9.5860416E-1,6.6887045E-1,4.6310365E-2,-1.0521941E-2,8.229572E-1,4.2902477E-2,1.5587574E-2],"categories":[],"categories_nodes":[],"categories_segments":[],"categories_sizes":[],"default_left":[0,0,0,0,0,0,0,0,0,0,0,0,0,0,0],"id":61,"left_children":[1,3,-1,-1,5,7,-1,-1,9,11,-1,-1,13,-1,-1],"loss_changes":[4.6786523E3,6.7871094E-2,0E0,0E0,2.0896912E-1,1.8888855E-1,0E0,0E0,3.5720825E-2,1.6902938E0,0E0,0E0,7.592201E-2,0E0,0E0],"parents":[2147483647,0,0,1,1,4,4,5,5,8,8,9,9,12,12],"right_children":[2,4,-1,-1,6,8,-1,-1,10,12,-1,-1,14,-1,-1],"split_conditions":[-1.9974375E0,-2.0482295E0,-4.9168188E-2,4.917184E-2,3.4861697E2,1.54E2,1.5310751E-2,1.6354503E-2,-4.7801068E-1,2.075818E0,4.6310365E-2,-1.0521941E-2,4.352631E0,4.2902477E-2,1.5587574E-2],"split_indices":[8,8,0,0,2,0,0,0,5,1,0,0,3,0,0],"split_type":[0,0,0,0,0,0,0,0,0,0,0,0,0,0,0],"sum_hessian":[4.4118237E3,2.2175671E3,2.1942568E3,2.045133E3,1.7243407E2,1.7062524E2,1.8088242E0,1.938718E0,1.6868652E2,1.0001485E1,1.5868504E2,1.4121784E0,8.589307E0,6.7141457E0,1.8751607E0],"tree_param":{"num_deleted":"0","num_feature":"10","num_nodes":"15","size_leaf_vector":"1"}},{"base_weights":[2.5910512E-3,1.0227982E0,-4.9091365E-2,4.9095783E-2,9.256453E-1,9.352432E-1,2.7055714E-1,4.4526285E-1,9.4457173E-1,-8.463934E-3,2.936121E-2,3.600812E-2,-9.801749E-3,4.5208532E-2,1.4976681E-2],"categories":[],"categories_nodes":[],"categories_segments":[],"categories_sizes":[],"default_left":[0,0,0,0,0,0,0,0,0,0,0,0,0,0,0],"id":62,"left_children":[1,3,-1,-1,5,7,9,11,13,-1,-1,-1,-1,-1,-1],"loss_changes":[4.4368784E3,7.451172E-1,0E0,0E0,8.5180664E-1,3.6915588E-1,7.215378E-1,1.1921828E0,2.168274E-1,0E0,0E0,0E0,0E0,0E0,0E0],"parents":[2147483647,0,0,1,1,4,4,5,5,6,6,7,7,8,8],"right_children":[2,4,-1,-1,6,8,10,12,14,-1,-1,-1,-1,-1,-1],"split_conditions":[-1.9974375E0,-2.0482295E0,-4.9091365E-2,4.9095783E-2,1.0151232E1,9.2740995E-1,3.14808E2,1.98E2,3.4861697E2,-8.463934E-3,2.936121E-2,3.600812E-2,-9.801749E-3,4.5208532E-2,1.4976681E-2],"split_indices":[8,8,0,0,3,1,2,0,2,0,0,0,0,0,0],"split_type":[0,0,0,0,0,0,0,0,0,0,0,0,0,0,0],"sum_hessian":[4.2057974E3,2.116573E3,2.089224E3,1.9418531E3,1.7471979E2,1.7177539E2,2.9444032E0,4.119699E0,1.6765569E2,1.4945732E0,1.44983E0,2.678939E0,1.44076E0,1.6587167E2,1.7840242E0],"tree_param":{"num_deleted":"0","num_feature":"10","num_nodes":"15","size_leaf_vector":"1"}},{"base_weights":[5.7019554E-3,1.0228972E0,-4.9018458E-2,4.9022976E-2,9.408987E-1,9.6024644E-1,6.295197E-1,9.6600646E-1,1.1359708E-2,4.394399E-2,-2.1213873E-1,4.6271324E-2,1.4128494E-2,3.109221E-2,-5.40135E-2],"categories":[],"categories_nodes":[],"categories_segments":[],"categories_sizes":[],"default_left":[0,0,0,0,0,0,0,0,0,0,0,0,0,0,0],"id":63,"left_children":[1,3,-1,-1,5,7,9,11,-1,-1,13,-1,-1,-1,-1],"loss_changes":[4.246834E3,1.3769531E-1,0E0,0E0,3.8258362E-1,4.0289307E-1,3.2791662E0,2.9066467E-1,0E0,0E0,3.9644277E0,0E0,0E0,0E0,0E0],"parents":[2147483647,0,0,1,1,4,4,5,5,6,6,7,7,10,10],"right_children":[2,4,-1,-1,6,8,10,12,-1,-1,14,-1,-1,-1,-1],"split_conditions":[-1.9974375E0,-2.0482295E0,-4.9018458E-2,4.9022976E-2,6.571902E-1,3.4587384E2,-2.0791376E-1,1.0524744E1,1.1359708E-2,4.394399E-2,6E1,4.6271324E-2,1.4128494E-2,3.109221E-2,-5.40135E-2],"split_indices":[8,8,0,0,4,2,6,3,0,0,9,0,0,0,0],"split_type":[0,0,0,0,0,0,0,0,0,0,0,0,0,0,0],"sum_hessian":[4.031325E3,2.0332892E3,1.9980356E3,1.8704432E3,1.6284602E2,1.5135747E2,1.1488545E1,1.4982312E2,1.5343492E0,8.447738E0,3.0408075E0,1.4810199E2,1.7211273E0,1.7196052E0,1.3212024E0],"tree_param":{"num_deleted":"0","num_feature":"10","num_nodes":"15","size_leaf_vector":"1"}},{"base_weights":[3.590074E-3,1.0200897E0,-4.89492E-2,4.895372E-2,9.2085576E-1,9.3184125E-1,2.4365985E-1,4.847973E-1,9.4224197E-1,2.8853476E-2,-1.0240597E-2,3.7319567E-2,-1.1025697E-2,9.4783235E-1,1.439954E-2,4.2562953E-1,4.5399293E-2,3.940149E-3,2.6927875E-2],"categories":[],"categories_nodes":[],"categories_segments":[],"categories_sizes":[],"default_left":[0,0,0,0,0,0,0,0,0,0,0,0,0,0,0,0,0,0,0],"id":64,"left_children":[1,3,-1,-1,5,7,9,11,13,-1,-1,-1,-1,15,-1,17,-1,-1,-1],"loss_changes":[4.0467202E3,5.9350586E-1,0E0,0E0,9.212799E-1,2.4778748E-1,7.648506E-1,1.3604445E0,2.3931885E-1,0E0,0E0,0E0,0E0,1.8829346E-2,0E0,1.1373919E-1,0E0,0E0,0E0],"parents":[2147483647,0,0,1,1,4,4,5,5,6,6,7,7,8,8,13,13,15,15],"right_children":[2,4,-1,-1,6,8,10,12,14,-1,-1,-1,-1,16,-1,18,-1,-1,-1],"split_conditions":[-1.9974375E0,-2.0482295E0,-4.89492E-2,4.895372E-2,1.0151232E1,9.2740995E-1,-4.0834576E-1,2.01E2,3.458755E2,2.8853476E-2,-1.0240597E-2,3.7319567E-2,-1.1025697E-2,1.54E2,1.439954E-2,6.3273454E-1,4.5399293E-2,3.940149E-3,2.6927875E-2],"split_indices":[8,8,0,0,3,1,5,0,2,0,0,0,0,0,0,4,0,0,0],"split_type":[0,0,0,0,0,0,0,0,0,0,0,0,0,0,0,0,0,0,0],"sum_hessian":[3.8571985E3,1.9427964E3,1.914402E3,1.7894384E3,1.5335806E2,1.5053996E2,2.818099E0,4.505292E0,1.4603468E2,1.3952227E0,1.4228764E0,3.1123457E0,1.3929462E0,1.442926E2,1.7420732E0,2.3470266E0,1.4194557E2,1.1412089E0,1.2058177E0],"tree_param":{"num_deleted":"0","num_feature":"10","num_nodes":"19","size_leaf_vector":"1"}},{"base_weights":[1.6333373E-3,1.01611E0,-4.8883338E-2,4.888701E-2,8.847734E-1,8.9552224E-1,2.8110734E-1,3.0650178E-1,9.067435E-1,3.034045E-2,-9.897641E-3,-1.4490778E-2,3.231251E-2,9.12252E-1,1.4082623E-2,7.5736445E-1,9.593641E-1,3.9640956E-2,-3.7625402E-2,4.6082314E-2,2.1147545E-2],"categories":[],"categories_nodes":[],"categories_segments":[],"categories_sizes":[],"default_left":[0,0,0,0,0,0,0,0,0,0,0,0,0,0,0,0,0,0,0,0,0],"id":65,"left_children":[1,3,-1,-1,5,7,9,11,13,-1,-1,-1,-1,15,-1,17,19,-1,-1,-1,-1],"loss_changes":[3.8322031E3,1.6575928E0,0E0,0E0,6.885452E-1,6.601105E-1,8.2759637E-1,1.1528543E0,1.9720459E-1,0E0,0E0,0E0,0E0,2.733841E-1,0E0,4.926159E0,9.19342E-3,0E0,0E0,