{"learner":{"attributes":{"scikit_learn":"{\"_estimator_type\": \"classifier\"}"},"feature_names":[],"feature_types":[],"gradient_booster":{"model":{"cats":{"enc":[],"feature_segments":[],"sorted_idx":[]},"gbtree_model_param":{"num_parallel_tree":"1","num_trees":"368"},"iteration_indptr":[0,1,2,3,4,5,6,7,8,9,10,11,12,13,14,15,16,17,18,19,20,21,22,23,24,25,26,27,28,29,30,31,32,33,34,35,36,37,38,39,40,41,42,43,44,45,46,47,48,49,50,51,52,53,54,55,56,57,58,59,60,61,62,63,64,65,66,67,68,69,70,71,72,73,74,75,76,77,78,79,80,81,82,83,84,85,86,87,88,89,90,91,92,93,94,95,96,97,98,99,100,101,102,103,104,105,106,107,108,109,110,111,112,113,114,115,116,117,118,119,120,121,122,123,124,125,126,127,128,129,130,131,132,133,134,135,136,137,138,139,140,141,142,143,144,145,146,147,148,149,150,151,152,153,154,155,156,157,158,159,160,161,162,163,164,165,166,167,168,169,170,171,172,173,174,175,176,177,178,179,180,181,182,183,184,185,186,187,188,189,190,191,192,193,194,195,196,197,198,199,200,201,202,203,204,205,206,207,208,209,210,211,212,213,214,215,216,217,218,219,220,221,222,223,224,225,226,227,228,229,230,231,232,233,234,235,236,237,238,239,240,241,242,243,244,245,246,247,248,249,250,251,252,253,254,255,256,257,258,259,260,261,262,263,264,265,266,267,268,269,270,271,272,273,274,275,276,277,278,279,280,281,282,283,284,285,286,287,288,289,290,291,292,293,294,295,296,297,298,299,300,301,302,303,304,305,306,307,308,309,310,311,312,313,314,315,316,317,318,319,320,321,322,323,324,325,326,327,328,329,330,331,332,333,334,335,336,337,338,339,340,341,342,343,344,345,346,347,348,349,350,351,352,353,354,355,356,357,358,359,360,361,362,363,364,365,366,367,368],"tree_info":[0,0,0,0,0,0,0,0,0,0,0,0,0,0,0,0,0,0,0,0,0,0,0,0,0,0,0,0,0,0,0,0,0,0,0,0,0,0,0,0,0,0,0,0,0,0,0,0,0,0,0,0,0,0,0,0,0,0,0,0,0,0,0,0,0,0,0,0,0,0,0,0,0,0,0,0,0,0,0,0,0,0,0,0,0,0,0,0,0,0,0,0,0,0,0,0,0,0,0,0,0,0,0,0,0,0,0,0,0,0,0,0,0,0,0,0,0,0,0,0,0,0,0,0,0,0,0,0,0,0,0,0,0,0,0,0,0,0,0,0,0,0,0,0,0,0,0,0,0,0,0,0,0,0,0,0,0,0,0,0,0,0,0,0,0,0,0,0,0,0,0,0,0,0,0,0,0,0,0,0,0,0,0,0,0,0,0,0,0,0,0,0,0,0,0,0,0,0,0,0,0,0,0,0,0,0,0,0,0,0,0,0,0,0,0,0,0,0,0,0,0,0,0,0,0,0,0,0,0,0,0,0,0,0,0,0,0,0,0,0,0,0,0,0,0,0,0,0,0,0,0,0,0,0,0,0,0,0,0,0,0,0,0,0,0,0,0,0,0,0,0,0,0,0,0,0,0,0,0,0,0,0,0,0,0,0,0,0,0,0,0,0,0,0,0,0,0,0,0,0,0,0,0,0,0,0,0,0,0,0,0,0,0,0,0,0,0,0,0,0,0,0,0,0,0,0,0,0,0,0,0,0,0,0,0,0,0,0,0,0,0,0,0,0,0,0,0,0,0,0,0,0,0,0,0,0,0,0,0,0,0,0,0,0,0,0,0,0],"trees":[{"base_weights":[-1.6206098E-4,-3.2280654E-1,8.480657E-1,-4.3938702E-1,-6.1469946E-2,5.713238E-1,1.3799376E0,-2.9741687E-1,-6.64399E-1,2.7773443E-1,-3.7941027E-1,1.0538814E0,4.3031958E-1,1.2116995E0,1.6196451E0,-4.5506445E-1,4.7155775E-2,-7.370915E-1,-2.268353E-1,6.209271E-1,1.2894928E-1,-5.031629E-1,-1.6673014E-1,8.8556695E-1,1.2480391E0,1.7647716E-1,6.428917E-1,1.0676402E0,1.4916382E0,1.5023162E0,1.6961198E0,-1.9884778E-2,-9.387664E-3,-8.39753E-3,9.534543E-3,-2.8744925E-2,-2.0605333E-2,-1.8958095E-2,-5.0760238E-3,1.112165E-2,2.8022373E-2,-3.0799434E-3,8.855857E-3,-1.959234E-2,-9.126722E-3,-4.0715733E-3,-2.3566948E-2,4.062581E-2,2.4691362E-2,2.491455E-2,4.417827E-2,1.1832015E-2,8.501561E-5,2.8227944E-2,1.7577246E-2,3.0264787E-2,3.9022043E-2,5.619162E-2,4.81689E-2,4.6946213E-2,5.5192377E-2,5.468293E-2,5.972086E-2],"categories":[],"categories_nodes":[],"categories_segments":[],"categories_sizes":[],"default_left":[0,0,0,0,0,0,0,0,0,0,0,0,0,0,0,0,0,0,0,0,0,0,0,0,0,0,0,0,0,0,0,0,0,0,0,0,0,0,0,0,0,0,0,0,0,0,0,0,0,0,0,0,0,0,0,0,0,0,0,0,0,0,0],"id":0,"left_children":[1,3,5,7,9,11,13,15,17,19,21,23,25,27,29,31,33,35,37,39,41,43,45,47,49,51,53,55,57,59,61,-1,-1,-1,-1,-1,-1,-1,-1,-1,-1,-1,-1,-1,-1,-1,-1,-1,-1,-1,-1,-1,-1,-1,-1,-1,-1,-1,-1,-1,-1,-1,-1],"loss_changes":[9.254562E3,7.4633325E2,1.3707749E3,5.4096045E2,8.1523254E2,4.1670605E2,1.2661865E2,5.643424E2,2.082583E2,1.8667361E2,1.0261066E2,4.417749E1,2.5599017E2,7.412109E1,9.223633E0,1.7246814E2,2.3078406E2,8.2406494E1,2.3789574E1,6.860687E1,7.637971E1,4.633191E1,3.476196E1,3.5331665E1,2.1900208E1,6.653861E1,6.052954E1,1.879541E1,3.9259033E0,5.406372E0,1.4333496E0,0E0,0E0,0E0,0E0,0E0,0E0,0E0,0E0,0E0,0E0,0E0,0E0,0E0,0E0,0E0,0E0,0E0,0E0,0E0,0E0,0E0,0E0,0E0,0E0,0E0,0E0,0E0,0E0,0E0,0E0,0E0,0E0],"parents":[2147483647,0,0,1,1,2,2,3,3,4,4,5,5,6,6,7,7,8,8,9,9,10,10,11,11,12,12,13,13,14,14,15,15,16,16,17,17,18,18,19,19,20,20,21,21,22,22,23,23,24,24,25,25,26,26,27,27,28,28,29,29,30,30],"right_children":[2,4,6,8,10,12,14,16,18,20,22,24,26,28,30,32,34,36,38,40,42,44,46,48,50,52,54,56,58,60,62,-1,-1,-1,-1,-1,-1,-1,-1,-1,-1,-1,-1,-1,-1,-1,-1,-1,-1,-1,-1,-1,-1,-1,-1,-1,-1,-1,-1,-1,-1,-1,-1],"split_conditions":[-4.267359E0,-5.7182174E0,-2.160602E0,-5.122633E-2,5.9596434E-2,1.6658254E-2,-5.3488225E-1,-6.823933E0,-2.8182223E-1,-8.971156E-2,-4.7843018E0,-3.456935E0,-3.4992318E0,2.4330975E-1,1.6508728E-1,2.0671634E2,2.0671634E2,2.2E2,2.9907524E1,2.170527E2,-5.2299457E0,-3.4656155E-1,8.961898E0,-8.39957E-2,2.5614145E-1,1.2694238E-1,1.08199686E-1,-1.6915169E0,-4.7476634E-2,1.230884E0,2.7180162E-1,-1.9884778E-2,-9.387664E-3,-8.39753E-3,9.534543E-3,-2.8744925E-2,-2.0605333E-2,-1.8958095E-2,-5.0760238E-3,1.112165E-2,2.8022373E-2,-3.0799434E-3,8.855857E-3,-1.959234E-2,-9.126722E-3,-4.0715733E-3,-2.3566948E-2,4.062581E-2,2.4691362E-2,2.491455E-2,4.417827E-2,1.1832015E-2,8.501561E-5,2.8227944E-2,1.7577246E-2,3.0264787E-2,3.9022043E-2,5.619162E-2,4.81689E-2,4.6946213E-2,5.5192377E-2,5.468293E-2,5.972086E-2],"split_indices":[8,8,8,7,7,7,8,8,6,7,8,8,8,5,5,2,2,0,2,2,8,6,3,7,5,7,7,8,7,8,5,0,0,0,0,0,0,0,0,0,0,0,0,0,0,0,0,0,0,0,0,0,0,0,0,0,0,0,0,0,0,0,0],"split_type":[0,0,0,0,0,0,0,0,0,0,0,0,0,0,0,0,0,0,0,0,0,0,0,0,0,0,0,0,0,0,0,0,0,0,0,0,0,0,0,0,0,0,0,0,0,0,0,0,0,0,0,0,0,0,0,0,0,0,0,0,0,0,0],"sum_hessian":[3.381376E4,2.449652E4,9.31724E3,1.693932E4,7.5571987E3,6.1298506E3,3.1873894E3,1.0387624E4,6.5516973E3,3.6563918E3,3.9008071E3,1.3846614E3,4.745189E3,1.8764565E3,1.3109329E3,7.1267153E3,3.260909E3,5.6177383E3,9.339591E2,1.1048153E3,2.5515764E3,2.46508E3,1.4357272E3,7.4467065E2,6.399908E2,2.1634917E3,2.5816973E3,1.2420823E3,6.3437427E2,5.254388E2,7.854941E2,3.9745437E3,3.1521714E3,1.4465586E3,1.8143503E3,2.8169521E3,2.800786E3,1.6852826E2,7.6543085E2,4.7322275E2,6.315926E2,9.698675E2,1.581709E3,1.8192023E3,6.4587775E2,1.3253912E3,1.1033596E2,2.3019225E2,5.144784E2,8.019455E1,5.597962E2,1.0726061E3,1.0908855E3,9.572407E2,1.6244567E3,4.6592975E2,7.761525E2,1.3541399E2,4.9896027E2,3.1643655E2,2.090022E2,4.641978E2,3.2129626E2],"tree_param":{"num_deleted":"0","num_feature":"10","num_nodes":"63","size_leaf_vector":"1"}},{"base_weights":[-8.296737E-4,-2.786608E-1,9.3091303E-1,-4.084106E-1,3.5528537E-2,6.4290786E-1,1.3421395E0,-2.6249778E-1,-6.1606675E-1,5.041939E-1,-1.6801542E-1,1.0635521E0,5.024983E-1,1.1795139E0,1.5724125E0,-4.2042962E-1,1.0808977E-1,-6.869125E-1,-2.436755E-1,2.8000295E-1,6.8209124E-1,-3.4931692E-1,-2.4265148E-2,5.602012E-1,1.1334571E0,3.374969E-1,7.374451E-1,1.0169404E0,1.4137684E0,1.4618585E0,1.6448148E0,-1.8638259E-2,-8.250402E-3,-6.9619706E-3,1.165626E-2,-2.6902711E-2,-1.9132627E-2,1.217338E-2,-9.32531E-3,-5.323839E-3,1.3182544E-2,3.1025385E-2,1.7528273E-2,-9.428416E-4,-1.4677347E-2,3.959964E-3,-6.7378054E-3,2.2673225E-2,-1.1564427E-2,3.2495737E-2,4.3947615E-2,1.8064475E-2,7.675421E-3,2.8712565E-2,1.7798107E-2,2.8315414E-2,3.7368577E-2,5.3981207E-2,4.5837983E-2,4.5630608E-2,5.38036E-2,5.518887E-2,2.291996E-2],"categories":[],"categories_nodes":[],"categories_segments":[],"categories_sizes":[],"default_left":[0,0,0,0,0,0,0,0,0,0,0,0,0,0,0,0,0,0,0,0,0,0,0,0,0,0,0,0,0,0,0,0,0,0,0,0,0,0,0,0,0,0,0,0,0,0,0,0,0,0,0,0,0,0,0,0,0,0,0,0,0,0,0],"id":1,"left_children":[1,3,5,7,9,11,13,15,17,19,21,23,25,27,29,31,33,35,37,39,41,43,45,47,49,51,53,55,57,59,61,-1,-1,-1,-1,-1,-1,-1,-1,-1,-1,-1,-1,-1,-1,-1,-1,-1,-1,-1,-1,-1,-1,-1,-1,-1,-1,-1,-1,-1,-1,-1,-1],"loss_changes":[8.749196E3,1.061351E3,9.1857227E2,5.581323E2,7.260429E2,2.6923584E2,1.1785449E2,6.3351514E2,2.004253E2,9.1722534E1,1.3829099E2,3.9554565E1,1.3257935E2,7.00647E1,8.162109E0,1.7955383E2,2.4523149E2,8.5457275E1,2.573983E1,5.095559E1,4.930481E1,6.694223E1,7.464007E1,1.5152878E1,2.7944214E1,4.392714E1,3.4399597E1,1.7876343E1,4.675171E0,5.4560547E0,9.2333984E-1,0E0,0E0,0E0,0E0,0E0,0E0,0E0,0E0,0E0,0E0,0E0,0E0,0E0,0E0,0E0,0E0,0E0,0E0,0E0,0E0,0E0,0E0,0E0,0E0,0E0,0E0,0E0,0E0,0E0,0E0,0E0,0E0],"parents":[2147483647,0,0,1,1,2,2,3,3,4,4,5,5,6,6,7,7,8,8,9,9,10,10,11,11,12,12,13,13,14,14,15,15,16,16,17,17,18,18,19,19,20,20,21,21,22,22,23,23,24,24,25,25,26,26,27,27,28,28,29,29,30,30],"right_children":[2,4,6,8,10,12,14,16,18,20,22,24,26,28,30,32,34,36,38,40,42,44,46,48,50,52,54,56,58,60,62,-1,-1,-1,-1,-1,-1,-1,-1,-1,-1,-1,-1,-1,-1,-1,-1,-1,-1,-1,-1,-1,-1,-1,-1,-1,-1,-1,-1,-1,-1,-1,-1],"split_conditions":[-3.8784008E0,-5.4585013E0,-2.160602E0,-5.122633E-2,7.26257E-3,3.1490553E-2,-5.3488225E-1,-6.7078266E0,-2.9276773E-1,1.9854892E2,-4.7843018E0,2.4127363E-1,-3.0264153E0,2.2036262E-1,1.6508728E-1,2.1386188E2,2.0671634E2,-6.4118814E0,2.2783897E0,-5.2299457E0,-9.530721E-2,5.9596434E-2,1.329114E-1,2.2406219E-1,-3.2020612E0,1.08199686E-1,1.5543644E-1,-1.6915169E0,-4.7476634E-2,1.230884E0,1.2093386E3,-1.8638259E-2,-8.250402E-3,-6.9619706E-3,1.165626E-2,-2.6902711E-2,-1.9132627E-2,1.217338E-2,-9.32531E-3,-5.323839E-3,1.3182544E-2,3.1025385E-2,1.7528273E-2,-9.428416E-4,-1.4677347E-2,3.959964E-3,-6.7378054E-3,2.2673225E-2,-1.1564427E-2,3.2495737E-2,4.3947615E-2,1.8064475E-2,7.675421E-3,2.8712565E-2,1.7798107E-2,2.8315414E-2,3.7368577E-2,5.3981207E-2,4.5837983E-2,4.5630608E-2,5.38036E-2,5.518887E-2,2.291996E-2],"split_indices":[8,8,8,7,7,7,8,8,6,2,8,5,8,5,5,2,2,8,3,8,7,7,7,5,8,7,7,8,7,8,9,0,0,0,0,0,0,0,0,0,0,0,0,0,0,0,0,0,0,0,0,0,0,0,0,0,0,0,0,0,0,0,0],"split_type":[0,0,0,0,0,0,0,0,0,0,0,0,0,0,0,0,0,0,0,0,0,0,0,0,0,0,0,0,0,0,0,0,0,0,0,0,0,0,0,0,0,0,0,0,0,0,0,0,0,0,0,0,0,0,0,0,0,0,0,0,0,0,0],"sum_hessian":[3.379602E4,2.6033836E4,7.7621826E3,1.842473E4,7.6091045E3,4.56654E3,3.1956428E3,1.0822439E4,7.602292E3,2.3035781E3,5.3055264E3,1.1411786E3,3.4253613E3,1.8765151E3,1.3191277E3,7.5883896E3,3.2340493E3,6.3864536E3,1.2158383E3,1.02031915E3,1.2832589E3,2.3456733E3,2.959853E3,1.4025871E2,1.00091986E3,2.0136362E3,1.4117251E3,1.1108922E3,7.656229E2,5.3041205E2,7.8871564E2,4.2599756E3,3.3284146E3,1.3958419E3,1.8382073E3,3.184227E3,3.2022268E3,6.523878E1,1.1505995E3,2.0958736E2,8.1073175E2,5.0395502E2,7.793039E2,5.0852353E2,1.8371498E3,1.6395004E3,1.3203527E3,1.2447481E2,1.5783905E1,5.259248E2,4.749951E2,7.022098E2,1.3114264E3,8.911218E2,5.2060333E2,4.0878525E2,7.0210693E2,1.3653297E2,6.2908997E2,3.1989148E2,2.1052057E2,7.857894E2,2.9262304E0],"tree_param":{"num_deleted":"0","num_feature":"10","num_nodes":"63","size_leaf_vector":"1"}},{"base_weights":[-3.1639484E-4,-2.641326E-1,9.095425E-1,-3.35436E-1,4.1615796E-1,6.329738E-1,1.2957482E0,-4.7882006E-1,1.5548117E-2,-1.2343826E-2,8.0703336E-1,1.0473285E0,4.9508458E-1,1.141985E0,1.5171458E0,-5.6293434E-1,-2.9559866E-1,3.5415688E-1,-2.3099238E-1,-2.1960364E-1,2.546254E-1,9.3544024E-1,8.4624015E-2,5.799278E-1,1.1239755E0,3.3504474E-1,7.109058E-1,9.861962E-1,1.3643948E0,1.4662409E0,1.6751137E0,-2.321209E-2,-1.5854191E-2,-1.6855149E-2,-3.3646673E-3,2.241219E-2,7.7001574E-3,-1.5175765E-2,-2.999522E-3,-1.1745712E-2,1.2393153E-2,-6.6721956E-3,1.6333353E-2,2.565801E-2,4.9692705E-2,-1.2153779E-2,1.0910305E-2,2.098324E-2,-5.0141428E-2,3.1369388E-2,4.229633E-2,1.730337E-2,7.943794E-3,2.798064E-2,1.7801823E-2,2.7622426E-2,3.6153693E-2,3.9881386E-2,4.7558084E-2,4.9314123E-2,1.9882323E-2,5.6355998E-2,2.8068883E-2],"categories":[],"categories_nodes":[],"categories_segments":[],"categories_sizes":[],"default_left":[0,0,0,0,0,0,0,0,0,0,0,0,0,0,0,0,0,0,0,0,0,0,0,0,0,0,0,0,0,0,0,0,0,0,0,0,0,0,0,0,0,0,0,0,0,0,0,0,0,0,0,0,0,0,0,0,0,0,0,0,0,0,0],"id":2,"left_children":[1,3,5,7,9,11,13,15,17,19,21,23,25,27,29,31,33,35,37,39,41,43,45,47,49,51,53,55,57,59,61,-1,-1,-1,-1,-1,-1,-1,-1,-1,-1,-1,-1,-1,-1,-1,-1,-1,-1,-1,-1,-1,-1,-1,-1,-1,-1,-1,-1,-1,-1,-1,-1],"loss_changes":[8.1155015E3,1.2715059E3,8.109175E2,1.193929E3,4.1655493E2,2.526095E2,1.0619287E2,2.594131E2,5.7457556E2,6.5755424E1,1.2056781E2,3.8945923E1,1.1464319E2,6.3619873E1,7.9680176E0,1.3419556E2,2.147078E2,1.1334329E2,1.2505139E2,5.180994E1,5.5008053E1,1.0142334E2,2.1409935E1,1.6165592E1,2.3483154E1,3.384816E1,3.1151794E1,1.57491455E1,5.713135E0,4.217285E0,4.6429443E-1,0E0,0E0,0E0,0E0,0E0,0E0,0E0,0E0,0E0,0E0,0E0,0E0,0E0,0E0,0E0,0E0,0E0,0E0,0E0,0E0,0E0,0E0,0E0,0E0,0E0,0E0,0E0,0E0,0E0,0E0,0E0,0E0],"parents":[2147483647,0,0,1,1,2,2,3,3,4,4,5,5,6,6,7,7,8,8,9,9,10,10,11,11,12,12,13,13,14,14,15,15,16,16,17,17,18,18,19,19,20,20,21,21,22,22,23,23,24,24,25,25,26,26,27,27,28,28,29,29,30,30],"right_children":[2,4,6,8,10,12,14,16,18,20,22,24,26,28,30,32,34,36,38,40,42,44,46,48,50,52,54,56,58,60,62,-1,-1,-1,-1,-1,-1,-1,-1,-1,-1,-1,-1,-1,-1,-1,-1,-1,-1,-1,-1,-1,-1,-1,-1,-1,-1,-1,-1,-1,-1,-1,-1],"split_conditions":[-3.838424E0,8.520719E0,-2.160602E0,-5.372339E0,2.1386188E2,3.1490553E-2,-5.3488225E-1,4.1625443E0,5.9596434E-2,1.1640713E1,3.2613388E2,2.5390178E-1,-3.0264153E0,2.185909E-1,2.7180162E-1,-7.1180973E0,1.9854892E2,-7.201646E-2,-4.7843018E0,-5.436563E0,5.3315536E1,1.3200114E1,-8.188779E0,3.3E1,-3.3095734E0,1.08199686E-1,1.4769733E-1,-1.6915169E0,2.5614145E-1,1.0527901E1,4.49E2,-2.321209E-2,-1.5854191E-2,-1.6855149E-2,-3.3646673E-3,2.241219E-2,7.7001574E-3,-1.5175765E-2,-2.999522E-3,-1.1745712E-2,1.2393153E-2,-6.6721956E-3,1.6333353E-2,2.565801E-2,4.9692705E-2,-1.2153779E-2,1.0910305E-2,2.098324E-2,-5.0141428E-2,3.1369388E-2,4.229633E-2,1.730337E-2,7.943794E-3,2.798064E-2,1.7801823E-2,2.7622426E-2,3.6153693E-2,3.9881386E-2,4.7558084E-2,4.9314123E-2,1.9882323E-2,5.6355998E-2,2.8068883E-2],"split_indices":[8,1,8,8,2,7,8,1,7,1,2,5,8,5,5,8,2,7,8,8,2,1,8,4,8,7,7,8,5,3,0,0,0,0,0,0,0,0,0,0,0,0,0,0,0,0,0,0,0,0,0,0,0,0,0,0,0,0,0,0,0,0,0],"split_type":[0,0,0,0,0,0,0,0,0,0,0,0,0,0,0,0,0,0,0,0,0,0,0,0,0,0,0,0,0,0,0,0,0,0,0,0,0,0,0,0,0,0,0,0,0,0,0,0,0,0,0,0,0,0,0,0,0,0,0,0,0,0,0],"sum_hessian":[3.3807586E4,2.620894E4,7.5986475E3,2.3722967E4,2.485972E3,4.4293506E3,3.1692966E3,1.6842217E4,6.8807495E3,1.1863691E3,1.2996028E3,1.1043131E3,3.3250376E3,1.8739642E3,1.2953324E3,1.1541575E4,5.3006426E3,2.8988772E3,3.9818726E3,6.679714E2,5.183978E2,1.1032137E3,1.9638904E2,1.5678583E2,9.475273E2,1.9107181E3,1.4143195E3,1.1052301E3,7.687342E2,9.8742017E2,3.079123E2,4.7078916E3,6.8336836E3,2.5678735E3,2.732769E3,8.1913226E2,2.0797449E3,1.5486621E3,2.4332104E3,5.468397E2,1.21131676E2,1.7589832E2,3.4249948E2,8.444407E2,2.587731E2,6.8585945E1,1.2780309E2,1.5403734E2,2.748487E0,4.0610193E2,5.414254E2,6.680178E2,1.2427003E3,8.332256E2,5.810938E2,4.0752914E2,6.977009E2,1.9102637E2,5.777078E2,9.8010486E2,7.3153152E0,3.0426935E2,3.6429377E0],"tree_param":{"num_deleted":"0","num_feature":"10","num_nodes":"63","size_leaf_vector":"1"}},{"base_weights":[1.1222495E-3,-2.9205585E-1,7.714943E-1,-3.7351042E-1,3.2612E-1,5.188331E-1,1.2604405E0,-4.9736512E-1,-1.14977665E-1,-5.2139726E-2,7.010918E-1,9.6792895E-1,3.8754627E-1,1.10372E0,1.483689E0,-5.3814685E-1,-1.1985637E-1,1.8292552E-1,-3.734885E-1,-2.3399134E-1,2.5730717E-1,2.426524E-1,8.8326615E-1,1.2137151E0,8.645871E-1,1.4202787E-1,5.731998E-1,1.2686126E0,9.4302803E-1,5.4089576E-2,1.4506705E0,-1.4906922E-2,-2.451503E-2,7.07259E-3,-8.146093E-3,1.2500736E-2,1.8679821E-3,-1.5893616E-2,-6.6716135E-3,-1.1329166E-2,1.0810128E-2,-6.7081912E-3,1.6182672E-2,-3.5067257E-3,1.9015867E-2,2.4474392E-2,5.0185747E-2,-1.4331677E-2,4.0958993E-2,2.4119092E-2,3.6981154E-2,1.4597645E-2,2.372885E-3,2.5212403E-2,1.5566078E-2,5.0741777E-2,4.0958624E-2,2.2286316E-2,3.3668824E-2,4.883561E-2,1.706759E-2],"categories":[],"categories_nodes":[],"categories_segments":[],"categories_sizes":[],"default_left":[0,0,0,0,0,0,0,0,0,0,0,0,0,0,0,0,0,0,0,0,0,0,0,0,0,0,0,0,0,0,0,0,0,0,0,0,0,0,0,0,0,0,0,0,0,0,0,0,0,0,0,0,0,0,0,0,0,0,0,0,0],"id":3,"left_children":[1,3,5,7,9,11,13,15,17,19,21,23,25,27,29,31,33,35,37,39,41,43,45,47,49,51,53,55,57,-1,59,-1,-1,-1,-1,-1,-1,-1,-1,-1,-1,-1,-1,-1,-1,-1,-1,-1,-1,-1,-1,-1,-1,-1,-1,-1,-1,-1,-1,-1,-1],"loss_changes":[7.6284E3,1.2320103E3,1.1495483E3,6.921321E2,4.041105E2,3.6165308E2,1.0932031E2,2.2494019E2,5.393804E2,7.992042E1,1.192735E2,3.4213013E1,2.1656244E2,4.8279053E1,3.3032227E0,2.3761646E2,5.8267067E1,7.87092E1,6.59093E1,5.1995865E1,5.4413723E1,4.614553E1,9.4972046E1,6.562683E0,3.3151367E1,4.2793938E1,5.234601E1,8.527344E0,1.5699158E1,0E0,6.3757324E0,0E0,0E0,0E0,0E0,0E0,0E0,0E0,0E0,0E0,0E0,0E0,0E0,0E0,0E0,0E0,0E0,0E0,0E0,0E0,0E0,0E0,0E0,0E0,0E0,0E0,0E0,0E0,0E0,0E0,0E0],"parents":[2147483647,0,0,1,1,2,2,3,3,4,4,5,5,6,6,7,7,8,8,9,9,10,10,11,11,12,12,13,13,14,14,15,15,16,16,17,17,18,18,19,19,20,20,21,21,22,22,23,23,24,24,25,25,26,26,27,27,28,28,30,30],"right_children":[2,4,6,8,10,12,14,16,18,20,22,24,26,28,30,32,34,36,38,40,42,44,46,48,50,52,54,56,58,-1,60,-1,-1,-1,-1,-1,-1,-1,-1,-1,-1,-1,-1,-1,-1,-1,-1,-1,-1,-1,-1,-1,-1,-1,-1,-1,-1,-1,-1,-1,-1],"split_conditions":[-4.267359E0,7.944881E0,-2.160602E0,-5.7182174E0,2.170527E2,1.6658254E-2,-5.3488225E-1,-2.8429118E-1,5.9596434E-2,1.1640713E1,-7.362159E0,-8.39957E-2,-3.5464265E0,1.1283128E-1,2.2222223E-2,-2.1209741E-2,-8.0034606E-2,-5.122633E-2,-4.7843018E0,-5.436563E0,5.3315536E1,1.0499278E1,1.3200114E1,-4.869233E-1,-3.255712E0,6.8068065E-2,1.08199686E-1,-4.7476634E-2,-1.9489522E0,5.4089576E-2,-1.807154E-1,-1.4906922E-2,-2.451503E-2,7.07259E-3,-8.146093E-3,1.2500736E-2,1.8679821E-3,-1.5893616E-2,-6.6716135E-3,-1.1329166E-2,1.0810128E-2,-6.7081912E-3,1.6182672E-2,-3.5067257E-3,1.9015867E-2,2.4474392E-2,5.0185747E-2,-1.4331677E-2,4.0958993E-2,2.4119092E-2,3.6981154E-2,1.4597645E-2,2.372885E-3,2.5212403E-2,1.5566078E-2,5.0741777E-2,4.0958624E-2,2.2286316E-2,3.3668824E-2,4.883561E-2,1.706759E-2],"split_indices":[8,1,8,8,2,7,8,6,7,1,8,7,8,7,7,7,7,7,8,8,2,1,1,6,8,7,7,7,8,0,6,0,0,0,0,0,0,0,0,0,0,0,0,0,0,0,0,0,0,0,0,0,0,0,0,0,0,0,0,0,0],"split_type":[0,0,0,0,0,0,0,0,0,0,0,0,0,0,0,0,0,0,0,0,0,0,0,0,0,0,0,0,0,0,0,0,0,0,0,0,0,0,0,0,0,0,0,0,0,0,0,0,0,0,0,0,0,0,0,0,0,0,0,0,0],"sum_hessian":[3.377347E4,2.446393E4,9.30954E3,2.1616062E4,2.8478662E3,6.1391943E3,3.170346E3,1.4614028E4,7.0020347E3,1.4181462E3,1.42972E3,1.3872897E3,4.751905E3,1.8662104E3,1.3041356E3,1.3188833E4,1.4251951E3,3.2532922E3,3.7487424E3,8.933803E2,5.247659E2,4.0723923E2,1.0224808E3,4.0745715E2,9.798326E2,2.0468297E3,2.705075E3,9.1766345E2,9.48547E2,2.5287224E2,1.0512634E3,8.908275E3,4.280557E3,3.8667688E2,1.0385182E3,1.3025581E3,1.950734E3,2.3726958E3,1.3760465E3,7.528445E2,1.4053581E2,1.7342476E2,3.513412E2,1.9718768E2,2.1005154E2,8.2088477E2,2.0159602E2,1.9698516E0,4.054873E2,6.133904E2,3.664422E2,3.9829407E2,1.6485356E3,1.0171312E3,1.6879436E3,1.3919838E2,7.784651E2,1.7539902E2,7.7314795E2,1.042751E3,8.512379E0],"tree_param":{"num_deleted":"0","num_feature":"10","num_nodes":"61","size_leaf_vector":"1"}},{"base_weights":[-1.1115903E-3,-2.5089633E-1,8.413395E-1,-3.2560414E-1,3.3598927E-1,6.040109E-1,1.2563632E0,-4.658048E-1,-9.827673E-3,-3.287882E-2,6.997445E-1,9.876371E-1,4.7692022E-1,1.1051186E0,1.432235E0,-5.035687E-1,-1.1549466E-1,2.9766777E-1,-2.4017274E-1,-2.0249434E-1,2.6304245E-1,8.363517E-1,8.722971E-2,5.4462576E-1,1.0608605E0,3.010925E-1,6.873159E-1,9.734165E-1,1.302864E0,1.366559E0,1.5555811E0,-1.37684615E-2,-2.296681E-2,6.0892636E-3,-7.299618E-3,1.7771525E-2,5.810841E-3,-1.4007093E-2,-3.4901886E-3,-1.0190405E-2,8.785704E-3,-5.414873E-3,1.5793974E-2,2.1599062E-2,4.3531694E-2,-1.391954E-2,8.950604E-3,1.9432401E-2,-3.1495735E-2,2.9858064E-2,4.090566E-2,1.5422779E-2,7.229829E-3,2.6327949E-2,1.6183749E-2,7.3681753E-3,3.3046193E-2,4.9394526E-2,4.241141E-2,4.339612E-2,4.9856547E-2,3.802308E-2,5.25193E-2],"categories":[],"categories_nodes":[],"categories_segments":[],"categories_sizes":[],"default_left":[0,0,0,0,0,0,0,0,0,0,0,0,0,0,0,0,0,0,0,0,0,0,0,0,0,0,0,0,0,0,0,0,0,0,0,0,0,0,0,0,0,0,0,0,0,0,0,0,0,0,0,0,0,0,0,0,0,0,0,0,0,0,0],"id":4,"left_children":[1,3,5,7,9,11,13,15,17,19,21,23,25,27,29,31,33,35,37,39,41,43,45,47,49,51,53,55,57,59,61,-1,-1,-1,-1,-1,-1,-1,-1,-1,-1,-1,-1,-1,-1,-1,-1,-1,-1,-1,-1,-1,-1,-1,-1,-1,-1,-1,-1,-1,-1,-1,-1],"loss_changes":[7.1010396E3,1.1413022E3,7.593633E2,1.0222075E3,3.944507E2,2.3899475E2,7.3072754E1,2.1147437E2,5.0299088E2,7.335959E1,1.23772644E2,3.9039917E1,1.3634613E2,3.814453E1,8.359131E0,2.428938E2,4.7452507E1,8.786633E1,9.8212524E1,4.399351E1,4.7220448E1,1.0653131E2,2.4633177E1,9.779217E0,2.7359009E1,2.7239746E1,3.3450073E1,8.78125E0,1.9349365E0,5.4539795E0,4.984131E-1,0E0,0E0,0E0,0E0,0E0,0E0,0E0,0E0,0E0,0E0,0E0,0E0,0E0,0E0,0E0,0E0,0E0,0E0,0E0,0E0,0E0,0E0,0E0,0E0,0E0,0E0,0E0,0E0,0E0,0E0,0E0,0E0],"parents":[2147483647,0,0,1,1,2,2,3,3,4,4,5,5,6,6,7,7,8,8,9,9,10,10,11,11,12,12,13,13,14,14,15,15,16,16,17,17,18,18,19,19,20,20,21,21,22,22,23,23,24,24,25,25,26,26,27,27,28,28,29,29,30,30],"right_children":[2,4,6,8,10,12,14,16,18,20,22,24,26,28,30,32,34,36,38,40,42,44,46,48,50,52,54,56,58,60,62,-1,-1,-1,-1,-1,-1,-1,-1,-1,-1,-1,-1,-1,-1,-1,-1,-1,-1,-1,-1,-1,-1,-1,-1,-1,-1,-1,-1,-1,-1,-1,-1],"split_conditions":[-3.8784008E0,7.944881E0,-1.9489522E0,-5.4585013E0,2.170527E2,3.1490553E-2,-5.3488225E-1,-2.8429118E-1,5.9596434E-2,1.1640713E1,3.211567E2,2.5390178E-1,-3.0264153E0,2.185909E-1,2.2933644E-1,-1.3597033E-2,-8.0034606E-2,-5.6763925E-2,-4.7843018E0,-5.436563E0,5.3315536E1,1.20215435E1,-8.44149E0,3.3E1,-3.2020612E0,1.08199686E-1,1.6160154E-1,-4.6056476E-1,-4.7476634E-2,1.230884E0,-4.6165982E-1,-1.37684615E-2,-2.296681E-2,6.0892636E-3,-7.299618E-3,1.7771525E-2,5.810841E-3,-1.4007093E-2,-3.4901886E-3,-1.0190405E-2,8.785704E-3,-5.414873E-3,1.5793974E-2,2.1599062E-2,4.3531694E-2,-1.391954E-2,8.950604E-3,1.9432401E-2,-3.1495735E-2,2.9858064E-2,4.090566E-2,1.5422779E-2,7.229829E-3,2.6327949E-2,1.6183749E-2,7.3681753E-3,3.3046193E-2,4.9394526E-2,4.241141E-2,4.339612E-2,4.9856547E-2,3.802308E-2,5.25193E-2],"split_indices":[8,1,8,8,2,7,8,6,7,1,2,5,8,5,5,7,7,7,8,8,2,1,8,4,8,7,7,6,7,8,6,0,0,0,0,0,0,0,0,0,0,0,0,0,0,0,0,0,0,0,0,0,0,0,0,0,0,0,0,0,0,0,0],"split_type":[0,0,0,0,0,0,0,0,0,0,0,0,0,0,0,0,0,0,0,0,0,0,0,0,0,0,0,0,0,0,0,0,0,0,0,0,0,0,0,0,0,0,0,0,0,0,0,0,0,0,0,0,0,0,0,0,0,0,0,0,0,0,0],"sum_hessian":[3.374314E4,2.6026924E4,7.7162183E3,2.308833E4,2.938592E3,4.910586E3,2.8056323E3,1.5988964E4,7.0993667E3,1.4594937E3,1.4790983E3,1.2203026E3,3.6902834E3,1.5123446E3,1.2932876E3,1.4432666E4,1.5562982E3,3.0403748E3,4.058992E3,9.2793665E2,5.31557E2,1.2090764E3,2.7002185E2,1.742861E2,1.0460165E3,2.011611E3,1.6786726E3,9.1131433E2,6.010303E2,8.5181586E2,4.414718E2,9.570492E3,4.8621743E3,3.98586E2,1.1577123E3,1.0564481E3,1.9839268E3,1.7571633E3,2.3018286E3,7.6160657E2,1.6633003E2,1.7507689E2,3.5648013E2,8.5700836E2,3.5206805E2,7.08327E1,1.9918916E2,1.7081418E2,3.4719288E0,5.115166E2,5.344999E2,6.9975366E2,1.3118573E3,1.1299839E3,5.4868866E2,1.5866522E1,8.954478E2,9.915545E1,5.018748E2,5.4520825E2,3.066076E2,1.5141962E1,4.2632983E2],"tree_param":{"num_deleted":"0","num_feature":"10","num_nodes":"63","size_leaf_vector":"1"}},{"base_weights":[1.0730241E-3,-2.7298436E-1,7.226006E-1,-4.2021224E-1,-1.1280232E-1,4.8790213E-1,1.1790354E0,-3.239494E-1,-6.096553E-1,1.9988832E-1,-3.5098734E-1,9.141884E-1,3.6336336E-1,1.0318359E0,1.3889338E0,-4.6924147E-1,-1.5203394E-1,-6.988775E-1,-1.9282523E-1,-3.34351E-2,3.7873226E-1,-4.9951556E-1,-1.441158E-1,1.1558329E0,8.1190944E-1,1.329144E-1,5.379932E-1,8.8488585E-1,1.2464155E0,1.2817104E0,1.459405E0,-1.7284073E-2,-2.9720631E-3,1.3399085E-2,-7.0998347E-3,5.7312585E-3,-2.4114078E-2,-4.3090004E-3,-2.422455E-2,-9.5475735E-3,4.3812916E-3,2.1278879E-2,6.0363864E-3,-1.0357902E-2,-1.9338042E-2,-4.805686E-5,-1.0822891E-2,-1.9063732E-2,3.9079197E-2,2.1448346E-2,3.357266E-2,7.946591E-3,-1.6870714E-3,2.3894044E-2,1.4478338E-2,2.6489917E-2,3.3856884E-2,4.8522465E-2,4.0176168E-2,3.9721824E-2,4.7575653E-2,4.6910044E-2,5.1634014E-2],"categories":[],"categories_nodes":[],"categories_segments":[],"categories_sizes":[],"default_left":[0,0,0,0,0,0,0,0,0,0,0,0,0,0,0,0,0,0,0,0,0,0,0,0,0,0,0,0,0,0,0,0,0,0,0,0,0,0,0,0,0,0,0,0,0,0,0,0,0,0,0,0,0,0,0,0,0,0,0,0,0,0,0],"id":5,"left_children":[1,3,5,7,9,11,13,15,17,19,21,23,25,27,29,31,33,35,37,39,41,43,45,47,49,51,53,55,57,59,61,-1,-1,-1,-1,-1,-1,-1,-1,-1,-1,-1,-1,-1,-1,-1,-1,-1,-1,-1,-1,-1,-1,-1,-1,-1,-1,-1,-1,-1,-1,-1,-1],"loss_changes":[6.672118E3,5.766499E2,9.944209E2,2.3216455E2,8.724309E2,3.254115E2,9.599805E1,2.110116E2,1.5948389E2,2.113688E2,2.042248E2,3.333191E1,1.9109119E2,5.7466797E1,7.9296875E0,8.138428E1,1.2815324E2,6.465491E1,2.5714636E1,9.087984E1,1.45896E2,5.709607E1,7.0992874E1,8.283081E0,3.1289673E1,3.9186634E1,4.979663E1,1.2294312E1,5.420166E0,5.26001E0,1.5944824E0,0E0,0E0,0E0,0E0,0E0,0E0,0E0,0E0,0E0,0E0,0E0,0E0,0E0,0E0,0E0,0E0,0E0,0E0,0E0,0E0,0E0,0E0,0E0,0E0,0E0,0E0,0E0,0E0,0E0,0E0,0E0,0E0],"parents":[2147483647,0,0,1,1,2,2,3,3,4,4,5,5,6,6,7,7,8,8,9,9,10,10,11,11,12,12,13,13,14,14,15,15,16,16,17,17,18,18,19,19,20,20,21,21,22,22,23,23,24,24,25,25,26,26,27,27,28,28,29,29,30,30],"right_children":[2,4,6,8,10,12,14,16,18,20,22,24,26,28,30,32,34,36,38,40,42,44,46,48,50,52,54,56,58,60,62,-1,-1,-1,-1,-1,-1,-1,-1,-1,-1,-1,-1,-1,-1,-1,-1,-1,-1,-1,-1,-1,-1,-1,-1,-1,-1,-1,-1,-1,-1,-1,-1],"split_conditions":[-4.267359E0,-6.3907638E0,-2.160602E0,-5.8682058E-2,1.48768015E-2,1.6658254E-2,-5.3488225E-1,2.0671634E2,-2.8429118E-1,1.9854892E2,-5.086151E0,-8.39957E-2,-3.5464265E0,2.2036262E-1,1.6508728E-1,-3.2613674E-1,2.1608567E0,1.10284165E-1,2.4899994E1,-5.8143444E0,-1.14016734E-1,6.9742195E-2,1.329114E-1,-4.869233E-1,-3.456935E0,1.5085575E-1,1.08199686E-1,-1.3990028E0,-4.7476634E-2,1.230884E0,2.7180162E-1,-1.7284073E-2,-2.9720631E-3,1.3399085E-2,-7.0998347E-3,5.7312585E-3,-2.4114078E-2,-4.3090004E-3,-2.422455E-2,-9.5475735E-3,4.3812916E-3,2.1278879E-2,6.0363864E-3,-1.0357902E-2,-1.9338042E-2,-4.805686E-5,-1.0822891E-2,-1.9063732E-2,3.9079197E-2,2.1448346E-2,3.357266E-2,7.946591E-3,-1.6870714E-3,2.3894044E-2,1.4478338E-2,2.6489917E-2,3.3856884E-2,4.8522465E-2,4.0176168E-2,3.9721824E-2,4.7575653E-2,4.6910044E-2,5.1634014E-2],"split_indices":[8,8,8,7,7,7,8,2,6,2,8,7,8,5,5,6,3,5,4,8,7,7,7,6,8,7,7,8,7,8,5,0,0,0,0,0,0,0,0,0,0,0,0,0,0,0,0,0,0,0,0,0,0,0,0,0,0,0,0,0,0,0,0],"split_type":[0,0,0,0,0,0,0,0,0,0,0,0,0,0,0,0,0,0,0,0,0,0,0,0,0,0,0,0,0,0,0,0,0,0,0,0,0,0,0,0,0,0,0,0,0,0,0,0,0,0,0,0,0,0,0,0,0,0,0,0,0,0,0],"sum_hessian":[3.3739883E4,2.4452664E4,9.287219E3,1.27407E4,1.1711964E4,6.1347856E3,3.1524336E3,8.449774E3,4.2909253E3,5.064033E3,6.6479307E3,1.385611E3,4.749175E3,1.8564446E3,1.2959889E3,4.578547E3,3.871228E3,3.5338342E3,7.5709143E2,2.1976921E3,2.8663408E3,3.8688123E3,2.7791182E3,4.0900174E2,9.7660925E2,2.048133E3,2.7010415E3,1.1049016E3,7.515429E2,5.215806E2,7.7440826E2,4.0774646E3,5.01082E2,3.784617E2,3.4927664E3,8.3063805E1,3.4507703E3,6.764561E2,8.063531E1,8.677041E2,1.3299882E3,1.2496549E3,1.6166859E3,1.1238018E3,2.7450105E3,1.5469021E3,1.2322161E3,2.216948E0,4.067848E2,5.158119E2,4.6079736E2,1.3050728E3,7.430603E2,1.01433563E3,1.6867059E3,6.363072E2,4.6859448E2,1.3633131E2,6.152116E2,3.1384033E2,2.0774033E2,4.607647E2,3.1364355E2],"tree_param":{"num_deleted":"0","num_feature":"10","num_nodes":"63","size_leaf_vector":"1"}},{"base_weights":[7.5399503E-4,-2.3198043E-1,7.887557E-1,-2.9698288E-1,3.8560987E-1,5.620793E-1,1.1867485E0,-4.4502637E-1,-3.8556132E-2,1.4705332E-2,7.2579104E-1,4.524873E-1,9.372969E-1,1.0397826E0,1.3559194E0,-5.283964E-1,-2.687438E-1,-2.0453288E-1,2.6869482E-1,-7.161451E-2,5.336016E-1,8.4583503E-1,5.2739047E-2,2.9647908E-1,6.3928306E-1,7.676521E-1,1.1070486E0,8.9976615E-1,1.2292494E0,1.2489256E0,1.426589E0,-1.9264763E-2,-4.2789276E-3,-1.4564659E-2,-2.7926192E-3,-1.2125164E-2,-1.0451336E-3,4.7559724E-3,1.7201737E-2,-5.4922914E-3,1.4005974E-2,-2.4119731E-2,2.358678E-2,2.176478E-2,4.1230444E-2,2.3961356E-2,-3.7157089E-3,4.062818E-3,1.3524079E-2,1.5942136E-2,2.4777135E-2,1.5439098E-2,3.1693924E-2,1.1045641E-2,3.79526E-2,-1.3855872E-2,3.067314E-2,-4.7510373E-3,4.129126E-2,3.873045E-2,4.6405822E-2,4.5915183E-2,5.040174E-2],"categories":[],"categories_nodes":[],"categories_segments":[],"categories_sizes":[],"default_left":[0,0,0,0,0,0,0,0,0,0,0,0,0,0,0,0,0,0,0,0,0,0,0,0,0,0,0,0,0,0,0,0,0,0,0,0,0,0,0,0,0,0,0,0,0,0,0,0,0,0,0,0,0,0,0,0,0,0,0,0,0,0,0],"id":6,"left_children":[1,3,5,7,9,11,13,15,17,19,21,23,25,27,29,31,33,35,37,39,41,43,45,47,49,51,53,55,57,59,61,-1,-1,-1,-1,-1,-1,-1,-1,-1,-1,-1,-1,-1,-1,-1,-1,-1,-1,-1,-1,-1,-1,-1,-1,-1,-1,-1,-1,-1,-1,-1,-1],"loss_changes":[6.184564E3,1.0452327E3,6.9299805E2,9.011614E2,3.1285056E2,2.0109863E2,6.793677E1,2.1995288E2,4.3761804E2,5.3216263E1,1.04451904E2,1.10398865E2,3.1025818E1,3.8603516E1,7.9978027E0,1.9015527E2,1.480368E2,1.5202316E2,9.329982E1,4.6141495E1,3.6730362E1,8.2060974E1,2.142266E1,3.883867E1,2.7953796E1,3.0054352E1,1.0730591E1,1.8431335E1,3.1205444E0,5.007019E0,1.3049316E0,0E0,0E0,0E0,0E0,0E0,0E0,0E0,0E0,0E0,0E0,0E0,0E0,0E0,0E0,0E0,0E0,0E0,0E0,0E0,0E0,0E0,0E0,0E0,0E0,0E0,0E0,0E0,0E0,0E0,0E0,0E0,0E0],"parents":[2147483647,0,0,1,1,2,2,3,3,4,4,5,5,6,6,7,7,8,8,9,9,10,10,11,11,12,12,13,13,14,14,15,15,16,16,17,17,18,18,19,19,20,20,21,21,22,22,23,23,24,24,25,25,26,26,27,27,28,28,29,29,30,30],"right_children":[2,4,6,8,10,12,14,16,18,20,22,24,26,28,30,32,34,36,38,40,42,44,46,48,50,52,54,56,58,60,62,-1,-1,-1,-1,-1,-1,-1,-1,-1,-1,-1,-1,-1,-1,-1,-1,-1,-1,-1,-1,-1,-1,-1,-1,-1,-1,-1,-1,-1,-1,-1,-1],"split_conditions":[-3.8784008E0,8.520719E0,-1.9489522E0,-5.7182174E0,2.1386188E2,3.185471E-1,-5.3488225E-1,4.1625443E0,3.270494E-1,1.5408702E1,3.2613388E2,-3.0264153E0,-3.2020612E0,2.1275824E-1,1.6508728E-1,-2.8429118E-1,2.1999025E2,-4.759575E0,-4.759575E0,-5.436563E0,2.6719921E1,1.20215435E1,2.000122E-1,-3.8411245E-1,1.6034986E-1,3.853149E-1,-4.689081E-1,-4.6056476E-1,-5.151433E-1,1.230884E0,2.7180162E-1,-1.9264763E-2,-4.2789276E-3,-1.4564659E-2,-2.7926192E-3,-1.2125164E-2,-1.0451336E-3,4.7559724E-3,1.7201737E-2,-5.4922914E-3,1.4005974E-2,-2.4119731E-2,2.358678E-2,2.176478E-2,4.1230444E-2,2.3961356E-2,-3.7157089E-3,4.062818E-3,1.3524079E-2,1.5942136E-2,2.4777135E-2,1.5439098E-2,3.1693924E-2,1.1045641E-2,3.79526E-2,-1.3855872E-2,3.067314E-2,-4.7510373E-3,4.129126E-2,3.873045E-2,4.6405822E-2,4.5915183E-2,5.040174E-2],"split_indices":[8,1,8,8,2,5,8,1,5,1,2,8,8,5,5,6,2,8,8,8,2,1,4,6,5,5,6,6,6,8,5,0,0,0,0,0,0,0,0,0,0,0,0,0,0,0,0,0,0,0,0,0,0,0,0,0,0,0,0,0,0,0,0],"split_type":[0,0,0,0,0,0,0,0,0,0,0,0,0,0,0,0,0,0,0,0,0,0,0,0,0,0,0,0,0,0,0,0,0,0,0,0,0,0,0,0,0,0,0,0,0,0,0,0,0,0,0,0,0,0,0,0,0,0,0,0,0,0,0],"sum_hessian":[3.372062E4,2.6032646E4,7.687974E3,2.3554059E4,2.4785872E3,4.899743E3,2.7882312E3,1.4974805E4,8.579254E3,1.1862474E3,1.2923397E3,3.7938552E3,1.105888E3,1.4958602E3,1.292371E3,1.0165293E4,4.8095117E3,5.5704404E3,3.0088137E3,1.01779614E3,1.6845125E2,1.0965117E3,1.9582806E2,2.0687026E3,1.7251526E3,5.5588007E2,5.500078E2,8.6348834E2,6.323719E2,5.2149744E2,7.708735E2,9.103702E3,1.0615913E3,2.5363325E3,2.2731792E3,2.9185474E3,2.651893E3,1.983653E3,1.0251608E3,8.568858E2,1.609103E2,1.9783493E1,1.4866776E2,7.282477E2,3.6826398E2,3.8122654E1,1.5770541E2,7.863229E2,1.2823796E3,6.5872095E2,1.0664316E3,2.0578548E2,3.500946E2,1.8195297E1,5.318125E2,1.0028834E1,8.534595E2,1.4599243E0,6.309119E2,3.160837E2,2.0541373E2,4.5987912E2,3.1099435E2],"tree_param":{"num_deleted":"0","num_feature":"10","num_nodes":"63","size_leaf_vector":"1"}},{"base_weights":[-9.6662715E-4,-2.5745246E-1,6.772995E-1,-3.317418E-1,3.0566782E-1,3.8556388E-1,1.0118871E0,-4.9032664E-1,-1.7031102E-1,-3.0929714E-2,6.390399E-1,8.311136E-1,2.5846314E-1,8.499971E-1,1.2691358E0,-5.258001E-1,3.2419246E-2,4.3685738E-2,-4.1178823E-1,-1.9943242E-1,2.5708294E-1,7.668952E-1,9.488349E-2,1.072987E0,7.172575E-1,7.60425E-2,3.8887203E-1,6.856788E-1,1.0384969E0,1.1934652E0,1.4287949E0,-2.00195E-2,-1.2347184E-2,1.4949935E-2,-2.9176306E-3,-2.5195156E-3,9.408595E-3,-2.1440566E-2,-1.0005503E-2,-1.3789398E-2,1.2160589E-3,-6.3931914E-3,1.6064899E-2,2.0907305E-2,4.4513226E-2,1.0497966E-2,-9.409617E-3,2.1624697E-2,3.7765965E-2,2.076754E-2,2.9898861E-2,1.2458357E-2,-1.00836776E-4,1.8281069E-2,9.704043E-3,1.9115414E-2,2.7902372E-2,3.9381362E-2,3.088591E-2,3.2281585E-2,4.2136993E-2,5.0042924E-2,4.4245474E-2],"categories":[],"categories_nodes":[],"categories_segments":[],"categories_sizes":[],"default_left":[0,0,0,0,0,0,0,0,0,0,0,0,0,0,0,0,0,0,0,0,0,0,0,0,0,0,0,0,0,0,0,0,0,0,0,0,0,0,0,0,0,0,0,0,0,0,0,0,0,0,0,0,0,0,0,0,0,0,0,0,0,0,0],"id":7,"left_children":[1,3,5,7,9,11,13,15,17,19,21,23,25,27,29,31,33,35,37,39,41,43,45,47,49,51,53,55,57,59,61,-1,-1,-1,-1,-1,-1,-1,-1,-1,-1,-1,-1,-1,-1,-1,-1,-1,-1,-1,-1,-1,-1,-1,-1,-1,-1,-1,-1,-1,-1,-1,-1],"loss_changes":[5.85644E3,1.0219851E3,9.0125586E2,5.5239355E2,3.1954202E2,2.7931934E2,1.7808008E2,2.0187866E2,5.52734E2,6.886036E1,9.946167E1,2.938916E1,9.13696E1,8.116394E1,1.8345215E1,1.1489209E2,3.4303524E1,1.5996333E2,1.2954779E2,4.4791794E1,5.229158E1,9.209332E1,2.2531456E1,7.3781433E0,1.2198181E1,3.7490963E1,3.4694458E1,2.3501404E1,1.8549316E1,1.554541E1,1.7419434E0,0E0,0E0,0E0,0E0,0E0,0E0,0E0,0E0,0E0,0E0,0E0,0E0,0E0,0E0,0E0,0E0,0E0,0E0,0E0,0E0,0E0,0E0,0E0,0E0,0E0,0E0,0E0,0E0,0E0,0E0,0E0,0E0],"parents":[2147483647,0,0,1,1,2,2,3,3,4,4,5,5,6,6,7,7,8,8,9,9,10,10,11,11,12,12,13,13,14,14,15,15,16,16,17,17,18,18,19,19,20,20,21,21,22,22,23,23,24,24,25,25,26,26,27,27,28,28,29,29,30,30],"right_children":[2,4,6,8,10,12,14,16,18,20,22,24,26,28,30,32,34,36,38,40,42,44,46,48,50,52,54,56,58,60,62,-1,-1,-1,-1,-1,-1,-1,-1,-1,-1,-1,-1,-1,-1,-1,-1,-1,-1,-1,-1,-1,-1,-1,-1,-1,-1,-1,-1,-1,-1,-1,-1],"split_conditions":[-4.267359E0,7.944881E0,-2.759919E0,-6.3907638E0,2.170527E2,1.1327207E-2,-1.0092297E0,-2.4565575E-1,5.9596434E-2,1.1640713E1,3.211567E2,-8.39957E-2,-3.720542E0,2.0607306E-1,2.4330975E-1,4.1625443E0,-1.0834156E-1,-5.2299457E0,-5.5456586E0,-6.9393244E0,5.3315536E1,1.3200114E1,-9.708873E-2,-4.4793493E-1,-3.456935E0,6.8068065E-2,1.08199686E-1,-1.9489522E0,3.5051547E-2,-5.3488225E-1,3.347164E0,-2.00195E-2,-1.2347184E-2,1.4949935E-2,-2.9176306E-3,-2.5195156E-3,9.408595E-3,-2.1440566E-2,-1.0005503E-2,-1.3789398E-2,1.2160589E-3,-6.3931914E-3,1.6064899E-2,2.0907305E-2,4.4513226E-2,1.0497966E-2,-9.409617E-3,2.1624697E-2,3.7765965E-2,2.076754E-2,2.9898861E-2,1.2458357E-2,-1.00836776E-4,1.8281069E-2,9.704043E-3,1.9115414E-2,2.7902372E-2,3.9381362E-2,3.088591E-2,3.2281585E-2,4.2136993E-2,5.0042924E-2,4.4245474E-2],"split_indices":[8,1,8,8,2,7,8,6,7,1,2,7,8,5,5,1,7,8,8,8,2,1,7,6,8,7,7,8,7,8,1,0,0,0,0,0,0,0,0,0,0,0,0,0,0,0,0,0,0,0,0,0,0,0,0,0,0,0,0,0,0,0,0],"split_type":[0,0,0,0,0,0,0,0,0,0,0,0,0,0,0,0,0,0,0,0,0,0,0,0,0,0,0,0,0,0,0,0,0,0,0,0,0,0,0,0,0,0,0,0,0,0,0,0,0,0,0,0,0,0,0,0,0,0,0,0,0,0,0],"sum_hessian":[3.366234E4,2.4426207E4,9.236132E3,2.1579725E4,2.8464824E3,4.9351753E3,4.3009565E3,1.088479E4,1.0694934E4,1.4168406E3,1.4296418E3,1.0941409E3,3.8410342E3,2.6423787E3,1.658578E3,1.0193083E4,6.91707E2,5.6705337E3,5.0244E3,8.940698E2,5.227708E2,1.1573102E3,2.723316E2,3.474985E2,7.4664233E2,1.6018674E3,2.239167E3,1.4142188E3,1.2281599E3,1.1310089E3,5.2756903E2,6.994464E3,3.1986196E3,1.5437936E2,5.3732764E2,3.777544E3,1.8929899E3,1.663137E3,3.3612632E3,4.7011526E2,4.2395456E2,1.735373E2,3.4923352E2,9.245353E2,2.3277498E2,1.7230681E2,1.000248E2,4.0695824E1,3.0680267E2,4.830569E2,2.6358548E2,3.369748E2,1.2648926E3,8.6563776E2,1.3735292E3,7.967398E2,6.1747894E2,5.599024E2,6.6825745E2,2.5115523E2,8.798537E2,3.2110007E2,2.06469E2],"tree_param":{"num_deleted":"0","num_feature":"10","num_nodes":"63","size_leaf_vector":"1"}},{"base_weights":[-4.4851804E-5,-2.4847442E-1,6.5849304E-1,-3.1446764E-1,3.5336536E-1,4.3993756E-1,1.0899273E0,-4.4152334E-1,-1.3353157E-1,4.756257E-3,6.757448E-1,8.337213E-1,3.2695258E-1,9.519639E-1,1.2897453E0,-4.8098603E-1,-8.7629534E-2,9.686949E-2,-3.667811E-1,-1.8590015E-1,2.4664347E-1,1.3463803E-1,8.2106566E-1,1.0789355E0,7.4094373E-1,1.2066217E-1,5.0040364E-1,1.0966694E0,8.124452E-1,1.2945222E0,3.931804E-1,-1.28298225E-2,-2.1773238E-2,-5.133599E-3,1.3260434E-2,-1.1700095E-3,9.2784995E-3,-1.7100418E-2,-7.2294157E-3,-9.209154E-3,1.3294595E-2,-1.4144289E-2,1.2790204E-2,-6.3821487E-3,1.1882837E-2,2.2573652E-2,4.4247016E-2,-1.9688983E-2,3.6529824E-2,2.0478869E-2,3.1859554E-2,8.8364445E-3,-6.459566E-4,2.2062644E-2,1.366964E-2,4.4592936E-2,3.526709E-2,1.9053299E-2,2.9078485E-2,4.1685537E-2,4.639907E-2,2.654899E-2,-1.9796709E-2],"categories":[],"categories_nodes":[],"categories_segments":[],"categories_sizes":[],"default_left":[0,0,0,0,0,0,0,0,0,0,0,0,0,0,0,0,0,0,0,0,0,0,0,0,0,0,0,0,0,0,0,0,0,0,0,0,0,0,0,0,0,0,0,0,0,0,0,0,0,0,0,0,0,0,0,0,0,0,0,0,0,0,0],"id":8,"left_children":[1,3,5,7,9,11,13,15,17,19,21,23,25,27,29,31,33,35,37,39,41,43,45,47,49,51,53,55,57,59,61,-1,-1,-1,-1,-1,-1,-1,-1,-1,-1,-1,-1,-1,-1,-1,-1,-1,-1,-1,-1,-1,-1,-1,-1,-1,-1,-1,-1,-1,-1,-1,-1],"loss_changes":[5.5018657E3,9.6994006E2,8.6810864E2,5.0583325E2,2.712265E2,2.7183655E2,8.414038E1,1.804961E2,4.8797653E2,5.3566914E1,9.848627E1,3.020758E1,1.700455E2,3.6170044E1,4.895752E0,1.9233862E2,4.124594E1,1.0845836E2,9.777838E1,3.380587E1,4.6451675E1,1.9150343E1,7.181024E1,7.8104553E0,2.6434937E1,4.3525658E1,3.7454712E1,7.8392334E0,1.2223694E1,3.9736328E0,3.661655E0,0E0,0E0,0E0,0E0,0E0,0E0,0E0,0E0,0E0,0E0,0E0,0E0,0E0,0E0,0E0,0E0,0E0,0E0,0E0,0E0,0E0,0E0,0E0,0E0,0E0,0E0,0E0,0E0,0E0,0E0,0E0,0E0],"parents":[2147483647,0,0,1,1,2,2,3,3,4,4,5,5,6,6,7,7,8,8,9,9,10,10,11,11,12,12,13,13,14,14,15,15,16,16,17,17,18,18,19,19,20,20,21,21,22,22,23,23,24,24,25,25,26,26,27,27,28,28,29,29,30,30],"right_children":[2,4,6,8,10,12,14,16,18,20,22,24,26,28,30,32,34,36,38,40,42,44,46,48,50,52,54,56,58,60,62,-1,-1,-1,-1,-1,-1,-1,-1,-1,-1,-1,-1,-1,-1,-1,-1,-1,-1,-1,-1,-1,-1,-1,-1,-1,-1,-1,-1,-1,-1,-1,-1],"split_conditions":[-4.267359E0,8.520719E0,-2.160602E0,-6.0811687E0,2.1386188E2,1.6658254E-2,-5.3488225E-1,-2.8429118E-1,5.9596434E-2,1.1640713E1,-7.749233E0,-8.971156E-2,-3.4992318E0,1.1283128E-1,1.0527901E1,-5.8682058E-2,-1.4486712E-1,-5.2299457E0,-5.086151E0,-5.32444E0,3.1134466E1,1.0499278E1,1.3200114E1,-4.869233E-1,-3.255712E0,1.2694238E-1,1.08199686E-1,-4.7476634E-2,-1.9489522E0,1.230884E0,1.8952544E2,-1.28298225E-2,-2.1773238E-2,-5.133599E-3,1.3260434E-2,-1.1700095E-3,9.2784995E-3,-1.7100418E-2,-7.2294157E-3,-9.209154E-3,1.3294595E-2,-1.4144289E-2,1.2790204E-2,-6.3821487E-3,1.1882837E-2,2.2573652E-2,4.4247016E-2,-1.9688983E-2,3.6529824E-2,2.0478869E-2,3.1859554E-2,8.8364445E-3,-6.459566E-4,2.2062644E-2,1.366964E-2,4.4592936E-2,3.526709E-2,1.9053299E-2,2.9078485E-2,4.1685537E-2,4.639907E-2,2.654899E-2,-1.9796709E-2],"split_indices":[8,1,8,8,2,7,8,6,7,1,8,7,8,7,3,7,6,8,8,8,2,1,1,6,8,7,7,7,8,8,2,0,0,0,0,0,0,0,0,0,0,0,0,0,0,0,0,0,0,0,0,0,0,0,0,0,0,0,0,0,0,0,0],"split_type":[0,0,0,0,0,0,0,0,0,0,0,0,0,0,0,0,0,0,0,0,0,0,0,0,0,0,0,0,0,0,0,0,0,0,0,0,0,0,0,0,0,0,0,0,0,0,0,0,0,0,0,0,0,0,0,0,0,0,0,0,0,0,0],"sum_hessian":[3.362793E4,2.4417275E4,9.210652E3,2.2004865E4,2.4124102E3,6.114962E3,3.0956902E3,1.2926362E4,9.078504E3,1.1595408E3,1.2528694E3,1.3619196E3,4.7530425E3,1.8346964E3,1.2609939E3,1.1629229E4,1.297134E3,4.567433E3,4.5110703E3,6.4856824E2,5.1097247E2,2.6564783E2,9.8722156E2,3.7092438E2,9.909951E2,2.1717788E3,2.5812637E3,8.972395E2,9.374569E2,1.2538694E3,7.1244907E0,7.363232E3,4.2659966E3,1.1427222E3,1.5441185E2,2.637954E3,1.929479E3,2.3098804E3,2.2011902E3,5.630887E2,8.54796E1,8.554515E1,4.2542734E2,1.07283646E2,1.5836418E2,7.6444855E2,2.2277304E2,2.2129185E0,3.6871146E2,6.15377E2,3.756181E2,1.0732493E3,1.0985297E3,9.489834E2,1.6322804E3,1.3674255E2,7.6049695E2,1.7629948E2,7.611574E2,8.168209E2,4.3704846E2,5.2064266E0,1.9180641E0],"tree_param":{"num_deleted":"0","num_feature":"10","num_nodes":"63","size_leaf_vector":"1"}},{"base_weights":[1.670867E-3,-2.3925392E-1,6.40621E-1,-3.2401696E-1,2.0583628E-1,3.667857E-1,9.588822E-1,-4.7686547E-1,-1.7104103E-1,-1.1910193E-1,5.1230437E-1,7.768894E-1,2.5170296E-1,8.013728E-1,1.2083751E0,-5.126392E-1,4.554313E-2,5.8468327E-2,-3.741961E-1,-2.4203736E-1,2.1583429E-1,3.073667E-2,6.422824E-1,1.0160917E0,6.6512734E-1,8.901514E-2,3.679485E-1,9.577854E-1,6.438395E-1,1.306843E0,1.1236941E0,-2.1135582E-2,-1.4046094E-2,1.5974581E-2,-2.611698E-3,-1.6984625E-3,9.546704E-3,-1.971049E-2,-8.8828225E-3,-2.2465035E-2,-6.2063746E-3,-6.2732673E-3,1.4046154E-2,-6.3637677E-3,1.2697045E-2,2.6820263E-2,6.0208184E-3,1.9320924E-2,3.5899326E-2,1.9612828E-2,2.8693993E-2,1.1590166E-2,7.131219E-4,8.550612E-3,1.6621208E-2,3.9518837E-2,3.067671E-2,1.7191337E-2,2.7204324E-2,4.392558E-2,-1.4451575E-2,3.1027403E-2,4.116054E-2],"categories":[],"categories_nodes":[],"categories_segments":[],"categories_sizes":[],"default_left":[0,0,0,0,0,0,0,0,0,0,0,0,0,0,0,0,0,0,0,0,0,0,0,0,0,0,0,0,0,0,0,0,0,0,0,0,0,0,0,0,0,0,0,0,0,0,0,0,0,0,0,0,0,0,0,0,0,0,0,0,0,0,0],"id":9,"left_children":[1,3,5,7,9,11,13,15,17,19,21,23,25,27,29,31,33,35,37,39,41,43,45,47,49,51,53,55,57,59,61,-1,-1,-1,-1,-1,-1,-1,-1,-1,-1,-1,-1,-1,-1,-1,-1,-1,-1,-1,-1,-1,-1,-1,-1,-1,-1,-1,-1,-1,-1,-1,-1],"loss_changes":[5.170057E3,9.2019324E2,8.011057E2,4.789651E2,3.8865674E2,2.3317432E2,1.6614307E2,1.915354E2,4.7752576E2,7.807361E1,1.2569086E2,2.8277954E1,7.301701E1,6.3687744E1,1.2237549E1,1.0563501E2,3.5074303E1,1.18953735E2,1.2671527E2,3.360839E1,4.1851223E1,3.2966923E1,1.15700745E2,7.7579956E0,1.0797394E1,2.8032528E1,3.2425385E1,1.1111328E1,2.8232666E1,6.3828125E0,1.7339844E1,0E0,0E0,0E0,0E0,0E0,0E0,0E0,0E0,0E0,0E0,0E0,0E0,0E0,0E0,0E0,0E0,0E0,0E0,0E0,0E0,0E0,0E0,0E0,0E0,0E0,0E0,0E0,0E0,0E0,0E0,0E0,0E0],"parents":[2147483647,0,0,1,1,2,2,3,3,4,4,5,5,6,6,7,7,8,8,9,9,10,10,11,11,12,12,13,13,14,14,15,15,16,16,17,17,18,18,19,19,20,20,21,21,22,22,23,23,24,24,25,25,26,26,27,27,28,28,29,29,30,30],"right_children":[2,4,6,8,10,12,14,16,18,20,22,24,26,28,30,32,34,36,38,40,42,44,46,48,50,52,54,56,58,60,62,-1,-1,-1,-1,-1,-1,-1,-1,-1,-1,-1,-1,-1,-1,-1,-1,-1,-1,-1,-1,-1,-1,-1,-1,-1,-1,-1,-1,-1,-1,-1,-1],"split_conditions":[-4.267359E0,6.762263E0,-2.759919E0,-6.3907638E0,2.1386188E2,1.1327207E-2,-1.0092297E0,-2.4565575E-1,4.0870555E-2,1.1640713E1,-7.6955166E0,-8.39957E-2,-3.720542E0,1.1283128E-1,1.0375048E-1,2.19E2,-1.0834156E-1,-5.2299457E0,-5.5456586E0,-8.70354E0,5.3315536E1,1.0499278E1,-4.1671347E-2,-4.4793493E-1,3.04E2,6.8068065E-2,2.067205E2,-4.7476634E-2,-1.9489522E0,1.0527901E1,-2.3492488E-1,-2.1135582E-2,-1.4046094E-2,1.5974581E-2,-2.611698E-3,-1.6984625E-3,9.546704E-3,-1.971049E-2,-8.8828225E-3,-2.2465035E-2,-6.2063746E-3,-6.2732673E-3,1.4046154E-2,-6.3637677E-3,1.2697045E-2,2.6820263E-2,6.0208184E-3,1.9320924E-2,3.5899326E-2,1.9612828E-2,2.8693993E-2,1.1590166E-2,7.131219E-4,8.550612E-3,1.6621208E-2,3.9518837E-2,3.067671E-2,1.7191337E-2,2.7204324E-2,4.392558E-2,-1.4451575E-2,3.1027403E-2,4.116054E-2],"split_indices":[8,1,8,8,2,7,8,6,7,1,8,7,8,7,7,0,7,8,8,8,2,1,7,6,0,7,2,7,8,3,8,0,0,0,0,0,0,0,0,0,0,0,0,0,0,0,0,0,0,0,0,0,0,0,0,0,0,0,0,0,0,0,0],"split_type":[0,0,0,0,0,0,0,0,0,0,0,0,0,0,0,0,0,0,0,0,0,0,0,0,0,0,0,0,0,0,0,0,0,0,0,0,0,0,0,0,0,0,0,0,0,0,0,0,0,0,0,0,0,0,0,0,0,0,0,0,0,0,0],"sum_hessian":[3.358312E4,2.4387943E4,9.195179E3,2.048672E4,3.9012222E3,4.943711E3,4.251468E3,1.024657E4,1.0240151E4,1.8938478E3,2.0073743E3,1.0820425E3,3.8616685E3,2.6087366E3,1.6427312E3,9.589888E3,6.5668243E2,4.8085386E3,5.431613E3,1.3855654E3,5.082824E2,4.269105E2,1.5804637E3,3.4199182E2,7.4005066E2,1.6100872E3,2.2515813E3,1.3064755E3,1.3022611E3,7.5286255E2,8.8986865E2,4.2265015E3,5.363386E3,1.455408E2,5.111416E2,3.2452751E3,1.5632632E3,1.8305488E3,3.601064E3,1.607761E2,1.2247893E3,1.705287E2,3.377537E2,2.6159686E2,1.6531364E2,1.176817E3,4.036468E2,3.9690407E1,3.0230142E2,5.2551526E2,2.1453537E2,3.349736E2,1.2751135E3,1.2000023E3,1.051579E3,2.0363666E2,1.1028389E3,7.3539484E2,5.668663E2,7.511898E2,1.6727036E0,3.1242398E2,5.7744464E2],"tree_param":{"num_deleted":"0","num_feature":"10","num_nodes":"63","size_leaf_vector":"1"}},{"base_weights":[1.8472849E-4,-2.3350047E-1,6.20761E-1,-3.0010787E-1,2.9262513E-1,3.5179225E-1,9.329123E-1,-4.432735E-1,-1.5437977E-1,-4.0062096E-2,6.087427E-1,7.61427E-1,2.3727418E-1,7.7807695E-1,1.1793561E0,-4.7616595E-1,4.1374102E-2,6.341166E-2,-3.5253286E-1,-1.128558E-1,4.629148E-1,7.179539E-1,3.1182898E-2,9.8649186E-1,6.555808E-1,1.1610157E-1,3.9760265E-1,6.268142E-1,9.521393E-1,1.1066636E0,1.331871E0,-1.3745872E-2,-2.1854248E-2,1.4648524E-2,-2.4707082E-3,-1.4818859E-3,9.7138565E-3,-1.54369725E-2,-5.10116E-3,-6.001684E-3,1.3034054E-2,-2.3988806E-2,2.1121701E-2,1.684177E-2,3.499168E-2,-2.7284976E-3,2.8869655E-2,1.787394E-2,3.4877818E-2,1.766839E-2,2.6266731E-2,1.2970722E-2,1.5073987E-3,9.234613E-3,1.6705202E-2,1.759747E-2,2.544989E-2,3.625284E-2,2.8305246E-2,2.987405E-2,3.9161183E-2,4.685626E-2,4.1142546E-2],"categories":[],"categories_nodes":[],"categories_segments":[],"categories_sizes":[],"default_left":[0,0,0,0,0,0,0,0,0,0,0,0,0,0,0,0,0,0,0,0,0,0,0,0,0,0,0,0,0,0,0,0,0,0,0,0,0,0,0,0,0,0,0,0,0,0,0,0,0,0,0,0,0,0,0,0,0,0,0,0,0,0,0],"id":10,"left_children":[1,3,5,7,9,11,13,15,17,19,21,23,25,27,29,31,33,35,37,39,41,43,45,47,49,51,53,55,57,59,61,-1,-1,-1,-1,-1,-1,-1,-1,-1,-1,-1,-1,-1,-1,-1,-1,-1,-1,-1,-1,-1,-1,-1,-1,-1,-1,-1,-1,-1,-1,-1,-1],"loss_changes":[4.8589854E3,8.530613E2,7.692036E2,4.5069226E2,2.8773257E2,2.3085083E2,1.6093579E2,1.737478E2,4.6215683E2,4.88893E1,8.846326E1,2.4975464E1,7.475668E1,6.806763E1,1.6649658E1,1.1811206E2,3.164579E1,1.244581E2,1.2153058E2,3.8879284E1,3.381755E1,8.239307E1,2.103943E1,7.9174805E0,1.1684631E1,4.228195E1,2.0285461E1,1.846405E1,1.5963135E1,1.3876587E1,1.9074707E0,0E0,0E0,0E0,0E0,0E0,0E0,0E0,0E0,0E0,0E0,0E0,0E0,0E0,0E0,0E0,0E0,0E0,0E0,0E0,0E0,0E0,0E0,0E0,0E0,0E0,0E0,0E0,0E0,0E0,0E0,0E0,0E0],"parents":[2147483647,0,0,1,1,2,2,3,3,4,4,5,5,6,6,7,7,8,8,9,9,10,10,11,11,12,12,13,13,14,14,15,15,16,16,17,17,18,18,19,19,20,20,21,21,22,22,23,23,24,24,25,25,26,26,27,27,28,28,29,29,30,30],"right_children":[2,4,6,8,10,12,14,16,18,20,22,24,26,28,30,32,34,36,38,40,42,44,46,48,50,52,54,56,58,60,62,-1,-1,-1,-1,-1,-1,-1,-1,-1,-1,-1,-1,-1,-1,-1,-1,-1,-1,-1,-1,-1,-1,-1,-1,-1,-1,-1,-1,-1,-1,-1,-1],"split_conditions":[-4.267359E0,7.9628234E0,-2.759919E0,-6.3907638E0,2.1386188E2,1.1327207E-2,-1.0092297E0,-2.4565575E-1,4.0870555E-2,1.5408702E1,3.2613388E2,-8.39957E-2,-3.4992318E0,2.0607306E-1,2.4127363E-1,-2.8659612E-2,-1.0834156E-1,-5.2299457E0,-4.940736E0,-5.32444E0,2.6719921E1,1.1201108E1,-3.4364945E-1,-4.4793493E-1,2.170527E2,6.8068065E-2,1.3481416E2,-1.9489522E0,3.5051547E-2,-5.3488225E-1,3.347104E0,-1.3745872E-2,-2.1854248E-2,1.4648524E-2,-2.4707082E-3,-1.4818859E-3,9.7138565E-3,-1.54369725E-2,-5.10116E-3,-6.001684E-3,1.3034054E-2,-2.3988806E-2,2.1121701E-2,1.684177E-2,3.499168E-2,-2.7284976E-3,2.8869655E-2,1.787394E-2,3.4877818E-2,1.766839E-2,2.6266731E-2,1.2970722E-2,1.5073987E-3,9.234613E-3,1.6705202E-2,1.759747E-2,2.544989E-2,3.625284E-2,2.8305246E-2,2.987405E-2,3.9161183E-2,4.685626E-2,4.1142546E-2],"split_indices":[8,1,8,8,2,7,8,6,7,1,2,7,8,5,5,7,7,8,8,8,2,1,6,6,2,7,2,8,7,8,1,0,0,0,0,0,0,0,0,0,0,0,0,0,0,0,0,0,0,0,0,0,0,0,0,0,0,0,0,0,0,0,0],"split_type":[0,0,0,0,0,0,0,0,0,0,0,0,0,0,0,0,0,0,0,0,0,0,0,0,0,0,0,0,0,0,0,0,0,0,0,0,0,0,0,0,0,0,0,0,0,0,0,0,0,0,0,0,0,0,0,0,0,0,0,0,0,0,0],"sum_hessian":[3.3503742E4,2.433917E4,9.164573E3,2.1604477E4,2.7346934E3,4.9239346E3,4.2406387E3,1.0897023E4,1.0707453E4,1.3328519E3,1.4018414E3,1.0745579E3,3.8493767E3,2.6069224E3,1.6337161E3,1.0204476E4,6.9254755E2,5.101281E3,5.606173E3,1.1650193E3,1.6783266E2,1.1787144E3,2.2312698E2,3.4104987E2,7.33508E2,2.193388E3,1.6559886E3,1.397273E3,1.2096494E3,1.1119763E3,5.2173987E2,7.432104E3,2.7723713E3,1.5538855E2,5.37159E2,3.4587434E3,1.6425374E3,3.6376216E3,1.968551E3,1.029645E3,1.3537431E2,2.0482784E1,1.4734987E2,7.1210913E2,4.6660526E2,1.972781E2,2.5848875E1,3.7906178E1,3.0314368E2,3.6988885E2,3.6361917E2,4.548078E2,1.7385802E3,7.52308E2,9.036806E2,7.95138E2,6.021349E2,5.4225354E2,6.673959E2,2.536784E2,8.5829785E2,3.095136E2,2.1222624E2],"tree_param":{"num_deleted":"0","num_feature":"10","num_nodes":"63","size_leaf_vector":"1"}},{"base_weights":[-1.7364479E-3,-1.9182907E-1,7.178069E-1,-2.4657002E-1,3.3416498E-1,5.1684076E-1,1.0371246E0,-3.639647E-1,2.5107926E-2,1.1653672E-2,6.323681E-1,7.022817E-1,3.3022252E-1,9.0277576E-1,1.1946274E0,-4.3631625E-1,-2.0660502E-1,2.934431E-1,-1.6795488E-1,-1.597702E-1,2.335004E-1,1.2468136E-1,7.609954E-1,6.0887766E-1,9.381962E-1,1.8558203E-1,4.6900022E-1,7.7431E-1,1.0805038E0,1.1437627E0,1.3477261E0,-1.5974775E-2,-2.9197768E-3,-1.2903409E-2,-8.5858046E-4,1.7668525E-2,5.746756E-3,-1.1852312E-2,-2.0369333E-3,-9.04972E-3,9.983904E-3,-5.777824E-3,1.4643407E-2,1.1011549E-2,-8.717389E-3,1.988345E-2,3.7293613E-2,1.6333932E-2,2.7369266E-2,2.3580644E-2,3.395757E-2,3.8433375E-3,1.407005E-2,1.0972079E-2,1.9954572E-2,-1.7016044E-2,2.6464941E-2,-7.1729217E-3,3.6309138E-2,3.6350947E-2,4.1793603E-2,2.8408582E-3,4.5425404E-2],"categories":[],"categories_nodes":[],"categories_segments":[],"categories_sizes":[],"default_left":[0,0,0,0,0,0,0,0,0,0,0,0,0,0,0,0,0,0,0,0,0,0,0,0,0,0,0,0,0,0,0,0,0,0,0,0,0,0,0,0,0,0,0,0,0,0,0,0,0,0,0,0,0,0,0,0,0,0,0,0,0,0,0],"id":11,"left_children":[1,3,5,7,9,11,13,15,17,19,21,23,25,27,29,31,33,35,37,39,41,43,45,47,49,51,53,55,57,59,61,-1,-1,-1,-1,-1,-1,-1,-1,-1,-1,-1,-1,-1,-1,-1,-1,-1,-1,-1,-1,-1,-1,-1,-1,-1,-1,-1,-1,-1,-1,-1,-1],"loss_changes":[4.571461E3,7.613109E2,4.4766895E2,7.637362E2,2.3970328E2,1.48182E2,5.5986816E1,1.9028125E2,3.7440588E2,4.561415E1,8.447308E1,4.6809082E1,4.2856857E1,3.248633E1,8.101929E0,1.6219287E2,1.7026958E2,8.616208E1,8.3684395E1,3.427549E1,4.3297607E1,2.0739265E1,6.0274292E1,3.8557556E1,1.0042419E1,1.7379547E1,1.936023E1,1.7560638E1,2.9238281E0,4.3444824E0,3.074646E0,0E0,0E0,0E0,0E0,0E0,0E0,0E0,0E0,0E0,0E0,0E0,0E0,0E0,0E0,0E0,0E0,0E0,0E0,0E0,0E0,0E0,0E0,0E0,0E0,0E0,0E0,0E0,0E0,0E0,0E0,0E0,0E0],"parents":[2147483647,0,0,1,1,2,2,3,3,4,4,5,5,6,6,7,7,8,8,9,9,10,10,11,11,12,12,13,13,14,14,15,15,16,16,17,17,18,18,19,19,20,20,21,21,22,22,23,23,24,24,25,25,26,26,27,27,28,28,29,29,30,30],"right_children":[2,4,6,8,10,12,14,16,18,20,22,24,26,28,30,32,34,36,38,40,42,44,46,48,50,52,54,56,58,60,62,-1,-1,-1,-1,-1,-1,-1,-1,-1,-1,-1,-1,-1,-1,-1,-1,-1,-1,-1,-1,-1,-1,-1,-1,-1,-1,-1,-1,-1,-1,-1,-1],"split_conditions":[-3.720542E0,8.520719E0,-1.9489522E0,-5.372339E0,2.1386188E2,1.08199686E-1,-5.3488225E-1,4.1625443E0,5.9596434E-2,1.1640713E1,-7.749233E0,3.7664348E-1,-3.0264153E0,2.1275824E-1,2.695863E-1,-2.8429118E-1,2.1386188E2,-5.6763925E-2,-4.7843018E0,-5.436563E0,5.3315536E1,3.2613138E2,1.20215435E1,-2.759919E0,-3.4090903E0,-3.4562778E-1,1.6587213E2,-4.6165982E-1,-5.151433E-1,1.230884E0,-4.9542448E-1,-1.5974775E-2,-2.9197768E-3,-1.2903409E-2,-8.5858046E-4,1.7668525E-2,5.746756E-3,-1.1852312E-2,-2.0369333E-3,-9.04972E-3,9.983904E-3,-5.777824E-3,1.4643407E-2,1.1011549E-2,-8.717389E-3,1.988345E-2,3.7293613E-2,1.6333932E-2,2.7369266E-2,2.3580644E-2,3.395757E-2,3.8433375E-3,1.407005E-2,1.0972079E-2,1.9954572E-2,-1.7016044E-2,2.6464941E-2,-7.1729217E-3,3.6309138E-2,3.6350947E-2,4.1793603E-2,2.8408582E-3,4.5425404E-2],"split_indices":[8,1,8,8,2,7,8,1,7,1,8,5,8,5,5,6,2,7,8,8,2,2,1,8,8,6,2,6,6,8,6,0,0,0,0,0,0,0,0,0,0,0,0,0,0,0,0,0,0,0,0,0,0,0,0,0,0,0,0,0,0,0,0],"split_type":[0,0,0,0,0,0,0,0,0,0,0,0,0,0,0,0,0,0,0,0,0,0,0,0,0,0,0,0,0,0,0,0,0,0,0,0,0,0,0,0,0,0,0,0,0,0,0,0,0,0,0,0,0,0,0,0,0,0,0,0,0,0,0],"sum_hessian":[3.342002E4,2.6436596E4,6.9834214E3,2.3945125E4,2.491472E3,4.2875947E3,2.6958262E3,1.6719938E4,7.2251875E3,1.19745E3,1.294022E3,2.1491953E3,2.1383997E3,1.4584819E3,1.2373444E3,1.1452487E4,5.267449E3,3.0230183E3,4.2021694E3,6.756479E2,5.218021E2,2.6197742E2,1.0320446E3,1.5421881E3,6.0700714E2,1.0482269E3,1.0901729E3,8.4967505E2,6.088069E2,9.3513165E2,3.022127E2,1.0260004E4,1.1924836E3,2.6506055E3,2.6168435E3,1.0342065E3,1.9888118E3,1.5357919E3,2.6663774E3,5.4471844E2,1.3092944E2,1.7435538E2,3.4744675E2,1.7131264E2,9.066478E1,7.0140106E2,3.3064343E2,9.765841E2,5.6560394E2,1.5049298E2,4.5651416E2,8.061075E2,2.4211945E2,5.167624E2,5.7341046E2,9.918204E0,8.3975684E2,1.4368331E0,6.0737006E2,6.0517096E2,3.299607E2,2.053403E0,3.001593E2],"tree_param":{"num_deleted":"0","num_feature":"10","num_nodes":"63","size_leaf_vector":"1"}},{"base_weights":[-6.054895E-4,-2.1809036E-1,5.82331E-1,-2.962716E-1,1.9289306E-1,3.8566962E-1,9.769798E-1,-3.9635912E-1,-9.139895E-2,-1.0286248E-1,4.7374487E-1,7.3967654E-1,2.8719613E-1,8.4564304E-1,1.1698861E0,-4.2995894E-1,-9.322385E-2,1.401912E-1,-2.898319E-1,-2.1165606E-1,1.9237164E-1,-1.36164E-1,5.6195825E-1,9.4605833E-1,6.512843E-1,1.088351E-1,4.2393413E-1,7.107187E-1,1.0407451E0,1.1127121E0,1.3029796E0,-1.01449E-2,-1.7566038E-2,7.0251445E-3,-6.7904294E-3,1.2713249E-2,2.4052837E-3,-1.2127945E-2,-2.8029538E-3,-8.956843E-3,4.765151E-3,-1.1212477E-2,1.0051672E-2,-1.4243182E-2,3.2874024E-3,1.459743E-2,3.5307445E-2,-2.0846767E-2,3.2040924E-2,1.7648123E-2,2.8772362E-2,7.49171E-3,-2.2562656E-3,1.945849E-2,1.1021734E-2,2.0881856E-2,2.770564E-2,4.0928982E-2,3.354006E-2,3.529517E-2,4.0798333E-2,4.3861315E-2,1.1218095E-2],"categories":[],"categories_nodes":[],"categories_segments":[],"categories_sizes":[],"default_left":[0,0,0,0,0,0,0,0,0,0,0,0,0,0,0,0,0,0,0,0,0,0,0,0,0,0,0,0,0,0,0,0,0,0,0,0,0,0,0,0,0,0,0,0,0,0,0,0,0,0,0,0,0,0,0,0,0,0,0,0,0,0,0],"id":12,"left_children":[1,3,5,7,9,11,13,15,17,19,21,23,25,27,29,31,33,35,37,39,41,43,45,47,49,51,53,55,57,59,61,-1,-1,-1,-1,-1,-1,-1,-1,-1,-1,-1,-1,-1,-1,-1,-1,-1,-1,-1,-1,-1,-1,-1,-1,-1,-1,-1,-1,-1,-1,-1,-1],"loss_changes":[4.232968E3,7.8136816E2,7.037241E2,4.18891E2,3.229148E2,2.1091766E2,7.543799E1,1.3975122E2,3.0823856E2,6.0877693E1,1.0735266E2,2.3417175E1,1.155571E2,4.6598877E1,7.828247E0,1.4813647E2,4.550762E1,5.0635292E1,5.374646E1,2.734391E1,2.9081518E1,1.7157898E1,1.0771503E2,7.0268555E0,2.346463E1,4.1650993E1,3.9770355E1,1.0321472E1,4.019287E0,4.0598145E0,1.7897339E0,0E0,0E0,0E0,0E0,0E0,0E0,0E0,0E0,0E0,0E0,0E0,0E0,0E0,0E0,0E0,0E0,0E0,0E0,0E0,0E0,0E0,0E0,0E0,0E0,0E0,0E0,0E0,0E0,0E0,0E0,0E0,0E0],"parents":[2147483647,0,0,1,1,2,2,3,3,4,4,5,5,6,6,7,7,8,8,9,9,10,10,11,11,12,12,13,13,14,14,15,15,16,16,17,17,18,18,19,19,20,20,21,21,22,22,23,23,24,24,25,25,26,26,27,27,28,28,29,29,30,30],"right_children":[2,4,6,8,10,12,14,16,18,20,22,24,26,28,30,32,34,36,38,40,42,44,46,48,50,52,54,56,58,60,62,-1,-1,-1,-1,-1,-1,-1,-1,-1,-1,-1,-1,-1,-1,-1,-1,-1,-1,-1,-1,-1,-1,-1,-1,-1,-1,-1,-1,-1,-1,-1,-1],"split_conditions":[-4.267359E0,6.762263E0,-2.160602E0,-5.7182174E0,2.1386188E2,1.48768015E-2,-5.3488225E-1,-2.8429118E-1,5.9596434E-2,1.1640713E1,-8.267132E0,-8.39957E-2,-3.5464265E0,2.185909E-1,2.4757433E-1,-1.12133265E-1,-8.0034606E-2,-1.0259947E-1,-3.4562778E-1,-5.32444E0,3.1134466E1,9.240833E0,1.20215435E1,-4.869233E-1,-3.255712E0,1.44867E-1,1.08199686E-1,-1.3990028E0,-4.7476634E-2,1.230884E0,4.49E2,-1.01449E-2,-1.7566038E-2,7.0251445E-3,-6.7904294E-3,1.2713249E-2,2.4052837E-3,-1.2127945E-2,-2.8029538E-3,-8.956843E-3,4.765151E-3,-1.1212477E-2,1.0051672E-2,-1.4243182E-2,3.2874024E-3,1.459743E-2,3.5307445E-2,-2.0846767E-2,3.2040924E-2,1.7648123E-2,2.8772362E-2,7.49171E-3,-2.2562656E-3,1.945849E-2,1.1021734E-2,2.0881856E-2,2.770564E-2,4.0928982E-2,3.354006E-2,3.529517E-2,4.0798333E-2,4.3861315E-2,1.1218095E-2],"split_indices":[8,1,8,8,2,7,8,6,7,1,8,7,8,5,5,7,7,7,6,8,2,1,1,6,8,7,7,8,7,8,0,0,0,0,0,0,0,0,0,0,0,0,0,0,0,0,0,0,0,0,0,0,0,0,0,0,0,0,0,0,0,0,0],"split_type":[0,0,0,0,0,0,0,0,0,0,0,0,0,0,0,0,0,0,0,0,0,0,0,0,0,0,0,0,0,0,0,0,0,0,0,0,0,0,0,0,0,0,0,0,0,0,0,0,0,0,0,0,0,0,0,0,0,0,0,0,0,0,0],"sum_hessian":[3.338633E4,2.4315283E4,9.071043E3,2.0429305E4,3.8859797E3,6.0554624E3,3.01558E3,1.3723806E4,6.705499E3,1.8930776E3,1.9929022E3,1.3164357E3,4.739027E3,1.7973025E3,1.2182776E3,1.2354051E4,1.3697548E3,3.0943694E3,3.61113E3,1.3835305E3,5.0954706E2,2.5175061E2,1.7411516E3,3.9184262E2,9.245931E2,2.057292E3,2.6817349E3,1.0652578E3,7.320447E2,8.587421E2,3.5953546E2,5.267593E3,7.086458E3,3.6338367E2,1.00637115E3,6.866892E2,2.4076802E3,2.673766E3,9.373636E2,1.1955255E3,1.8800504E2,8.6089615E1,4.2345746E2,1.1234696E2,1.3940366E2,1.387263E3,3.5388858E2,2.2031987E0,3.8963943E2,5.803207E2,3.4427237E2,1.2454524E3,8.1183966E2,1.0086508E3,1.673084E3,6.1212305E2,4.5313474E2,1.2571554E2,6.0632916E2,5.570335E2,3.017086E2,3.568298E2,2.7056441E0],"tree_param":{"num_deleted":"0","num_feature":"10","num_nodes":"63","size_leaf_vector":"1"}},{"base_weights":[1.7299005E-3,-1.7489696E-1,6.7705536E-1,-2.256748E-1,3.1286028E-1,4.8589703E-1,9.856358E-1,-3.261357E-1,4.9467828E-2,1.5961422E-3,6.015852E-1,6.6267234E-1,3.0812752E-1,8.551116E-1,1.1402543E0,-4.382079E-1,-2.2827117E-1,4.1279495E-1,-8.144609E-2,-1.5001032E-1,1.9835685E-1,1.3660857E-1,7.237981E-1,9.363162E-1,6.002431E-1,1.6457322E-1,4.4503787E-1,9.5238215E-1,7.405834E-1,1.1450857E0,2.6119223E-1,-1.6391668E-2,-3.6081364E-3,4.132321E-5,-1.4683798E-2,7.4386136E-3,1.8067129E-2,1.1138134E-3,-7.569245E-3,-8.6342115E-3,8.553099E-3,-5.131749E-3,1.2741163E-2,1.0949601E-2,-7.374956E-3,1.8857956E-2,3.5531223E-2,-2.0625543E-2,3.272962E-2,1.677552E-2,2.6156344E-2,-5.649735E-4,9.675632E-3,9.881052E-3,1.9143412E-2,2.6060669E-2,3.5097685E-2,2.3479193E-2,3.8607243E-2,3.6721256E-2,4.1326534E-2,2.2500921E-2,-2.3226226E-2],"categories":[],"categories_nodes":[],"categories_segments":[],"categories_sizes":[],"default_left":[0,0,0,0,0,0,0,0,0,0,0,0,0,0,0,0,0,0,0,0,0,0,0,0,0,0,0,0,0,0,0,0,0,0,0,0,0,0,0,0,0,0,0,0,0,0,0,0,0,0,0,0,0,0,0,0,0,0,0,0,0,0,0],"id":13,"left_children":[1,3,5,7,9,11,13,15,17,19,21,23,25,27,29,31,33,35,37,39,41,43,45,47,49,51,53,55,57,59,61,-1,-1,-1,-1,-1,-1,-1,-1,-1,-1,-1,-1,-1,-1,-1,-1,-1,-1,-1,-1,-1,-1,-1,-1,-1,-1,-1,-1,-1,-1,-1,-1],"loss_changes":[3.9746516E3,6.5426227E2,4.0702588E2,6.612915E2,2.238576E2,1.3391016E2,5.233545E1,1.9211255E2,3.0442853E2,3.581637E1,7.333444E1,3.5978943E1,4.178502E1,1.5296387E1,4.8238525E0,1.3795837E2,4.5116107E2,4.080066E1,7.7999054E1,2.9682224E1,3.348979E1,1.8412424E1,5.4839294E1,2.5612457E1,3.0938904E1,2.3481537E1,2.05038E1,1.2045593E1,1.0046783E1,3.8408203E0,3.5569425E0,0E0,0E0,0E0,0E0,0E0,0E0,0E0,0E0,0E0,0E0,0E0,0E0,0E0,0E0,0E0,0E0,0E0,0E0,0E0,0E0,0E0,0E0,0E0,0E0,0E0,0E0,0E0,0E0,0E0,0E0,0E0,0E0],"parents":[2147483647,0,0,1,1,2,2,3,3,4,4,5,5,6,6,7,7,8,8,9,9,10,10,11,11,12,12,13,13,14,14,15,15,16,16,17,17,18,18,19,19,20,20,21,21,22,22,23,23,24,24,25,25,26,26,27,27,28,28,29,29,30,30],"right_children":[2,4,6,8,10,12,14,16,18,20,22,24,26,28,30,32,34,36,38,40,42,44,46,48,50,52,54,56,58,60,62,-1,-1,-1,-1,-1,-1,-1,-1,-1,-1,-1,-1,-1,-1,-1,-1,-1,-1,-1,-1,-1,-1,-1,-1,-1,-1,-1,-1,-1,-1,-1,-1],"split_conditions":[-3.720542E0,8.520719E0,-1.9489522E0,-5.2072306E0,2.1386188E2,1.08199686E-1,-5.3488225E-1,-6.9016447E0,7.26257E-3,1.1640713E1,-7.749233E0,-4.7476634E-2,-3.0264153E0,1.23774186E-1,1.0527901E1,-2.9710403E-1,-1.3597033E-2,-4.759575E0,1.329114E-1,-5.5025964E0,5.3315536E1,3.2613138E2,1.20215435E1,-3.6791878E0,-2.759919E0,3.420526E2,1.5328342E2,2.0840576E0,3.35E2,1.230884E0,1.8952544E2,-1.6391668E-2,-3.6081364E-3,4.132321E-5,-1.4683798E-2,7.4386136E-3,1.8067129E-2,1.1138134E-3,-7.569245E-3,-8.6342115E-3,8.553099E-3,-5.131749E-3,1.2741163E-2,1.0949601E-2,-7.374956E-3,1.8857956E-2,3.5531223E-2,-2.0625543E-2,3.272962E-2,1.677552E-2,2.6156344E-2,-5.649735E-4,9.675632E-3,9.881052E-3,1.9143412E-2,2.6060669E-2,3.5097685E-2,2.3479193E-2,3.8607243E-2,3.6721256E-2,4.1326534E-2,2.2500921E-2,-2.3226226E-2],"split_indices":[8,1,8,8,2,7,8,8,7,1,8,7,8,7,3,6,7,8,7,8,2,2,1,8,8,9,2,1,0,8,2,0,0,0,0,0,0,0,0,0,0,0,0,0,0,0,0,0,0,0,0,0,0,0,0,0,0,0,0,0,0,0,0],"split_type":[0,0,0,0,0,0,0,0,0,0,0,0,0,0,0,0,0,0,0,0,0,0,0,0,0,0,0,0,0,0,0,0,0,0,0,0,0,0,0,0,0,0,0,0,0,0,0,0,0,0,0,0,0,0,0,0,0,0,0,0,0,0,0],"sum_hessian":[3.3319867E4,2.6412574E4,6.9072915E3,2.392265E4,2.4899236E3,4.2667285E3,2.6405627E3,1.7524037E4,6.398614E3,1.1986774E3,1.2912462E3,2.1379792E3,2.1287495E3,1.4353846E3,1.2051781E3,8.1674175E3,9.356619E3,1.694286E3,4.7043276E3,6.771572E2,5.215201E2,2.691903E2,1.02205585E3,3.9455273E2,1.7434265E3,1.0402356E3,1.0885138E3,7.7221497E2,6.631697E2,1.1982894E3,6.88865E0,7.072884E3,1.0945336E3,4.471998E3,4.8846216E3,6.7687445E2,1.01741156E3,2.6231697E3,2.081158E3,5.352497E2,1.4190758E2,1.779479E2,3.435722E2,1.7561792E2,9.357239E1,6.935862E2,3.2846967E2,9.730895E0,3.8482184E2,1.1266935E3,6.1673303E2,4.231991E2,6.170365E2,4.9927454E2,5.892393E2,2.76217E2,4.9599796E2,6.073739E2,5.5795807E1,7.809506E2,4.1733884E2,5.0242395E0,1.8644106E0],"tree_param":{"num_deleted":"0","num_feature":"10","num_nodes":"63","size_leaf_vector":"1"}},{"base_weights":[1.534304E-3,-1.8015386E-1,6.167481E-1,-2.4769425E-1,1.8796064E-1,4.1744474E-1,9.283219E-1,-3.4668338E-1,2.0357019E-3,-8.485184E-2,4.5804363E-1,5.786833E-1,2.534578E-1,8.016052E-1,1.1151199E0,-4.439937E-1,-2.5575334E-1,3.4328637E-1,-1.267847E-1,-1.953291E-1,2.171115E-1,-1.3750514E-1,5.389101E-1,7.9731184E-1,4.9494183E-1,1.4115298E-1,4.2164332E-1,9.4504607E-1,6.6458505E-1,1.1198994E0,2.5300252E-1,-1.6139418E-2,9.196876E-4,-1.9511132E-3,-1.5044523E-2,5.6095812E-3,1.7569406E-2,-4.3142473E-4,-9.161453E-3,-2.978457E-3,-1.36792585E-2,-4.239267E-3,1.2981342E-2,5.419427E-3,-1.1961703E-2,2.2645399E-2,3.8585735E-3,1.8860456E-2,2.9830707E-2,1.3806056E-2,2.4654293E-2,1.3342404E-3,9.919075E-3,1.540144E-2,-4.532893E-3,3.946481E-2,3.022566E-2,2.1033758E-2,3.4028627E-2,4.181167E-2,3.641986E-2,-2.362106E-2,2.2317057E-2],"categories":[],"categories_nodes":[],"categories_segments":[],"categories_sizes":[],"default_left":[0,0,0,0,0,0,0,0,0,0,0,0,0,0,0,0,0,0,0,0,0,0,0,0,0,0,0,0,0,0,0,0,0,0,0,0,0,0,0,0,0,0,0,0,0,0,0,0,0,0,0,0,0,0,0,0,0,0,0,0,0,0,0],"id":14,"left_children":[1,3,5,7,9,11,13,15,17,19,21,23,25,27,29,31,33,35,37,39,41,43,45,47,49,51,53,55,57,59,61,-1,-1,-1,-1,-1,-1,-1,-1,-1,-1,-1,-1,-1,-1,-1,-1,-1,-1,-1,-1,-1,-1,-1,-1,-1,-1,-1,-1,-1,-1,-1,-1],"loss_changes":[3.718843E3,6.3863776E2,4.7064673E2,5.365177E2,2.9347998E2,1.22221985E2,6.9132324E1,1.3741309E2,2.7091626E2,6.6165405E1,9.646307E1,4.231433E1,4.331154E1,3.4085693E1,4.6331787E0,1.3380566E2,3.069101E2,5.3720093E1,7.4758675E1,3.287294E1,3.1170382E1,1.5834675E1,1.0230832E2,1.3570465E1,3.3413116E1,2.1628819E1,1.9574188E1,7.508789E0,1.1043182E1,3.6159668E0,3.5856936E0,0E0,0E0,0E0,0E0,0E0,0E0,0E0,0E0,0E0,0E0,0E0,0E0,0E0,0E0,0E0,0E0,0E0,0E0,0E0,0E0,0E0,0E0,0E0,0E0,0E0,0E0,0E0,0E0,0E0,0E0,0E0,0E0],"parents":[2147483647,0,0,1,1,2,2,3,3,4,4,5,5,6,6,7,7,8,8,9,9,10,10,11,11,12,12,13,13,14,14,15,15,16,16,17,17,18,18,19,19,20,20,21,21,22,22,23,23,24,24,25,25,26,26,27,27,28,28,29,29,30,30],"right_children":[2,4,6,8,10,12,14,16,18,20,22,24,26,28,30,32,34,36,38,40,42,44,46,48,50,52,54,56,58,60,62,-1,-1,-1,-1,-1,-1,-1,-1,-1,-1,-1,-1,-1,-1,-1,-1,-1,-1,-1,-1,-1,-1,-1,-1,-1,-1,-1,-1,-1,-1,-1,-1],"split_conditions":[-3.9148262E0,6.762263E0,-2.160602E0,-5.3479953E0,2.170527E2,1.08199686E-1,-5.3488225E-1,-6.9016447E0,7.26257E-3,1.1640713E1,-8.306409E0,-1.923077E-2,-3.0264153E0,1.1283128E-1,1.0527901E1,-2.4565575E-1,-5.8466126E-3,2.170527E2,1.329114E-1,3.9E2,5.3315536E1,1.2200012E1,-3.9761093E-2,-3.5922236E0,-2.759919E0,-3.6903226E-1,9.330463E0,-4.7476634E-2,3.33E2,2.2222223E-2,1.1565589E-1,-1.6139418E-2,9.196876E-4,-1.9511132E-3,-1.5044523E-2,5.6095812E-3,1.7569406E-2,-4.3142473E-4,-9.161453E-3,-2.978457E-3,-1.36792585E-2,-4.239267E-3,1.2981342E-2,5.419427E-3,-1.1961703E-2,2.2645399E-2,3.8585735E-3,1.8860456E-2,2.9830707E-2,1.3806056E-2,2.4654293E-2,1.3342404E-3,9.919075E-3,1.540144E-2,-4.532893E-3,3.946481E-2,3.022566E-2,2.1033758E-2,3.4028627E-2,4.181167E-2,3.641986E-2,-2.362106E-2,2.2317057E-2],"split_indices":[8,1,8,8,2,7,8,8,7,1,8,7,8,7,3,6,7,2,7,9,2,4,7,8,8,6,3,7,0,7,8,0,0,0,0,0,0,0,0,0,0,0,0,0,0,0,0,0,0,0,0,0,0,0,0,0,0,0,0,0,0,0,0],"split_type":[0,0,0,0,0,0,0,0,0,0,0,0,0,0,0,0,0,0,0,0,0,0,0,0,0,0,0,0,0,0,0,0,0,0,0,0,0,0,0,0,0,0,0,0,0,0,0,0,0,0,0,0,0,0,0,0,0,0,0,0,0,0,0],"sum_hessian":[3.3268188E4,2.5683814E4,7.5843716E3,2.1702281E4,3.981534E3,4.6269844E3,2.9573872E3,1.5541486E4,6.1607944E3,1.9810992E3,2.0004347E3,2.3317676E3,2.2952166E3,1.7652205E3,1.1921669E3,7.505483E3,8.0360034E3,1.6878756E3,4.472919E3,1.450696E3,5.3040314E2,2.3907126E2,1.7613634E3,6.434238E2,1.6883438E3,1.3773434E3,9.1787317E2,8.595233E2,9.0569714E2,1.1852968E3,6.8700614E0,6.948271E3,5.572118E2,3.976017E3,4.059986E3,8.57619E2,8.302566E2,2.5185525E3,1.9543661E3,9.6837683E2,4.8231924E2,1.7590988E2,3.5449326E2,1.0128408E2,1.3778719E2,1.3303064E3,4.3105698E2,1.8512643E2,4.5829742E2,1.2586971E3,4.2964664E2,8.3355237E2,5.43791E2,8.592303E2,5.8642895E1,1.2907275E2,7.3045056E2,8.2258936E2,8.310779E1,2.3310797E2,9.5218884E2,1.8571894E0,5.012872E0],"tree_param":{"num_deleted":"0","num_feature":"10","num_nodes":"63","size_leaf_vector":"1"}},{"base_weights":[1.3008758E-3,-1.9758506E-1,5.37857E-1,-2.7435237E-1,1.5047866E-1,3.5845184E-1,9.0628755E-1,-3.8464555E-1,-1.2034795E-1,3.8073946E-2,4.398475E-1,6.836867E-1,2.670775E-1,7.79957E-1,1.0952324E0,-4.2137656E-1,-6.462671E-2,7.579185E-2,-3.0951172E-1,-1.7178373E-1,2.0779416E-1,2.922226E-1,6.664534E-1,9.0806335E-1,6.0366416E-1,1.7042519E-1,4.8534194E-1,6.471259E-1,9.749843E-1,9.543298E-1,1.1500432E0,-1.1364731E-2,-1.858531E-2,8.353718E-3,-4.9762125E-3,1.0728846E-2,-2.3310614E-4,1.1338993E-2,-1.1072223E-2,-3.4702756E-3,-1.71801E-2,1.3810386E-2,-1.3640733E-3,5.609529E-3,2.0861799E-2,3.1710636E-2,1.1248584E-2,-2.1210488E-2,3.0809678E-2,1.7093645E-2,2.7620228E-2,8.316021E-3,1.4165248E-3,1.9497775E-2,1.0322535E-2,1.883808E-2,2.5446843E-2,3.908609E-2,3.151816E-2,3.2390736E-2,-4.7494423E-2,3.6805186E-2,4.1788455E-2],"categories":[],"categories_nodes":[],"categories_segments":[],"categories_sizes":[],"default_left":[0,0,0,0,0,0,0,0,0,0,0,0,0,0,0,0,0,0,0,0,0,0,0,0,0,0,0,0,0,0,0,0,0,0,0,0,0,0,0,0,0,0,0,0,0,0,0,0,0,0,0,0,0,0,0,0,0,0,0,0,0,0,0],"id":15,"left_children":[1,3,5,7,9,11,13,15,17,19,21,23,25,27,29,31,33,35,37,39,41,43,45,47,49,51,53,55,57,59,61,-1,-1,-1,-1,-1,-1,-1,-1,-1,-1,-1,-1,-1,-1,-1,-1,-1,-1,-1,-1,-1,-1,-1,-1,-1,-1,-1,-1,-1,-1,-1,-1],"loss_changes":[3.548414E3,6.48253E2,5.940513E2,3.3756274E2,1.425907E2,1.7958691E2,6.94209E1,1.3610571E2,3.0782257E2,1.1254417E2,4.0835693E1,2.326239E1,9.9574554E1,4.5167847E1,7.9942627E0,1.1364014E2,3.1491457E1,8.241902E1,5.7638E1,3.2808895E1,8.878622E1,3.059856E1,4.4434357E1,6.821411E0,1.980066E1,3.2657257E1,2.4657166E1,9.631653E0,3.5735474E0,1.14088745E1,2.8432617E0,0E0,0E0,0E0,0E0,0E0,0E0,0E0,0E0,0E0,0E0,0E0,0E0,0E0,0E0,0E0,0E0,0E0,0E0,0E0,0E0,0E0,0E0,0E0,0E0,0E0,0E0,0E0,0E0,0E0,0E0,0E0,0E0],"parents":[2147483647,0,0,1,1,2,2,3,3,4,4,5,5,6,6,7,7,8,8,9,9,10,10,11,11,12,12,13,13,14,14,15,15,16,16,17,17,18,18,19,19,20,20,21,21,22,22,23,23,24,24,25,25,26,26,27,27,28,28,29,29,30,30],"right_children":[2,4,6,8,10,12,14,16,18,20,22,24,26,28,30,32,34,36,38,40,42,44,46,48,50,52,54,56,58,60,62,-1,-1,-1,-1,-1,-1,-1,-1,-1,-1,-1,-1,-1,-1,-1,-1,-1,-1,-1,-1,-1,-1,-1,-1,-1,-1,-1,-1,-1,-1,-1,-1],"split_conditions":[-4.267359E0,6.5517974E0,-2.160602E0,-6.0631137E0,1.1030656E1,1.6658254E-2,-5.3488225E-1,-2.8429118E-1,5.9596434E-2,-6.9016447E0,-6.689952E0,-9.1451295E-2,-3.0264153E0,2.185909E-1,1.392663E-1,-5.8682058E-2,-1.0834156E-1,-1.0259947E-1,9.0427294E-2,-4.3565348E-2,-3.9761093E-2,1.5408702E1,-1.4049977E-1,-4.869233E-1,-3.0899434E0,1.5085575E-1,1.5543644E-1,-1.3990028E0,-5.8682058E-2,1.085702E1,2.7180162E-1,-1.1364731E-2,-1.858531E-2,8.353718E-3,-4.9762125E-3,1.0728846E-2,-2.3310614E-4,1.1338993E-2,-1.1072223E-2,-3.4702756E-3,-1.71801E-2,1.3810386E-2,-1.3640733E-3,5.609529E-3,2.0861799E-2,3.1710636E-2,1.1248584E-2,-2.1210488E-2,3.0809678E-2,1.7093645E-2,2.7620228E-2,8.316021E-3,1.4165248E-3,1.9497775E-2,1.0322535E-2,1.883808E-2,2.5446843E-2,3.908609E-2,3.151816E-2,3.2390736E-2,-4.7494423E-2,3.6805186E-2,4.1788455E-2],"split_indices":[8,1,8,8,1,7,8,6,7,8,8,7,8,5,5,7,7,7,5,7,7,1,7,6,8,7,7,8,7,3,5,0,0,0,0,0,0,0,0,0,0,0,0,0,0,0,0,0,0,0,0,0,0,0,0,0,0,0,0,0,0,0,0],"split_type":[0,0,0,0,0,0,0,0,0,0,0,0,0,0,0,0,0,0,0,0,0,0,0,0,0,0,0,0,0,0,0,0,0,0,0,0,0,0,0,0,0,0,0,0,0,0,0,0,0,0,0,0,0,0,0,0,0,0,0,0,0,0,0],"sum_hessian":[3.3249793E4,2.4258496E4,8.991296E3,1.987514E4,4.3833564E3,6.0481543E3,2.9431416E3,1.1580237E4,8.294903E3,3.1578342E3,1.2255225E3,1.3251119E3,4.7230425E3,1.7669005E3,1.1762411E3,1.038765E4,1.1925865E3,4.072655E3,4.222248E3,1.4119532E3,1.7458809E3,7.434702E2,4.8205228E2,3.4563406E2,9.794779E2,3.2747097E3,1.4483328E3,1.0536133E3,7.1328723E2,3.3457025E2,8.416709E2,6.4327524E3,3.9548984E3,2.5110544E2,9.4148114E2,1.0291439E3,3.043511E3,1.321849E2,4.090063E3,1.1777968E3,2.3415639E2,9.5743945E2,7.8844147E2,5.408396E2,2.026306E2,2.599333E2,2.2211897E2,2.198999E0,3.4343506E2,6.907492E2,2.8872873E2,2.036725E3,1.2379847E3,9.354609E2,5.128719E2,6.043476E2,4.4926566E2,1.02625854E2,6.106614E2,3.3339035E2,1.1798953E0,5.593431E2,2.8232782E2],"tree_param":{"num_deleted":"0","num_feature":"10","num_nodes":"63","size_leaf_vector":"1"}},{"base_weights":[2.2183668E-3,-1.0706622E-1,1.18336424E-1,-1.7973295E-1,6.693078E-2,4.5903314E-2,4.2621043E-1,-1.9786301E-1,1.9713925E-1,3.6977896E-1,2.7887184E-2,-4.9585797E-2,1.6950808E-1,4.9978575E-1,-4.433682E-2,-3.001128E-1,-1.4235528E-1,-1.7295805E-1,2.9344907E-1,5.864321E-1,2.2911166E-1,-1.1665653E-1,6.771845E-2,2.7643066E-4,-1.9318242E-1,1.5578754E-1,1.0177585E0,4.4086793E-1,1.0055892E0,-1.8850768E-1,5.6592065E-1,-6.701789E-3,-1.3046164E-2,-8.422606E-3,-2.7977235E-3,-3.1628452E-2,-3.557853E-4,5.03106E-3,2.1620914E-2,1.3978857E-2,3.1650122E-2,-2.7235024E-4,1.5921645E-2,-9.42608E-3,4.124732E-3,3.2872842E-3,-6.927849E-3,-3.3343488E-3,2.7493248E-3,-1.1251871E-2,-3.7188258E-3,3.0731934E-3,8.974554E-3,3.5815988E-2,-2.0748815E-2,-6.0277036E-4,1.6675472E-2,-5.36629E-2,3.4410194E-2,-1.0396632E-4,-1.7667815E-2,2.708874E-2,-6.4726267E-3],"categories":[],"categories_nodes":[],"categories_segments":[],"categories_sizes":[],"default_left":[0,0,0,0,0,0,0,0,0,0,0,0,0,0,0,0,0,0,0,0,0,0,0,0,0,0,0,0,0,0,0,0,0,0,0,0,0,0,0,0,0,0,0,0,0,0,0,0,0,0,0,0,0,0,0,0,0,0,0,0,0,0,0],"id":16,"left_children":[1,3,5,7,9,11,13,15,17,19,21,23,25,27,29,31,33,35,37,39,41,43,45,47,49,51,53,55,57,59,61,-1,-1,-1,-1,-1,-1,-1,-1,-1,-1,-1,-1,-1,-1,-1,-1,-1,-1,-1,-1,-1,-1,-1,-1,-1,-1,-1,-1,-1,-1,-1,-1],"loss_changes":[4.2087717E2,2.1604259E2,3.585774E2,8.239163E1,5.951554E1,1.5366861E2,1.0604938E2,6.52272E1,1.9786953E1,1.7383804E1,2.5687954E1,5.25944E1,6.588167E1,7.84845E1,3.662159E1,3.6083893E1,4.782779E1,1.4383421E1,2.2077099E1,1.3283684E1,2.0455807E1,3.8112656E1,2.922305E1,4.4531933E1,2.2163277E1,4.0082764E1,8.252518E0,6.202887E1,1.7190918E1,2.1140957E1,1.4817621E1,0E0,0E0,0E0,0E0,0E0,0E0,0E0,0E0,0E0,0E0,0E0,0E0,0E0,0E0,0E0,0E0,0E0,0E0,0E0,0E0,0E0,0E0,0E0,0E0,0E0,0E0,0E0,0E0,0E0,0E0,0E0,0E0],"parents":[2147483647,0,0,1,1,2,2,3,3,4,4,5,5,6,6,7,7,8,8,9,9,10,10,11,11,12,12,13,13,14,14,15,15,16,16,17,17,18,18,19,19,20,20,21,21,22,22,23,23,24,24,25,25,26,26,27,27,28,28,29,29,30,30],"right_children":[2,4,6,8,10,12,14,16,18,20,22,24,26,28,30,32,34,36,38,40,42,44,46,48,50,52,54,56,58,60,62,-1,-1,-1,-1,-1,-1,-1,-1,-1,-1,-1,-1,-1,-1,-1,-1,-1,-1,-1,-1,-1,-1,-1,-1,-1,-1,-1,-1,-1,-1,-1,-1],"split_conditions":[1.8952544E2,-3.5016182E-1,6.506998E0,1.1030656E1,1.07213765E-1,-3.72592E-1,3.2613138E2,2.03E2,3.1134466E1,2.08E2,1.84E2,3.148099E2,2.2038327E-1,1.3200114E1,-3.483871E-1,3.4958813E-1,-8.60526E-2,2.22E2,1.5408702E1,1.8268359E-1,2.6E2,-2.9508197E-1,3.49E2,-4.2168674E-1,-7.010615E-2,-3.0229816E-1,1.01513544E3,2.1999025E2,1.5741068E-1,-8.39957E-2,4.3525376E0,-6.701789E-3,-1.3046164E-2,-8.422606E-3,-2.7977235E-3,-3.1628452E-2,-3.557853E-4,5.03106E-3,2.1620914E-2,1.3978857E-2,3.1650122E-2,-2.7235024E-4,1.5921645E-2,-9.42608E-3,4.124732E-3,3.2872842E-3,-6.927849E-3,-3.3343488E-3,2.7493248E-3,-1.1251871E-2,-3.7188258E-3,3.0731934E-3,8.974554E-3,3.5815988E-2,-2.0748815E-2,-6.0277036E-4,1.6675472E-2,-5.36629E-2,3.4410194E-2,-1.0396632E-4,-1.7667815E-2,2.708874E-2,-6.4726267E-3],"split_indices":[2,6,1,1,5,6,2,0,2,0,0,2,7,1,6,5,7,0,1,7,0,6,0,6,7,6,9,2,5,7,3,0,0,0,0,0,0,0,0,0,0,0,0,0,0,0,0,0,0,0,0,0,0,0,0,0,0,0,0,0,0,0,0],"split_type":[0,0,0,0,0,0,0,0,0,0,0,0,0,0,0,0,0,0,0,0,0,0,0,0,0,0,0,0,0,0,0,0,0,0,0,0,0,0,0,0,0,0,0,0,0,0,0,0,0,0,0,0,0,0,0,0,0,0,0,0,0,0,0],"sum_hessian":[3.3164277E4,1.7084896E4,1.6079383E4,1.205169E4,5.0332056E3,1.3017842E4,3.0615413E3,1.1498987E4,5.527031E2,5.738182E2,4.459387E3,7.344529E3,5.6733125E3,2.6475112E3,4.1403012E2,4.0444229E3,7.4545645E3,1.1396501E2,4.387381E2,2.2464902E2,3.4916913E2,9.629627E2,3.4964246E3,5.4522856E3,1.8922434E3,5.584172E3,8.914094E1,2.3729707E3,2.7454056E2,3.3546823E2,7.856191E1,1.9094648E3,2.134958E3,2.610882E3,4.8436826E3,1.8979858E1,9.498515E1,3.1283817E2,1.2589994E2,1.540951E2,7.055393E1,1.783074E2,1.7086172E2,5.707125E2,3.9225018E2,3.1482761E3,3.4814844E2,2.4555923E3,2.9966934E3,6.9026263E2,1.2019808E3,3.555234E3,2.0289379E3,8.676213E1,2.378808E0,2.6200708E2,2.1109636E3,1.6581918E0,2.7288235E2,2.1749661E2,1.179716E2,5.9478096E1,1.9083813E1],"tree_param":{"num_deleted":"0","num_feature":"10","num_nodes":"63","size_leaf_vector":"1"}},{"base_weights":[-1.7017478E-3,-1.6835143E-1,5.9509736E-1,-2.1435536E-1,2.731069E-1,4.1942263E-1,9.1232014E-1,-2.993738E-1,4.0329676E-2,-3.5750484E-3,5.337769E-1,7.085017E-1,3.231946E-1,7.666795E-1,1.044987E0,-3.999588E-1,-2.0048688E-1,3.6126807E-1,-7.6058745E-2,-6.494276E-2,3.7393513E-1,9.674966E-2,6.5047455E-1,7.6641065E-1,4.350418E-1,1.9580181E-1,4.706126E-1,8.6560017E-1,6.497628E-1,1.1458879E0,9.843583E-1,-1.4943455E-2,-5.1289136E-3,-8.7058805E-3,4.160913E-3,1.9888557E-2,8.224801E-3,1.230368E-3,-7.351954E-3,-4.7076624E-3,1.0165328E-2,-3.2552794E-2,1.6993137E-2,-6.088107E-3,9.698375E-3,2.5934458E-2,7.065885E-3,2.057018E-2,2.9706027E-2,1.2291543E-2,3.814729E-2,3.1172887E-3,1.0294937E-2,1.8736297E-2,9.79091E-3,2.32961E-2,3.2075908E-2,2.0218255E-2,3.5646833E-2,3.9133213E-2,3.0073008E-2,2.7660852E-2,3.4936234E-2],"categories":[],"categories_nodes":[],"categories_segments":[],"categories_sizes":[],"default_left":[0,0,0,0,0,0,0,0,0,0,0,0,0,0,0,0,0,0,0,0,0,0,0,0,0,0,0,0,0,0,0,0,0,0,0,0,0,0,0,0,0,0,0,0,0,0,0,0,0,0,0,0,0,0,0,0,0,0,0,0,0,0,0],"id":17,"left_children":[1,3,5,7,9,11,13,15,17,19,21,23,25,27,29,31,33,35,37,39,41,43,45,47,49,51,53,55,57,59,61,-1,-1,-1,-1,-1,-1,-1,-1,-1,-1,-1,-1,-1,-1,-1,-1,-1,-1,-1,-1,-1,-1,-1,-1,-1,-1,-1,-1,-1,-1,-1,-1],"loss_changes":[3.2932097E3,5.2573627E2,4.0241333E2,5.0759912E2,1.7621529E2,1.2922345E2,4.895703E1,1.747323E2,2.1920891E2,2.7505228E1,6.409668E1,1.8057861E1,6.551111E1,1.3678772E1,7.099365E0,9.9152466E1,1.710138E2,4.1872208E1,6.967511E1,2.8481258E1,3.0284458E1,1.4349259E1,5.3825623E1,1.7008362E1,9.421242E0,2.146331E1,2.5442993E1,9.722076E0,1.0238541E1,1.7146606E0,7.0094604E0,0E0,0E0,0E0,0E0,0E0,0E0,0E0,0E0,0E0,0E0,0E0,0E0,0E0,0E0,0E0,0E0,0E0,0E0,0E0,0E0,0E0,0E0,0E0,0E0,0E0,0E0,0E0,0E0,0E0,0E0,0E0,0E0],"parents":[2147483647,0,0,1,1,2,2,3,3,4,4,5,5,6,6,7,7,8,8,9,9,10,10,11,11,12,12,13,13,14,14,15,15,16,16,17,17,18,18,19,19,20,20,21,21,22,22,23,23,24,24,25,25,26,26,27,27,28,28,29,29,30,30],"right_children":[2,4,6,8,10,12,14,16,18,20,22,24,26,28,30,32,34,36,38,40,42,44,46,48,50,52,54,56,58,60,62,-1,-1,-1,-1,-1,-1,-1,-1,-1,-1,-1,-1,-1,-1,-1,-1,-1,-1,-1,-1,-1,-1,-1,-1,-1,-1,-1,-1,-1,-1,-1,-1],"split_conditions":[-3.838424E0,8.520719E0,-1.9489522E0,-5.1844897E0,2.1386188E2,3.5051547E-2,-7.9080653E-1,1.8E2,7.26257E-3,1.5408702E1,-7.749233E0,-2.6775244E-1,-3.0264153E0,1.23774186E-1,8.1268586E-2,-3.1676584E-1,5.88038E0,-8.971156E-2,1.329114E-1,-5.5025964E0,2.33385E1,1.0499278E1,-4.1671347E-2,-3.255712E0,9.33381E2,1.8952544E2,1.6160154E-1,2.0840576E0,2.8300018E1,-1.807154E-1,-2.3492488E-1,-1.4943455E-2,-5.1289136E-3,-8.7058805E-3,4.160913E-3,1.9888557E-2,8.224801E-3,1.230368E-3,-7.351954E-3,-4.7076624E-3,1.0165328E-2,-3.2552794E-2,1.6993137E-2,-6.088107E-3,9.698375E-3,2.5934458E-2,7.065885E-3,2.057018E-2,2.9706027E-2,1.2291543E-2,3.814729E-2,3.1172887E-3,1.0294937E-2,1.8736297E-2,9.79091E-3,2.32961E-2,3.2075908E-2,2.0218255E-2,3.5646833E-2,3.9133213E-2,3.0073008E-2,2.7660852E-2,3.4936234E-2],"split_indices":[8,1,8,8,2,7,8,2,7,1,8,6,8,7,7,6,1,7,7,8,2,1,7,8,9,2,7,1,4,6,8,0,0,0,0,0,0,0,0,0,0,0,0,0,0,0,0,0,0,0,0,0,0,0,0,0,0,0,0,0,0,0,0],"split_type":[0,0,0,0,0,0,0,0,0,0,0,0,0,0,0,0,0,0,0,0,0,0,0,0,0,0,0,0,0,0,0,0,0,0,0,0,0,0,0,0,0,0,0,0,0,0,0,0,0,0,0,0,0,0,0,0,0,0,0,0,0,0,0],"sum_hessian":[3.3110094E4,2.5883205E4,7.2268867E3,2.344096E4,2.4422449E3,4.65263E3,2.5742566E3,1.7574201E4,5.866759E3,1.185214E3,1.2570309E3,1.160376E3,3.4922542E3,1.2303578E3,1.3438989E3,8.710788E3,8.863413E3,1.5607959E3,4.305963E3,1.0201992E3,1.650147E2,2.6530505E2,9.917258E2,9.5610486E2,2.0427115E2,1.8746146E3,1.6176395E3,6.630024E2,5.673554E2,4.9770178E2,8.4619714E2,7.3383633E3,1.3724249E3,7.4927983E3,1.3706154E3,5.1743475E2,1.0433612E3,2.410764E3,1.8951991E3,8.470187E2,1.7318056E2,1.4310614E1,1.5070409E2,1.0854602E2,1.5675903E2,7.732857E2,2.1844012E2,4.2472745E2,5.3137744E2,1.8763295E2,1.6638197E1,9.766824E2,8.9793225E2,1.0788385E3,5.388009E2,2.3557874E2,4.274236E2,5.126548E2,5.470065E1,4.532077E2,4.4494095E1,2.3227272E2,6.139244E2],"tree_param":{"num_deleted":"0","num_feature":"10","num_nodes":"63","size_leaf_vector":"1"}},{"base_weights":[-3.609268E-4,-1.664394E-1,5.6660664E-1,-2.3305583E-1,1.2921949E-1,3.968991E-1,8.9382046E-1,-3.4465608E-1,-3.2803994E-2,-1.15140475E-1,3.7240583E-1,5.540053E-1,2.3776323E-1,7.689058E-1,1.0446435E0,-2.3521839E-1,-4.149934E-1,1.7614627E-1,-1.9456826E-1,-2.1459243E-1,1.4667206E-1,4.8890364E-1,-1.7338885E-2,4.748699E-1,7.850957E-1,1.1729286E-1,3.888952E-1,6.4722246E-1,9.3958014E-1,9.356581E-1,1.1173339E0,-1.4664902E-2,2.568475E-4,4.3597566E-3,-1.46075245E-2,6.1827264E-4,9.430421E-3,-1.0459158E-2,-2.3322513E-3,-9.594256E-3,-6.079484E-4,-1.06154075E-2,8.316486E-3,1.2218027E-2,3.0477881E-2,4.273685E-3,-1.0078962E-2,1.146648E-2,2.1803614E-2,-3.6111074E-3,2.7219009E-2,8.366472E-4,9.347391E-3,7.957133E-3,1.7282723E-2,2.0226864E-2,3.0950215E-2,2.4806898E-2,3.230107E-2,2.8185269E-2,3.6138758E-2,3.546682E-2,4.0218387E-2],"categories":[],"categories_nodes":[],"categories_segments":[],"categories_sizes":[],"default_left":[0,0,0,0,0,0,0,0,0,0,0,0,0,0,0,0,0,0,0,0,0,0,0,0,0,0,0,0,0,0,0,0,0,0,0,0,0,0,0,0,0,0,0,0,0,0,0,0,0,0,0,0,0,0,0,0,0,0,0,0,0,0,0],"id":18,"left_children":[1,3,5,7,9,11,13,15,17,19,21,23,25,27,29,31,33,35,37,39,41,43,45,47,49,51,53,55,57,59,61,-1,-1,-1,-1,-1,-1,-1,-1,-1,-1,-1,-1,-1,-1,-1,-1,-1,-1,-1,-1,-1,-1,-1,-1,-1,-1,-1,-1,-1,-1,-1,-1],"loss_changes":[3.1125676E3,5.0358478E2,4.1551953E2,4.6629944E2,2.794552E2,1.232052E2,4.7368042E1,1.03038574E2,2.5246379E2,6.1117905E1,1.07020355E2,4.5010986E1,4.460756E1,2.8516113E1,8.108765E0,2.58033E2,9.3752075E1,5.4152924E1,6.1868637E1,2.3987885E1,3.0523388E1,9.450604E1,2.2364174E1,4.2973602E1,1.5569611E1,2.0392403E1,2.0785446E1,9.313049E0,2.142395E0,5.414612E0,2.0845947E0,0E0,0E0,0E0,0E0,0E0,0E0,0E0,0E0,0E0,0E0,0E0,0E0,0E0,0E0,0E0,0E0,0E0,0E0,0E0,0E0,0E0,0E0,0E0,0E0,0E0,0E0,0E0,0E0,0E0,0E0,0E0,0E0],"parents":[2147483647,0,0,1,1,2,2,3,3,4,4,5,5,6,6,7,7,8,8,9,9,10,10,11,11,12,12,13,13,14,14,15,15,16,16,17,17,18,18,19,19,20,20,21,21,22,22,23,23,24,24,25,25,26,26,27,27,28,28,29,29,30,30],"right_children":[2,4,6,8,10,12,14,16,18,20,22,24,26,28,30,32,34,36,38,40,42,44,46,48,50,52,54,56,58,60,62,-1,-1,-1,-1,-1,-1,-1,-1,-1,-1,-1,-1,-1,-1,-1,-1,-1,-1,-1,-1,-1,-1,-1,-1,-1,-1,-1,-1,-1,-1,-1,-1],"split_conditions":[-3.9148262E0,6.506998E0,-1.9489522E0,-5.651746E0,2.170527E2,1.08199686E-1,-5.3488225E-1,-1.12133265E-1,5.9596434E-2,1.1030656E1,3.1480722E2,3.9434275E-1,-3.0264153E0,2.1275824E-1,1.6508728E-1,-7.196921E0,1.10284165E-1,1.235173E2,-4.759575E0,5.4353285E0,3.1134466E1,1.1201108E1,-7.010615E-2,-3.0264153E0,-3.8784008E0,2.4358835E2,1.5328342E2,3.1E2,9.33688E-1,1.230884E0,2.7180162E-1,-1.4664902E-2,2.568475E-4,4.3597566E-3,-1.46075245E-2,6.1827264E-4,9.430421E-3,-1.0459158E-2,-2.3322513E-3,-9.594256E-3,-6.079484E-4,-1.06154075E-2,8.316486E-3,1.2218027E-2,3.0477881E-2,4.273685E-3,-1.0078962E-2,1.146648E-2,2.1803614E-2,-3.6111074E-3,2.7219009E-2,8.366472E-4,9.347391E-3,7.957133E-3,1.7282723E-2,2.0226864E-2,3.0950215E-2,2.4806898E-2,3.230107E-2,2.8185269E-2,3.6138758E-2,3.546682E-2,4.0218387E-2],"split_indices":[8,1,8,8,2,7,8,7,7,1,2,5,8,5,5,8,5,2,8,3,2,1,7,8,8,2,2,0,1,8,5,0,0,0,0,0,0,0,0,0,0,0,0,0,0,0,0,0,0,0,0,0,0,0,0,0,0,0,0,0,0,0,0],"split_type":[0,0,0,0,0,0,0,0,0,0,0,0,0,0,0,0,0,0,0,0,0,0,0,0,0,0,0,0,0,0,0,0,0,0,0,0,0,0,0,0,0,0,0,0,0,0,0,0,0,0,0,0,0,0,0,0,0,0,0,0,0,0,0],"sum_hessian":[3.305377E4,2.5565674E4,7.4880957E3,2.0864742E4,4.7009316E3,4.9322344E3,2.5558616E3,1.3397565E4,7.4671772E3,2.3450703E3,2.355861E3,2.4806963E3,2.451538E3,1.401341E3,1.1545206E3,5.243524E3,8.1540415E3,3.258324E3,4.208853E3,1.6996302E3,6.454402E2,1.8135286E3,5.423327E2,1.8501718E3,6.305245E2,1.3651365E3,1.0864017E3,8.2088086E2,5.8046E2,4.6748615E2,6.870344E2,2.8586477E3,2.384876E3,3.0331564E2,7.8507256E3,1.3056418E3,1.9526823E3,2.1668271E3,2.0420262E3,1.244273E3,4.5535724E2,1.1564477E2,5.297954E2,1.4018713E3,4.1165717E2,3.592631E2,1.8306958E2,1.0570228E3,7.9314886E2,1.87225E1,6.1180194E2,8.6983746E2,4.9529898E2,4.970545E2,5.8934717E2,7.12333E2,1.0854785E2,6.7462944E1,5.1299713E2,2.86038E2,1.8144817E2,4.1142078E2,2.7561365E2],"tree_param":{"num_deleted":"0","num_feature":"10","num_nodes":"63","size_leaf_vector":"1"}},{"base_weights":[1.7093708E-3,-1.7838727E-1,4.9199393E-1,-2.4652259E-1,1.3002066E-1,3.2615766E-1,8.395082E-1,-3.6730176E-1,-1.2718038E-1,-1.03694186E-1,3.640182E-1,2.4211006E-1,5.954224E-1,7.196066E-1,1.0215864E0,-3.9610714E-1,4.7529154E-2,-2.3541744E-1,1.2381493E-1,-2.1389739E-1,1.0562998E-1,9.7717665E-2,5.248754E-1,1.0151128E-1,3.6041617E-1,4.9728683E-1,8.0276E-1,6.154023E-1,9.3601304E-1,9.6547335E-1,1.1548916E0,-1.7036572E-2,-1.0308628E-2,-1.0047075E-3,1.1558218E-2,-1.2493029E-2,-4.7805286E-3,1.0139392E-3,1.2245525E-2,-9.840755E-3,2.9429194E-4,-1.1924401E-2,6.9324626E-3,-1.9916221E-3,1.4528793E-2,1.4791528E-2,3.7122484E-2,6.3308516E-6,9.429462E-3,1.0613098E-2,2.0003084E-2,1.4499026E-2,2.8319312E-2,-1.0414235E-3,2.7910061E-2,2.1784399E-2,8.682028E-3,3.593857E-2,2.8836573E-2,3.030796E-2,3.6052153E-2,3.9410993E-2,2.511812E-2],"categories":[],"categories_nodes":[],"categories_segments":[],"categories_sizes":[],"default_left":[0,0,0,0,0,0,0,0,0,0,0,0,0,0,0,0,0,0,0,0,0,0,0,0,0,0,0,0,0,0,0,0,0,0,0,0,0,0,0,0,0,0,0,0,0,0,0,0,0,0,0,0,0,0,0,0,0,0,0,0,0,0,0],"id":19,"left_children":[1,3,5,7,9,11,13,15,17,19,21,23,25,27,29,31,33,35,37,39,41,43,45,47,49,51,53,55,57,59,61,-1,-1,-1,-1,-1,-1,-1,-1,-1,-1,-1,-1,-1,-1,-1,-1,-1,-1,-1,-1,-1,-1,-1,-1,-1,-1,-1,-1,-1,-1,-1,-1],"loss_changes":[2.9140261E3,5.0721442E2,5.1067285E2,2.8490442E2,2.3892136E2,1.3572003E2,6.177881E1,1.1741907E2,2.7020966E2,5.0452644E1,9.345755E1,7.6095795E1,2.8645233E1,3.8434143E1,7.371582E0,9.115698E1,1.4743867E1,8.854651E1,6.7766945E1,2.5480865E1,3.5368523E1,4.3502605E1,6.5636566E1,3.81651E1,2.545465E1,2.1432556E1,1.1617157E1,1.4389862E1,4.840332E0,4.4365845E0,2.0164795E0,0E0,0E0,0E0,0E0,0E0,0E0,0E0,0E0,0E0,0E0,0E0,0E0,0E0,0E0,0E0,0E0,0E0,0E0,0E0,0E0,0E0,0E0,0E0,0E0,0E0,0E0,0E0,0E0,0E0,0E0,0E0,0E0],"parents":[2147483647,0,0,1,1,2,2,3,3,4,4,5,5,6,6,7,7,8,8,9,9,10,10,11,11,12,12,13,13,14,14,15,15,16,16,17,17,18,18,19,19,20,20,21,21,22,22,23,23,24,24,25,25,26,26,27,27,28,28,29,29,30,30],"right_children":[2,4,6,8,10,12,14,16,18,20,22,24,26,28,30,32,34,36,38,40,42,44,46,48,50,52,54,56,58,60,62,-1,-1,-1,-1,-1,-1,-1,-1,-1,-1,-1,-1,-1,-1,-1,-1,-1,-1,-1,-1,-1,-1,-1,-1,-1,-1,-1,-1,-1,-1,-1,-1],"split_conditions":[-4.267359E0,6.5517974E0,-2.160602E0,-6.3907638E0,2.170527E2,3.185471E-1,-5.3488225E-1,-2.4565575E-1,4.0366828E-1,1.0272117E1,-6.978603E0,-3.4992318E0,-3.2020612E0,2.4330975E-1,2.4757433E-1,2.19E2,-1.4486712E-1,-5.4585013E0,-5.2299457E0,5.4353285E0,3.1134466E1,1.0499278E1,1.3200114E1,-3.4175065E-1,3.06E2,5.448113E-1,-4.689081E-1,8.826843E0,2.09E2,1.230884E0,3.92E2,-1.7036572E-2,-1.0308628E-2,-1.0047075E-3,1.1558218E-2,-1.2493029E-2,-4.7805286E-3,1.0139392E-3,1.2245525E-2,-9.840755E-3,2.9429194E-4,-1.1924401E-2,6.9324626E-3,-1.9916221E-3,1.4528793E-2,1.4791528E-2,3.7122484E-2,6.3308516E-6,9.429462E-3,1.0613098E-2,2.0003084E-2,1.4499026E-2,2.8319312E-2,-1.0414235E-3,2.7910061E-2,2.1784399E-2,8.682028E-3,3.593857E-2,2.8836573E-2,3.030796E-2,3.6052153E-2,3.9410993E-2,2.511812E-2],"split_indices":[8,1,8,8,2,5,8,6,5,1,8,8,8,5,5,0,6,8,8,3,2,1,1,6,0,5,6,3,0,8,0,0,0,0,0,0,0,0,0,0,0,0,0,0,0,0,0,0,0,0,0,0,0,0,0,0,0,0,0,0,0,0,0],"split_type":[0,0,0,0,0,0,0,0,0,0,0,0,0,0,0,0,0,0,0,0,0,0,0,0,0,0,0,0,0,0,0,0,0,0,0,0,0,0,0,0,0,0,0,0,0,0,0,0,0,0,0,0,0,0,0,0,0,0,0,0,0,0,0],"sum_hessian":[3.299996E4,2.4135049E4,8.864911E3,1.9767986E4,4.367061E3,6.0024414E3,2.8624697E3,9.823812E3,9.944176E3,2.185129E3,2.1819321E3,4.5759995E3,1.4264417E3,1.7289069E3,1.1335627E3,9.185992E3,6.3781964E2,6.94803E3,2.996146E3,1.4314758E3,7.536531E2,8.222678E2,1.3596644E3,2.0918435E3,2.4841562E3,9.704932E2,4.559484E2,1.1695756E3,5.5933136E2,8.0355853E2,3.3000427E2,4.039674E3,5.146318E3,5.0669098E2,1.3112863E2,2.796489E3,4.1515405E3,2.161026E3,8.351201E2,1.0533417E3,3.7813422E2,1.3519775E2,6.184553E2,5.6077527E2,2.6149255E2,1.1912755E3,1.6838885E2,1.3390239E3,7.5281964E2,2.0998318E3,3.843243E2,8.207632E2,1.4973006E2,1.6048006E1,4.399004E2,1.0644258E3,1.0514977E2,1.9361755E2,3.657138E2,5.249922E2,2.7856638E2,3.1147495E2,1.8529308E1],"tree_param":{"num_deleted":"0","num_feature":"10","num_nodes":"63","size_leaf_vector":"1"}},{"base_weights":[1.8236035E-3,-1.7310251E-1,4.7971714E-1,-2.3552114E-1,1.3660645E-1,3.1783637E-1,8.218765E-1,-3.57693E-1,-1.1488509E-1,-9.8406516E-2,3.6283743E-1,6.2101996E-1,2.3308475E-1,6.8496305E-1,9.831106E-1,-3.8634813E-1,5.203396E-2,9.859681E-2,-2.577056E-1,-1.6947691E-1,1.999236E-1,4.5576832E-1,-5.604678E-2,8.1112313E-1,5.431423E-1,1.4520393E-1,4.3275023E-1,8.129176E-1,5.656664E-1,1.0875407E0,9.218474E-1,-1.6724337E-2,-9.968239E-3,1.4484217E-2,-1.8551388E-3,1.0325331E-2,2.094495E-5,-1.176454E-2,-3.5588539E-3,-1.7701201E-2,-4.0441533E-3,-1.0890183E-2,1.0802094E-2,1.2378755E-2,3.4044508E-2,1.5237476E-2,-6.524109E-3,-2.2130692E-2,2.751694E-2,1.3982724E-2,2.3007594E-2,7.309454E-3,8.3230063E-4,1.7467052E-2,9.0806E-3,3.562592E-2,2.5658755E-2,1.7529186E-2,3.2236442E-2,3.7489925E-2,2.9332057E-2,3.1388156E-2,1.1416883E-2],"categories":[],"categories_nodes":[],"categories_segments":[],"categories_sizes":[],"default_left":[0,0,0,0,0,0,0,0,0,0,0,0,0,0,0,0,0,0,0,0,0,0,0,0,0,0,0,0,0,0,0,0,0,0,0,0,0,0,0,0,0,0,0,0,0,0,0,0,0,0,0,0,0,0,0,0,0,0,0,0,0,0,0],"id":20,"left_children":[1,3,5,7,9,11,13,15,17,19,21,23,25,27,29,31,33,35,37,39,41,43,45,47,49,51,53,55,57,59,61,-1,-1,-1,-1,-1,-1,-1,-1,-1,-1,-1,-1,-1,-1,-1,-1,-1,-1,-1,-1,-1,-1,-1,-1,-1,-1,-1,-1,-1,-1,-1,-1],"loss_changes":[2.7543645E3,4.6630676E2,4.8875232E2,2.9582263E2,2.1516913E2,1.5389484E2,6.190625E1,1.1711401E2,3.0803683E2,4.2130135E1,8.029016E1,1.8940186E1,8.217476E1,2.2991821E1,7.3112793E0,9.328589E1,2.6693989E1,8.3183075E1,8.568088E1,2.8003582E1,2.4710796E1,8.120026E1,2.6684862E1,6.291565E0,1.6544342E1,2.8601387E1,2.0388336E1,7.878784E0,1.29171295E1,2.2024536E0,6.9542847E0,0E0,0E0,0E0,0E0,0E0,0E0,0E0,0E0,0E0,0E0,0E0,0E0,0E0,0E0,0E0,0E0,0E0,0E0,0E0,0E0,0E0,0E0,0E0,0E0,0E0,0E0,0E0,0E0,0E0,0E0,0E0,0E0],"parents":[2147483647,0,0,1,1,2,2,3,3,4,4,5,5,6,6,7,7,8,8,9,9,10,10,11,11,12,12,13,13,14,14,15,15,16,16,17,17,18,18,19,19,20,20,21,21,22,22,23,23,24,24,25,25,26,26,27,27,28,28,29,29,30,30],"right_children":[2,4,6,8,10,12,14,16,18,20,22,24,26,28,30,32,34,36,38,40,42,44,46,48,50,52,54,56,58,60,62,-1,-1,-1,-1,-1,-1,-1,-1,-1,-1,-1,-1,-1,-1,-1,-1,-1,-1,-1,-1,-1,-1,-1,-1,-1,-1,-1,-1,-1,-1,-1,-1],"split_conditions":[-4.267359E0,6.688509E0,-2.160602E0,-6.3907638E0,2.1386188E2,1.6658254E-2,-7.9080653E-1,-2.4565575E-1,1.48768015E-2,1.2695546E1,3.211567E2,-8.39957E-2,-3.0264153E0,1.1283128E-1,8.1268586E-2,2.19E2,-1.0834156E-1,-1.19805396E-1,-5.013908E0,-8.70354E0,3.517137E1,1.3200114E1,2.000122E-1,-4.869233E-1,-3.456935E0,1.5085575E-1,1.5543644E-1,-4.7476634E-2,3.33E2,-2.1019553E-1,-2.2997032E-1,-1.6724337E-2,-9.968239E-3,1.4484217E-2,-1.8551388E-3,1.0325331E-2,2.094495E-5,-1.176454E-2,-3.5588539E-3,-1.7701201E-2,-4.0441533E-3,-1.0890183E-2,1.0802094E-2,1.2378755E-2,3.4044508E-2,1.5237476E-2,-6.524109E-3,-2.2130692E-2,2.751694E-2,1.3982724E-2,2.3007594E-2,7.309454E-3,8.3230063E-4,1.7467052E-2,9.0806E-3,3.562592E-2,2.5658755E-2,1.7529186E-2,3.2236442E-2,3.7489925E-2,2.9332057E-2,3.1388156E-2,1.1416883E-2],"split_indices":[8,1,8,8,2,7,8,6,7,1,2,7,8,7,7,0,7,7,8,8,2,1,4,6,8,7,7,7,0,6,6,0,0,0,0,0,0,0,0,0,0,0,0,0,0,0,0,0,0,0,0,0,0,0,0,0,0,0,0,0,0,0,0],"split_type":[0,0,0,0,0,0,0,0,0,0,0,0,0,0,0,0,0,0,0,0,0,0,0,0,0,0,0,0,0,0,0,0,0,0,0,0,0,0,0,0,0,0,0,0,0,0,0,0,0,0,0,0,0,0,0,0,0,0,0,0,0,0,0],"sum_hessian":[3.2946508E4,2.41188E4,8.827706E3,2.0073445E4,4.0453555E3,5.993853E3,2.833853E3,9.972264E3,1.0101183E4,1.9844436E3,2.0609119E3,1.3080854E3,4.6857676E3,1.5353469E3,1.2985061E3,9.320473E3,6.5179047E2,4.049089E3,6.0520933E3,1.6029976E3,3.8144598E2,1.6866376E3,3.7427423E2,3.7740533E2,9.3068005E2,3.2548877E3,1.4308799E3,7.379869E2,7.973601E2,4.7391394E2,8.2459216E2,4.100409E3,5.220064E3,1.4286823E2,5.089222E2,1.288921E3,2.7601682E3,3.741372E3,2.3107214E3,1.9049896E2,1.4124985E3,7.187148E1,3.095745E2,1.463199E3,2.2343854E2,7.943024E1,2.94844E2,2.18975E0,3.7521558E2,4.9845007E2,4.3223E2,2.0255311E3,1.2293564E3,9.2258746E2,5.0829236E2,1.13015205E2,6.249717E2,7.224904E2,7.486966E1,4.0865207E2,6.526187E1,8.030228E2,2.156932E1],"tree_param":{"num_deleted":"0","num_feature":"10","num_nodes":"63","size_leaf_vector":"1"}},{"base_weights":[3.23719E-4,-1.3331206E-1,5.888272E-1,-1.9486363E-1,1.361871E-1,4.399165E-1,8.6230737E-1,-2.6505682E-1,9.219949E-2,3.65549E-1,-2.562415E-2,5.99887E-1,3.099962E-1,7.4182206E-1,9.7597605E-1,-3.6931592E-1,-1.7067349E-1,-1.3042346E-1,3.1769878E-1,6.524894E-1,2.9213676E-1,-1.1207946E-1,8.9308634E-2,8.8663507E-1,5.3069484E-1,2.2600639E-1,4.2593986E-1,8.507851E-1,6.178586E-1,9.8101294E-1,1.1744981E-1,-1.3637647E-2,-2.3450698E-3,2.7346048E-3,-9.849819E-3,-8.178933E-3,3.1433194E-3,1.3876269E-2,-5.128671E-3,1.7140416E-2,2.8296454E-2,7.2658365E-3,1.6575504E-2,-3.2277888E-4,-7.2846967E-3,-1.1389787E-4,1.1617011E-2,2.6753735E-2,3.6229674E-2,1.9479128E-2,1.081721E-2,5.8073658E-3,1.9373974E-2,1.807133E-2,1.0692504E-2,2.1795437E-2,3.240488E-2,1.8793205E-2,3.7382107E-2,3.174427E-2,3.7885077E-2,1.832954E-2,-2.7214171E-2],"categories":[],"categories_nodes":[],"categories_segments":[],"categories_sizes":[],"default_left":[0,0,0,0,0,0,0,0,0,0,0,0,0,0,0,0,0,0,0,0,0,0,0,0,0,0,0,0,0,0,0,0,0,0,0,0,0,0,0,0,0,0,0,0,0,0,0,0,0,0,0,0,0,0,0,0,0,0,0,0,0,0,0],"id":21,"left_children":[1,3,5,7,9,11,13,15,17,19,21,23,25,27,29,31,33,35,37,39,41,43,45,47,49,51,53,55,57,59,61,-1,-1,-1,-1,-1,-1,-1,-1,-1,-1,-1,-1,-1,-1,-1,-1,-1,-1,-1,-1,-1,-1,-1,-1,-1,-1,-1,-1,-1,-1,-1,-1],"loss_changes":[2.583655E3,4.441333E2,2.4720117E2,4.3919598E2,1.847731E2,8.166388E1,2.8614502E1,1.7227258E2,2.150557E2,4.319046E1,2.9024405E1,3.4526978E1,2.1087036E1,1.3577393E1,4.6378174E0,9.410803E1,2.8619464E2,5.5014355E1,9.6787125E1,1.0901703E1,2.4925705E1,1.7993729E1,2.9937878E1,4.990082E0,1.483844E1,2.333828E1,1.0888504E1,1.2273407E1,1.3304611E1,4.395508E0,3.460161E0,0E0,0E0,0E0,0E0,0E0,0E0,0E0,0E0,0E0,0E0,0E0,0E0,0E0,0E0,0E0,0E0,0E0,0E0,0E0,0E0,0E0,0E0,0E0,0E0,0E0,0E0,0E0,0E0,0E0,0E0,0E0,0E0],"parents":[2147483647,0,0,1,1,2,2,3,3,4,4,5,5,6,6,7,7,8,8,9,9,10,10,11,11,12,12,13,13,14,14,15,15,16,16,17,17,18,18,19,19,20,20,21,21,22,22,23,23,24,24,25,25,26,26,27,27,28,28,29,29,30,30],"right_children":[2,4,6,8,10,12,14,16,18,20,22,24,26,28,30,32,34,36,38,40,42,44,46,48,50,52,54,56,58,60,62,-1,-1,-1,-1,-1,-1,-1,-1,-1,-1,-1,-1,-1,-1,-1,-1,-1,-1,-1,-1,-1,-1,-1,-1,-1,-1,-1,-1,-1,-1,-1,-1],"split_conditions":[-3.5464265E0,-4.759575E0,-1.6915169E0,6.506998E0,6.8068065E-2,9.911362E-2,-5.3488225E-1,-6.651573E0,2.170527E2,-8.39957E-2,2.170527E2,-4.7476634E-2,-2.6870232E0,1.23774186E-1,1.0527901E1,-2.8429118E-1,-3.9761093E-2,1.0272117E1,3.2613138E2,2.435896E2,4.6386766E0,1.44867E-1,4.16295E0,5.95483E2,-2.6775244E-1,3.1E2,1.5543644E-1,2.0841627E0,3.33E2,2.4321098E0,1.8952544E2,-1.3637647E-2,-2.3450698E-3,2.7346048E-3,-9.849819E-3,-8.178933E-3,3.1433194E-3,1.3876269E-2,-5.128671E-3,1.7140416E-2,2.8296454E-2,7.2658365E-3,1.6575504E-2,-3.2277888E-4,-7.2846967E-3,-1.1389787E-4,1.1617011E-2,2.6753735E-2,3.6229674E-2,1.9479128E-2,1.081721E-2,5.8073658E-3,1.9373974E-2,1.807133E-2,1.0692504E-2,2.1795437E-2,3.240488E-2,1.8793205E-2,3.7382107E-2,3.174427E-2,3.7885077E-2,1.832954E-2,-2.7214171E-2],"split_indices":[8,8,8,1,7,7,8,8,2,7,2,7,8,7,3,6,7,1,2,2,1,7,1,9,6,0,7,1,0,8,2,0,0,0,0,0,0,0,0,0,0,0,0,0,0,0,0,0,0,0,0,0,0,0,0,0,0,0,0,0,0,0,0],"split_type":[0,0,0,0,0,0,0,0,0,0,0,0,0,0,0,0,0,0,0,0,0,0,0,0,0,0,0,0,0,0,0,0,0,0,0,0,0,0,0,0,0,0,0,0,0,0,0,0,0,0,0,0,0,0,0,0,0,0,0,0,0,0,0],"sum_hessian":[3.285007E4,2.6771617E4,6.0784536E3,2.1794252E4,4.9773647E3,3.9372302E3,2.1412234E3,1.7512213E4,4.28204E3,2.0583977E3,2.918967E3,1.7629266E3,2.1743037E3,1.0430977E3,1.0981257E3,8.3194E3,9.1928125E3,2.1549746E3,2.1270654E3,4.1773663E2,1.6406611E3,1.6658774E3,1.2530897E3,3.4040326E2,1.4225234E3,1.2626135E3,9.116901E2,5.520162E2,4.910815E2,1.0915789E3,6.5468507E0,7.386229E3,9.3317096E2,3.0189153E3,6.173897E3,1.4297583E3,7.2521643E2,1.7652177E3,3.6184784E2,2.4323024E2,1.745064E2,1.1980283E3,4.4263287E2,8.452839E2,8.205936E2,9.220793E2,3.310104E2,2.380531E2,1.0235017E2,1.1415942E3,2.8092914E2,1.0997924E3,1.6282118E2,4.398322E2,4.718579E2,2.056084E2,3.4640778E2,4.4269183E2,4.8389687E1,8.98853E2,1.927258E2,4.759027E0,1.7878238E0],"tree_param":{"num_deleted":"0","num_feature":"10","num_nodes":"63","size_leaf_vector":"1"}},{"base_weights":[2.309404E-4,-1.2932082E-1,5.733107E-1,-2.1300656E-1,6.522394E-2,4.2434588E-1,8.497693E-1,-2.8649434E-1,6.613626E-2,2.809106E-1,-9.209219E-2,3.0945113E-1,6.3075966E-1,7.267604E-1,9.656863E-1,-3.922448E-1,-2.1988183E-1,1.6221729E-1,-2.4410987E-1,2.0488274E-1,6.189782E-1,-2.5021428E-1,-9.6140485E-3,1.8690255E-1,3.8218075E-1,8.784542E-1,5.5709904E-1,5.9335494E-1,8.475849E-1,8.1471235E-1,1.0252899E0,-1.630782E-2,-5.8030277E-3,-2.1277415E-3,-1.3288404E-2,1.4453613E-3,1.4899197E-2,-1.1434147E-2,2.4206564E-3,1.7705151E-3,1.0659729E-2,1.3167511E-2,2.511657E-2,2.4063285E-2,-9.488877E-3,-1.8232339E-3,4.558154E-3,1.1509165E-2,2.8753893E-3,1.3878305E-2,1.3860833E-6,2.662705E-2,3.600472E-2,1.3764416E-2,2.2479063E-2,2.4275428E-2,1.4167255E-2,3.044882E-2,2.3109548E-2,2.773639E-2,-4.983624E-2,3.2444067E-2,3.805445E-2],"categories":[],"categories_nodes":[],"categories_segments":[],"categories_sizes":[],"default_left":[0,0,0,0,0,0,0,0,0,0,0,0,0,0,0,0,0,0,0,0,0,0,0,0,0,0,0,0,0,0,0,0,0,0,0,0,0,0,0,0,0,0,0,0,0,0,0,0,0,0,0,0,0,0,0,0,0,0,0,0,0,0,0],"id":22,"left_children":[1,3,5,7,9,11,13,15,17,19,21,23,25,27,29,31,33,35,37,39,41,43,45,47,49,51,53,55,57,59,61,-1,-1,-1,-1,-1,-1,-1,-1,-1,-1,-1,-1,-1,-1,-1,-1,-1,-1,-1,-1,-1,-1,-1,-1,-1,-1,-1,-1,-1,-1,-1,-1],"loss_changes":[2.4371133E3,4.3590277E2,2.4889612E2,3.8405023E2,2.7329425E2,9.313049E1,2.9502808E1,1.0430762E2,1.16359665E2,8.718274E1,6.0741905E1,2.2477997E1,2.5166931E1,1.6127747E1,8.951172E0,1.1852704E2,2.5140811E2,1.0024352E2,2.8419724E1,4.7792603E1,1.8120087E1,5.1314972E1,1.9998972E1,1.4921558E1,1.9475891E1,4.4070435E0,1.7826874E1,1.0742874E1,4.591614E0,1.0796173E1,3.7755737E0,0E0,0E0,0E0,0E0,0E0,0E0,0E0,0E0,0E0,0E0,0E0,0E0,0E0,0E0,0E0,0E0,0E0,0E0,0E0,0E0,0E0,0E0,0E0,0E0,0E0,0E0,0E0,0E0,0E0,0E0,0E0,0E0],"parents":[2147483647,0,0,1,1,2,2,3,3,4,4,5,5,6,6,7,7,8,8,9,9,10,10,11,11,12,12,13,13,14,14,15,15,16,16,17,17,18,18,19,19,20,20,21,21,22,22,23,23,24,24,25,25,26,26,27,27,28,28,29,29,30,30],"right_children":[2,4,6,8,10,12,14,16,18,20,22,24,26,28,30,32,34,36,38,40,42,44,46,48,50,52,54,56,58,60,62,-1,-1,-1,-1,-1,-1,-1,-1,-1,-1,-1,-1,-1,-1,-1,-1,-1,-1,-1,-1,-1,-1,-1,-1,-1,-1,-1,-1,-1,-1,-1,-1],"split_conditions":[-3.5464265E0,-5.3479953E0,-1.6915169E0,6.506998E0,5.9596434E-2,2.4546485E-1,-5.3488225E-1,-7.196921E0,-4.3565348E-2,5.3295255E-1,-4.759575E0,-3.0264153E0,-4.9097776E-2,1.8178904E-1,1.392663E-1,-3.5200438E-1,-5.8466126E-3,-6.651573E0,-3.2725167E-1,-4.7320004E0,3.3472507E0,9.0427294E-2,4.16295E0,2.09E2,9.031157E0,5.95483E2,-2.9549246E0,2.33E2,6.3E2,1.085702E1,2.7180162E-1,-1.630782E-2,-5.8030277E-3,-2.1277415E-3,-1.3288404E-2,1.4453613E-3,1.4899197E-2,-1.1434147E-2,2.4206564E-3,1.7705151E-3,1.0659729E-2,1.3167511E-2,2.511657E-2,2.4063285E-2,-9.488877E-3,-1.8232339E-3,4.558154E-3,1.1509165E-2,2.8753893E-3,1.3878305E-2,1.3860833E-6,2.662705E-2,3.600472E-2,1.3764416E-2,2.2479063E-2,2.4275428E-2,1.4167255E-2,3.044882E-2,2.3109548E-2,2.773639E-2,-4.983624E-2,3.2444067E-2,3.805445E-2],"split_indices":[8,8,8,1,7,5,8,8,7,5,8,8,7,5,5,6,7,8,6,8,1,5,1,0,3,9,8,0,9,3,5,0,0,0,0,0,0,0,0,0,0,0,0,0,0,0,0,0,0,0,0,0,0,0,0,0,0,0,0,0,0,0,0],"split_type":[0,0,0,0,0,0,0,0,0,0,0,0,0,0,0,0,0,0,0,0,0,0,0,0,0,0,0,0,0,0,0,0,0,0,0,0,0,0,0,0,0,0,0,0,0,0,0,0,0,0,0,0,0,0,0,0,0,0,0,0,0,0,0],"sum_hessian":[3.2823957E4,2.677248E4,6.0514756E3,1.8719828E4,8.052652E3,3.9341592E3,2.1173164E3,1.4818618E4,3.90121E3,3.395922E3,4.6567295E3,2.528973E3,1.4051863E3,1.0307615E3,1.0865549E3,5.72501E3,9.093608E3,2.9790854E3,9.221245E2,2.7737424E3,6.2217957E2,1.5956373E3,3.0610923E3,9.4322296E2,1.58575E3,3.195907E2,1.0855956E3,4.926855E2,5.38076E2,3.116995E2,7.748554E2,3.997447E3,1.7275627E3,4.8265337E3,4.267075E3,2.0966946E3,8.8239087E2,7.052964E2,2.1682808E2,1.1852744E3,1.588468E3,2.2963242E2,3.9254712E2,5.1968513E1,1.5436688E3,2.341469E3,7.196233E2,3.689192E2,5.7430383E2,1.4627218E3,1.2302816E2,2.2772209E2,9.1868614E1,4.7753802E2,6.0805756E2,2.764303E2,2.1625517E2,3.8389322E2,1.5418282E2,3.1054813E2,1.1513729E0,5.1871063E2,2.561448E2],"tree_param":{"num_deleted":"0","num_feature":"10","num_nodes":"63","size_leaf_vector":"1"}},{"base_weights":[1.0471956E-3,-1.2121935E-1,5.6124896E-1,-2.1988629E-1,3.7246026E-2,4.143095E-1,8.2382244E-1,-3.0539843E-1,4.192015E-2,2.880545E-1,-8.3779044E-2,3.02209E-1,6.1830235E-1,6.9710743E-1,9.4451386E-1,-2.2532858E-1,-4.0290907E-1,-1.504401E-1,2.4711953E-1,2.4105959E-1,6.5870416E-1,-2.2415423E-1,2.6161065E-2,1.753468E-1,3.7049705E-1,8.6038595E-1,5.374228E-1,5.626141E-1,8.2095397E-1,8.451892E-1,1.0412905E0,-1.2686915E-2,-1.3931576E-3,7.4502826E-3,-1.4619161E-2,-7.825803E-3,4.700011E-3,1.1488564E-2,-6.3195215E-3,4.625307E-3,1.3275757E-2,1.51101155E-2,3.2235075E-2,-9.789557E-3,-1.5945672E-3,3.4934678E-3,-3.8966467E-3,6.214553E-3,-3.7086617E-2,1.3390408E-2,-3.0826931E-4,2.9500004E-2,-9.952448E-4,1.2942035E-2,2.15255E-2,2.0052062E-2,-1.7656708E-3,2.9560294E-2,2.2271125E-2,1.4144458E-2,2.9228082E-2,3.5408117E-2,2.4498537E-2],"categories":[],"categories_nodes":[],"categories_segments":[],"categories_sizes":[],"default_left":[0,0,0,0,0,0,0,0,0,0,0,0,0,0,0,0,0,0,0,0,0,0,0,0,0,0,0,0,0,0,0,0,0,0,0,0,0,0,0,0,0,0,0,0,0,0,0,0,0,0,0,0,0,0,0,0,0,0,0,0,0,0,0],"id":23,"left_children":[1,3,5,7,9,11,13,15,17,19,21,23,25,27,29,31,33,35,37,39,41,43,45,47,49,51,53,55,57,59,61,-1,-1,-1,-1,-1,-1,-1,-1,-1,-1,-1,-1,-1,-1,-1,-1,-1,-1,-1,-1,-1,-1,-1,-1,-1,-1,-1,-1,-1,-1,-1,-1],"loss_changes":[2.242756E3,4.202489E2,2.2598999E2,3.708485E2,3.131079E2,8.587152E1,3.1516846E1,9.739734E1,1.6104921E2,5.832202E1,1.0738787E2,2.0992035E1,2.5650513E1,1.6696594E1,9.450439E0,1.9330344E2,1.1803314E2,5.0965275E1,8.251176E1,4.7609512E1,2.3342987E1,3.6723434E1,4.34591E1,1.1326008E1,1.7535492E1,6.0188446E0,1.5676483E1,1.1037445E1,4.540436E0,5.8254395E0,1.8591919E0,0E0,0E0,0E0,0E0,0E0,0E0,0E0,0E0,0E0,0E0,0E0,0E0,0E0,0E0,0E0,0E0,0E0,0E0,0E0,0E0,0E0,0E0,0E0,0E0,0E0,0E0,0E0,0E0,0E0,0E0,0E0,0E0],"parents":[2147483647,0,0,1,1,2,2,3,3,4,4,5,5,6,6,7,7,8,8,9,9,10,10,11,11,12,12,13,13,14,14,15,15,16,16,17,17,18,18,19,19,20,20,21,21,22,22,23,23,24,24,25,25,26,26,27,27,28,28,29,29,30,30],"right_children":[2,4,6,8,10,12,14,16,18,20,22,24,26,28,30,32,34,36,38,40,42,44,46,48,50,52,54,56,58,60,62,-1,-1,-1,-1,-1,-1,-1,-1,-1,-1,-1,-1,-1,-1,-1,-1,-1,-1,-1,-1,-1,-1,-1,-1,-1,-1,-1,-1,-1,-1,-1,-1],"split_conditions":[-3.4992318E0,-5.7182174E0,-1.6915169E0,5.88038E0,1.48768015E-2,2.4546485E-1,-5.3488225E-1,-5.8682058E-2,2.170527E2,7.9628234E0,-4.7843018E0,-3.0264153E0,-4.1671347E-2,1.8178904E-1,1.8336888E-1,-7.196921E0,1.10284165E-1,1.1640713E1,-3.9761093E-2,-4.759575E0,5.4353285E0,2.61E2,1.5085575E-1,3.4587378E2,9.186297E0,1.0396635E3,-2.9549246E0,9.330463E0,6.3E2,6.708204E1,3.92E2,-1.2686915E-2,-1.3931576E-3,7.4502826E-3,-1.4619161E-2,-7.825803E-3,4.700011E-3,1.1488564E-2,-6.3195215E-3,4.625307E-3,1.3275757E-2,1.51101155E-2,3.2235075E-2,-9.789557E-3,-1.5945672E-3,3.4934678E-3,-3.8966467E-3,6.214553E-3,-3.7086617E-2,1.3390408E-2,-3.0826931E-4,2.9500004E-2,-9.952448E-4,1.2942035E-2,2.15255E-2,2.0052062E-2,-1.7656708E-3,2.9560294E-2,2.2271125E-2,1.4144458E-2,2.9228082E-2,3.5408117E-2,2.4498537E-2],"split_indices":[8,8,8,1,7,